#include "Mnist_coefficient.hpp"
using namespace dl;

namespace Mnist_coefficient
{
    const static __attribute__((aligned(16))) int16_t statefulpartitionedcall_model_conv2d_conv2d_filter_element[] = {
          4319,   9134,  -1305, -11930,  -4733,   3969,   2895, -21094,   2946,  -4260,   8643,   5225,   7032,  -8771,  19349,   9166,   6180,   3345,  14974,  -9596,  -4538,   6161,  10073,    -73, -12427,  -1296, -10616,   -985,    237,  10698, -18557,    358,   2065,   1035,   1884,  16482,      0,      0,      0,      0,      0,      0,      0,      0,      0,      0,      0,      0};

    const static Filter<int16_t> statefulpartitionedcall_model_conv2d_conv2d_filter(statefulpartitionedcall_model_conv2d_conv2d_filter_element, -19, {1, 9, 1, 4}, {1, 1});
    const Filter<int16_t> *get_statefulpartitionedcall_model_conv2d_conv2d_filter()
    {
    	return &statefulpartitionedcall_model_conv2d_conv2d_filter;
    }

    const static __attribute__((aligned(16))) int16_t statefulpartitionedcall_model_conv2d_conv2d_bias_element[] = {
           264,   -777,    123,   -219};

    const static Bias<int16_t> statefulpartitionedcall_model_conv2d_conv2d_bias(statefulpartitionedcall_model_conv2d_conv2d_bias_element, -10, {4,});
    const Bias<int16_t> *get_statefulpartitionedcall_model_conv2d_conv2d_bias()
    {
    	return &statefulpartitionedcall_model_conv2d_conv2d_bias;
    }

    const static Activation<int16_t> statefulpartitionedcall_model_conv2d_conv2d_activation(ReLU);
    const Activation<int16_t> *get_statefulpartitionedcall_model_conv2d_conv2d_activation()
    {
    	return &statefulpartitionedcall_model_conv2d_conv2d_activation;
    }

    const static __attribute__((aligned(16))) int16_t statefulpartitionedcall_model_conv2d_1_conv2d_filter_element[] = {
         -5513,  -3578,   4262,  12707,   -446,  -4327,  -6172,   6078,   -847,   1098,  13087, -10134,  15453,  -6698,  -1119,   7719,    485,    763,  -1567, -13256,  -4993,   5170,  -1921,   8930,  15639,  -3443,  -6229,   3457,    611,  -9453,   5110,  -4753,   3274,   9953,  10806,   9222, -20435,   5637, -13490,    622,   3985, -14955,   4191,  12908,  -8169, -17001,  -2024,  10145,   1835,  -4037, -11781, -14546, -17501,    445,  14037, -13637, -16411,   -161,   2213,   9044,  -4360, -16936,   3898, -10776,  17516,   4022,   -385,   1154,  -6877,  -5389,  -5263, -11330,   8633,  16517,  18773,   2501,   9864,  -3947, -13231, -11120,  -7853,  -4320,  10309,  -8767,   9961, -14464,   2538,  -6466,   -384,  -6816,  -3610,  11513, -14904,  -4493,  -1301, -15219,  -3269,   4158,  13395,   9017,  -3422,   4304,   7636,  16325,  13510,   9951, -11278,  14001,   1131,   -132,  21591,    316,  -1782,  -9523, -14337,  -9716,    475,   7094,  -8848,  19617,  -6681,  13013,  -6934,  -2345,   7085,  -6893, -12289,  -7961,  -4797,   9579,   6257,   9159,   1147, -10449,   5965,  -5425,  12595,  11392, -11187,  -8539,  -3418,  -2983, -14380, -13602,   2369,  -7869,  -8869,   9226, -23459,  17034,  19349,   1080, -11776, -17857,  14346,  22818,  -3130,  15185, -12449,  17432, -18322, -10166,  -9709,   7959,   3351,  23084,   7188,  -6967,  21771,  -4775,   1513,     37,  20494,  11348, -20722,  -1391,   1399,  -9045,   1668,   -579,   8251,   5516,  -2554,  14698,   4414,   2041, -14893,  -6866, -15585,  -6018,  -7081, -11676,   -534,   9372,  -3861, -10291,   -938,  15078,  -7922,  -1323,  -3511,  -3526,   2037,   9503, -18693,  -9207, -19126,    718,  -8767,  16890,   9430,  -2208, -11202,  18896,   2535,  11820, -11635,  16764,  -6345,   4018, -10220, -12831,  -4021,   4521,  10978,   5117, -10034,   8964,  -8912,  -1286,  -3065, -19697,   6047, -16684,  -5556, -19999,  -3290, -13558,   5543, -12105,  14196,  21868,  -2540,   7642,  -2805,  -6455,  11062,  -4681,   7569,   6709,   4826,  -5783, -16017,  11692, -19623,  -5811,   5028,  10795,  -6102,   1085, -10310,    809,  -7053,  11375,  13425,   3465,  20305, -18623,  -4800,   -514,  20318,  -6879, -11810,  -1402,   -474,   4130,  -7989,  23488,   2900,  19533,  17855,   9517,   8024,   5561, -21244,   6223,   4775,  11390,  14635, -14434,   7235,  -5143,  -6431,  -3766,  22999, -14882,  17895,  16325,  -1047,   1531,   6954, -20033, -21147, -13669,  -8043, -17439,   8872,  -2731, -18703,   4399,  11196, -14865,  11434,   8682,   2275,  11468,   5082,   3688,   6343,  -1749};

    const static Filter<int16_t> statefulpartitionedcall_model_conv2d_1_conv2d_filter(statefulpartitionedcall_model_conv2d_1_conv2d_filter_element, -15, {1, 5, 4, 16}, {1, 1});
    const Filter<int16_t> *get_statefulpartitionedcall_model_conv2d_1_conv2d_filter()
    {
    	return &statefulpartitionedcall_model_conv2d_1_conv2d_filter;
    }

    const static __attribute__((aligned(16))) int16_t statefulpartitionedcall_model_conv2d_1_conv2d_bias_element[] = {
            -1,    -15,     56,      4,     22,    -52,      6,     -2,    -16,     24,      4,     85,    -23,    -43,    -67,     33};

    const static Bias<int16_t> statefulpartitionedcall_model_conv2d_1_conv2d_bias(statefulpartitionedcall_model_conv2d_1_conv2d_bias_element, -10, {16,});
    const Bias<int16_t> *get_statefulpartitionedcall_model_conv2d_1_conv2d_bias()
    {
    	return &statefulpartitionedcall_model_conv2d_1_conv2d_bias;
    }

    const static Activation<int16_t> statefulpartitionedcall_model_conv2d_1_conv2d_activation(ReLU);
    const Activation<int16_t> *get_statefulpartitionedcall_model_conv2d_1_conv2d_activation()
    {
    	return &statefulpartitionedcall_model_conv2d_1_conv2d_activation;
    }

    const static __attribute__((aligned(16))) int16_t statefulpartitionedcall_model_conv2d_2_conv2d_filter_element[] = {
         -5779,   5754,  15444,  -4798,   4200, -10910,  13116,   8475, -17497,  20741,    848,  23549, -29831, -15686,   4514, -12877,  10536,  -8726,  15143,  13902, -10633, -10388,   9455, -14453,  -2415, -16002,  21928,  15690,   2615,   4256,  23713, -12583,  -7571, -16349,   1606,   4374,  14152,   7938,  -7012,  13902, -25467,  25325,   6250,   5878, -15020,   5334, -13081,   3355,    529, -10621,   7245,  -8803,   9743,  20730,  12059,  -9178,  -2589,  -4284,   1073,   -118, -11782,    283,   3384,   5453, -10560, -14683,  20249,  22788,   5735,   9527,  10986, -12688,   2594,  15702,   6220,  -8616,  11340,  17884,   2171,   9977, -12728,  -2951,  18587,  25716,  22377,  16264,   9543, -18837, -10280,  12038,   3649,  25966, -13196,   6887, -20425,  12214,  -4884, -18412,  21790,  23267,   -164,  22248, -18070, -15476, -10543,   -246,    708,   1493,   6193,  28423, -13260,  22380,   -262, -17351,  17122,  12295, -18247,   4028, -10051,   2092, -19366,   2287,  17048,  -3167,  -5568,  11975,   1494, -18630,   2053,  20854,  -4609,  26361,  16572,  -1062,   3557, -15923,  -4499,  11971,   5404, -16267,  -5087,  27713, -22237,  -7808,  20884, -29830,  -7138,  11008,  18063,   -781,   9185,   4092,    831,  -5043,  -2566,  24061,  21477,  -5642,  18165,  16715,   8084,  -9236,  13099,  -3920,  -9662,   4218,   4796,   3634,   8771,  21815, -21380,  -3217, -12321,   3815,  -4579, -13435,  -2367,  13365, -12364, -13126,  19883, -13206,  23114,  -2501, -10085,  13239, -19277,  -4916,  -9599,  -7286,  -8484,  -8687,   1286,  -6418,  13537,   7568,  -7302,  15338,  30303,  -2320,   8420, -26857, -15448,  -9409, -14862, -17394,  21279,   4541,  -8592,  30647,  -2402,   3134,   6413,  -8578,  20843,  19662,   2764,  -2434,   6926, -28027,  -4494,  -2189,   3537, -18236,  21688,    924,   8868,  -2601, -14764,   3896,  14226,  -3512,  10725, -11981,   4037, -17173,   9944,  28448,  19956,   5142,  19064,  -1216,   6972,  -3926,   2388, -22849, -12538, -11093,    711, -24210,   9835, -23113,   1512, -11453, -19453,  17124,  11152,  -5527,  18489,  -9804,   8170, -11656,  -6353, -18265, -22765, -10388, -18090,  23518,  12393, -21468,  -9066,   3006,  27934,   7478, -15226, -13465, -29848,  22189,  18495,  22947,  11133,  -8873,  -1161,   2524,  -1887,   7011, -14107, -25234, -26478,  -7814, -13873, -15753,   3813,  -9407,   5270,  10613,   2364, -10280,  -9485,  -7882, -23338,  14285,  -5765,   9126, -12196,   3548, -12814, -13566, -25332,  27529,  24625,  -5617,   8311,  -4353,  17409,  14618,  -6491, -14242,   8578,  16334,  -3793,  -2400,  21848,   4563,  -7331,  13907,  -8402,   2984,   2185,   6082,  12077,  -8918, -15405,   5473,  10753,  10230,  13752, -23728, -10010,  -9355,   7890,  19474,   3011,  -1271,  10087,  -9327, -16301,   9947, -25025,  15815,   9071,   8779,  16530, -23922,   2539,  27943, -15659,  -7683, -14895,  11469,  -6874,  26267,   7963,    392,  -9660,   9828,    182,   5955,  -7112, -16779,   5184,  14083, -29954,  -7954, -18753,  -9190,   3801,  27990,  -6695,  19759,  22348,  13093,   6027, -13086, -27031,  -2604,  19784,    236,   8143,   4136,  12357,  16986,  18424,  -1661, -11579,  -6203,  18524,  -7092,  -5869,    600,  -2366,   -293, -11456,   5173,   9755,  -1343,  25885,   8616, -10177, -28636,  -4013,   5408, -25822, -17016,  11988,  20340,  18986,   6673,   3416,   3791,  -3831,   8687, -20598,    424,  12582,  22492,  10611,  -8319,   7830, -10068,  -1627,  24639,  29961,  17000, -11464,  -6719,  -6371, -14704,    383,  16654,  10541,   2115,    788,   2648,   2874, -26561,  12912, -10187, -15656,   -197, -16372,  -7116,  -5533,   7424,   4642,   4287, -10028, -12842, -11191,  18724,    383,  -8461,  -7861,   2230,  -5397,  28028, -16573,  18865,  -4495,   2407,  -1239,   -968,  -6844, -15871,   1787,   6295, -17322,  -4481,   3239,  17733,  30073,  -6646, -29137, -18743, -11434,  14400,   4686,  -4848,  14900, -21363,  25379,  -3602,   7464,   6059, -15433,  20562,  -8258, -26809,  15343,  31163, -14764,  -8058, -13918,  24074,   4203,  17618,   3750, -10040,  -2679, -19931,  -6946, -17899,
          7957,  -4451,  13941, -13055,  -3922,  -5083, -13287, -27230,  -6030,  -4413,  -7652,  15900,  -9340,  21639, -13252,  -6256,    312,  -4629,    904, -26365, -13987, -14499,   9017,  -1959,   5643,  -7114,  15737,  -6148,  11229,  20457,  13816, -19013,  -2132, -20345, -17833,  -4533,  13412, -30474,  -3159, -11574,   2163,  24214, -10448, -14213, -12110,   -512,   7042,  25827,   1527,   1936,   1895,   -840, -11301, -23327,  -6843,  -4755,   6006,  -4374,  20476,  -7160, -16023, -10124,  19615, -13550,  28439, -16733, -10939, -18960, -20720,   3438,  10045,   -982, -28919,  16172,  10002,  -7175, -13872, -11184,  -1825, -22537, -17505,   6711, -15867,  -4831,  14570,   -130, -29110,  -5157, -15592,   6191,  -5318,  -9632,  -3885,   5926,   4696,   4145,  -4392,  -6847, -23393,  -8869,  -8649,   1687,   8004,  -7978,   4697,  -4790,   1873,   4942,  -1413,  11160,   8623,  -7114, -14610,  16627, -27057,   1789,  15483,  10247,  -7715,   9765,  11491, -30919,  -5885,  -3382, -13074,  11220,  13085, -23104,  20242,  14632,  11527, -11871,   7284,  -1327, -27297,  13859, -24000,  10460,    735,   5165,  -9929,   8009,  -2734, -24756, -18992,  28320,   9678,   6215,   7258,   1022, -15797, -26468,  -3896,    999,   5543,  -9856, -25408,  20892,   9580,  -7489,  12114,  -1565, -14084,  -5391,  -7227,  30198,   4446, -12601,  -2714, -11003,  17065,  19106,  13580,  -3973,   7443,  -9655,  -8186,     31, -24402,  -2726,   6560,  -2530,  11637,  16745,   5095, -22212, -13973,  20967, -10412,   5992,   1169, -16099,  -6674, -26713,  -5984,  10660, -18348, -12988,  -8701,   4116,   6698, -12201,   2915,   7022,    248,   -324, -15613, -10445,   -470,  14309, -20336, -18894,  -7219,  -2075,  -4564,  -1322,    772,  19189,   4350,  -6408,   5844, -14550,  22818, -21129, -10193,  -9132,  -7096,   6704,  21412,  14802,   6519,  14473,  11321,  -2149,  -3814, -12154,   1384,   8097,   8600, -10093,   1760,  -5031,   8179,  13001,  25472,  -3907,  -9662,  20697,   3366, -15901,  -4234,  24926,  10966,   1798, -13439,   -663};

    const static Filter<int16_t> statefulpartitionedcall_model_conv2d_2_conv2d_filter(statefulpartitionedcall_model_conv2d_2_conv2d_filter_element, -16, {1, 3, 16, 16}, {1, 1});
    const Filter<int16_t> *get_statefulpartitionedcall_model_conv2d_2_conv2d_filter()
    {
    	return &statefulpartitionedcall_model_conv2d_2_conv2d_filter;
    }

    const static __attribute__((aligned(16))) int16_t statefulpartitionedcall_model_conv2d_2_conv2d_bias_element[] = {
           -61,   -224,    -77,    -55,   -147,    157,     12,    -48,   -118,     50,    102,    159,    220,     79,    102,    -91};

    const static Bias<int16_t> statefulpartitionedcall_model_conv2d_2_conv2d_bias(statefulpartitionedcall_model_conv2d_2_conv2d_bias_element, -9, {16,});
    const Bias<int16_t> *get_statefulpartitionedcall_model_conv2d_2_conv2d_bias()
    {
    	return &statefulpartitionedcall_model_conv2d_2_conv2d_bias;
    }

    const static Activation<int16_t> statefulpartitionedcall_model_conv2d_2_conv2d_activation(ReLU);
    const Activation<int16_t> *get_statefulpartitionedcall_model_conv2d_2_conv2d_activation()
    {
    	return &statefulpartitionedcall_model_conv2d_2_conv2d_activation;
    }

    const static __attribute__((aligned(16))) int16_t statefulpartitionedcall_model_conv2d_3_conv2d_filter_element[] = {
          6151,  11190,  -3552,  -1719,  13458,  -4167,  14319, -28715, -13254, -16800,  12117, -13434,  -1914,    643,  -8740,  -6239,  10343,   -602, -16045,  -2266, -24906,   8874,  29600, -15200, -15938,  -1907,  10559,  -8529,  10330, -13017,   -755,  -4901,   1273,  -1431, -17551,  17952, -21416,   8259,   9589,  18316, -19587,  -7737,  10820,  -1024,  -8049,  -5698, -21331,   -644,   3060,  24911, -14072,  -2879,  10455,   6343,   3744,  19361,  16425,  22559,  24564, -11432,  16871, -10696,  -3622, -11781,  -5374,  20059,  24793,   6335, -10873,  -7583,  -5933,  25482,  20276, -26165,  22250,  -5043,  -2187,   6682,  -4289,   3155,  11237,   7755, -10441,  -4953,  -3488,   3666, -28935,   6739,   4046,   6782,   8493, -21427, -14856, -10694,  21899,   -394,  18163,   8146,  10082,  15633, -17804,  19149,   8719,  -1274, -10553, -10834,    363,  12776,  -5545,   2155, -16556, -12719, -18153,  -5406,  -2042,   4764,  13487,   1898,   -965,   7797,   1179,  -2180,   5037,  17122,  -6257, -10648,  23413,  12951,  14666, -10574,   2683,   9657,  29545,   2443, -23144,  22962, -10019, -10714,   5088, -16174,  16484,  12716, -25156,   -345,   4474,   9468,   5146,   2121, -14824, -18501,  12619,  18724,   4474, -14221,   7733,  12641,   7826, -12567,   3972,  -2316,  -2187, -20320,   -678, -26584,  -6489, -19473,  19058, -18006, -15453,  -4937, -22368,  21622, -12883,  -6413,  -7204, -15325,   9218, -14726, -23042,    311,   -402,  12949,  13051,  -6883,   3044,   3083,  -2974, -11112,   9031,  18166,  -5686,    283,   7919,  -6896,   1061,  13791,  16380,  11042, -19692, -27128,  -7344,  -7992,  -5442,   4344, -27635, -10368,    423,   1350, -26821,   3964, -20621, -11735, -22514,  23814,   -610, -13357,   7274,   3320,   9419,  -2694,   1306, -19927,  -2978, -14116, -16737, -19836, -16931,  25662, -13782,  -8542,   8749, -10698,   5730, -19733,   5636,   -166, -21963,  21780,  -9023,   1631,  26201, -28348, -24189,  -5589,  18922,  19167,   2353,  20528,  10010,  -7887,   8447,  -9756,   -637,  24117,  -4150, -17466, -17914, -12274,  15768,  -3725,   4012,   8835,  27272, -11650,   9031,    195, -28969,  -8848,  -6374, -10858,  -4752,  28223,   -878,  -1649, -15837,  -5755,  12017,  -2852,  -1843,  23694,  10305, -21979,  17049,  -9376, -17570,   3493,  18329,  -2231,   5107,   4217,   9854,  11379,  20222,  -8702,  -3067, -24722,  -4972,  26755,    640,  -8684, -15489,  16675,  16515,   5922,  24326,   8783, -18955,  11641,  -3422,  11733,  -5362, -14486,   6722,  -6459,  11368,   2613, -15094, -14189, -12338, -13043,   9103,   3349,  22502, -14795,  -6296,   1001,  21604, -11705, -25150, -12081,  -2637,   3790,   2352,  24127, -26145,   1840,  -6119,  -2172, -12486,  15745,   5818,   4236,  -4967,   1513,  -6765,     61,  -7545,  11354,  -7283,  21320, -18358, -17282,   8082,   4861,  -1717,  -4308,   6621, -24681,  21094,  -2045,  21121, -15622,  -6420,  19470,  -5119, -12704,  13834,    325, -15886,  -8383,   9360,  -1516, -11507,  14795,   -243,   3355,   2609,  -2904,   1050,  -7282,   9944, -13738,   8053,  -1408,  14465,  -5289, -24010,  -6410, -17162,    605,   -830,  -4445, -14875,  -2294,   1623,  -1917, -14562,  -3398, -11640, -18675,  15675,  -6640, -22489,  -6668, -12983,   6053,  11452,  -5933,  18289,  17627,   9513, -14458,  26983, -18026, -13822,   -455,  11430,  26943,  -6351,   7802,   3768, -22409,  18550,   1754,  25895,   7502,  -4247,   3517,  -1116,   5051,  28532,   5948,  -2936,  -3530, -10473,   1966,  -8036,  -4400,   2730,  27753,  20431,   8417,  -1806,   6050,     85, -15936,   7139,  -2765,  -1403,  -3082,   1297,  17383,  -9630,  10810,   5100,   -175,   7792, -21506,   6763,   4748, -17081, -24086,  -6973, -22661, -21273,  -9617, -15342,  -4869,  10914,  14582,   1927,   1393,  -6464,   9711,  10146,  -7043,  10870,   5112,  30250,  -1546,  -9553,  22085,  -9778,  15062, -21975, -18164,  -5528, -20439,  26732,  -2596,   -793,  14767,  -9729,   3796, -22999, -15927,  16871, -11882,  18625,   1551,  25199, -21494, -18907, -21362,   9307, -15867,  -2112,  10790,   7360,  -4172,  20540,  -6177,
        -13958,  -3862,  -7754,   2414, -20952, -22013,   9382,   3420, -18475,  28620,  -5871,   5005, -10559,  -4644, -10017,  -2544,   4905,   5950,   2056, -13945,   -957,  -6550, -14164,    -80, -15150,  16102,  -7212,   5152, -25987, -28610,  16011,   4353, -10609,  -8694,   3905,  -1467,  -5257, -13275,  11761,  20439,  -7472,  14651,    534, -17801, -18228,  -1014,   6749, -20087, -25997,  -3645,  26771,    934,  -2968, -15943,  10857,  12300,   3928,  -7099,   4699,  19624,  -1679,  15541,  -8513,   1432,   6691,  11293,  22954, -11146,   2476,  24521, -14965,   1253, -11506,   8392, -16162,   4514,  19275,  -1394, -25412,  13054,  12568,  -2493,  -7683, -19234,  25156,   6561,  17543,  -3408,   5260,  17192,   1313,  -1795,  -4418, -27337,  -9606, -10050,   -558,  16035,  25092,  -5793,   4075,   3716,   4658,  -3565, -14833, -20788,  -1258,  18458,   4593, -20412,  -2301,  -2158,   -980,   7497,  -7753,  -7941,  -5610,   3673,  -6813, -15127,     30,  -8660,  -4930, -11878,   -526,  -9269, -15164,  23231,  10074,  -9377, -15638,  30854,  -4534,  14400,  -2593,  -8619, -22335,  14480, -18013,    265,  18034,  -9959,   2771,   -453,  13200,  -7544,  -9514,  -9052,   1343, -20760,  18969,  29412,  13457,  23997,  -1039,  -9444, -16213,  13589,  -7518,  -8860,  -3818,  -2245, -22225,  -6801,   5920, -25279,   -279,    229,  14704,  10211, -17006,  10496,  -8326,  10678,  -5014,  12742, -12739, -16520,  10471,  -9761,  -2340,  -4576, -10659,   7425, -13565,  21977,  -7261,  23018,  28903,  -8061,  10379, -13094,  19236, -15859,  -5679, -11135,   3950,   3783,   6774,  -3563,  -3906,    106,  12267,   6893,  -1317, -10281,   -813,  14655, -14541, -13278,   1037, -11277, -14285,  -6926, -17374,   3432,  -6365,   3291,  -7404,  10299,  -5643, -11319,  -7365, -14915,  11787, -16369,   9143, -14140,  11092,  12513,  17429,  -5826,   4407, -10641,  14271,   2010,  -1490,   8395,   3338,  21411, -21881,  -6039,  12759, -26561,  -2168,  16099,  -7557,   1451, -10135,  15910,  -4712, -11275,   8903,   9233,  12964,     52};

    const static Filter<int16_t> statefulpartitionedcall_model_conv2d_3_conv2d_filter(statefulpartitionedcall_model_conv2d_3_conv2d_filter_element, -16, {1, 3, 16, 16}, {1, 1});
    const Filter<int16_t> *get_statefulpartitionedcall_model_conv2d_3_conv2d_filter()
    {
    	return &statefulpartitionedcall_model_conv2d_3_conv2d_filter;
    }

    const static __attribute__((aligned(16))) int16_t statefulpartitionedcall_model_conv2d_3_conv2d_bias_element[] = {
            71,    -93,    -51,     78,    139,    -31,      0,     21,    -11,     23,     78,     55,    -43,      6,      5,     36};

    const static Bias<int16_t> statefulpartitionedcall_model_conv2d_3_conv2d_bias(statefulpartitionedcall_model_conv2d_3_conv2d_bias_element, -10, {16,});
    const Bias<int16_t> *get_statefulpartitionedcall_model_conv2d_3_conv2d_bias()
    {
    	return &statefulpartitionedcall_model_conv2d_3_conv2d_bias;
    }

    const static Activation<int16_t> statefulpartitionedcall_model_conv2d_3_conv2d_activation(ReLU);
    const Activation<int16_t> *get_statefulpartitionedcall_model_conv2d_3_conv2d_activation()
    {
    	return &statefulpartitionedcall_model_conv2d_3_conv2d_activation;
    }

    const static __attribute__((aligned(16))) int16_t statefulpartitionedcall_model_conv2d_4_conv2d_filter_element[] = {
         18350,  19612,  -9806,  -2553, -25058,  20993,  -6268, -18581,  -4303,  -3500, -15073,  21802,  11150, -12150, -10461,  -1334,   4849,  -3574,  24574,   5531,  11869, -22416, -18517,  27981, -13036,   1249,  -1337, -15151,  13436, -15671, -12600,  -3505,  -8279,   -157,   1058,   3826,  14000,   2255,   5275, -28244,  28254,   -585,  20510,  19322,  -4853,  -9890, -12793,      1, -17742,   9021, -21732,  19250, -13662,  -6908, -22002, -17626,   7762,  -7222,  -1577,   8469,   3924,  18643,   8699,   6702, -12494,   4829,  13836,  -8258, -16912,   -498, -12132,  -4206,  13263,  25811,  -9532,  -9583,   5994,  -7286, -24605,    983, -14846,   1256,  -2156,  12004,   4921,  -5537,  19917,  18771,  -1989,  14232,  16570,   2488,  20758,   5812,  21022, -11541,  -9851, -27751,  -7730,  15759, -18611,  -4612,  -7993,  -9971,  -3598, -29259,  -7529,   7996,  -6296,  -5318,    712,   7044,  -2363, -17365, -22492,  12476, -14132,  -6025,  -2999,     61,  14519,  12184, -27497,  13149,  -7319,  13395,  12741,  13820, -24097,   7506,  -9757,  19226,  12088,  -1492,    221,  16243,   4151,   7989, -12868, -16860,  -5677, -24782,  -2047,  -3658,   9887,   4105,  19748, -13179,  12474,  -4747, -14922, -26362,  22551,   6070,  17658,  -7293, -12918,   6358,  -1784,   -360, -22058,  15829, -15557,  -3473,  22747,  21850,   2563, -16191,  16465, -21517, -22326,  10716, -23978,  27674,  -8976,  -9079,  24569,  -6706,  21398,  17539, -27000, -16598,  -7603,   3393,   1456,  13033,  27642,   2539,    529,  -4315,  23331,  14242,  -2847,   5593,  -4038,   1752,  -3605,   8983,  -7885, -18327,  17034, -13317,  22973, -12721, -12347, -15329,  22299,  10604,   -586,  -2352,  30243,  -1617,   5206, -12689,   6343,   6163,   9023, -16219,  -1284,  -9177,  10710,    816, -15202,   1274,  -4171,   3169,  16508,   5763,  -3190,  17780,  -4766, -30664, -12251, -20056,  19717,  14478, -18745, -14819,  -3114,  -3953,  10406,   3354,   1000,    205, -16197,   7991,   5869,  -2403,   3462,  -6364,  18119,  11809,  -1031,  -2841, -22420,  -4869,  -4901,   5472,   4014,  10803, -13954, -19664,  16218,   5580,   9589,   -956,  -9071,  -7223,   7068,  -6769,  -1259, -21120,  -1879,   9087,  18315, -17923,  -2080,  -2956,  11248,  -1273,   6371,  -9439,  -1222,  14281, -23185, -14116,  29911,  16557,   7812,   8231, -12834,  22413,   7317,   7318,  -5167,  28253,   6355,  -1760,   2109,  21981,   2512,  -5897,  18371,   6571, -13490,   5821,   2656,  15273,   9776,    656,  17035,  15711,   8656, -20135, -11144, -25829, -23078,  -1012,   8396,  10122, -17648,   4224,  -7758,  -1624,  -1708,   7546,   2648, -24766,  12315,   3375,  14429,   -510, -12348,  26091,    851,  11519,   2297,   4551,  19150,  -6057,  14091,  -3809, -16012, -18547, -20313,   8121,  -2873,  26154,  -4372, -13093, -19402,  -7852,   9730,   5071,  -1548,  -7548,   9553,  -3509,   6861,  -1833,    -56,   7778,  -5771,   -488,   5089,     48, -10737, -11980,  20803,  11179,  -1251, -12727, -12204,  -5061, -14352,  27039, -11595,   4523,   1724,  23356, -14857, -15002, -13574, -12692,   3805,  -3902,  16402,  14403,  23471, -10348,   1884, -28065,  13047,  19619,   7971,  11036,   2594, -22146,   -875,   -492,  -7783,   5760,   3931, -12661,  12820,   5829,  10302,   1796,   7363,  17974,   8750,  -6981,  -6453,   2798,  18959,   7778,   6103, -23170,  17613, -20970,  -3861,  16177, -18525, -24512,   1238,   8149,  -4655,  29265,   2175,   2940,   2413, -19947,  21572,  29083, -17127, -25733,  -7327, -22222,   6105,  -8590,  15173,  24479,  14021,  16365,   1995,  -6998,   8556, -10191,  25125,  12425,  -5100,  -2396,  -5828,  23224,   8319,  20397,   8988, -10565,  -1208,  -1870,  -6623,     12,   8098,  -5726, -12665,  -6474,  16801, -19697,  -7527, -15429,  10459, -15184,  21755,   5371,   -398, -10097,  -4558,  -9072, -16621,  -3428,   4687,   -648,  17237, -13424,  -2181,  11496,   4854, -13800,  10483,  -6001, -12787,  15831, -16541,   1118,   6279,  -5952, -23765,  22360,  -5141,  -3570,  -8965,   -440,   4077,   4553,  25380,   8381,  -9717, -25702, -17549, -11175,   -626,  11035,
         -2775,   4203,   1805, -17793, -11074,  15347, -12662,   2625,  -6883, -12962, -10960, -10094,  11606,     12,  14878,  11659, -12279,  -1803,  11624,  15794, -15772,  12794,  20515,  12795,   8894,  -6569,  21153,  -9812,  10171,  13147,  17700,  -4614,  23226, -18004,   -617,   6853, -10126,   5850,  -3908, -11303, -15317,  18413,  16957,  -1561, -14385,  -7646,  -6922, -22583,  13750,   6374, -12046,  16998, -16870,  -1268,   1191,  14419,  25325,  -3562,   9320,  22272,   1746, -17582,   9637,  13303, -10255,   -480, -19567, -10967,  -5992,  -1626, -13351,  -7675,  -2936, -28821,   -873,  -5070,  -9626, -26367,  15332,  -8676,   6416,   2920,   3434,  -2340,  16995, -10463, -24120,  -8274,  14873,  22988,   8616,  16903,  -5520,   -832,   5962,  15049,  25977,   2913, -11443,  -5503,   2853, -16285, -11338, -13150,  16503,  -8286, -19662,   6093,  16949,   9331,   4103,   3729,  -1399, -21159, -28259, -14571,   7479,  18324,   9381,  12271, -12377,  11283,  11424,  -4238, -26161,  -6948, -12266,   6839, -12169,   7288, -22581, -10778,  16553,   5630,    202,  -2504, -17591, -13069,  24853,   6674,  11943,   -272,  10271,  -7250,  10863, -14805,  11028,  23458, -16111, -10857,     11, -15253,  19951,  21136, -12542,   3980,  -8767, -20871,   5377,  -1803, -19489,  26196,   2546,  -4881,   6541,    -42,  -2728,   7934, -10238, -17410,   4273,  -3057,  21869, -17401,  16811, -17918,   -279,   -367, -17730,   3978,   6206,   2844,  16942,  -6565, -24186,  16384, -24196,  10153,  12643,   -261,  -5421,   9824,   2855,   8553,  16077,   9885, -19529, -11363,  -7677,   4094, -16430,   8742,  10390,  13503,  17932,  17740, -16567,   -290,  12208, -12282,   5956,  29687,  -9816, -10436,  -4344,  -1054,  17574,  -8100, -26972, -16453,     82,  -6564,  -3208, -16873,   -730,  27301,  18416, -10060, -14798, -11625,  -9400,    365,  14136,   2974,  11487, -10452,  -2254,   2340, -12030,  22223,   -484,  -5130, -13205,   6128,  29163, -18358,  -6012,  10359,  22902,   4393, -17156, -14149,  15645, -11642,  25129,  15025};

    const static Filter<int16_t> statefulpartitionedcall_model_conv2d_4_conv2d_filter(statefulpartitionedcall_model_conv2d_4_conv2d_filter_element, -16, {1, 3, 16, 16}, {1, 1});
    const Filter<int16_t> *get_statefulpartitionedcall_model_conv2d_4_conv2d_filter()
    {
    	return &statefulpartitionedcall_model_conv2d_4_conv2d_filter;
    }

    const static __attribute__((aligned(16))) int16_t statefulpartitionedcall_model_conv2d_4_conv2d_bias_element[] = {
             4,    -26,     54,    -30,     11,      2,    -49,     15,    -32,    -15,     24,    -43,     41,     27,    -14,     -2};

    const static Bias<int16_t> statefulpartitionedcall_model_conv2d_4_conv2d_bias(statefulpartitionedcall_model_conv2d_4_conv2d_bias_element, -10, {16,});
    const Bias<int16_t> *get_statefulpartitionedcall_model_conv2d_4_conv2d_bias()
    {
    	return &statefulpartitionedcall_model_conv2d_4_conv2d_bias;
    }

    const static Activation<int16_t> statefulpartitionedcall_model_conv2d_4_conv2d_activation(ReLU);
    const Activation<int16_t> *get_statefulpartitionedcall_model_conv2d_4_conv2d_activation()
    {
    	return &statefulpartitionedcall_model_conv2d_4_conv2d_activation;
    }

    const static __attribute__((aligned(16))) int16_t statefulpartitionedcall_model_conv2d_5_conv2d_filter_element[] = {
        -12821, -14132,  25079,  20812,  19441,  12762,  -6295,  -5583, -10352,  -3141,   5883,  23705,   1144, -24986,   6200,  -8503,   4929,    404,  -9680,   4823, -11734,   4714,  17244,  18853,  -8109, -14869, -22080,  -5459,   8219,  -1605,  18877,    926,  12937, -27017,  -8820, -14603,  12220,   1470, -26746,  13719,   4754,  -9602, -19579,   5418,   7399, -17694,   -888,   -513, -11199,  -6689,  13135, -21771,  14150,  15918,   4158,    322,  12358,  -4671, -28144,   4869,  12405,  -8185, -14651, -20052, -10619,   5289,   7024,  10803,    720,  11096, -18104,  14715,  29147, -22814,  -7915,   2751,  -1063,  22985, -23235,   2888,  27166,   9695, -12932,  10300,  -9671,    745, -17233,   6902,  -1506,  10191,  18713,  -1419,  -1374,  12028,   4572,   8476, -21715,  22123,  21669,   9342,  20629,   8004,   -280,   1700,  -3987,   1994,  -6519, -10470,   9144,  -4924,   4603,   2317,    181,   2410,  -8958,   5057, -12244,   2656,  -6881, -13084,  26175,  18118, -12225,   -446, -24230,   7524,  15271,  17166, -18430,  -2339,  15245,  -3728,   6585, -16102, -16425, -18199,  10295,  -6228,  -7803,  13069, -25774, -21522, -16082, -22282,  -7468,  20012, -27897,  -2169,  13656,  -1692, -22051,  -6640, -14873,   2819,   3726,   7285,  -5162,  11350, -10870,  -5026, -24263,  -5435,  13365, -15011, -19951,   -434,   9086,  10217,  -3667,  12898,  -5574,  25169,  -1147,  -4278, -20591, -16423,  -6799,   1515, -20110,   2253,  -4914,  -5271,  -4786,  20815,  22030, -17614,  -2181, -23096,   2846,   1950,   1842, -10222,  18558,  -8174,    534,  11179,  -4505, -13550,  -9684,  14454, -10518,  -6229,  -2850,  25680, -13593,   6014,  16940,  -6179, -15025,   8532,   9797,  13172, -27450, -21228,    511,   6835,  15605,   7586,  -1213, -24721, -18817,    -41, -20801,  11705, -15425,   9994,  -2270, -14729,   2383, -14106,  -5390,  19945,  21230, -12783,  -2330,  18769,  25037,   2786,  -3403, -24600,  -8651,  -2050,  -4765,  -3161,  -7458,  -5205,   4908, -13679,  -7607,   8225,  23912,  25939,  -7738,  23271,   5728, -24007, -15915, -20556, -19016,   1264,  -7732, -18756, -20457,   6019,  -9121, -12382,  23754, -24095,  14366,  -7780,  -3452, -17268, -26735, -13725,  -1261,  19769,  -8020,  16740,  -2924, -19904,   3174, -18476,  21299,  19802,   3803,  20871,   -372, -15144,  -2501,  13407,  13691, -14519,  -4162,  -9555,   6656, -21461, -10344,  -1592, -20347, -17056,  -4370,  13317,  -3592,  15881,  21227,  22194,  24467, -30401,   -453,   1947, -19032,  -5882,  -4989,  -7930,   8206,  19935,  -4620,   3868,  14896,  16492,  14089,   7888,   3170,  11866,  14172, -14074,  10303,    480,  19590,   5916,   7250,  -4178,   1861,  15033,  21850,  -3100,  -6474,  -2853,  15370,  -6586,  -3278,  -1658, -26797,   6964,   9388,    555,   6394,   3182,  10015,   8424,   6074,   8980,  -8507,  12549,  -2683,   9158,  18451,  -4169,  11933, -17205,  -5436, -13392,  17668, -29095, -23164,  24332,   5088,   9068,   8591,  19890,  15546,   7759,  -3213,  14905, -18233,  12854,  -8634, -14673,   7961, -29651,   5871, -19878, -18418, -10668,  15309,   -504,  14943,  16751,  -7283, -12825,  15603, -29820,  11256,  -8296, -10517, -23750,  13828,  19851,   8857,  -3806,  -8523, -17817,  14771,  -5399,   8799,   8050,  13367,  -5186,     28,  13873, -26666,  14500, -18410,  10249,  -7915,   5853,  12257,   1757,  -7459,   4376,   9100, -10619,   1208, -22325,  11620,   5557,    342, -11242,   -623, -29769,   1653,   -840,  19576,  11661,   7873,  20832,  15976,   -199,   -665, -13472, -13312,   9422,   9943,    192, -12982,  -1650,  10418,   -453,  10642,   1827,   3356,   6457, -24787, -13531,   1760, -18474,  -2858,   -341,  -6258, -24405,  -3788, -12876,   5523,   6315,  12749, -29797,   6794, -22425,   4307, -22416,  13248, -21883,   5112, -20700, -12758, -13534, -26129,  19565,   2751,   6462, -10271, -21543, -12491,   1916,  -5466,   7355,  -9994, -13559,  -2686,  -9608, -19542,  18125,   6191,  12547,  -2378,  23986, -10356,  -5090,   9323, -14550,    206,   2483,  -7196,   2505,  -1818, -11358, -11114,   3266,  12644, -12789,  -9356, -23516,
         -1045,  14918,  -4161,    -17,   9448, -16388,  26501, -19070,  28647, -11091, -15780, -19133,  -5088, -29993,  -7130, -20142,   6662,   2274,  26899,   8424,  -8547,  23864,   8576,  -7546,  -2625,   -500,  19734,  11044, -10820,  15134,   6978,   -251,   1610, -12425,  10772,  21471,  -9240,  -9137,   5585, -11820,    406,  -2705, -11275,   5536,  21447,   2071,  -5232,   5117,  18594,  -7512,   4402,   2765,  12212,  -4859,  -3060, -22317, -13615,  14272, -13667,  -4672,  11646,   2680, -17362,   3055,  27403,   4454,  31090,   4899, -21359, -18448,   3955,     33,  -5622, -19712,   -695,  11052, -24561,  13148,   9001,  -6665,  -2550, -17673,  -7226,  21687,  -2865,  -7239, -11922,   7978,  -7467,   5139,  -3961,  -9138,  -7606, -15401,   7413,  17827,   6722, -21322,  10857,  -6418,   1640,  -5948,   2733,  -6038,   8703,   9715,  12977,  -8791,   1386, -13724, -23340,   4470, -18908, -25952, -12999,   -762,  12774,   4443, -25003, -17079, -11356,  15082,  -6571,  12484,  -2904,  14417,  -6343,  -5637,  -1831, -27808,   2190,  26768,  -5498,   1424,  12388,  11784,  11242,  22134,  -1289, -13211,   1991,  10273,  -4911,  10247, -28737, -11415,   2655,   1743,    656, -17915,  26181, -26076,  -3362,   2242,   -179,  11301, -12463,   1233,   1480,   2550,  17086,   2536,  17936,  -5124,  -6422,   1733,  -1282,   5524,   2360,   7513,   4242, -11358, -12853,  -4442, -13113,  -5025, -24379,   9099,  -2268,  11450,  17876,   3612,  -9027,  -4231,  11201,   9966,  16888,  -8422,  -1815,  15471, -15570, -13270,   1305,   3496,  20294,  19916,  13189,   5000, -20987,   5568,      4,  16081,   7526,   -775,  -7336,  29425, -19161, -30149,  14159,  -2826,  -5426,  21832, -15630,   6097,  28348,  -2647, -13245,   4332,   6225, -16155,   7849, -11512, -11577,  17820,  -8083,  18652,  14462, -14595,  12630,  -9467, -11955,   1982,  -9021, -17395,  -1666,   1668,   4109, -14812, -14658,  -3102, -12268,  -3974,  -7800,  -5289,  10466, -15051,  -4994,   5476,  22526,   2743, -10000,  -3548,  -1315,  29181,  11881,  18250};

    const static Filter<int16_t> statefulpartitionedcall_model_conv2d_5_conv2d_filter(statefulpartitionedcall_model_conv2d_5_conv2d_filter_element, -16, {1, 3, 16, 16}, {1, 1});
    const Filter<int16_t> *get_statefulpartitionedcall_model_conv2d_5_conv2d_filter()
    {
    	return &statefulpartitionedcall_model_conv2d_5_conv2d_filter;
    }

    const static __attribute__((aligned(16))) int16_t statefulpartitionedcall_model_conv2d_5_conv2d_bias_element[] = {
            24,    -35,     30,     88,     29,     94,    -82,      1,      8,     57,    128,    -52,     46,     41,    -26,    -10};

    const static Bias<int16_t> statefulpartitionedcall_model_conv2d_5_conv2d_bias(statefulpartitionedcall_model_conv2d_5_conv2d_bias_element, -10, {16,});
    const Bias<int16_t> *get_statefulpartitionedcall_model_conv2d_5_conv2d_bias()
    {
    	return &statefulpartitionedcall_model_conv2d_5_conv2d_bias;
    }

    const static Activation<int16_t> statefulpartitionedcall_model_conv2d_5_conv2d_activation(ReLU);
    const Activation<int16_t> *get_statefulpartitionedcall_model_conv2d_5_conv2d_activation()
    {
    	return &statefulpartitionedcall_model_conv2d_5_conv2d_activation;
    }

    const static __attribute__((aligned(16))) int16_t statefulpartitionedcall_model_conv2d_6_conv2d_filter_element[] = {
          6322, -27788, -21725,   8941, -14614, -13405,   8967,   5627,  10629,  -9927, -10420, -16053, -11905, -20124,  16074, -24812,  20197,  -4287,  -3688, -22416,   4108,   5667, -20754,  -6672,  15579,   3844,  -5851,  14732,  19748,  -6336,  11253,   9001,   -136, -11039,  25571, -12777,  -7707,  24197,  -2132,  -4413, -26722, -21720,  21892,   5245,  -9570,  10670,  -7812,  26190,  21465,  11798,  -4683,   5387,   9000,  19404,  17793,  -4635, -26692, -12831,   4041, -23913, -15202,  -7810,    804, -19109, -27103,  -4995,   -378, -21411, -13068,   5227,  15756, -24520,  25163,   4888,  -4229, -18470,   2822,  25763,  11295, -20541,   6806,   3931,  26588,  -1953,  22644,  -5901, -29329,  13582,  11543, -12555, -11645,   5855, -17702, -14473,  -2929,  15645,  -2977,  -5089,   3452, -24706,  20221,  -1350, -28085, -26191,   3993,   5680, -11175,   6042,   -932,  -2997, -11647,  16303,  -7948,  25008,  12108,  21499,  -1983, -16197, -14291,  17220,  -8190,  12606,  16858,  11112,  11182,   1428, -14924,   6652, -14929,  14540,  24985,  -6372,  -6373, -27523,    887, -12837,  12145,   7462,   7742,  -4025, -12069,  -1103, -20378,   4965,  22898,   3404,   9207,  16593, -15579, -15356,  19833,  27527,   5448,  15104, -20131,   6745,   7519,  -3571,  -3258,  18060,   6651,   8700,  11930, -25169,  11364,  -9145,   9159,  -4195,   2480, -10119,   5638, -13488,    488, -23102, -10232,   5091, -13024, -11205,  -1764,  -6895,   2314, -11706, -10492,  -3498,   7013,  -5130,   6505, -19334,  -7899,  -4427,   8468,  -9004,   4691,   9474,    249,  -1023, -20018,  29228,  -6377,  21256, -11183, -16260, -27364,  21882,  11031,   2376, -28465,  20396,  19479,  26891,  -1203,  15886,  -8508, -23984,  27717,  -5042,  11781,  -5025,    -81,   4902,  25197,    107,   4987, -28857,  12917, -20374, -20237, -22551,  11847,  21247,   8039,   9199,   3304, -30181,  12169,  10084,  -8276,  -1407,  22185,   6451,  26364,   6948, -19774,  21477, -18331,  12500,  12359,  -6954,    506, -11348, -19145,   7665, -30314, -11399,  16119,  -6451,  -5411, -10456,  18839,   9496,  -3505,   3121,   2394, -15070,  16695, -20239,  21512, -21273,  18179, -14572,   7530,  25525,   6624,  -4408,    917,  -7723,  -3349,  13121,   6336, -10135,  29597,   7549,  -7802,  -8807,   -249, -22328, -10726,  15078, -14393,  13172,  28710,  18380,  -8876,  -2054,  12423, -24075,   2393,  29086,  -6618,  10117,   4971,  -2535,   2280, -21080, -19475, -18289, -17851,  14175, -16197, -16648, -22987,  27811,  15234,  -1359,    781,   -699, -30165, -10555,  -1355,  -2671,  10286, -23542,  -8683,  -7054,  -9627,   3861, -19105,  -3268,  25100,    557,  11174, -14569,   9317, -17184,   7868,  -7710, -13419, -19126,  -5990,    686,   6196,   3887,  29187,  -9506, -10041,   -711,   9513,   1959,  -3386, -14822,  -7298,  19031,  -8330,   8986,  18633, -18526,  28890,  23938,  16186, -17767,  -2634,  -8825,  -1707, -16712, -13048,  -7520,  12587,  -2978, -21140, -15460,   2913,   -846, -15087,  10313,  -8067,   8966,  15153,   3685,   5742,  -5926,   9709,  23008, -12580,   6318,   5730,   8992,  -1245,   3498,  -8082,    147,  -4623, -11865,  -4128,   2952,  29825,  12831,  -5500,   -834,  15603,   4915,   2341,  15088,   2838,   7580,  -4506,   4298, -20008, -10174,  11290,   4341,  18031,  23950,   8816, -15919,  -4720,  -4319,   4914,  -5137,  -4561, -16832,   9347,  -2127, -21437,  -1426,  -2986,  10721,   8342,  -3520, -27926, -16315,  23417,  24206,  -8180,  26721,   6832,  -8053,  -6462,  -8624,   5432, -10641,  -1317, -28234,   3522,  -2536,    311,  30178,  -3016,   4185,  -6464,  -3209,  -4351,  17827,    -19, -18921,  -9765, -29952, -18341,  -7378, -14856,  -9070, -10809,  17417,  -6848,  15989, -17231,  -2468,  -1967,  15890,   -852,  -5012, -22581,   9689,   3196,  14382,  26737,  12942, -11509,   -855,  18939,  16472,  -1633,   5895,   5963,   3818,  15034, -10668, -12361,  -4829,  13159,  -7586, -11856,   9562,  27871, -12492,  10660, -14572,  -4284,   -458,  -1826,  11348,  18528,   1913, -18720,  -5323,  -6360, -14575,   4552, -11292,    888,  11443,  12173,  20672,
          9605,  13109, -18362,   2144,  13159, -27113,   6504,   1474,  -7510, -10195,   9777,   8750,  23270,  20672, -16916, -23989,   6349,   8164, -11642, -12676,  10188, -15425, -21206,   1199, -11204,   6587, -14896, -16694,    877,  -3988, -16931, -19789,   9884,  -4175,  -4970,  28997,   4191,  18044,   5667,  20559,  17001,  -8316,  -5791,  15189,  -7235,  -2849,  -6690,  11262, -24215,   6200,   7583,  14127, -10536,   4727,  -5032, -13215,   2261, -11699,   2459, -17004,  10908,  26718,   7812,   9913,  -8533,  22412, -12757,  -5499, -10392, -10329,   6287,  -1871,  12675,  23926,  21188,    808,  14572, -21055,  19505,  19749,  -6644,  -5949,  27487,    597, -24310,  13813,   6712, -10366,  16676,  19869, -16916,   -499,  -1496,   9857,  -8723,  13959,   1427, -23554,  14275,   7615, -13106,  25944, -12729,   1220, -13035,   4541,   5039,   2050,  -8353,  -5228, -14009,  -9051,  23629, -10837,  -2856,  -4216, -19930,   1268,  26741,  13474,  12088,  -1964,  -6102,  -5289, -12356,   9977,  25087,   1957,  -6907,   2115,  15944,   9274, -21255,  20408, -14643, -11390,  -2314,   1431,   7464, -12524, -22282,    952,   2259,  -3159,  -6403,   2510,  26798,   4869,  22154,  -3734,   2001, -16070,  23648,  -6292, -24974,  11460, -18703,  14334,  26505,  -6997, -18274,  21472,  25687,  -5790,  -5283,  12966,  -4307, -30648, -14519,   4631, -10234,   1259, -12451,  -6805,   3395,  15229,  30570,  -8849,  -4393, -20910,  12466, -14323, -13011, -11641,  -6310,  -1395,   2955,  -4320,  13654,   8310, -15995,   9446,  -8958, -20604, -21172,  17242,  20176,  -1740,  -2863,  -1571,   -722,  12791,   5925, -19300,  -1475,  27383,  -8329, -24619,  -5374,   3908,   7534, -21145,  -2132,   2347, -26572,  -7191, -15804,  -1124,     80,   9168,  -3336,  -4442,  -6108,  25493, -12546,  -7468,   -396,   8135,  -3000,  -8502,    919, -20377,  -9301,   -505,  11296, -19639,  -7307, -23439,    553, -13708,   8193,  20258,   7987,   -118, -15061,  12989,  -6763,   -974,  20687,  -3676,   -358,  -2321,  28125,  18914,  19870,  10986};

    const static Filter<int16_t> statefulpartitionedcall_model_conv2d_6_conv2d_filter(statefulpartitionedcall_model_conv2d_6_conv2d_filter_element, -16, {1, 3, 16, 16}, {1, 1});
    const Filter<int16_t> *get_statefulpartitionedcall_model_conv2d_6_conv2d_filter()
    {
    	return &statefulpartitionedcall_model_conv2d_6_conv2d_filter;
    }

    const static __attribute__((aligned(16))) int16_t statefulpartitionedcall_model_conv2d_6_conv2d_bias_element[] = {
            30,     18,     17,     24,    -56,    -36,     74,     -5,    -41,     18,    -10,     -5,    -55,    -56,     52,     42};

    const static Bias<int16_t> statefulpartitionedcall_model_conv2d_6_conv2d_bias(statefulpartitionedcall_model_conv2d_6_conv2d_bias_element, -11, {16,});
    const Bias<int16_t> *get_statefulpartitionedcall_model_conv2d_6_conv2d_bias()
    {
    	return &statefulpartitionedcall_model_conv2d_6_conv2d_bias;
    }

    const static Activation<int16_t> statefulpartitionedcall_model_conv2d_6_conv2d_activation(ReLU);
    const Activation<int16_t> *get_statefulpartitionedcall_model_conv2d_6_conv2d_activation()
    {
    	return &statefulpartitionedcall_model_conv2d_6_conv2d_activation;
    }

    const static __attribute__((aligned(16))) int16_t statefulpartitionedcall_model_conv2d_7_conv2d_filter_element[] = {
         13510, -15955, -16347,   2785,  -2801,   2331,  -1384,  -3784, -18851,  -7516, -12289,  15271, -15570,  17817, -27204,  -6752,     66,  29648,  -9570,    365,   4169,   5136,  10409,  30044, -20876, -18609,   -686,  -9710,  -7402,    683,  -6040,  -1052,   3809, -27122,   3605, -14661,  10349, -12187, -28277,   7979,  -9651,  17404,  -9361,  25080,  10437, -21238, -21302,   3603,  13642,  -7895, -15794,  25450, -10092,  20151, -25346,    728,   2656,  -7711,  11159, -14073,  -2389,   1117,  -3216,  -2182,  12633,   6929, -13055,   5698,   9634,   6030,   2265, -10591,    644, -14532,   1312,  14075,  13915, -15459,  29657,  18832,  19836,   6341, -17443, -10241, -11702,  -6451,  -8804, -13412,   8043,  18517,  25052,   6038,   1786,   8675,  19871, -14824,  -5675,   1194, -18235,   1709, -11669, -17186,  10209,  -7308,   7707, -26819,   1243,  14809,   7718, -16187,   8173, -16966,   3711, -15851,  24385,   9768,  29022,    988,  -4007, -20709,   7596, -11703,   8625,  20906,  -7889,  14081,  13187, -12415,  19242, -12043, -16458,   1278, -28548,  -7985,   2075, -30057,  -4643,   3196,   1576,   4109, -17141, -25885,    721, -13807,  11765,  12206, -19372, -11429, -22987,  -5179,  -8702,   -555,   6945,   2601,   6278, -13488,  11629, -10097,  -1444,  -3422,  14236,  -1164,  -2100,  -7321,   4979,  -5521,   5902,   4763,  26113,   7075,   6737,  -2962,  19959, -30782,  14673,  -8234,  -9753,  -8411,  -4693,    -27,   3896,  -1145,  -4673,  -5368, -17183, -11929,  -5789,   6323,  17127,   6040,  22470, -22173, -16165,  -8455,   1051, -12436,  10605,   8955,  10997,   6791,  17107,  -7016,  15386,  -5820,   8932,   1069,  -2273,  22180,   8044,  -2349,  27156,  -6072,  27225,  27020,   5984,  -9571,  -2019,   3230,   1150,  -5518,  -6335,  13493,   8346,  -2640,   5406, -13147,  -3877,  -5010, -24068,  11076,  12987,  10610,  -8056, -18257,  -4290,   9923,   7436,   2623,  15568,   2767,   3247,  -1326,   4228,  -7876,    864,  20368,  -8435, -11473,  -5839,  10335,   4861,   5540,   7357,   -687,   1779,    838,  -4471, -21539,  -9584,   -745,  21377,    360,   4709,  11542,   3016,  26125,   8058,   -525, -30290,  -7576, -16805,   4111, -28516, -13529,   1490,   5790,  -4482,   3402,  -7041, -27528,   7615, -11697, -14934,  13888,  -4554,    173,  15278,    731,  11626,  -8001,  16968,  30471,  29229,  -1723,   9737,  13651,    732,  -3921,  25113,   6337,  11411, -15467, -14051,   9022,  14791, -20232,  -2419,   7088,  17006, -14541,   3297,  11971, -11630,  13206, -16155,   1475, -13847,   9638, -17491,   8229, -19612,   3534,   7479, -12883,  11191,  -2223,   5868,  19727,  -1629, -12307,   5479,   6227,   -222, -12817,  25985,  -8774,  -5164,  -1121,   4733,  12933,  13117, -12662,  12759, -11725,  -4518,    177,   5548,  -1124,  17533, -12235,  -7331,   4147,   1789,  23227,    199,   5710,  -3086,   3653,  16173,  -6413, -27547,   9478,  16368,  -9885,   7766, -18345,   8877, -11606,  -9828,  12052,  18768, -13265, -22908,  -2503,   4294, -15357, -15366,  -6754,   6133,  11509,   3180,  -3685, -26434,  20715, -17988,   4368,   4245,   7768,  16866, -11760,  27591, -20750,  -8226,   5013,  -2452,  14250,   6359,    493,   1437,   3023,  10911, -28014,   3725,  20815,   2161,  -6367,  -5408,   9240,  25672,     49,   1129,   2482, -15452,  -4064,   5761,   2633,  23584,  11689,   6469,  11030,  -9938,  16345,   2447,    944,  13575,   4799,   7551,  18812,    342,   6525,  10043,  16319,   4284, -12308,   7691,  -9821,  -7332, -16128, -16933, -16245,   2355,  11735,   3327,   9652,  -2756, -17416,  21021, -18421, -23550,  19026, -12904, -14563, -12288,  19212,  -3574,  -1592,  22490,  10526, -10132, -14306,  27524,    519,   9049,  -7198,   4179,   5244, -14378,  27356,  -8385,  17518, -14965, -24499,   9861,   5452,  -9636, -10584,  10445, -13502,  -7870,  10968, -17210,  -8699,  -1844,  -3743, -12118, -16035,  10695, -11560,   4067,   2909,   2453,  24895,  25519,  12112, -22442,  -7524,   3831,   8717,   8172,  17455,  -3449, -24171, -19314,  -4653,  -7890,  22085,  -2528, -25264, -21281,  13763,   -133,   6577,
        -12614,   9625, -10121,   -118, -15236, -11694,  13739,  17640,  16573,   8549,   1590,   -185,  -7068, -12187,  12034,   2335, -12484,  -9421,  13438, -11579, -15552,  -5602, -17768,  13150,   -990,  -9771,   6591,  -1027,  11847,  22615,  24432, -27943, -21152,  21925,  12533,  10148,   -683,   4076,  16772,   7583,  15808,   -352,  10046,   5263,   1329,   7186,  16127,    892,   8090,   -234,    435,   1628,  -3669,  -7767,  -3804, -20117,   1885,   1190,  12534,   7193,  -3320,  17294,      7, -14998,   2474,   3065, -15072,  14648,  -5988,  -1392,   -973,  13156,  12586,  -3927,  13715,   8309,   4674,  -2605,   -882, -19972,   6888, -12729,  14935,   4331, -13455,   6263, -21555,  -7159,  -3743,  11572, -10357,  -6843,  10737, -10307, -30303,  -7804,   8339, -24827,   1626,   1628,   3514,  -4286,  -6553,  14832,   7784, -10096,   5697,   5069, -12355, -11963, -26554, -18136, -22504,  10505,  -7699,  -9615,   3654,  -4571,  11202,  15120,  20028, -28253,  14741,   -198, -17757, -21817,   3785,  13199, -10288, -15656, -12846,  16797,   -564,   4435,   4514,  13762,  13791,  23067, -28276,   8015, -18755,  -6003,  15500,   5094,   1077,    492,   6332,  16599,  12230,  10200, -14211,  -1732,  -7535,  -4976,  11915, -13305,  12498, -15059, -10370,  -2328,  -3303,  16645,   5462,    532,   6859,   -767,  10774,  -2441, -29547,   6551,  17991, -27688,  -3690,  17293,   9505,  20611,  -2921,  15286,  -6945,   7736,  -5892, -15390,  10899,   9303,   7588,  -1996,  -8202,  10857, -11003,   7047, -16193,  11574,  18755,  12770,  -5758,  22076,  -4408,  17674,  16853,  12004,  22331,  -1870,   1958,  -1966,   -438,  -7511, -20673,  23068, -13634, -20473,   9942,    261,  18416,   5548,  17061,  25188, -20103,     -3,   2710,    490,   6014,   1912,   -873,  12163,   8248,  -8288, -18077,   3153,    314,   1852, -11428,    373,   8792,  16208,  11696,   -447,   2236, -27443, -11128,    -53,    157,  -5074,  17597,  -7658,  15556,  28431,  27630,   1201, -27275,  12922,  -5796,  17197,  -6662,   6798,   8878,   2996};

    const static Filter<int16_t> statefulpartitionedcall_model_conv2d_7_conv2d_filter(statefulpartitionedcall_model_conv2d_7_conv2d_filter_element, -16, {1, 3, 16, 16}, {1, 1});
    const Filter<int16_t> *get_statefulpartitionedcall_model_conv2d_7_conv2d_filter()
    {
    	return &statefulpartitionedcall_model_conv2d_7_conv2d_filter;
    }

    const static __attribute__((aligned(16))) int16_t statefulpartitionedcall_model_conv2d_7_conv2d_bias_element[] = {
           115,   -132,    111,     20,   -182,     43,   -119,      6,   -205,     85,     57,   -117,    142,      8,   -185,   -101};

    const static Bias<int16_t> statefulpartitionedcall_model_conv2d_7_conv2d_bias(statefulpartitionedcall_model_conv2d_7_conv2d_bias_element, -11, {16,});
    const Bias<int16_t> *get_statefulpartitionedcall_model_conv2d_7_conv2d_bias()
    {
    	return &statefulpartitionedcall_model_conv2d_7_conv2d_bias;
    }

    const static Activation<int16_t> statefulpartitionedcall_model_conv2d_7_conv2d_activation(ReLU);
    const Activation<int16_t> *get_statefulpartitionedcall_model_conv2d_7_conv2d_activation()
    {
    	return &statefulpartitionedcall_model_conv2d_7_conv2d_activation;
    }

    const static __attribute__((aligned(16))) int16_t statefulpartitionedcall_model_conv2d_8_conv2d_filter_element[] = {
        -19753,   7015,  21713,  -7965,  19634,  -9640,   7908,   8716,    150,  28936,  -2679,  -7107, -16423,   6226,   8318,  25313,  14147,   3586, -16693,  12510,   8533,  -1910,   9276, -19497,  -7348,  -2405,  27220,  26521,  29204,   1356, -10197,  -7555, -13477, -15495, -12577,  -9724, -29070,  17287, -15105, -17552,   4183,   -902,  -6480,  -3202,  26652,   6296, -11042,   3329, -16770,  15915,  -1569,  25293,  -6439,  -7340,  -6833,  12430, -14791, -19412,  -1622,   9964, -14716,   3567,  16008,   7194,   4710,   6797,    839,  -9278,  -1431,  -1887,   7623,   4494,   2125,  15593,   9067,  20512,   7144,  10232, -23354,   1983,  -4067,  -5530,  11210, -29029,  -1108,  -3833,   9571, -25355, -24003, -13841, -11658, -11127,  14190,  -2005,   5321,   1865, -22023,  -1782,  23948,   1249,  14468,   1369,  17052,  -6533,    460, -25783,   4096,   3731,  -2241,   3862,   6720,  29158,  -3187, -13949, -14495, -12023, -10936,  17636, -19597,    953,   6778,     67,   7099,  10933,  18177,  10890,  -4699, -23155, -29102,  -4850, -11627,  15352, -11460, -25680,  -6717,  -9753,  20492, -22244,  22261,   4673,   1023,  25449,  13449, -17249,  20237,  12965,  -5368,  -7694, -19421,   5127,  11961,   4700, -24638,   -509,  22290,   1160,  27583,   2723, -10299,  30218,   7682, -16669,  11601,   3592,  11740,   4646, -10458,  -6910,  14041,   9726,    386,  -9954,  11623,  11899,   8882,   2691, -15845,  -8311,   2812, -11421,  23741,  -3728,  -5660,   -494,  -8915, -10168,  23889,  -4611,  10086,  -8103,  23818, -10720,   9992, -14547, -15144, -27924,  27134,  -9875,   9035,  -8300,   4402,  10044,  15025,  12118,  19076,  -8601, -26452,   8327,  13799,   3671,  18981, -12292, -13596,   2941,   8192, -14305,  -8221, -10977, -15499,  -7471,  27506,  17477,  -5100, -22401,  11656,  -7864,   5216,   5135,  12884,   9598,   2470, -21451,  -3157,   6625,   8108,  -7545,  -6559,  -6446, -14690,  25356,   -440, -17017, -17913,  15185, -18719,  14057,   4738,   6843,  11350,  12577,   -360,   8571,   6548,  17906,  -1584, -18690, -20350,  18458,  -2146,  -2792, -12628, -13440,   4338, -10626,   5039,   5460, -15058,   3372,  14087,   4268,  -2783,  19427,  18316,  -5398,  14586,  10428,   -761,   9817,  -7921,   4624,  11808,   1982,    323,   2126,  10813,  20979,  24490,  16962, -23518,  -3722,   6129, -10901,   7047,   8518,  -7959,  -3984,  -4287,   5617,   -464,  30711,   5018, -29471, -18226,  -1050,  -3750,  -5967,  10020,  20442,  13762, -10015,  29697,  12005,  -3904,  24562, -28359,  10455,  11920,  12736,  -4131,   9839,  12697, -26415,   9020, -24166,  11468, -22052,  18576, -17198,   9638,   4396,  -5153,   6024,   3689,   3533,  15361,   5560,   5891,   5635,   9375,  -5457, -11495,   -895,  20882,  -2707,   9028,  -8034, -16353,   9037,  30467,  -3136,   9444,   5644,   -154,  -7661, -13139,  -4851,   2327,  -5587,  -6481, -16843,  12975,  -3918,    633,  -4012,   4057,   2907,   2556,  -6645,  21259,  14030,   3942,  -5275,  -4979,  12620,  -9866,  -6939,  -6589,  13473, -12995, -15265, -11085,  -1196,  16486,  13200,  14858, -10886,  -3300,   8221,  21900, -17200,  15031, -13117,    317,  26290,   4048,  -9139,  -6143, -17704,  -5470,    -21,  -2289,   2425, -12430,  13631,  27195, -13415,  -3508, -11276,   3857,  24613,  18644, -11010,  -5249,  11573,  -5178,  -9084, -10302,   -240,   8092,  11111,   3755,   9391,  -4916, -10823,  14772,    733,  -6036,  -5746, -11972,  -1001,  20675,   4380, -13431, -15321,  16508,   2232,  15412,   1528,  21093, -10790, -20262, -25670,   5401, -10608,   3138,   6707,   4385, -12089,  10044,   -460,  20054,  -5301, -16967,  -8372,    -38,  -2241, -25103,    842,  23521,  14970,  17790, -15650,  25606,  22431,   -234,   3521,     77,   9122, -22390,  20970,  10585,  27107, -12331, -16175,  -7143,   4882,   1842,  13972,   1649, -30337,   2776,    798,  15583,  -7424,   8222, -26007,  -6516,  19670,  10016,   7283,  -1348, -17225, -27869,  -9090,  -1009,  16819,  -4055,  19976,  -5968,   5251,   4701,   8541,   -134, -12077,  11678, -13976,  28978,  12072, -12737, -14251,  12451,  -8950,
         19885,   -269,   -957,  11045,   7538, -20324,  15201,  -3934,  -5045,  24252,  18803,   5482,  11046,  13552, -14216,  19579, -27335, -19736,   5595, -26956,  11873,   5580,    -15,   8890,   7134,  24294, -25891,  22558,  -1696,    449,  13433, -14769,  10114, -16107,  -4312,  16731,   9751, -19181, -10837,  11034,  19351,  12068,   4981,   8482,  -9650, -16332, -21077,  10020, -22840,  -7288,   4136, -12024,   9702, -12804,  -2059,   9890,   -688, -30171,  20294,    630, -23948,  -3553, -14560,  12241,  -4734, -10483, -18403,   6702,  10319, -15030,  -2570, -12329,  20530,   -320,  -1278, -15414, -16942,  11460,   7630,  -5801, -16857,  28938,  13088,   5146,  -7603,   2209, -10856,  11593,  11455,   3662,  -1209,  -9999,  17303,   8157,  -1001, -11470, -10841,   3486,  -2135,  19077, -11816,  -1320,  11696,     -5,   3386,  -3621,  18374,  18759, -13278,  17927,  10988, -22466,  18229,   9639,   2781,  -7319,  -3469,  13823,  14100,  -6325, -12535,   7975,  -6934,  17004,   1032,   -221,  20794,   1570,  -4104,  -1323,   9610, -10420,  -4894, -20171, -10485,  10815,  11739,  -8520,  13437,  20879,  12322,   2337,  -1554, -14123,  -2498,  27607, -26329,  23310, -17881,  -3808, -16638,  23361,  10577,   2808, -12636,  16078,  -5358,   5490, -28468,  -3492,  -8541,   6444,  -2546,  -7958, -16603,   6685,  -7151,  -3403,    454,   5529,  29865,  13269,  -6340,   4640,   7185,  -7964,   4042,  -2258,   4763,   -846,   4557,  -6685,  -5944,  -1104,  -1678,  -3358,   6655,   6619,   3495,    651,  -5921,  29349,   1126,  10254, -19832,  -6957,  18517,  -1800,  18688,  15571,  -3656,   1243,   3026,  28860, -30410,  -7611,  13469,   7832,  -9796,   9659, -20230,  17123,   5449, -16227,   6678,   2890,   3342,   -116,   4290,   1251,  -5597,   3815, -19372, -13716, -16846,  -5949, -12796,  -8463,   3971,  15473,  25062,  -9054,   7884,  -7909, -16641,  -3464,   7878, -25624,  22036,   3158,   9971,  -9088, -13547,   5180,  -4211,  -7318,   6040,  -4076, -17670, -11796, -12189,  -7927, -23807, -10573,  23165,  15293};

    const static Filter<int16_t> statefulpartitionedcall_model_conv2d_8_conv2d_filter(statefulpartitionedcall_model_conv2d_8_conv2d_filter_element, -16, {1, 3, 16, 16}, {1, 1});
    const Filter<int16_t> *get_statefulpartitionedcall_model_conv2d_8_conv2d_filter()
    {
    	return &statefulpartitionedcall_model_conv2d_8_conv2d_filter;
    }

    const static __attribute__((aligned(16))) int16_t statefulpartitionedcall_model_conv2d_8_conv2d_bias_element[] = {
           -36,     -9,     19,    -47,      3,    -47,    -36,      3,    -30,    -23,    -44,     15,    -23,    -23,    -45,     38};

    const static Bias<int16_t> statefulpartitionedcall_model_conv2d_8_conv2d_bias(statefulpartitionedcall_model_conv2d_8_conv2d_bias_element, -10, {16,});
    const Bias<int16_t> *get_statefulpartitionedcall_model_conv2d_8_conv2d_bias()
    {
    	return &statefulpartitionedcall_model_conv2d_8_conv2d_bias;
    }

    const static Activation<int16_t> statefulpartitionedcall_model_conv2d_8_conv2d_activation(ReLU);
    const Activation<int16_t> *get_statefulpartitionedcall_model_conv2d_8_conv2d_activation()
    {
    	return &statefulpartitionedcall_model_conv2d_8_conv2d_activation;
    }

    const static __attribute__((aligned(16))) int16_t fused_gemm_0_filter_element[] = {
         -9851,  19464,    718,  23929,   7568,  -8914,  -6454,  -4324,   4777, -17454,  10052,  24916,   3734,  -6899,  -6967,  17905,   5123,  -8118,  14912,  17305,   7568,    697,  -3051,   5712, -19533, -21793, -18844,  17158, -13446,  -4724,  14934,  -6330,  17426,   2841, -11697,   5086,  19596,  14342,  -4828, -23665,   3925,   9290,  -4618,   5823, -12808,  14592,  -8413,   3298,   -942,  15214,  10337, -25388, -19637, -12043,  -6699,   4863,  -1758,   7418,  18314,  -8510,  20146,  -6948,  23787,    446, -11524,  25663,  15931,  -1048,   1906, -13155,  10555,   3364,   4970,  -7493,  -5122,  21506,   3506,  -9553,  -1204,  20308,   1734,  -3794,  -9527,   8302,  -5976,   6508,   6029,   6595,  22178,   1594,  13269,   6828,  -8437,   4820,  17837,   3142, -11425,   1370,   8486, -25832,   4182,   1360,  -6160, -12421,   5099, -23553,   3880,  -2676,   1127,  -1907, -14586,  14240,    997,   6432,   6330,  -7684,  18850,  19445,   4462,   2092,   2666,  -4410, -10795, -11162,   7825,  -5325,  10921,  16585,  -6014,  -3860,   2158,  18015,   8709, -12781,    178,  13237,   7692,  -9122, -12412, -18752,   2315,   9416,   -209,   5728,   6260,   3960,   -486, -16030, -12895,  -1019,  -9060,  23098,    536,  -3873, -16860,  -3725,  16802,  -9315,   2944,   9944};

    const static Filter<int16_t> fused_gemm_0_filter(fused_gemm_0_filter_element, -15, {1, 1, 16, 10}, {1, 1});
    const Filter<int16_t> *get_fused_gemm_0_filter()
    {
    	return &fused_gemm_0_filter;
    }

    const static __attribute__((aligned(16))) int16_t fused_gemm_0_bias_element[] = {
            -6,      7,      0,     -5,     -6,     -7,      7,     -1,      6,      7};

    const static Bias<int16_t> fused_gemm_0_bias(fused_gemm_0_bias_element, -10, {10,});
    const Bias<int16_t> *get_fused_gemm_0_bias()
    {
    	return &fused_gemm_0_bias;
    }

}
