#include "Mnist_coefficient.hpp"
using namespace dl;

namespace Mnist_coefficient
{
    const static __attribute__((aligned(16))) int16_t statefulpartitionedcall_sequential_conv2d_biasadd_filter_element[] = {
          9507,   8733,  -2420,  -9219,  -6724,  -7314,  -7045,   8700,   1312,   7381, -10889, -15664,   -783,  16591, -14325,   4091, -15368, -18855,  -4237,  -1921,  -8688, -11002,  13519,  -6705, -13160, -10312,   6915, -13520, -17599,   -423,   1250,   4892,  -9165,   -758,  -3511, -15418, -21773,    400, -11351, -11628,  -7296,   -226, -11694,   6075,   6769,   2163,  -3093,   2734,  -6729,   3309,    228,   3411,    857, -11396, -21031,  -2992,   -422, -13762,  10345, -20703,   5960,  -3736,  -3257,  -3541,   8039,   1287, -15311,    395,  -2315,   6331, -18569, -12788,    403, -10050,   9355, -16590,   -557, -11968,  -6665,   1377, -26634,   5969, -13619, -16193, -20574, -10745,  -2635,   6285,  -8075,   7643, -17720,  -6711, -13403,  17821,  -4197,   -415, -18227, -11955, -19930, -11452, -14536,    957,  -1474,   5807, -17819,      8,   8172,  -9683,  -6703, -18034,    160,   5487, -18682,   3355,   4510, -16806,   1569, -15944, -13662,   4773,   -522,   5424,   5682,  -6884, -22029,  -7048,  -9662, -12218,   4255, -13627,   4116,   7689, -15096,  -2965,    340, -14000,   5267,  -1798,  -9875,   1452,   9801,   4645, -14852,  -7966,  10643,   1443, -13926,  -4028, -11346,  -2387, -18669,  -1470,   3160,   9518,  -6926,   7833,  -5781,   4406,    569, -11784,  -6622, -13667, -20605, -17199,   3179,   9478, -12586,  -1572, -18252,   3448,    890,  -4992,  -5572,  -7847,   2114,   2626,  -8575,  11062,   1039,   2291,  -9337,  12035,  -7951, -11210,  -9013,  -4698, -14890,  -9306,   5913,  -6948,   3790,  -3397,   9923, -12817,  -1944,  -3163, -15225,  -3382, -18742, -10713,  -1224, -18444,   5777,  -1897, -12118,  -8573,   2038,   5416, -12473,   5479, -19380,  11073, -25162,   4784,    146,    552,    429,   7810, -14186,  -9687,   7610,   8760, -17046,   -581,  -4305, -17030,  -3914,   5693,   2140, -16182, -13818, -10003, -13941,   2724,  -4403,  -9058, -20455,  -7721,  -1322,   6441, -14363,   4010,   5601, -23853, -15567, -13711,  -3042,    997,  11579,  -3042, -21867,  -8051,   -360,   6036,   3733,  -8157,  -5801,   3319,   4537,  -8579,   3292,  -1872,   4201,  -5477, -12363,  -2983,   7364,   1863,  -1342,   3139,  -2145,  -4612,  -3200,   1645,  -7143,   4487,  -1677,   8881,  -8901, -20765,   8952, -14288,  12506,  -2701,   4429, -22325,   9017,  -5179};

    const static Filter<int16_t> statefulpartitionedcall_sequential_conv2d_biasadd_filter(statefulpartitionedcall_sequential_conv2d_biasadd_filter_element, -17, {3, 3, 1, 32}, {1, 1});
    const Filter<int16_t> *get_statefulpartitionedcall_sequential_conv2d_biasadd_filter()
    {
    	return &statefulpartitionedcall_sequential_conv2d_biasadd_filter;
    }

    const static __attribute__((aligned(16))) int16_t statefulpartitionedcall_sequential_conv2d_biasadd_bias_element[] = {
            14,    -45,     33,     36,    -15,     23,     49,     -7,     68,     67,    -25,     10,     45,     -8,    -63,    -25,     76,    -47,    -39,    -35,     -2,    -46,     52,     48,   -104,    -12,    -36,    -10,    -17,     28,    -64,    -39};

    const static Bias<int16_t> statefulpartitionedcall_sequential_conv2d_biasadd_bias(statefulpartitionedcall_sequential_conv2d_biasadd_bias_element, -9, {32,});
    const Bias<int16_t> *get_statefulpartitionedcall_sequential_conv2d_biasadd_bias()
    {
    	return &statefulpartitionedcall_sequential_conv2d_biasadd_bias;
    }

    const static Activation<int16_t> statefulpartitionedcall_sequential_conv2d_biasadd_activation(ReLU);
    const Activation<int16_t> *get_statefulpartitionedcall_sequential_conv2d_biasadd_activation()
    {
    	return &statefulpartitionedcall_sequential_conv2d_biasadd_activation;
    }

    const static __attribute__((aligned(16))) int16_t statefulpartitionedcall_sequential_conv2d_1_biasadd_filter_element[] = {
         -7515,    758,  -1820,  -7061,   5153,  -6033,  -7154,  -3120,   4754, -11803,   8779,   -956,  -2364,  14778,  13751,  11360,  -4085,    642,  11591, -16451,   4995,  -8851,  -9638, -10837,   6009,   4644, -16144,   3794,  -5380,  -2401, -15680,     81,  -3678,    895,   5396,  -3865,   9329,   5351, -15047,  -7003,   3323,  -8649,  16303, -13299,  -5407,  11050,  -3156,   3476, -15430, -16029,  -4027,  -5229,   7093,  -4895,   2052,  -9904,    -75,   -923,  -1510,   4013,   1846,  -5128,  -7970,   2528,   -227,   3540,   3602,   5080,  -9632,   9912,  -6582,   -459,   4115,   6038,   -824,  10329,    286,  -5893,  -4851,  -1070,  -8935,   2669, -10328,  12455,  -6819,   6153, -13247,   1660, -11472,  -4839,   4686,   7210,   1392,  -7958,  -2161,  -6964,  -6413,   4305, -11195,  -6397,  -1266,  -5685,  -7385, -13260,  -4493, -20566,  -6635,  -1994,     13,  13122,   2195,  10769,  10567,  -3515,   -120,    785,  -9773,  -6884,    814,  -5461,  -2559,  10182, -13709,  13431,   3611,   8560,  -7389,   -530,  -2574,  -3948,   1923,  -5672, -15175,  -7453, -12452, -17988, -12262,    -88,  -1786,   3646, -10802,  17582,  -2427,  -4986, -12672, -10022, -12871,  -8115,   9162,  -1923,  -1503, -15886,   1774,   4239,    571,  -1626,   7408,   -270,  -4216,  -1996,  -9775,  -4871,  -3800,  -2613,   3586,    372, -13205,  -2077, -15393, -14658,  -3249,  -8354,   3373,    267, -12951,   7571, -18549,   2608,  -7049,   4889,  -5245,   8296,  -8033, -11367,   2472,  -6117,     -9,  -3433,  -5737, -16094,   -236,  -1237,  -3235,   3139,   3318,  -5090,   4474,  -3125,  -2829,  -8085,   3217, -11378,  -7306,   4366,   7179,  -3415,   1747,  -9096,  -5536, -12586,   7906,  -3592,   2118, -13896,    557,  -1142,   1842,  -7053,  -6805, -18310,   9486,   7331,  -5537,   3804,  -2335,   3081,   2380,  -5694,  -1888, -13022,  -5463,  -9005, -16846,  -8326,  -1829,  -7172,   -808,   5820,   5543, -15190,  -6718,  -3193,   -507, -13893,  -4824,   6286,   6620,    252,   6634,  -4974,   1935,  -8209,   3777,   8581,   5907,  -2294,   2717,    969,  -8632,  -2746, -10526,   5617,    392,    596,    811,   5396, -11789,   2652,   2075, -16010,  -1363,  -3033, -17565, -20873, -14232,  -4938, -10871,   1353,   3690,    136,  -9396,  -6785,  -3609,  14892,  -6664,   3090,  11313,   3000,  13299,   5451,  -8938,  13636, -12826,  -7722,  -1930,  12546, -12273,  -2217,   3100,    951,  -2841,   3918,  -1502,  -3947,   3107,    587, -14955,    -27,   1132,  -9213,   7803,  -5351,   6140, -11682,   2883,  -6112,   1884,  -6318,   3503,  -5250,  14491,    116,  -7082,   6853,   6618,   1585,   2721,   4612,  -2737, -13001,  -6362,   9084,   2094, -16457,   2927,  -3832,  -2375,  -1206,   4504, -10098, -11645,    677,  -3908, -14046,   3029,   -728,  -4522,  -5734,  -2087,  -2799,  -9032,   1948,   -653,   5334, -11476,   4944,   -573,  -5121, -10456,   4910,   9120,   8786, -15086, -10217, -13573,  -7554,  -1267,   5768,   3202,    389,   1704, -15830,  -2336,  -9612,   -579,   7187,     43,   4786,  -9706,  -8916,   7500,   8130,   -630,   7378,  -4632,   3000,  -6897,  -2920, -11783,  -8302,   7292,  10929,  -3729,   1278,  19028,   -482,  -5686, -10209, -12479,  -8530,  -3922,   1595,  -2106,  -3773,    768, -11047,  -3149,    782,   1559,    305,  -3305,   9188,  -6616,  -7383,   1559,   2671,  -7796,  -4276,  -6011,   9353,    529,   2756,   1678,    -82,   9886,   3232,   8373,  -1069,   2275,    333,  -4194,   4915, -11255,  -9512,  -5774,  -7637,   6095,   -889,    360,  14467,  -9721,   8669,  -8723,  -6996,  -4088,  -4179,  -2948,  -3489, -12244,  -6881,   5533, -10393,   4631,  -8883,  -5716,   6355,  -2401,   4423,  -7390,   5228,   -832,   1311,  -7771,  -3399, -10307,  -2884,   6733, -16565,  -6978,   4119,    755,  -3812, -10729,  -6693,   -495,    111,  -6861, -10409, -12776,   4492, -17569, -11740,  -8247,   3844,   1227,   6172,  -5784,   -312,  -3767,    542,  -4150,   -364,   7493,  -2827, -11579,   5885,    177,  -9612, -11441,   1680,   7771,  -3327,  -5568,   4253,  -7307,  -7594,  -5313,    261,   8654,  -8606,   -261,  -1586,
         -7842,   7692,  -5275,   5108,   5533,  -9959,  12052,  10116,   2283,   6340,  -3711,  -4586,    116,   -510,  -8952,  -7246,  -3949,  -2684,  -3030,   2200,   -766,  -2516,     40,  -4266,   9109,  -3338,   6624,   9155,  -6323, -10757, -13429,    579,   -360,   2890,  -6568,   7352,  -6060, -16746, -13237,  -5614,   4263,    -58,  -8894,  14720,     20,  -9463,  -1935, -14435,  -4855,   -923,  -2004, -14571,  -2557,   -895,  -1322,   -840,   1648,  -3642,   1608,  -8436, -13250, -13149,  -8644,  -8102,   1097,  -6812,  -1641,  -3846, -19369,   3666,  -3263,   3876,  -2965,   1914,   -955,   6888,   1345,   -935,  -1521,  -4291,   -228,  -1010, -14872,   -722,   2334,  -3434,  -4365,  -9812,   1753,  -5508,  -2140,  12450, -10170,  -9670,   3815,  10507, -12324, -12645, -11174,    801, -15874,   2064,   4821,  -9220,   6995,  -4102,    488,   -356,   3366,   7619,   6806,  -5425,   8975,   1264,  -1821,  -4130,  -7447,   9651,   2513,  13252, -12171,  12877, -14655,   2596,   3710,  -4405,   5106,  -6822,  -6788, -11605,  -7725,     57,  -4119,  -3386,  -6374,  -7570, -14138, -14450, -11172,   5735,   3469,   6385,   9757,   -914,   -914, -15860,   2766,  -8818,   7614,   3601,   3240,   -869,   4266,   5335,   -541, -13187,   1815,   3928,  -7698,  -5223,  -7217,  -6026,   4922, -11358,  10198,    691,  -3237, -14852,   3635,  -7173,  -3178, -15473,   5761,  -6012,  -6344, -14264,  -6953,   3024,  -5602,  -6324,   1297,   3581,  -7073,  -1063,   1570,    690,  -3879,   2104,  -5748,   9899,  -9922,   7637,  -3705,  -6182,  -8407,  -9732,  -7998,  -2539,    705, -10755,  -3768,  -6496,  -3598,   -804, -16878,  -1817,   1424,   4189,   2130,  -4134,    -82,   -698,   5603,  -5864, -11620,   1469, -10594,  -5427, -11983,  13353,  -3607,  -5954, -13971,  -6338,  -8141, -10297,   9288,   -558,  -4613,  -8941,   1312, -14750, -13700, -15103,   -527,  -5100,   5990,  -3467,  -1616,   5868, -14647, -14840,   2601,  -3117,   2280, -20376,  10294,  -3404,  -1380,   6288,  -3411,  -4584,   7154,   2431,  -4259,   1224,  -3815,   -801, -11489,  -5284,  -2576,   6384,   2862, -11021,   7615,  13214,  -2648,  -3997,  -6434,   6844,   3193, -16487, -10682, -12443,   6003,   4900,  -7567,   5846,   1045,   3556,  -7883, -10052,  -6754,   7947,  -4677, -10311,   3810,  -3420, -13180,   -100,   7873,  13677,  -2813,  -8158,  13552,   1629,    608,  -3623,  20545,   6293,   2393,   2304,   6955,  -1884,  -2939, -10515,   6021,  10706,  -7402,   3536,   -743,   8758,   1467, -11412,  -7853,   -851,   5746,  -1487,    862,  -4212,   2358,  -5629,  -8835,   5156,  -3891,  -5791, -12738, -10421, -17748,   6406,   7781,  -2306,   5133,  -4282,    590,  -6986,  -5762, -10308,   2612,  -5532,  -8705,   9515,   5699,  -4870,  -7947, -11326,  -3152,  -6883,   3124,  -1650,   2264,   -265,  -5980,  11042,   4605,  -7366,   8607, -12297, -14985,   2926, -15643,   8084,   8935,  -3782,   2395,   3762,   3595,  -2453,  -2976,  -4738,   7574, -18556,   2383,  -4257,    698, -12063,   5009,   -552,  -7261,  20121,  -9288,   2795,  -5208,    562,   3172,   -388,  10752,   8144,  -5413,   1914,  15946, -11373,  -5008,   3260,  20207,   -226,   5535, -19187,   7884,  -9102,   9599,  -3631,   7590, -10540,  13765,    404,   1252,   4180,  -5720,   5445,   2857,  10420,  -5117,  -2268,    794,   5810,  -9410,   7128, -10205,   9595,  -3682,   7961,  16846,   7134,  -3231,  -7606,  12376,   8833,  -5864,  -4755,  -3621,  -4505,  -7248,   1590,   7280, -10201,   -393,    666,   -544,  10339,   4044,  -4603,  -3725,  -6719,  -2618, -11440,  -3824,   4916,  -9768,   1741,  -2067, -14358,   5331, -14003, -15036,  -8570,  -3217,  -7040,   1440,  -3120,   6562, -10583,   1341, -20690,   5818,  -7790,  -3022,  -9708,     43,   1345,   7192,   2894,   1631, -12698,  13311,  -5099,   3993,   5072, -16848,    219,  -5773,   5843,   2364,  -1732,    175,    812,   1145,   6450,  10390,   6427,    665,  -3546,    825,  -7981,  -7511,  -8163,  -6107,  -9675,  -3549,   4701,  -2430,  -2524,  -5487,  -4530,  -2534,   2625,   -893,  17209,  -1918,  -6182,  -3175,   9565,
         -1966,  10518,   6661,   8873, -13068,   -742,   -186,    566, -16876,  -8695,   -541,  13621,  -5257,   1458, -12312,   4696,  -8908, -15323,  -4948, -12087, -12841,   -333,   7189, -16911, -18466,   4985, -15975,  -7622,  -2193, -23147,  10356,   -967,  -4979,   4331,   3227,  -6873,  11702,  -2650,   3625,   2111,  -9725,   9327,   -966,  -5039,  -2012, -12150,  10724,  -4431,  -6430,  -1842,   3616, -17735,  -2645,   7044,  12756, -12461,   7335,   -547,   7426,   9232,  -5335,  -1696,  -3545, -10860,  -7849,   3286,   6002,  13280,  10758,  -1186,  12934,   5209,  -3282,  -6018,   -779,  11396,  -1834,  16173,   2745,  -9474,   -506, -14375,  19641,   5998,   2913,   8785,  -2552,   5828,  -8054,   9033,  10310,   1332,   5342,    776,   6284,   3148,  -4859,  11643,  -3915,   4795, -15045,   2797,  12091,  -1548, -12681,  -4302,   7104,    830,   3889,  -9957,  -3409,  -1954,   2716,    495,  -3633, -17137, -14835,  13903, -14601,   3541, -18804, -13834,   -893,   7888, -14676, -12961, -11981, -13999,    409,   2584,  11109,  -2467, -11237,   3754,  -4851,   5883,   9971,   1050, -12422,  -1479,    381,   7445,    985,  -2718,  -9692,  -4288,  -1018,   4839,  -9941,  -6698,   2227,  -7255,  -1039,  -2559, -15995,  -6686,  -3663,   4233, -11650,   7432,  -8681, -14631,  -1540, -11576, -10983, -12410, -14302,  -5252,   1620,   6322,  -6799,  -2603,   2755,   9798,  -8130,    802, -11257,   2630,  -7627,   4098,   2959, -12422,     69, -11679,   4205,   2072, -12819,  -1878,  -2457,   9244,  -6663,  -3715,  -5103,  -8948,   -744,   -764,  -8813,   3649,  14292,  -4990,  -5283,  -4436,   6623, -12556,  -5108, -11593,  -9699,    221,   2820,    443,   1500,  10282,  -8868,   8825, -13942,   7997,   5323,  -5197,  -2570,  -8821,  -8853,  -1373,   6855,   1581,   2928,   1244,   -277,  -2101,    132,  -9247,   -579,   6572,  10639,   4202,   -311,  -5929,  -4112,    498,  -6901,   1959,  -5310,  -9165,    540,  -3351,   4381,  -4737,  -4672,  -6302,   9277,  14064,  14195,   9398,   4321,  -8008,   2289,   6783,   8894,  -2745,  -5571,  -4172,   4215,   5832,   7632,  -3586,   6376,   2439,  16580,  -1326, -13627,   6310,  -7986,  10833,   2257,   6779,   -212,  -2209,   3415,   1243,  -8220,  -4334,  -8273,  -8419,   4756, -11396,   6050, -13564,   4464,  -7854,   8564,  -6179,    752,  -8899, -12567,   7041,  -1062,  -2161,  -4052,   3670,  12908,   4639,   -288,   9952,   5583,   -743,  -8805,   7233,  -4247,  -8623,  -3225,   5874,   5409,  -9185,   5867,  -4668,  -1286,  11678,   1349,  -1659,  -7018,   2976, -12042, -11141,   2641,   4819,  -2576,   8170,    681,   1233,  -1148,  -8906, -13696,    545,  -3256,   3359,   8499,  -7694,  -1980, -10190,  -8447,  -9456,   3905,  -4843,   5667,   -914,  -4382,   9073,  10256,  16424,  -5200,   7836,   1588,    573,  -2328,   6080,  -1151,    795,   2380, -11440,  -2642,   -273,  -1541, -12455,  -5733,    343,  -4023,   1746,   7565,    518,   4065,   1401,   3099,   1955,  -5357,   6509,   6462, -10527,   7127, -11206,   7086,  11197,  -7034,  -5024,  -4292,   1203,  -6747,  -2934,   1222,  -1113,  -5042, -15224,   6369,  -1784, -12111,   2216,  17077,  -2378,  20466,  -2740,   2078,  -6533,  -6861,  -3755,   7306,  -6047,   1372,   7928,   2771, -11057,  -6828, -16213,  -7153,  -8633,   3492,  -7721,   1345, -11260,   3346,  -2758,   2190,   1872,  -2206,  -9518,  -3921,   1102,  11379,  -8450,  -3543, -12759,  -4477,  10989,   5403,   5039,   4250,   8770,  -9279,  -4549,  -4514,   -396,  -5888,   8844,  -3113,   6526,  -3777,  -7774,   9025,   5657,  -6735,   8842,    537,   3051,    -72,  -1504,  -3635,   5335,   3789,  -1922,   7695, -13849,  -8808,  -8751,  -5477,  -4203,  -4269,   7619,   6866,  -8821,   5156,   5876,   -573,   3838,   5502,  -5175,  -1862,   1770,  -8632,   1837,  -5465, -11097,   7398,   6684,  -9823, -15132,  -4246,   3824,   5725,  -8859,  11103,  -6182,  -5039,   1533,  -1358,  13071,   3883, -12120,     65,  -5030, -11944, -11646,  -3904,  -2063,   2824,    640,  -6534,   8598,   3225,  -4390,    823,   4832, -10441,  -8499,    321, -12373,
          -654,   7568,  -8836,   1667,   8044,  -1318,  -3425,  -5125,  -5648, -13461,  -6826,   2189,  -5413,   5718,  -5539,  -9949,   1226,  -5885,   -519, -11884,  -2862, -11038, -11745,   -922,  -2584,  -9004,  -3206,   -653,  -6935,   3906,  -6101,  -8082,   1705,  -6086,   5546,  -3703, -11399,   1073,   6776,  -2525,  -7500,  -3618,  -7323,    -49,  -2117,  -8374,  -6191,   4717,   2908, -13738,   4772,  -2320,  -8462,   4116,   3746,  -8175,  -6851,   9482,   4453,   9428,  -2678,  -4325,   6381,   1170,   7257,   5925,   -652,  -9861, -10389,   -564,   4888,  -6819,  -2888,    432,   3919,  -9037,  -9111,   7418,   2549,   2985,  -5682,   3012,  -2336,   7822,  -2894,  -4673, -11697,   1806,  -9025, -12107,   2285,   3189, -11457,   5466,   8390,   1708,  -3733, -11923,  -5585,  -1739,   9808,  -3296,  -7937,  -5175,   3564,   -756,  -3870,  -3401,  -3289,   3099,   -794,   4686,   2549,   1795,  -4769,   3501,    305,   6608,  -7818,   5803,   -855,   5650,   5699,   2863,   2445,   -294,  -6771,     51,   7342, -14179,  -9086,   -951,  11074,  -1896,  -6762,   6815,  -7543,  -1654,  -6570,  -4520,  -4989,  -5392,  -2371,  -4048,  -7174,   2546,  -6940,  -5007, -12059,  -3736,    134,  -4605,  -1028,  -9430,   3064,   6961,   6188,  -8544,   -173,   6296, -11540,  -1308,  -8211,    175,   4696,  -5505,   2003, -12333,  -8972,  -9798,   -132,  12912,   4033,   2836,    832,   1535, -11531,   8191,   -249,   1526,   3754,   1601,  -5828,    961,   -256,  -3200,   1647,  -4697, -10628,   2397,  -7390,  12636,  -2145,  -8214,  -7800,    696,   1766,  -2689,  -2462,   9227,   2442,   4771, -19319,   2715,   8181,  -2076,  -5493,  10475,   3903,  -9260,   -828,  11072,   5381,   6288,  -5957,  -1898,  -3691,   2251,  -9411,   3577,  -3116,  -8115,   4666,  -7656,   4881,  -7542,  -5243,   1390, -10233,   -426,   8735,  -6134,  -2345, -15684,  -1852,   7690,   7479,  -7435,  -1867,    174,   6686, -14491,   5589,  -6418,  -1487,   6312,   -732, -13919,  -9772,  -8648,   1564, -12736,  -3671,   3220,  -2748,   3458, -10009,  -3165,   9841,   9155,  -7171,   3509,  12079,  -4379,   3703,   5044,  -2103,   9828,  -4997,  -9663,   4932, -11108,  -9254, -12936,  10288,  -8582,  10213,   3326,   7543,   9105,  -7880,     97,   3280, -15504,  -5863, -10963,  -4107,    224,  -1948,  -5232,    279,   5584,   4966,  -5652, -17614,  -1161,   2005,  -8617, -10704,  -1522,  12545, -13876,   3039,   5416,  -7786,  -5298,   6547,  -4269,  -3319,  -4938,  -9776,  -3705,   1683,  -5085,   4583,  -5081,    298,   3244,  -1786,   7985,   2517,  -6046,   3037,   7183,   2663,  -1043,  -5669, -11138,   7749,  -7309, -12258,   -255,   9375, -11191,  -9788,   -577,  -9172,  -4696,   -470,   1421,   5826,   6711,    232, -12199,    348,   7943,  -2378,  -8633,   1411,   1219,   1452,   1587,  -1802, -11040,   7533,   8628,  -8358,   -879,  -9305,  -5112, -10718,  -2098,  -6264,  -6415, -11741,  -8898,  -7815,   8170,  -2781, -12556,  -6484, -13757,  -5456,  -8451,  -4908,  -5690,   1305,   3565,     10, -18086,  -8667,  -9482,  -5920,  -5054,   3914,   6041,   7950,  -2090, -12639,   7388, -13459,   3806,  -1806,  -7427,  -7121,  -1955,  -1564,    471,  -7790,  -1320,  -9946,  11406,   -483,  -6711,  -1916,   6292,  -5987, -12002,   4077,  -3334,  -9883,  -6881, -12100,  -3940,   2336,   1757, -15334,   4497,  -2734,   -506,   -536,   3380,  -5793,   1571,  -8557, -13482,  -9342,      3,  -3670,  -7516, -11982,  -3540,   6151,   2352,    394,   3472,   -917,  -3806,  -5417,  -9317,   5507,   6036,  -3400, -14278,   5583,  -1653,   7575,  -2932,   6511, -10809, -10081, -14191,  -3445,  -3307,    743, -15995,   6665,   5935,   6251,     60,  -6272,  -7928,   7195,   -198,   3991,   3206,  -3971,  -2827,   5821,  12835,   2711,  10585,   7814,  -4763,  -4157,   1901,  -5984,   3788,  -4018,   3708,  -2301,  -4935, -11717,   6785,  -7937,  -4134, -13902,   2396,  -1751,  -6773,   1828, -15915, -15224,  10280,  -8197,  -7545,  11566,  -5066,   5450, -18758, -12223, -11476, -14273,  -3392,  -1607,   3623,   6039,  -8046,   5142, -11811,  -3906, -14311,
          5284,  -8559,   1844,   9369,  -5692,   3782,   2203,  -8685,  -8374,   -341, -11910,   5925, -14475,  -4970,   6987,   7016, -10812,  -4601, -10308,  -5078,    552,  -4388,   1258,  -6881,   7776,  -3406, -18369, -11867,   5070,  -1567, -14600,   3567,    447, -14624,   1570,  10697,  -5393,   1127,  -1891,   6726, -14814,  -3895,  -5454, -10209,    139, -13797,  -2436,   5035, -15268,   3828,   6793,  -1396,   6990,   -715,   -165,   1109,   9587,  -3006,   2968,  -5050,  -5212,  -9240,  -4876,   6523,   2911,    313,   5604,  -6436,   3114,  -1887, -11541,   6785,  -3079,  -6278,    143,   4291,   3361,   -263,  -4058,   5566,  -8984,   6655,   6009, -11114, -13014,   4521, -10404,  -3848,  -4161,    160,  -6667,  -4203,  -4320,  -3868,    328,  -5957, -14442, -12617,  -3207,  -7726,  -9551,  -2738,  -1424,   2486,    133,  -7647,  -1733,   8928,  -7691,  -6258,  -4241,  14057,  -4751,   4371,  -1183,    475,  -5354,   7648,  -5385,   4872,  -5251,   8634,  -6912,    922,  -4186,  -5152,  -7497, -12158,  -7370, -18485, -12786,  -3682,   -966,   9995,   3441,   3053,   4889,  -9696,  -9329,  -6848, -11332,   6401,   4874,   7786, -24394,   5234,    165,  -9962,   3593,  -6556,   4622,   -146,  -1075,  -6754, -12795,   2245,  -4486,   8619,  -3137, -16399,   9247,  -3003,   6448,  14867,  -2708, -13051,  -1567,   2002,  -1780,  -1328,   4530,   6739,  13145,  -1930,  -3185,  -1654,   8748,  -3246,  -6865,  -5153,   4187,    444,  10448,  -1825,  -1022,    950,   5053, -22220,  -7357,  -7671,  -7990,  10434,  -4586,  -9514,   8920,  -1281,  -6396,  -8397,  -6784,  -6466,  15980,  -7591,  -2230,   6587,   6259,  -9368, -10848,  -6447,   9150,  -9716,   7111,   3833,   3770,   7802,   3392,  -3115,  -6045,  13411,  -3637,   5456,  -4117,   2460,   6577,  -3008,   -333,  -3711,   3367,  -1177,   3675,  -1682,  -1949,  14146,   5489,  -6160,   -741,  -4889,  -7300, -16891,  -6338,  -6320,  -5820,   5302,  -5001,  -5685,  -6331,  12158,   3028,   6642,  -1615,   4894,   4078,   1892,   4172,  -8759,    195,  -9302,   6117,   8746,  -9957,   3156,  -3818,  -7161,  -8716,   3590,  -7176,  -7821,  18565,   6034,  -1349,   4344,    312,  -8957,   -805,   1337,  -7079,  -3384,   2890,  -6838,   3083,    593,  -7625,   7342,  -7975,   1573,    917,   1689,  -6484,  -9943,  -5327,   1576,   3406,  10737,  -4114,  -8813, -11278, -13297,   4593,  -5325,  29038,    605,   2788,    674,    202,  -3973,   9453,   4619,  -2183,   6128,    466,   9484, -10418,  -3258,   5515,   9243,  -8828,  12442,  -4193, -11498,    447,  10242,   2078,  -9606,  -1347,  -9955,  -3623,  -6461,   2061,   4363,   3730,  -5857,   6950,  -8451,  -7963,  -8019,  -9084,  -1697,  -5163, -12888, -11799,  -5489,   -323,   3261,  -9441,  -1355,  -8666,  -7151,   2636,  -2396,  -8694,  -3514,  -2102,   -588,  -1708,  10472,  -3214,    538,  -4804,   1267,  -8985, -14078,  -9145, -18410,  -1930, -11742,   1309,  -5900,   3823,    767,  -8664, -14125,   1277, -10330,  -5360,    964,   2967,  -9467,   2915, -11370, -11179,  10845,  -1998, -14959,   5417, -10481,   2993,  -3096,  -9272,   2683,   5382,   5738,  -7651,   4812,   6513,  -3631,  -5693,  -3347, -10329, -11589,   6291,   5683,  -7740, -11775,  -6724,   3327,    545,   4793,  -7127,   9270,  -8927,   8932,  -5477,  -8369, -12578,   3343,  -4981,   3022, -12151,   8965,   1470,  -2400,  -7676,    -80, -10434,   5575,  -1494,  -8573,  17443,  -2484,  -4462,   4774,  -8919,   2093,  -9572,   3725,   3169,  -8203, -12521,   8601,   6443, -10291,  -8925,   6546,    258,  -9649,   2974,  -1463,  -8095,  -6801,  -2703,   4554,  -1677,   4996, -10929,   2681,  -2809,   7459,  -4727, -15458,   -212,  -3359,   8219,   3084,   1896,  -1313, -25965,  -7271, -11641,   5731,   5721,  -8247,   8895,  -5143,  -6358,   5257, -13854,  -1936,  -4353,    641, -10438,   6429,   2099,  -6505,   -605,  -3591,  -5374,  -8249,  -7673,   2024,  -2715,  -7435,  -9030,  -2580,   9987,  -8996, -11663, -14170,  -1246, -14160,   2244,  -3808,    214,   7491,  10974, -19620,   8089,    603,   1321,   3414,   2795,   -441, -10381,  -8510,
          7039,  -5519,   2191,    258,  -5624,   1362,  -9255, -14086,   -155,   -456,   1680,  -6025,   1004,   4892,  -5203,   3275,    734,  -1499,  -1300,  -3027,   8815,   9336,   7642, -12570,  -7273,   4442,  11935,   3632,  -8114,   7359,   2876,   2886,  -3293,  -3384, -13095,   5956,  -6437, -11919,   1395,    727,   4013,  -7841,   9900,   5282,   4415,  -9510, -18517,  -1234, -11535, -12291,  -9377,  -5206, -12091,  -7810,  -3298, -12637,  -3638,  -4651, -11652,   8762, -15919, -10504,  -2092,  -3778,  -9620,  11862,  -2878,    338,  -9304,   8856, -13855,  -2691, -11640,   4114,  -1265,  -9711,  -2513,   7908,  -7442, -11059, -10866,  -6435,   6811, -11407,   6548,   1687,   4798,   1632,   4827,  -1976,  -7085,    579,  -1099, -11009,   2199, -10558,   -108,    508,  -3431,  -4543,  -6269,  -9123,   2818,    -97,  -1212,  -9801,  -4327,   2693,  -2283,  -7385,  -6373,   3781,  -4573,  -7217,   -166,   2290,     92,   6406,  -9394,   6098,  -6498,   8067,   4675,   3901,    -10,   1530, -12887,  -9231,  -9065, -10730,   5631,  -7606,  -4223,  -1470,   9203,  11359,  -8656,  -7570,  13634,   -510,   3881,   5743, -10344,   4779,   3068,  -1023,   8440,   5062,  -6317,  -4898,   1936,  -5544, -13846,   -793,  -1328,  -6166,  -3787,   7611,  -1215,   -197, -10812,   6285, -12446, -10147,  -1707,  -2494,   3745,  -9691,    -75, -10146,   2303,    318,  -2667,  -3643,    198,  -1646,   3051,   4217,  -4996,   -698,  -5841,   5550,   5610,  -4937,   3199,   3057,  -9794,   6186,   3166, -15432, -10585,  -5808,  -3069, -13108,  -1651,   6534,   6998,   3839, -12561,    -56,   7009,   5209,  -8509,  -8347,  -5880,  -3606,   5846,  -7767,   -533,  -5142,   3180,  -8556,   9732,  -6471,  -6217,  -9619,   3574,   6831,  -7199,   6203,  -7752, -10312,  -4498,    529,  -9919,   7013, -10525,  -1590,  -4244,   1203,   6722,   3309,   -758,  -4979,  -8908,   2759,  13754, -10305,  -2246,   5753,   8614, -15008,  -5577,  -1124, -10187,   3504,   7981,  -2987,  -9858,  -1127,   3667,   -307,   5411,  -3293,  -6309,  -7259, -13514,  -5313,  -5995,  -6085, -11537,  -5424,  -2419, -13845,   3067,  -2795,   5293,    601,  -4767,  -7514,   6012,  -6574,   5531,   1987,   3999,  -3567,  -5629,   -753,  -7100,  -6555,  -2972,  -3524,    311,  -6727,   2115,    325, -11412,   5748,  -6267,   2965,  -2395,  -6713,   4393,   2217,  -7411,   3282, -11014,  -5041, -10300,   3391, -11106, -17364,  -4341,  -1361,   7619,  -1420,   1196,  -6004,   4511,  -9522,  -2804,  -6114,   6527,  -8176,   3325,   3300,  -1173,  -2437,  -2720,    748,    273, -15508,  -1559,   3468,     84,  -6301,  -1421,   8263,   -868,  -1342,   9998,    514,   3327,   5539,  -6153,   2542, -10644,   1048, -10861,   6200,   1315,  -9144, -11430,   9084,  11224,  -1984, -17366,  -1657,   3818,  -3736, -13403,  -4579,   -665,  -1897, -16400,  -4892,  -3229,  -2143, -10491,  12319,   1619,  -5085,   1225,   3776,   6569,  13336,  -2441,  15461,   6394,   8852,  -2948,  -4610,  -7315,  -3947,   1714,   7448,   1037,    248,  -1081,  -5212,   4104,  -9498, -11300,  -7622,   5203,  -6220, -15908,  -4944,  -5880,  -1607,  10183,   -523,  -6822,  -1956,   3964, -16548,  -8561,  -3841,   1522,   7352,  16393,   8986, -17364, -14894,   9938,   2834, -13996,  -4880, -11669,  -8255,  -5687,   3574,  -7889, -15162,  -8493,  -7957,  -3763,  -9229,   4362,   5762,  12566,  -9217,   3149,   9862,  -1905,  -1130,   5911,   3373,  -5218,    244,  -5301,  -8632,  -9685,   1514,   1288,    -94,   2354,  -4731,   7358,  -6196,   -396,  19555,   4773, -16127, -12170,  -8887,  -8626,   1644,    704, -11007,   3437,   4539,  10575,    -40,  11293,  20948,   5853,   6970, -15782,    592, -14083, -17441,  -1530,   2137,   -307,  -5144,   -766,   3112,  -3223,  -4352,  10261,   2064,  -5887,   7069,   8632,   7192, -12044,  -4232,   -588,   -236,  -1048, -11122,    276,  -7046,   1518, -19591,   9867,   4109, -13272,     62, -23187,   -478,  12390,   4530,  -6260,  -3441,  17046,  -3236,   7774,   3113,   9084,  -8353,  -4497,  -3783, -13369, -14763,  -6254,   1992, -13028,   3105,   1889,   4499,
         -1515,   6272, -14557,   7215,  -1108,  -4790,   1723, -12038,  -4058,  -3388,   2029,  10386,  -5452,  12408,   2581,    632,  -6245,  -5836,   8086,  -1015,   4088,  -2045,   5288,  -9357,  -2047, -10631,  -6035,  22289,  -8134,   2591,   4516,   4253,   2221,  -1210,  13773,  -6417,   6133,    -99,   8359,   -377,   -477,  -3534,   8432,  14932,    694,  15459,   8937,   8029, -12655,  -9195,  -6672,  -4940,   3096,   3447,  -3720,  -7028,   -928,  -1463,  -9271,   5536,  -4026,  -3829,  -6795,   4884,  -5547, -10983,   6874,  -1974,  -2625,     12,  14153,  -6368,  -1263,  -1932,   3508,   4500,  -8678,   6937,   3570,   6443, -22651,   3568,   3277,   7305,  -3102, -15311,  -3634,   2157,   8071,  -6555,    995,  -4481,  -1648,   2040,  -7948,   6387,  -2601,  -7794,   1777,  -5116,    727,  -5156, -13852,  -2860,   5070,  -9492, -10564, -10948, -15014,  -2549,  -3043,   8408,   1593,    746,   3793,  -1183,   3614,  -3201,  -4552,   4938,  -6190,   3159,   5323,  -2711,   1005,   5782,    833,   6824,  -5507,  -5352,  -3880,  -5469, -10662,  -4025, -15385,  -8596,   4727,   -194,   9455,  -2203,   8023,   2102, -13566,    795,   1221,   -720, -20429,  -1622,  -4087,  -7746,  -8381,   5601,   1902,   6213,   7180,  -8054,    219,   -539,  -8620,  -4560,   4309,   -292,  -6115,  -6556,  -5820,  13315, -14322,  13534,  -1726,    922, -24486,  -1919,  -7494, -13944, -13342,   1736,   1141,   -938,  -7881,   -298,  -3458,   3280, -14924, -10148,  -1213,   6856,  -3598,  -5070,  12901,    -23,  -9930,    513,   9705, -17238,    872,   2592,  -9914,   7770,  -1862,   2530,   -441,  -1787,  10327,   8498,  -5507,   3342,  -6518,   -858,  -1386,   7907,  -7509,  -1882,  -7966,  -1849,  -1298,   2245,      7,     30,  -2372,  10132,   4927,  -8361,    -83,  -3167,   2237, -16371,  -4805,   6568, -11308,  -3799,  -2328,   3627,  -5153,   1012,   2267,   7774, -12441,   4278,  -9886,   2352,   1111,   3200,  -4917,  -2040,  -7090,  -5288, -11165, -11574,   7527,   2268,  -5117, -14289,  -1780,  -4191,   -809,   4946,   -544,  -9576, -11354,   -510,   -234,   3839,  -1734,   3685,  -8071,   3169,  -8370,   -199,  -5626,  -4178,  -1912,   1286,   7657,   4609,   2184,    641,   7090,  -9119, -16485,  -6695,   2026,  -7595,    177,   2838,    277, -11162,  -3375,  -8834,  -3654, -15490,  -5958,   2688,  -5980, -10202,  17219,   1063,  -1708,   1358,  -7450,   -815,  -6128,   7582, -16292,  -1276,  -5505,   2990,  -7079,   2835,   -296,  -5406,  -8306,  -1285,   4978,   1441,   -378,   2667,   -381,  -5746, -10632,  -4917,   9405,  -7878,    653,   9846,  -5261,   6727, -10206,  -5371,   9832,   7268, -20905,   7126,   6523,   3501, -12743,   8130, -21889,  10476, -11914,   1988,   6754,    846,  -6419,  -4424,   3159,    100,  -8367,   6583,  -5906,  -7734,   7713,  -6599,  10573,  -9014, -11403,  12831, -12948,   2440,  -2483,   6592,  -7069, -10541, -16363,  14396,  -3820,  -5899, -15142,   -319,  -1661,  -3134,   4085,   7162, -12311,   1450, -13337,  13213,  -5760,  -3180, -20267,  -7690,   1474, -11727,  -1679,  -8876,  -8897,   5348,  -8460,   9526,   3750,    939,   4973,  10586,  -5000,  -5422, -10793, -10647,  10024,   8576,  -7859,   2324,   1113, -10605, -10967,   8130,  -4528,   8832,  -7327,  -8155,  -1240,   1426,  -3289,  -9328,  -6866,  -2727,  -8617,  -9986,  -3738, -11735,    203,  -9694,  -6007,  -7699,     27,   1914,   4288,  -3090, -15102, -11333, -10277, -10869,    893,  -7781, -13084,   2729,  -1247,  -9172,   5934,   2034,   5187,  -1318, -12041,  -4134,   7253, -11999,  -1467,   4255,  -1259,  -5967,   1090,    289,  -3269,   7583,  -4295,   2852,   1131, -11757,  -6215,  -8897,   7731,  -7803,   5058,    497,    -87,   2380, -11174,   5451,   -421,  -4083,   -170,  -3909,  -8828,  -3095,   8117,  -8475,  -3360,  14042, -13563,  -4118,  -9133,  -9942, -14693,  -3179,  -4973,  -5877,   -854, -15277, -14047, -10727,  -7094,  -6810,   4972,  -5466,  -5554,  -3322,   1824,  -1022,   7981,   4141, -10471, -12036,    228, -13575,   4041,   -922,  -4511, -10149,   1474,  10591, -12860,   1785, -14242,  -3244,
         -3511,  -8931,  -2529,   5004,  -6566,  -9816,  -4348,  -7058,   3877,  -8129,  -4430,  -1191, -13467,   3334,  -3100,   7352,  -7597,   2435,  -7705,  -9188,  -9847,   8707,   6005,   -976,   3199,   1236,  -5393,   6209,   3253,   5221,   3524,   7569,   2255,  -9864,  -4424,  -9689,  -5648,   2640,   4806,  -7840,  -7529,  -9956,  -7123,  -4659,  -9389,   1329,   2777,  -4084,  -2936, -10526,   1075,   1943,   2719,  -8544,   8380, -11005,  -7068,  -6454,  -5057,   3361,  -6943,    723,   3244,   5590,  -3914,  -4389,   -517,   -314,  -9463,   3235,   3636,  -8593,   8307,   4248,  -8855,   8386, -10246,  -1043, -10582, -12670,  -3881,  -7805,  -4841,   3363, -10515, -18380,    815,  -7055, -10624, -11269,  -7734,   1036,   4495,   3854,   9503,   2895,    281,   7430,   3522,  -1040,  -6137,  -4328,  -4942,    841, -11407,  -2462,  -2865, -14830,  -8067,    -13,   1519,  -6734,   2200,    572,  -5305,   4028,  -2527,  -7111,   5848,   5775,  -3285,   4350,   1546,  -8251,    514,   7541,  -6470,   2491,   3676,   1204,  -7383,  -8205,   4275,  -8282,  -4560,   7168,  -5461, -11327,  -3704,  17913,   1170,   4025,   4021,  -2181,   4819,  -5794,  11473,   2592,  -7286,  -7786,   3801,   8678,  -2541, -12402,  -7750,   7596,  -8004,  -4095,   8409,  -2203,    550,   4096,  -7509,   2263,   5366,  -6548,   -389,    387,  13232,  -5371, -12959, -17130,   9927,   4523,  10435,   5390,  -5110,   8264,  -7394,   2233,   7407, -10294,   3560,  -4151,  11526,   3576,   6962,   4306,   1440,  -7507, -19104, -12016,   5384,  -8860,  -1295,  -3859,   2793,  -6392,  -5399,  -6401,   8846,  -1897,   9223,  -1008, -13044,  -3953,  -2998,   4179,   5408,   1658,   4243, -10960, -11504,  -5717, -11308,  -4163,   3895,   -371,  -7336,   2712,    107,  -7177, -10869,   1016,  -8255,  -3569,   2963,  -3475,   3011,   2545,  -9817,   -172,   -265, -13629,  -1232,   5700, -14889, -14733,   3456,   4112,   3332, -11538, -12608, -16446,    748,   2325, -13848,   2366,   -588,  -9713,  -6619,  -7353,   2754,   5448, -13091,  -6897,  -6640,  -9182,   5316,  -2097,  -8338,   -672,  -2277,  -6746,  -6687,   2039,  12298,   7713,   4109,   -352,  -6906,   2034, -10827,  14614,   4783,  -9795,   2389,   2173,  -6101,   5287,   7025,  -3057,  -1347,   5806,   2021,    727,   -595,  -3458,   6653,  -6290,  -8690,   -547,  -6754,  -8773,   1125,  -6698,  -7692,  -6604,  -7505,   7753, -10067,   3519,  -8833, -11908, -13264,   3788,  -1867,   6849, -16851,  -7198,  -6135,   5588,  -8091,  -7043,  -7928,  -1544,   4397,   3691,  -9235,   3615,  -7397,   4535,   1777,  -3069, -10007,   -752, -11222,  -9201, -16804, -10522,  -5295, -12625, -17090,   3804,   5736, -11598,  -9385,   -350,  -6980,  -5821,  -7401,  -7027,   1420,  -2124,   5841,   5171,   -507, -10450,   7049,  10331,  -8676,  -8375,  -4109,  -5299,   2107,   5882,    361,   8642,   9844, -10120, -10655,   1631,   9798,  15333,    790,   8737,   -148,  -4924, -11839,   -752,   5315,  17081, -15229,   -448,  -6462,   4806,  -3535,   4239,   5388,  29189,  -3712, -10645,  -3988,   -444,   3248,   -682,  -2685,   1816,   7052,    740,  -2188,   -107,  -7323,  -5852,   5031, -25141,  -4844,  -5555,   -641,   7807,  -2160,   3403,   2566,   4687, -14307,   1038, -10749,    329,    258,  -3898,   -714,   5997,  -5308,   7111,   7159,   9497, -10103, -15968, -11682,   3368,  -8168,  -1863, -14311,  -5302, -10753,   -346,  11485,  -8763, -10194, -15597,  -2669,  -8267,   2109,   1432, -11213,  -2982,   -526, -12827,   2202,  -1698,  -3336, -17113,   3145,  -9136,  -5610,  -1103,   -992,   2511, -15623,  -5595,   5347,  -7150,   8924,  -7787,  -2834,  -8267,   7151,  -8343,  10124,   4443,   -514,   -475,   8961, -10324,   -861,  -9234,   4230,   2407,  -2267,  -2120,   7086,  -7971,  -2065,   -537,  -2238,  -2542,    171,  -3785,   1281,   3673,   -978,  -8416,   2624,  -6272,   5563,  -7687, -12640,  -7132,  -7902,   4345,  -6604,  -2115, -14968,  -7713, -12434,  -5423,   5053, -10454,   -676,   1753,   8001,  -2036,  -9846,  -4079, -10549,   7688,  -4444,   7257,   7333,   5519, -12474,    533,
          -726, -11384,  -4388,  -1399,   -269,   4116,   9835,   7729, -11947,  -1828,    945,  -4412,   -488, -10348,   8987, -12074,    206, -14167,    337, -16151,   6502,   1076,  -8883,   3457,   8450,   5090,   2017,  10013,   2778,   -103,  -2347,   7384, -13891,   4886, -12821,   1144,   9165, -12207,   7729,   5466,   -726,  -6397,  -5416,  -6541, -12897,     19,  -7021, -10293, -12913, -13973, -10965,  -1947,   2922,  -5074,   2003,  -4020, -11724,  -4754,  -8248,   1157,   1151,   4351,    776,  -7532,  -4469,   5084,   4059,   3318,    -91,  -1004,   4183,   1191,   7403,   8991,  15608,  -3298,  -4487,  -3915,  -3553,   5215, -10731,  -2647,  -4310,  -8011,   7294, -11935,  10764,  -5298, -10017,  -6861,   2257,   4181,   -514,   4312,   5130,  -9380, -15725,  -2571,  -4591,  -4321,  -9810,   2712,  10574,   6584,  -9341,    802,  -6235,   6298,   5612,  -9760,  -7301,   2653,   3311, -11432,  -4256, -15932,  -5965,   8619,  -7369,   3134,    111,   4120,   9828,   -419,  -3222, -13012,   2505,  -5500,   4039,    418,   4014,  -2913, -12037,   5004,  -4819,    438, -15949, -12795,   3799,  -5176,  -4344,   2447, -14722,  -5833, -10389,  -6396, -12975,  -4203,  -7518, -13011,  -6204,  -6769,   1216,  -3353,   -966,  10468, -15525, -16133, -10912,   2934,    676, -12561,   7749,  -6792,   6689,  -6600,  -7904, -15880,  -9567,  -9177,  -1599,   2409,  14950,  -6112,  -5755,   6816,   7891,  -5122,  -4831,    708,  -8860,   2028,  -2360,  -4666,   2830,   -592,  -5549,    453,   5139,   3031, -13589,   3476,   5426,   7892,  -3393, -10539,  -5460,   2501,  -3341,  -6126,   1806,   9318,   3033,  -3299, -14339,  -6480,   2679,    609,   5910,   6076,  -6925, -13509,  -6845,   3666,  -2921,  -4722,   5102,   5894,  -4393,  -3667,  -8347, -14840,  -4788, -11380,   -479, -10782,  -2185,   4354,  -1029,   2198, -15747, -14486, -30745,  -9563,  16613,  -4464,   4170,  -5722,   2172,  -1315,  -1507, -15837,  -5004,  -3680,   4603,  -6708,   6869,  -9890, -11647,  -8204,   2212,  -1175,   1353,   2938,   6922,  12346,   9750,   3810,  -2518,   2759,  -7576,  -4059, -10365,   6333, -14581,  -1607,    -37,   3694,   1827,  -2586,  -7941,  -9371,  13084,   3149,   7839,  -7593,  -4124,  -1830,  -4122,   5274,  -1609, -20674,  -3381,   8625,   2148, -10250,   5213,  -3158,   9932,  -4827,  -9243,   5446,   7159,   -603,   8442, -18236,  -4379,   7670,  16542,  -3125,    124,   4344,   6006, -14915,  13495,    518,  -1852,   4430,   -146,   3150,  -8850,  -4370,   2607,  -9083,   4228, -18856,  -5882,  15230,   3846,  -3884,   5779,  -5475,  -6599,    117,   3260,    922,  -7539,    945,  -1623,   4796,  -3693,  -1507,  -6722,   5352,   6533,   -218, -23822,  -2666,  -5975,   1624,  -7093,  -9339,  -7972,  -9909,   5509,   1149,  -6198, -16073,  -7931,   7517,  -4226,  -5548,  -6736,  -3038, -13068, -10670,  -3078,   -286,   3348,  12455,    737,   8105,  -1781,   6465,  -8999,  -3131,  -5451,   3249,  -9896,   8561, -10244,   4858,  -5169, -14174, -18573,   3264,    622, -17917,  -7716,   1664,   6531,   5870,  10299,   2568,   1525, -21857,   6243,   7857,   4528,   3458,  -3959, -10968,  -1628,   8766,   -236, -10156,  -4080,  -4045, -12748,  -7814,   9288,   4988,   2659,   7242,  -9418,  -7449,  -5596,   1814,   1742,  -6411,   6190, -13597,   3157,   2365,  11546,   7442,  -2914,  -8859,  -2217,  -5790,  -9070,    620,  -2508,  -1843,  -7460,  -5691,    -56,   9494,  -1533,  -1427,     68,   6426, -24121,  -3429,  -4565,  -1216,   3977,   1361,  -4634,   5595,   8793,   1122,  -1064,  -4822,   2758,  -7233,   -582,  -6035,  -4993, -18972,   1555,  -3917, -13861,    548, -11569,   5929,  -4769, -13747,  -4057,  -4668,  -7280,  -5528, -12296,   6882,  -8365,  -3185, -17971,  15354,  -5562,    636,   -399,   1321,   5999, -10120,  -1833, -13460,   1242,   -354,  -6038,     57,   1243, -15831,   4082,  -6356,   9670,   2786,  -5202,  -2015, -12730,   1005,  -8809,   6359,  -4899, -21832, -14914,  -6068,   1498,   7219, -14253,  -2562,  -3078,   6961, -11150,   1958,   1024,  -9952, -11017, -10834,  -1525,    980, -11358, -11409,
        -12297,  -4829,  -4214,  -2975,   -669,  -8811,    723,  -4049,   5409,  -5370, -10737,  -9456,  -9512,  -2346, -10528,   -317,   2014,  12212,  -6337,   6708,    411,  -6779,   2113,  -5823,  -4982,  -7225,   2731,  -7919,  -3562,  -6655,  -8881,  -6254, -12100,   6127,    732,  -6230,    980,  -1158,  -8520,   7579,  -2149, -12611, -12161,   -535, -13712,   4031,   7865,   3851,  -6924,   5430, -11192,   2472,  -9259,  -1068,   1774,  -7260,  -8377,   1427,   1016,   4332,  -5613, -10444,   4241,   -625,   3643,  -4982,   8372,   6135,    370, -10887,   7414,   5695, -10019,    315,  -2136,   6139,  -6462,   1179,  -7345, -11598,  -2269,   1759,  -1519,  -9982, -11192,  -2118,  11014,  -2644,   7192,   2546, -10372,   6141,  -6457,  -2542,   6058,   2731,  -6798, -10289,   8514, -11771,   -178, -11554, -15453,  -5009,  -5461,   2868,   4743,   1074,  -5174,  -1867,   7059,   3385,  -2520,   3219,  -5394,   2496,   2420,   4930,   7591, -17499,   4284,  -8628,  -8068,  -7963,  -3977,    166,  -7877,   4517,  -9212,   4733,   1509,    900,   6726,   3744,   1444,   4381,   -175,   -726,  -2701, -11377,   7745,    494,   2117,  -1958,   -335,   4873,  -3006, -13511,   3013,   3161,  10893,  -1783,   6453,    908,   7133,  -8066,  -3493,   6942,  -9712,   4514, -10063,  -1388,   8860,   2642,  -9725,  -1473,  -5674,   -967, -15800,  -4964,   -522, -10111, -10121,  -6758,  -7657,   8395,   5652, -10025,  -6990, -11628,  -1537,   6933,  -8922,  -7787,   3779, -14315,   -256,   7177,   6258,  -8716,   -561,   5939,   6087,   4541,   1255,  -7975,  -7458, -12843, -10052,   5438,   7572,  -4509,  11688,   -796,  -5545,   7127,  -5698,   7833,    180,   1824,   6945,   4440,  -7263,   4136,  -7078,  -7531,   1309,   1601,   1538,  -2955,  -6291,   2318,   5612,   2917, -11661, -11343,  -6634,    976,  11921,  -3056,   3409,  -1982,    925,   1764,  -7061,  -4593,  -6569,   -652,  -1854,   -941,   -476,   3743,  -3013,   1209,  -3850,  -1654,   9177,   3695,   4788,  -2934,  -1027,   1630, -12550,  -8561,   5984,  11018,   4166,  -7891,  -1028,   2382,  -3175,  -9104,   4534,   6561,    -35,   5124,  -6648,  -8607,  -5305, -11986,  -4291,  -4679,   3702,   3677, -10215,  -7441,   7152,  -3447,  -3439, -11388,  -9082,  -3616,   8909,   8034,  -8418, -12311, -10619, -10902,  -6368,   7517,  -4138,  10701,  11699, -11793, -10648,  -8051,  -5400,   8930,   3942,    916,  -2342,  -7665,   5978, -10433,   8540,   2495,  10380, -13959,  -5540,   5774,   -861,  -7600,  -2686,   4394,  -1132,   5628,  -5582,  -3756,  -2621,  -9021, -21461,  -3722,   1155,   -959,   9553,   4259,  11278,  -6689,   1267,  -1670,  -1311,     13,  -1218,   1209,   5684,  -2885,   1380,  -8545,     64, -12457,  10022, -11292,   9106,   8774,  -8319,  -5513,   8261,  13296,  -4915,   5358,   9455,  -6422,   2976,  -5401, -13742,  -4911,  -2498,   5615,  -5916,   4048,   -375, -12928,  -2348, -10337,  -6316,  -9442,  -5302,   9311,   3626,  -1372,  -7847,   1080,  -5442,  -6728,  -5137,    238,  -7648,   4138,  12497,   7615,  -8605,   1792,   6892,   5942,  -9462,   7505,   5532,   4746,  -1445,   4324,  -5869, -14622,   3814,  -2370,  12769,  -5142,   8498,  -8661,   2747, -10087,   3537,  -9023,   7208, -14569,   -822,  -5783,   4631,   1728,  10194,  -9084,   7202,   -597,  -2850,   4230,    951,  10741,  -3768,   2135, -11062,    860,   5921,  -6481,  -9930,  -7615,    668,  -3572,  12633,   3346, -11591, -10251,   2437,   -278,   -401,   3718,   3351,  -4001,  -2433,  -3045,  -3752,    493,  -5146,  -6739,  -7015,  -1026,   5554,   4298, -11325,   2687,   3489,   6623,   -437,  -8585,   5136,  -4645,   1535,   4160,   4649, -14448,   4621,   -469,  -2866,  -6405, -11184,  -7851,   6754,   8946,  -1020, -11266,   6911,   7722,   -101,   -982,  -7906, -12773,  -8803,   2574,   4872, -14764,    686,  -2984, -11492,  -4932,  -7676,  -6292,    348,  -9623,  -6785,  -5882, -15299,   2922,   2999,  -7120,   2846, -24253,  -1198,  -9044,   7061, -12641,  11800,  -9657,  -8846,  -7447,   7148, -10886, -17510,  -9124,   6622, -20660,  -2859,   2366,   8808,  -8638,
         -9276,    392,   1616, -12344,  -5641,  -1094,  -4561,  -8848,  -9916,  -3148,  -2338, -18197,  -8303,  -2775,  -9701,  -5316,  10492,  -2833,  -3832,   -958,   3737,  -5474,  10017,   -221,  -1629, -13910,  -6295,  -4242,  -7200, -19364,  -6647,  -7351,  -1909,   2537,  -7064,   8431, -16774,   -200,  -8150,   6032,  -1813,   3421,  13788,   8887,  -5039,  -1106, -19768, -15489,   9768,   5779,  -3786, -10897,  -8553,   7237, -17534,  12557,  -4335, -10500,  -2978,   4290, -11045, -23416, -11478,   4245,   1567,   6326,   2707,  15123,  -9316,  10687,  -3419,   6107,  -3315, -11537,    125,   3237,   1204,  -5780,  -5045,   8840,  -1679,   4644,   7574,  -8670,  -3762,   1874,  -2771,  -9983,   4080,  -9920,   -954,  -5394,   -609,  -3781,  -5017,   9747,  -4723,   4201,   7481,   2802,   7442,   4257,   1545, -14289,  -7804,   3587,  -2598, -15488,   5515,   3284,  -4616,   3329,   4035,   6522,   2193,  -5012, -11241,   9415,   5722,  10488,   1407,   1712,   8198,  -5302,  -6913,  -3904, -12159,  -3801,  -9295,   3379,   -832,   4026,   7326, -11505,  -9475,   2847,  -5801,   9182,  -2286,   -943,   3561,  -4743,  -4611,  -6892,   8500, -16598,   6215,    324,   8334,   5168,   7227,  -8223,  -8767,  12429,   7811,   3971, -11672,  -7238, -11081,  -9608,   5543,   2768,   2497,   2992,  -1778,  -2914,  -6859,   9227,   5874,  11019,  -7499,   -676,  -9216,   3335,   1080,   3231,  11376,   7275,   5133, -14237,   7309,  -5959,  -6619,   3029,  -6085,   5225,  -8918,  -9514, -11412,  -8358,   2447,  -1128,  -4490,  -1192,  -3765,   5163,   7275,  -7521,  -6697,   4064,    740,  13153,  -6584,  -5377, -14031,     19,  -7703,   -263,  13030,  -2390,  -8394,  -6461,    930,   7019, -11166,    873,   9244, -16316, -10021,   1064, -10743,  -4090, -13798, -11764,  -3738,   -877,   8221,   4324,  -2238,  -6106,   1425,   2450,  -8169,  -1160, -13883,  -9491,   8454,   2102,   8455, -13373,  -5471,  -6404,   4764,   3885,   -815, -12741,  10595,   4359, -12230,  -1329,  -7090,  10031,   6552,  -6742,   3654,  -5289,    758,  -1822,  -6603,   4392,   8257,  -5198, -24418,  -9885,  -6094,  -6443,  19563, -20642,  -7570,   5023,  -4732,   2624,   4045,   3887,  -9228, -21832,  10482,   -983,  -7279,   3000,  -9130,  11254,   9850,   1769,    168,  -5110,   3482,  -4089,  -3147,   3070,    272,  -4903,  10408,  -9458,  -5952,    225,   3277,   2187,    866,     57,    -91, -14446,  -4559, -10672,  -5749,   1130,  -3283,   -369,   5050,  -7350,  -7486,  -4136,   2680,   5427,   1563,  -7967, -11195,  -2064,  -4926,   8319,  -3645,  -3181,   5879,   2470,   9596, -11692, -20173, -14276,  -3818,  -3201, -15538, -11052,  -6138, -17937,   7203, -14104,    282,  -7777,   1087,  -5909,  -3176, -10454,   8243, -11977,     99,   -673,  -8489,  -4804,   5034,   2312,   5005,   4328, -10563,  -2371,    274,  -1036,  -2982,  -6966,   9557,   -870,  -1328, -12089,   6678,   8791,  -1654,  -3343,   5012,   6432, -10218,  -8146,  -8688,  -3756,   2641, -13433,   6278,  -8235,    491,  -7180,  -6215,  -4308,   4786,   3812,  -9093,  -2160,   1301,  -7114,   6041,  -7064,    151,  -2061,   5831,   8091,   9952,   -497,   8424,  -2214,   2346,  -6302,  -9200,  -2709, -10039,   -171, -12186, -10182,  -1893,  -3567,  -7965,    337,   4870,  -4332,   4046,   4491, -10652,   1439,  -7949,    625,  -2479,   6412,  -4658,   7381,   4972, -13278,   -378,   4193,  -5191,   2467,  11271,   4108,  -8062,  -9665,   -497,   4090, -15029,  -9146,   2771,  -2217,    495,   6755,  -2046,   3472,   1330, -13290,  -2754, -18414,   1624,   1806,  -5312,   6124,  -1560,   5911, -11928, -10811,   8767,  -8874,  -6468,  -7963, -11163,  -2807,  -9454,   5456,  -5015,   4573,  -6824,  -8046,  -6716,  -5270,  -9066, -11936,  -5167,  -3333,   4633,  -9442,   3852,  -5294,  -7004,  11439,   1148,  -4486,  -5002, -11204, -12580,  -7824, -11338,   3449, -10585,  -3307,  -7690,  -7640, -12351,  -3654,  -5169,   8549,  -3644,  -6307,   1912, -10329,   2869,  -1230,   5548, -11181,  -4837,   1305,   7817,    302,  -4503,   7214,   6907, -11308,    530,   7051,   1213,   7619,
         -8486,  -2715,   3441,  -3844,   7021,   -733,  -8577,   7130,  -3821,  -3487, -10898,    443, -11402,  -2564,   6721,   7088,  -2882,   -318,  -9501,  -7543, -13174,  -5040,  -5481,   1819,   -432,  -9267, -11941, -12556,   -182, -13244,  -9024,  -3745,   -406, -12544,  -6475,   5978,  -4024,   3031,   -176,    971,  -8474,   -750,  16146,    287,   9497,  -2229,   3123,   7557,  -4998,  -4917,   2432,  -4959,  -3790,   7319,  -8480,   6814,   -418,   6767,   -911,  -3367,  -7494, -12108,   -120,  12501,   7384,  -5561,   1827,   1496,  -8555,     65,  -6578,   6954,   6828,  -3790,  -4986,    317,   8462,   2325,   6758,  -4126,   5410,   3867,  -9894,  -1402,   2036,   -628,  -6869,  -6892, -12806,  -2298,  -6267,   4599,   -106,  -5235,   -477,  -1713, -11989,  -2535,   6847,  -7869, -11244,  -7938,   9056, -11100,   -178,   6966,   2335,   8828,  -7482,  -7040,     79,    337,  -6233, -11634,   7306, -11303, -13329,  -3062,  -3244,   4273,   9336, -11829,  -2789,   8171,  -7151,  -9057,  -9193,  -4273,   2118,  -5486,    479,   3261,  -3068,   3112,   7619,  -1742,  -4122,   7899,  -3227,    -66,  -1387, -14085,  -6865,   4426, -10598, -15975,   -714,  12275,  10464,   8907, -10023,  -7098,  13251,   3645,  -9086,  12584,   -855,   1930,   3246,   6299, -17923,   5144,   2855,  -8553,  -6609, -11628,   5247,   4559,  -6409, -13066,  -9892,  -3989,    528,   -274,  -8412,  -5096, -20336,  -6210,   4675,  12479,   6569,  -5442,   8041, -12497, -15224,   9626,     26,   2551,  -5601,  -6974, -12021,   5865,   1802,  -5034,   4427,   2119,   8715, -22379, -11032,   5565,  14083,   5581,  12026,  -4811,   -486,   1682,  -6863, -11522, -13405,  -1215,   5939,  -3775,   -491, -11961,  -8994,  -9119,  -8884,  -2704,   3409,   8188, -12949,    820, -10168, -10488,  -1494,   5178,   6702, -11385,   2665,  -2590, -10770,    -47,  -4679, -10757,  -8615,  -9437,   4934,   8556,   7474,   4046,    437, -15280,  -4846, -12194,  11988,    367,  -4114, -11724,   -303,    752,   9112,   -116,   2371,   -163,   3878,  -8887,  -3122,  -3521,   7731,   2108,   9987,  -8152, -11054,   5673,   -616,  -6651, -12744,  -7671,  -5044,   9235,  -1102,  11153,  -7408,   7663,   6026,    897,   9734,  -6106,  -6057,   6080, -10566,   3759,   8232,  13295,   1527,    317,  -9281,  -1462, -11394,  -5685, -10418,  -6621,   -710,    104,   2779,  -4047,  -4125,    244,   -904, -15641,   4544,  -8603,  -2759,  -4704,  -4013,   1515,  -1127,   2222,  -9463,  -4719,  -1062,  -4846, -14492,   9018,   6589, -17088, -12414,   2518,   -796,   7712,   7652,  -7409, -12980,  -4491,  -6783,  -2508,   8004,  -5569,  -7073,   7518,  -1117,   4303, -23413,   4281, -14686,    288,  12467,   9545,  -5817, -13647, -13994,   6200,   3497,   4861,   4062,    325,   -965,  -2329, -13656,  -1841,  -7669,  -9565,  -5530,  -4515,  -5654,  -2849,   1259,   1869,  15964,  -3525,  -1656, -13933, -20673,  -1874, -12298,   -265,  -5987,  -6513,  -3865,   8604,   2652, -21008,   1941,  -8546,   4499,   -308, -12584,   2661,   3487,  -5240,  -2359,  -3204, -12811,   8409,  -5564,   1277,  -1817, -14015, -10343,   5608, -19606, -15852,   -864,  -4915, -10549, -13796,   -160, -10457,   6751, -12161,  -9278,  -5182,   4053,  -9133,   6472, -12891,  -7425, -14798,   3308,   1096,   7277,  15527,   6145,  -1021,  -7603,   2805,  -9226,  -5152,    -32,   1527,  -5853,  -3594,   7776,  12005,  12021,   7271,  -9420,   3455,  -6343,   2507, -11432,   1521,  -1149,  -8791,  -7316,   6679,  -4341,    598,    -18, -12080,  -7674,  -1588,   7157, -10634,  -3291,  -5859, -10000,  -1755,  -8188, -17204,   1984,  15538,  -6816, -12719,   2322,  -5114,   7303,  -7464,  -7268,    628,  -8953,   2665,  -4738,   1727, -24469,   7113,  -5831, -10202,   6038,  -8258,   3726,  12054,  -2215,   3707, -14963,   -738, -11305, -14757,  -6402,  -5865,   1144,    521,   1579,   5044, -14008,  -4750,   7989,   -907,   7555,  -8679,   4621,   8974,    500,    673,    211,  -1417,  -7105,   4638,  -6902,  -8596,  -6164, -11178,  -4314,    853,  -7176,   9169,   4385,   7331,   7989,   8028, -11197,   -775,
         -1412, -18129,   2040,   3060,   -712, -10690,  10453,   2410,  -2545,   -786,  19231,   6636,  -5531,   1207,  -2264, -12582,  -8988,  -8883,   6644,   4138,   2134, -11975,   8415,   -439,   3024,  10181,  11990,   9499,  -2159,   1409,  -4684,  -5168,   2924,   4318,   1266,  12664,   3153, -13460,  -8557,  11796,   1321,   2056,   4350,   4465,   -685,  -9927,   -627,   8373,   9670,  -2762,   2042,   5844,  -5395,   7803,  -6712,    102,  -3379,   3212,  -8515,  -8870,  -5203,  -2617,  -2091,  -6806, -11846, -11685,  -7336,  -4497,  -3013,   -675,   9865,   9314,   5374,  -8476,   9550,   6506,  -6312,   2122, -16486,   2404,  -7116, -10009,  -1269,  -4467,  -5527,   5690,  -6276,   3452,  -9112,   -758,  -4635,  -3619,  -1556, -20457,  -7134, -11943,  -2343,  -8522,   2552,   8026,   7076,   4678,  -6379,    989,   4649,  -2173,   1933,  10715,  14910,  -1896,    -39,   4827,  -3238,  -8997,   5937,    900,  -2531,  -3821,   2939,   8056,   2698,   -282,   6030,   3759,  -1902,  -4906,  -9594,  -3329,  -6565,  -8491,  -4224,  -4758,  -1148,  -4642,  -7518,   7985,    437,  -7562,   2350,   2113,  -7380,  15417,  -5711,  14649,  -6032,    345,  -7205,  -1762,   -664, -11109,   6629,   5159,   1197,  -2895,   1204,  14630,   8042,   3587,    -66,  -3290,  -1919, -10680,     59,  -8707,   4033,  -8027,   2301, -10960,    -29,  11604,   3112,  -8476, -13454,   1733, -14456,  10687,   2854,   3194,  12237,  13398,  -4021,   3646,    -22,   9613,  -1048,   5929,   4595,   2092,  -2558,   5835,   3283,  -2540,  -9082, -10405,  -7419,   2289,   1237,   6197,  -6399,  -8701,   3735,  -9863,  -4466,  -8459,  -6765,  -3763,   7674,    492,  -9421,  -3822,     29, -12364,   8805,  -2909,  -1826,    405,   6620,  -3673,   6183,  -3359,   -388,    202,   2052,    229,   6100,  -9050,  -1737,   6562,  -4032,   9841,  -8481, -17919,  -4543, -12353,  -8737, -19953,   -517,  -4029,   6609,   1428, -11936, -13008,  -3098, -22492,   9164,  -7890,  -5427,  -5353,    632,  -6129,  -9999,  14794,  -3113,   -821,   5118, -10918,  19792,  -5630,   2519,  -9418, -10242,  -8735,   1910,  -2065,   9054,   5392,  -5929,   6769,   9972,  -5379,    971,  -1217,   1892, -12176, -10180,   4742,  -3166,  10024,  -5596,   5578,  -6113, -16507,  -7249,   1251, -11143,   4280,   4214,   3437,  -3264,   8171,  -7557,  -6053,   3708,  -6917,   1088,   1234,   5295, -15084,    965,  -2744,  -8582,  10021,  -9253,  -8953,   6373,   2890,    980, -10503,   4868,   -882,  -8799,   5931,  -4080,  -6325,   2423,  -1387,    302,   2761,   -601,   5298,  -6923,  -2123,   3698,  -7289,  -4237,   1601,   -804,   5409,   7646, -12737,  -3740, -13765,   1768,   2179,  -7589,  -2982, -15964,   4868,   -865,   3759,   6171, -10900,  -3123,  -4008,  10144,  -2823, -13045,  -6743,   7611,  -3896, -14548,   4725,   3912, -17508,  11330,  -7228,  -5304,    463, -13772,  -7390,  -6906,  -9150,   3567,  -1966, -14264,   5782,  -7888,  10246, -19303,  -6930,  -3098,  -3260,  -3588,  -5974, -16533,  -4773,   6657,   2535, -12614,  -9687,   7172,   1419,   7167,   2641,   2717, -10367,   2075,    -89,  -3477,   3741, -14767,   4503,   2850,  -5639,  -7899,  -8419,  -5398,  -6341,   1674,   8220,  12089,  -1145,  -4896, -18822,   6330, -11403,    -18,   6649, -10675,   3987,   1807, -13533,   5958,  -1560,  -9977, -10061,   5843,   3466,  10323,   1693,  -4191,  -1142,  -3578,  -1171,   9993, -10945, -10304,   5604, -13104,   -876,   1998,    522,  -1520,   2296,  -7203,  -4961, -11091,   3630,  10411,  -4123,  -6379,   5827,   3473, -21447,   1009, -10426, -13225,  -3557,  -3240,  -6663,   7865, -10152,  -4674,   6296,  -7854,   8171,  -5039,  -3063,  -4256,   6037, -15271,    690,   3438,  -1037,   5546,  14565,  -3453,    603,  -8655,   3117,  -9128,  -7206,  -7152,  11564,  -8848, -14232,   2709,   6725,  -8761,  -9110,   1505, -18775,  -9725,   1867,   1333,   5695,  -2694,  -4929,  -9488,    496,    255,  -3659, -16803,   5654, -16958,   7676,  -1853,  -2541,   4920,    -23,   5196,     87,   1089,  -5002,   2143,   5078,   1168, -10069,    347,  -2044,   9367,  -8336,
         -1154, -20751, -10503,   5708, -14629,   2697,   2246,  -3876,   9709,  -4888,   7714,   2376, -23473,   4924, -11729,  -7700,  -4153,  13929,  -3654,  -4866, -10029,   3945,  -3996,  -7032,  -5714, -11904,    222, -14100,  -6330,  -1431,  -4135,  -9553,   3898,  -1754, -14182,  -4856,  -7472,   4775,  -2521,   1663,  -3857, -16747,  -4933,   6063, -10353,  -1942,  -6010,  -9269,   6667,  -3914, -16267, -10081,   -236,  -1279,  -4465,   4526,   7445,  -3431, -14545,   2441,   9547,  -8633,   1865,   2009,  10349,   2281,  -1083,   1905,   5743,  -8444,  -5906,  -3294,   6867,   7987,   8504, -12443,     76,   1510, -11093,  -6163,  -6172,  -2975,   1035, -16457,   6654,  -6122,  -3804,    215,   3560,   5478,  -8862,   3187,   4660, -10016, -13754, -10177,  -2412,  -1930,   1055,  -3286,  -4300,   -738,  -9606,   4076, -15828,   4099,  -8551,  -1527,   2254,  -8731,   7031,  -9653,  -2392,   5338,  -5234,   1546,  -4129,  -8963,   6539,  -5300,   5006,  -4747,   9465,  -8924,  -3004,   5971,   5914,  -6984,   1943,   1308,    666,   1860,  -7939,   8680,  -2657,  -4982,  -2112, -12198,  -5252,  -8617,  -5494,   6662,   1537,    979,   6949,  -7150,  -3870, -12237,    818,  -2907,  -9835, -15789,  -4474,   1342,  -6423,  20363,   -242,   3021,   6808,   4434, -12647,  -8305,   -232,  -5394,   5753,  -8267, -11512, -13535,    434,  11970, -15530,  -1802,   4960,    262,   4293,   9451,   2332,  -6145,    628, -14582,   8226,  -1117,    370,  -6413,  -4519,  -2936,  10906,   2842,   2101, -10130, -17486,    713,  -7205, -11494,   9518,  -6429,   9971,  -9201,  -6873,  -8978,   4995,  -3817,  -9630, -13485,  -1170,   5080,   2175,  -8396,  -5061,   3542,   1852,  -5302,  -5151,   6453,  -2345,  -5800,  -7404,  -2458,  -5574,  11754, -10577,   6105,  -4533,   2542,  -3219,  -5077,  -2911,   -424,   3596,    622,  -6934,   3503,   7549,   5885,  -9373, -14673,  -5545,  -3573,   9288, -11425,    233,  -9445,   3238,  -1114,  -1936,   1882,   8571,   6725,  -8392,  -3271,  10076,   3617,   3233,  -1836,  -9461,  -8920,  -7879,  -2000,  -4721,   2243, -19459,  -5049,   -579,  -9248,   4910, -20443, -13344,   1320,  -1053,   4026,  -6972,  -1174, -20153,  12828,    456,  -1655,   3778,   2841,  -2986,  -8330,   3908,   -325, -14278, -16848,    866,   6855,   2319,   -140,  -3458,   8098,  -9306,  -2590,  -6788,   5726,    355,    714,   2648,  -6981,  -3710,    189,   8426,   3756,   1402,   4228, -12760, -14460,  -4715,   7322, -11218,  -1781,  -9908,   3271,   2248,  -3522,   1757,  10926,  -1015,  -9071,  10074,   2694,   4299,    117,   7092,   5167,   1813,  -1725,  -5220, -12030,  -7882,   1416,  -5364, -17034, -10508,   6283,  -1681,   3526,   2219, -10210, -10188,   4009,   3471,   3646,   3097, -11385, -13465, -12864,   5482,   5040,  -3070,   9000,   -622,   -864,  -3696,  -1927,  -4994,   9614,   6701,  -4315,  -8103,  -7795,   6517,  -6484,  -9890,  -8679,  -2168,   6698,   4778,  -1325,  -9134, -11407,  13876,   5553,   2454,  -4544,   2475,   4421,   7434,  -2663,  -4070,  -2082,   5032,   8101,  -5101,  -7724,   5088, -15747,   4419,   4848, -18593,  11532, -14068,  -2695,  -4694,  -8118,   1648,   2368,   -725,   -505,    758,   1753, -12423, -19943,   2012, -12082,  -2226, -12193,  -7813,   -379,   4907,  -2365,   -566,  10416,   -678,   5769,  -5863,  -6770,   8183, -11891,  -8516, -12388,   3185,   8319,  -8726, -10359,   -126,  -7714,  -9142, -15181,  -4150,  -4853,  -3870,   2365,   8082,   -116,   6484,  -6830, -11711,   2091,    -72,  -3024,  -1168,  -8005, -13752,  -5683,   4343,    178,   6396,   7194,  -9318,   1336,   3339,   3308,  11745,   3939,  -1602,  -3196,    764,  -4984,   3238,  -8252,  -2855,  -6218,   7118,   1636,  -3492,  -5629,   9555, -27382,   2587,  -1341,   2022,   2794, -16549,   1514,  -4637, -15399,  -2198,   3958,  -2939,   1677,   1678,  -4934,  -7637,  -3480,   2229,  -2765,    193,   1435,  -1791,  -9043,   1703,   4168,   -981,   7158,   -496,   -128,  -5982, -10278,   6743,  -9515,  -6420,   -437,  -5098, -10393,  -4649,    -84,  -6014,  -9729,   4928,  -3571,  -5917,  -7112,
          7082,   2614,   6439,   4940,  -4736, -10223,  -2633,   1892,  -8137,  -3333,  -7447,   7786, -20213, -17494,   1052,   8343,  -6034,   8956, -10587,   2581,  -8754, -13875,   1892,  -5710,  12397, -12697, -11096, -12792,   5415,  -3510,   5229,   8875, -10801, -10809,   4229,   1258, -12563,   -774,  -7507,  11388,   8738,   -250,   -296,   4057,  -6253,   6173,   9856,    303,   -530,    453,   1193,  -5000,   4485,  -3625, -14149,  -1656,   9273,  13731, -12392,  -6107,   8401,  -9996, -17157,  -8880, -10526, -12007,   9387, -11197, -14650, -16991,   3125, -11250,   1929, -17832,  -1867,   8311, -18610,   1738,   4925,   1119,  -7027,  -5054,   5484,   4824,  -4612,   3849,  -3459,  -5342,  14465,  -4954, -16292,   3875,    633,   6916,   5839,  10634, -11102,    494,  -3308,  -3610, -10304,    -82,  -6613,  -1170,  -2718,  -4360, -11447, -18365, -10203,  -9428,  -7797, -14996,  -8173,  -3390,   7847,    654,  -6352,  -4613,  -8597,   1339,   4101,   -885,   4280,  -2843,   6670,   9350,   1670,   -991,   2172,   3739,  -3676,   2811,  12743,   1063,   8149,  -3009,  -1448,   2899, -16554,   1832,  -9133,   4938,  -1940,   2241,  -2916,  -7154,   5430,  -2707,   -791,  -3906,  11350,   6604,   2774,   5367,  -1843, -14803,  -7014,   3750,  -2478,   5320,   2022,  -6269,   1682,   4322,  -6181,  12754,   4477,  11872,  -9052,   8196,  10564,   7603,  -4666,  -8198, -10339,  12972, -24821,  -5322,   2798,   3600,    245,   4477,  -8705,  -3185,    178,   6057, -14681,  -1835,  -2250,  -6734,     65,  -4508,  -5629, -13242,  -9109,  -5860, -11522,   2337, -10367,  -1036,  -8691,  -7977,  16314, -16561, -12960,  -4980, -11218,  -6673, -13487,  11728,  -8107, -17607, -13417,  -3888, -10875, -13945,  -1295, -16034, -14076,   3392,  -1273,  -7667,   -635,  -2861,  -6511,   5405,   1818,   5592,   3413,    154,  -6830, -12897, -12319,   3038,   2492,   3813,  -7872,  -3253,   1716,   1793,  -3271, -11492,   6663,   4062,  10926,     15,  11702,  -9534, -11530,     77,   9921,  18485,  -7784,     92,  -9141,   6004,   2965,     -7,   4140,  -1166,   4493,  -2398,  -9473,  -1930, -12743,    630,  -6811,   1837,   2674,  -9819,   8929, -15781,   2315,  -7780,    863, -14421,  -7891,  11962,   1564,  -1894,  -9385,   3031,  -5820,  -4876,  -4922,   4116, -10057,   2733,   1039, -11164,     95,  10771,   5108,  -9257,  -7515,  -3043,  -4061, -14743, -10688, -18957,  -2966, -17823,  11151,  -8068, -10651,   4780,   3583,  -5355,  -8311,  10449,  -2969,  -6940,   4947,  -5101,    436,   7406,   7672,   2283,  -1549,  -5795,  -7736, -13181, -10973,   4953, -10815,    485,   2899,  -8996,   6641, -12031,  -3214,   -634,   5128,  -1278,    266,   4434, -11490,   4633, -10047,   6393,  -2282, -12050,  -4162,  -8975,  -3301,   -871,  -3771,  -4632, -11654,  -1689,   4222,    226, -11564,   4179,  -4870,   -246,  -7934,   4331,   1528,   7620,    845,  -1444,  -9902, -10153,   -593,  10130,    588,   2546,  -3002,   2918,  14678,   1304,  10019, -13687,   1212,   5021,   8065,   5072,  -8495,  -2788,  -8293,  10489,  -1058,  -6854,  -1156,    672,   4054,   2975,   4244,   -359,  17346,  -8382,  -4092,  -8910,   3316, -11424,   2377,  -9353,  -2620,  -7416, -21185, -10699, -13026,  -2642,  -1070,   5631, -13466,  -1344,   7759, -11120, -10044,   5831,   8548,   -601,  -5304,   9962,   2899,   7048,   7017,   7943,  -1365,    897,  -3593,   2564,   3876,    975,   9538,   1440,  -8599,  -5446,    375,      0,  -3405, -10904,   5595,  -4665,   8679,    901,  -5790,   1762,   4222,  -2934,   6671,   1955, -10198,   1607,   3734,  -5559,  -9269,  -1735,   8765,   4643,  -3856,  -9566,  14450,  -4179,    451,  -6323,  10550,   9107,  -3037,  10927,  -6564,  -2182,   6206,   -155,   3572, -12909,   3120,   3245,   2809,    808,   7164,   9386,   7745,   -653,  -7699, -10037,   6606,  -8626,  -6070,   7472,   8102,   8344,    280,   3403,   7539,   9704,   6354,   4663,  13486,   2055,  -9775,    589,   2200,   6990,  -9192,  -7478,   2327,   1094, -15515,  -5684,   2292,   7895,  -3684,  -3619,  -5818,    517,   7944,  -5887,    527,  -4306,
         -1014,   1161,   3434, -11363, -10408, -14181,  11612,  12403,  13437,   -210,  -8122,    940,  -3494,   5351,  -2703,   8286,  -9140,  -3210,  -1252,   -793,    181,   6431,  -3550,   -507,   1407,     -5,  -6027,  14443,   5560,  -2880,  -4133,   2493,  -8514,  -5053,   7072,  -7762,  -7980,  -9458,  -4003,  -5591,  -8636,    -72,  -6206,   -456, -11156,   3401,   7268,   2262,   -127, -11496,  -1812,  -3548, -10626,  -2860,   4158, -13417,   9391,  -3647,  10864,  12023,  -8121,   8457,  -4971,  -9893,  -2427, -17955,  -8717,    397, -14576,  -7970,   -258,   2317,  17570,   3746,   2348,   2769,   2299,    820,  -4240,   8132,  -3285,  -5158,  -6655,  10192,  -3893,  -6270, -12128,    234,   -723,  -2265,  -3586,  -9350,   3593, -16507,   6337,  -5944,  10076,   2931,   1762,  11039, -13283,  -3674,  12701,   5710,  -7656,   2511,  14744,  -7950,  -1887,  -6184, -10496, -14201,  -2860,    822, -12068,   1845, -14929, -11371,   6235,  -1846,    972, -11922,  -1805,  12427,   3952,  -6870, -10004,  -9931,  10286,  -8555, -12320,    898,   2842,   5149,  -4498,   7991,   6432,  -4184,   5676,  -7167,  -3819,  -6451,   4236,  -6790,   8545,  -5393,   6291,   -226,   8437,   5027,   9842,   7767,   5194,   2238,   2403,   -453,   5600,  -8994,  -6626,   5425,  -1311,  -9267,    773,   9555,  -8845,  -5169,   -630,  -4849,   1081,  -2169,  -9865, -13020, -14141,  -2692,    -70,  -2920,    479,   2119,   -337,  -7244,   7966,   3944,   2826,   7934,  -1034,  -2423,   5035, -15472,   -590,   5984,   3236,  -4217, -15867,   7074, -12268,  10203, -11796,  -8456,  10712,  -1293, -14063,  -7274,  -3245,  12122,  10453,   3067,  -5385,   7463,    885, -10321,  -3495,  -1797,  -6943,   1762,   -386,   9020, -10945,  -6038,    787,   6688,   -165,  -3609,   1324,   3680, -17321,  -8161,   6228,  -6935, -12720, -14175,  -2850,   9384, -15886,  10014,  10767,  12106,   2939, -16499,   2854,  -6045, -10533, -16668,  -5147,  -6822,   6689,   -800,   5118,  -3291,  -2991,   7030,   1220,   1741, -12779, -13271,   5677,   1143,  -3327,  -1832,  -5252,  -3490,   3102,  -6834,   2466,   1027,  -7986,  -9676,   4613,    741,   6592,   4149,   8539,   7334,   5411,   3676,  -6663,  -6678,   6346,  -1294, -11935, -13645,  -8124, -10974,  -7596,   8730,    799,   4684,  -7340,  -7864,  12559,   3001,  -1553,  -3725,  -9179,   6754,   -332,   -399,  -5789,  -6199,   1769,   6846,   4509,   2269,   2828,  -4830, -13327,  -6428, -12776,   7596,  -6164,  -3867,   -388,  -4010,  11741,   1902, -10521,  10299,   5813,  -3732,  -7043,  -5167,  -8408,  -7970,  -4590,   4098, -11997,  -2570,  -3301,    990,   8689, -11816,  17612,   9769,  -7129,   4067,  -8606,   9202,   -139,  -3986,   5745,   -902,  -1977,  -2866,  -8667,  -5572,  -1921,   6096,   -821,   7718,  -1198,   6043,   7020,  -2282,    700,   4570,    691,   1968,  -4225,  -3287,  -5003,   4508,   -158,  -5808,   2967,    748,  -2140,  -5048,   1573, -11067,  -7278, -13665,   1144,    405, -12472,  -4339,   4108, -15125,  -8790, -15490,   1208,   2671, -10523,  -4378,  -4801,   6087,   2920,   4005,   4582,   5109,   5762, -12605,  -6990,   5085, -15225, -15026,  -6001,  12359,   6951, -10571,   7538,   -212,  -3045,  -4174,  -2081,   5446,   2835,    628,  -3469,   1412,  -4890,   8367,  -4995,   -306,   4308,   2636,   -276,   3436,  -7797,   1945,   2110,  -7239,  -1855,  -2785,    184,  -7198,   1775, -14163,  -9250,   6431,   9208,   4553,   8041,   4702, -17456,  -5242,   7335,   3591,    366,     49,  -1904,  -3797,   2747,  -6572,  -3090,  -6651,   8048,   2585,  -5201, -11219,  -8949,  13708,  -9362,  -2016,  -4720, -11625, -12609,   3117,  -6764, -12463,   1848,  -8220,   7286,  -4254,    290,  -7476,  -3466,  -8098, -12202,  -4774,  -4773,  -2006, -11393,   5249,  -6219,   8515, -10993,  -7668,   -699,   1842,  -7938,   2817,   3387,  -5632,  10327,  -1294,    896,   1006,  -5926, -16327, -18861,  -2697, -10427,  -8464,   -237,     37,   5362,  -4758, -14745, -20327,  -2051,  -6499,  -7093,   2292,    305,  -1306,  -6122,  -1370,   1492,   7466,   6864,   8256,  -4890,   4256,
          7482,   4664,    585,  -7351,   5063,   3378, -13767,   4693,   1733,  -4673, -12417,   6413,   3490,   7264,   2562,   -163,  -1358,  -3535,   5324,     55,  -5680,    184,  -3171,  -4601,  -6743,   3924,   1199,  -1375,  -4894,   3447,  -3310, -12602,  -7407,   9728,  -5814,    504,  -1610, -11143,  13072,  -1868,   -773,    185,  -6366,   6173,   4457,  -3485,   5098,  -8375,  -1883, -11271, -10332, -15209,   3164,  -9205,   7324,  -6503,  -2709,  -4813,   3080,   6142,  -9457,  -1017, -12895,   8151,   -261,   5068, -11916, -11235,   6185,  -3379,  -2637, -17076,  -2304,  -6327,  -8272,  -1607,  -4616,   5483,  -5436,     -4,  17136,   9038,   3946, -10842, -10938,  10378,   3631,   2572, -22814,  -3411,   2679,  -5830, -14301,  -1045,  -3827,  -2928,   2816,  -5019,  -3077,  -7833, -11349,   7847,  12319,  -7483,   6823,    562,  -2772,   3970,    479,   6787,  -4385,   2326,   5998,   7017,  -4175,   4004,   5283,   3423,  -3051,  -1231,  -3622,   3981,   2163,   6950, -10281,   7123, -16306,   1848,  -5485,   -345,   2692, -12289,   4495, -11502,    627,   7171,   3771,  15308, -11597,  -5389,   9247,  -3048,  -8052,  -7976,   8711,  -3222,  -5880,  -1460,  -1773, -17304,   9063,  -1936,  -4827,  -1191,  -1013,  -5642,   1556, -12321, -13229,  -9135,  -9647, -18918,  -6307,   3990,  12158, -16943,  -2161,   -578,  16562,   6718,  -5776,  -4807, -11963, -17000, -18200, -11333,   2916, -12226,   7891,  -3593,  10576, -21863,   6225,   4594, -18332,  10440,  -6205, -12407,  -1335, -10455,  -1675,   6367,   2140, -15486,  -5291,  10176,  -6697,   1698,  -2299,  -5926,  23230,   5063,   -989,   5020, -20386,  -6360, -15488,  -4798,  -1960, -13024,  -7371,   8336,  -9521,  -1744,   5941,   6881,  -5064,    -92,    667,   5599, -16140,  -5524,  -2096,   6850,   -529,  -2007, -15516,   4404,   -777, -18865,  10091,  11433,  21707,   6594, -11874,  16492,  10635,   1801, -20050,   5691, -17157,  -4912,  -3694,  12481,  -1886, -13523,  -6944,   1572, -17838,  -5586, -12234,   7901, -14165, -12916,   1835,  -3649,  -9608,  -1992, -10562,  -1654,  -2580,   1406,   5253,   1394,   6185,   1602,  -1275,   1057,   9969,  -2440,  -5945,  -7924,   1518,  -9389,   7505,   3332,   4180,   2311,    422,   7542,  -4775, -10720,   9614,   7413,    778, -11167,    266,  -8414,   -648,  -7061,  -4347,   5508,  -3065,  -4135,   4455,  -4934,  -3254,  -2489,   6830,   -677,  -3949,  10859,  -4130,   3182,   -124,   2781,   7872,   7374,   1798,  -7613,   6263,   4406,  11618,  -8954,   4776,  -7517,   4139,  -2911,   2856,  -1496,   3867, -17262,   2730,  -1964,   2883,    537,   8087,  -5481,     43,   3956,  -3401, -10450,  -7276,   1652,   3579,  -7464, -18175,   1222,  -8564,    935,  -5858,   7255,  -4555,  -9679,  -3842, -10694,    860,    430,   6313,   2056,  -4552,  -1483,   3839, -12812,  -9160, -11845,    988,   -615,  -1726, -21852, -12112,    512,   2692,    578,  -3256,   5041,  10400,   2892,  19699,   2356,   -622,   7642,  -7984,   6497,  -1881,   6629,  -8045,  -1717,   1785,   2722,   5563,  -7910,   5037,  -3194,   4749, -12592,    440,  -2420,  -6577,   -371,   5978,   1347,  -4576,  -9349,   -571,  -6790,  -1940,  12640,  -3503,   9361,   6328,   2551,  -1479,   3293, -10763,  -4138, -13158,   8727,  -6392,  -1473,   1698,  -5840,  -6235,   7645,  -1328,   6054,   -177, -11542,  -3997, -10964,  -7568,  -4732,   7056,   5851,  -3192,  -2846,   2603,   6967, -10034,   6120,  -8049,  -1253,  -1497,   9193,  -3167,  13679,  -9344, -11466,  -6495,  -9707,   8176,    -95,  -2480, -12997,   4160,   4723,   -172,  -4015, -10517,  -2897,   5009,   3710,    751,   8224,  -6218,   1733,  -6744,   8742,  -9934,  -2228,  -7221,   1281,  -8111,   4178,  -4063,   1786,   1984, -11754,  -6618,  -1594,   8340, -13127,   2690,   1770,   7027,  -9455, -12691,  -6939,   4565,   4546,  12231,  -3722,  -7263,    157,   5533, -11469, -10022,  -9357,   -531,   6684,  -6650,    910, -13588,  -6661,   5451,   2987,  14221,   2765,  -6733, -13301,   1888,   8788,  -5443,  11383,  -2958,   -236,   2145, -16105, -11218, -10050,    427, -11693,
          8198,  -8818,  -3019,  -7597,   -791,  -6870,  -6668,  -8209,    -34,  -5579,  -8383,    545,   5208,  -7113,  -1398,   4553,  15180,   2970, -11150,   1784,  -4390,   2017,  -5967,     42,   2754,  -7005,   5803,   7685,  -4100,  -7061,   4678,  -8510,   5912,   -688,   6004,  -4365, -14121,   -540, -18280,    339,    270, -13790,  20172,  -2962,     29,   1735,  -9785,   6554,  -4258,  -2589,  -6742,   3849,   2719,   4866,    798, -15597,    816,  -9176, -10611,  -1585, -10920,  -9385,   6275,   9695,   2765,   7923,   4107,  -1265,   5852,  -5582,   1393,   6461,   3292, -12534,  10144,    289,   1255,   8031, -12949,  -1459,  -4330,   -278,   2317,   9551,  -7177,  -9796,   7255,   2155,  -1469,  -1855,   3939,   4709,   -972,   2317,   5569, -11385,    299,    397,  -6277,   8204,   5361,   1178,    782,   4033,  -3264, -13445,  16075, -16467,  -6015,    774,   5899,   5041,   1544,  -5459,  -6517,  -7747,  -6186,  -1902,   5009,    224,   4159,    -52,   -828,   2850,  -6399,   7782,  -7080,  -3402,  -2620,  -5619,   8812, -15875,  -6566,  -4877, -16979,  -2540, -11420, -12085, -11950,  -2531,   1316,  -1973,   3235,  -4003, -19724,  -2034,   6114,  -4251,   2871,  -1556,   -311, -13867,  13714,   1588,  -3926,  -7105,   1314,   4353,  -1735,  -9060,  -6934,   1821,  -7493,   4112,   7693,   -484,  -5733,   5259,  -7958,   1240,  -2406, -11642,   6074, -10418,   4403,   5004,  -2564, -12839,  -5938,   3563,   1822,   7691,    -93,   2056,   -734,  -5173,  -8127,  -3771,   1852,  -3648,   4029,  -4644,  -2250,   -869,  -4279,  -6248,   7647,  -9203,  -7559,  -3449,  10512,   6714,   1683,  -3004,  13719,   3867, -13934,  -8009,    778,    807,   9021,   5084,  -8658,  -9574,   1451,   1454,   6729,   7138,  -3981,   5140,  -6588,   4737,   6285,   4796,  -5346,  -8737,  10325,  -4354,  -5419,  -4055,  -3747,  -1904,  -1936,   6254,  -4524,   2431,   1326,  -5942,  -4410, -12083,   2092,  -5601,  -9378,  -8501,   5558,    523,   -262,   8908,   -312,   8229,  10818,  -4261,    203, -11256,  -5830, -11596, -17544,  -6818,  -1870,   4447,   9478,   1349, -12572,  -4581,   5660,   -140,  11623,   3088, -10084,   4967,  -1904,  -4425,   1207,   1557,  -2103,   3091,   2204,   3508,   7205,   1844,  -6122,     87,  -7045,  -2639, -11342,   1799,    659,   3728,  -5340,  -9477,  -7968,    -77,   4134, -10137,  -7049,  -6763,  -6594,   4358,  11611, -16251,  -8938, -14170,  -5187,   2585,  -7389,  -2479,  -8042,  -5237,   1761,  -9236,   3145, -13645,    466, -10355,   5195,   5725,   7319,   4822,   3172,   5583,   2255,   5682,   3670,   9240,  10711,   1265, -11101,  -6977,  -8436,  -6671,   2555,   6217,   -994,  -9719,   5275,   1944,   8400,  -4722,  10145,  -3796,   8588,   -680,  -6099,  -8131,  -1857,  -6078,  14398,   -260, -12534,  -7119,  -3956,  -8052,  -1895,  -2924, -10038,   -261,   3091, -13510,     48,   -786,    738,  -7192,   6299,   2460, -15976,  -1245,  -5150,  12072,   7025,  -4804,   -229,   -505,   8969,   2193,   7503,  -8966,  -8355,   4043,   1342,  -1851,  -1044,    -36,   7152,  -1047,   4483,  -4894,  -7380,  -7346,  -2061,  -8600,  -8289,   2002, -10700,   -430,  -5507,   2053,  -4708,  -7552,  -8693,  -7323,   1221,   3736,    -60,  -5877,    977,    479,  -2394,   5571,  -6151,   7184,   -283, -11803,   -845,   -905,  -8509,   4544, -13853,   1492,   4677,  -8573,   -887,   3253,  -2109, -13744,  -8054,  -5507,  -3953,   7366,  -9576, -12696,   3322,    704,  10677, -12078,   -348,  -4157,   2245,    729,  -5667,    751,  -6501,     59,  10472,  -7271,   1068,  -1507,   6300,   3691,    737, -11187, -11264,   1643,   3529,   6191,   4829, -15219,  -3952,  -2652,  -1506, -11672,  -6885, -10725,   6054, -10530,   1825,   4070,  -1101,  -8683,   6905,  -6931,   5420,  -7989,   6680,  -2798,    533,    307, -13179,  -4095,  -5557,  -7960,   9980,   -906,   1721, -11306,   8360,  -3949,   3310,    687,   2185,  -5331,    -70,   6002, -10364,  -7815,  -6043,  -9856,   5477,   6186,   4754, -15219,  -1183,   9558,   -523,  -7330, -10873,  -5332,  -9166,  -1770, -10057,    385,  -2547,  -2163,
          2258,  -7102,   3615,   6164, -20004,   7869,  -1397,   6178,  -2817,   8585,  -1815,  -9143,  11884,  -2429, -24105,  -6799,  -7689,   -584, -14414,  12986,   2985,   1563,   2401,   6869, -19172, -10262,  -5877,  10053,   5637,  -5721,   3248, -12565,  -5385,    894,  -9326, -10430,  -9249,  -5876,  -2091,   2653,   1507, -11588,   9020,   -856,   5125,  -7558,  -9749,   6658,  -2556,  -3448,   3159,   8169,   5695,  -8900,  11064,   -178,   3715,  11133,  -2778,  12727,  -5314, -14706,    256,  -8922,  -5138,  -3811,   1972,  -6045,  -9444,   6281,  -3851,   1372,   7373,   6892,  13834,  -6205,   5036,   4100,  -3741,  -4847,   6185,   3322,  -1076,  -7675, -10034,  -3884,  -3740,   9067,  -1414,  -1594,  -9968,   4034, -13141, -11675,  -2955,   2430,   5001,   5491,  10375,   2164,  -4742,   5824,   8195,     49,  -1459, -12220,   -952,  -9262,  12572,  -6290,   -121,   3001, -19563, -13073, -12654,  -4369,   1671,  -5909,   2465,  -8724,    798,   6943, -11568,  -2945,  -8053,  -2668,   7295,  -5944, -10172,   3623, -13071, -13115,  -7975,   2903,   7353,  -7990,  -6494,   4407, -10871,  -4141,   4649, -10989,    757,   9478,  -6848,  -2237, -10985,   8364, -13134,  -9996,  -3854, -10950,  -7010,  -4825,  -6715,   4517,   -636,   -320,   -663,   -572, -16115,  -1732,    286,  -2681,  -4813,  -3352,   -512,    337,  -1217,  -2017,  -5701,  -6405,   7825,   9481,  -2465,   6843,   2903,  -7283,  -5046,  -2902,  -6736,   8793, -12933, -11912,   -365,  -2675,  -2665,   1978,    557,   3964, -12494,   5805,  -4865,   1478,  -3929,   4085, -10919,   5352,   4183,   6890,   3197,   9770,  -1395,  -3496,  10026,   6797, -16302,  16765,  11319, -11637,  -9904,   5232,   7162,   -231,  -7962,  -6321, -18452,   3044,   1812,   6178,  -4532,  -3442,   2315,   3629, -17216,   6725, -12424,   -372,    254,  -1791,    478,   7647,   4021,   -774,   4778,  -4865,   -270,  -9986, -12357,  -3845,   4212,  -3767,  -5204,  -2423,   1717,  12149, -12516,   5232,   3897,  -2589, -10018,   1260,  -2553,   2695,   2145,  -4977,  -3220,   3398,  12439, -11239,   3705, -11741,   5460,  -4926,  -3323,  -4552,  -9296,    744,  18582,  10911,  -3781,   9983,  -5195, -11375,  -6814,    628,  -2251,  -1518,  -4988,    258,  -5258,   1664,   4167,   3084,  -8302, -11314,  -8075,  -1111,  -1488,  -9062,   2244,    631,   1305,  -2920,  -4441,   4432,  -1931,  -8726, -12435,   1000, -14633,  -5606,   1013,  -7158, -12402,   2885,  -9369,  -2657, -11658,   5229,   3811,  11473,  -7275,  12899,  -4621,  -1082,  -7958,  -1007,   -616,   2171,   3084,  -7428, -12362,  -8601,  -6404, -10812,  -2239,   8566,   8614,  -6347,  -5396,  -4041, -10635, -13622,   -640,   5277, -13522,   1407,  -1570,   3240,  -4064,   1469,  -5833,   1075,   2814,   7939,  -1628, -15970,   9734,  -6170,   2064,  -3511, -10240, -14170,   1769,   5277,   -400,   4403,  -1146,   2086,    930,  -6964,   7564,   7571,  -2586,  -7799, -15790,   5098,  -8992,  11594, -14543,  11017,  -9771,   1317,  -5958,  -7673,   2269,  -6776,   3479,   1256,   5397,   5000,   9294,   5878,   8313,  -3691,   3233,   1315, -11435,   2152,   -885,  -4696,  -9816, -17122,  -8286,  10237,  -2429,   5857,  -6148,    449, -13152,   9114,  -1485,  -5363,  -5775,   8190,   1598, -11747,  -8393,  -1806,  -3546,   2334, -11529,  -4156,   7354,   3574,   7507,   3843,  -6871,   -276,  -8989,    827,   5402,   1235,  -7164,  -3099,  12151,   5358, -11070,   -450, -13702,  -9603,   2361,   1448,   7266,   4445,   1699, -12311,  -3458,  -2642,   1078, -11904,  -6776,  -6163,   7834,  -6228,  -4051,   -666,   -191,  -2622,  -5374, -12623,   3157,   2929,   7614,   5290, -12319,   2143, -17481,  -4959,  -1823, -13212,   1302,  -1377,  14363,   3956,   -437,  -4172,  -1684,  -3700,  -2914,  -7126,   -633,   7411,   3747, -19398, -11392,  -9036,   5611, -13167,  -2958,  -9716,  -4844,  14666, -10659,   6364,   5317,  -2160,   1197,    412,  16522,  -5029,   9185,  10070,  -8592,   -115, -10725,  15102,  -8668, -10791,  -6056, -12100,  -7970, -11693,  -9331,  11308, -11631,  -5166,  -4189, -11684,    145,   5079,
         -4933,  -4660,   6229,   7405,   -744,   2442,  13376,   1378,  14489,  -6702,  -5586,   9951, -17019,  -2523,  -3875,   8429, -10288,  -1171,   3657,   6874,  -3954, -13430,   2659,  10070,  -1786,  -6469,  -1532, -14758,  -6410,   2263,   3280,  -4162,  -4731,  -4677,   -597,   4495,  -3753, -11415,  17806,   3952,  -3358,   1647,  -7023,   9809,    428,  -8319,   8650,   4093, -18320,  -5705,   3690,   1040,  -9666, -12809,  -1521,   6424,    875,   1861,   3529,   4008,  -6528,  -8741, -13002,   7813,  -1125,  -1156,   3489,   6043,  -3809,  -3177,   6601,  -6541,   1975,   6712,   3420,   5167,  -2162,  10892,   -899,  12323,  -1812,   2439,   1159,   1707,   4334,   3117,   6016,   4365,  -6204,   5410,   8683,  -2165,  -3788,   -362, -11407,   6712,   2564,   3804,   2534, -12711,  -4498,  -8745, -11673,  -4872,  -8232, -12878, -10378, -14475,   6359,   6263,   9841,     83,   2731,  -3633,  -7612, -12782,   5390,  -5361,  -9257,   7665,   1230,  -1541,   -419,   1065,  -7450,  -5105,  -4956,  -6362,  -9780,   7856,   3787, -10963,  -6660,  -2864, -20852,  -6268,   3182,  -6697,  -2199,  -7183,   8840,  -4309,  14057, -12004,  -3256,  -8239,   9105,  -4679,  -6057,  -8505,   8046,  -9672,  -2346,   3172,   4856,  -3585,    114,   6125,  -4535, -13732, -12410,  -3913,   -549,   3816, -11347,   3154,  -2738,   2723,   1935,  -6950,  24155,   3295,  -5020,    564,   1348,  -7686,  15904,  -9317,   4203,   1585,  -2655,  -3327, -10373,   -600, -11250,   3666,  -7055,  15766,  -5310,  -3504,   4061,  -5454, -20708,  -6797,  -3842,  -1055, -11329,  -9850,  -8061,  -3867,  -3984,   6135,  -7505,   5686,   8360,  -1514,  11883,  -1445,   1829,   -881,  -1491, -14993, -11473,   4286,  -7116, -10747,  -4315,   2302,   -407,   4473,  11180,   6462,   2878,  -3372,   2569,   9657,   7926, -10640,  -3029,   6944,  -1797, -19075,  -9829,  -9506,    174,  -1823,   3341,   5320,  -2264, -11045,  -3306, -24838,   2652,  -6256,  -2613,  -8543,  -1549, -12403,    736, -10105,  -1598, -10190,   8297,   1232,  -1308, -10225,   5349,   1291,  -4665,  12783,  -2815,  -4227,   2699,   4450, -15767,  -9009,  15654,   3253,  11508,  -1930,   2792,    631,   5818,    329,   -593,   7895,  -5165, -12661,   4060,   2318, -10208,   5167, -13613,  -1581,  -8320,   -840,  11086,   6469, -11200,   8636,   3271,   3394,  -5287, -11736,    658,   5876,  10220,  -6940, -10122,   8831,  -4914,   9708,   3936,   4667,  -9716,  -3769,  -1785, -12429,    294,   2117,   -843,   -993,  -5130,  -7653, -12595,  -4608,   8236,   4341,   1003,  -1072,  -8005,  -8274,  -1164,   5195,   -478,  -9175,   6860,  -7668,  -4500,  -2413, -10437,  -6485,   5285,   4609,   3025,   8393, -10702, -10049,   6634,  -1452, -11722,  -3848,   -946,  -8659,    418,  -3466,  -5866,    805,   2454,   4438, -17358,  -2157,   1933,   6754,  -5930,   1532,   8377,  -3151,   1699,   7260,  -8782,   9818,  -9710,   9768,   -330,  -8298,  -2296,   7501,    664,   3387,   3580,  -6534,  -9048,  -1233,   1578,   1506,  -4649, -11079,  -5881,   2934,  -8779,   -230,   4418,  -1102,  -5191,   9506,    562,   8329,   3396,  -2141,  11665,   4273,  -1942, -13103,  -5745,   -907,  -5188, -11077,   1986,   -739,  -8678,  -3008, -12311,  -1384,  -1675,    317,   3444,  -2802, -12925, -14411,  -6545,  -9646,   3466,  -7746,   -414,  -5726,   2214,  -6637,  -7770,   5288,  -6557, -13550,  -3071, -11630,  -1599,   4993, -14160,  -2964,   1813,   4994,   3710,   -753,  -3914, -13909,  -1992,   -502,  -7334,   1070,  -7085,   6765,   3590,   1382,   4935,  -1819,   -161, -13769,   3866,  -6074,  -2798,   8187,  -4671,    489,  -8619,   4159, -12127,  -5587,  -9974, -14008, -10276, -11923,   8934,   -138,   6985,   5771, -13470,  -4226,   9728,  -1971,   8422,  -6991,  -4555, -12467,   1376,  -6887,   1345,  -9277,  -2687, -11672,   5511,  -4765,    626,  -4798,  -8562, -10707,   4634,  -8368,  -3206,   2977,  -8194,  10157,    503,  -3554,  10541,  -7557,   2346, -11251,  -4703,  -9466,  -8529,  -7024,   -331,  -3388,   2362,  10412,   3089,   1572,  -4480,  -6278,   2163,   2492,   9231,  -8328,
         -3853,  -4939,    -37,  15106,   1005,  -6038,  12389,  -5953,   5588,   4947,   4750,  -1499,  -4325,   6118, -12390,  -6407, -14726,  -6400,    327,  -8829,  -5241, -10693,   3940,  -1443,  -1972,    284, -10397,  -4828,   5616,  -6040,  -5555,   4554,  -2764,   4644,   9513,    224,  -1025,  -4620,  -4775,  -3461,  -8014,  -6390,  -7220,  -2762,   7458,   3426,   1765,  -5953, -12286, -23706,   2889,  -7968,   1921,   1211,  -3871, -13875, -10265,   5676,    645,  -2626,  -4523,  -9057,  -3738,  -4438,   -691,  15810,   4606,   2666,    595,   6366, -10148,   2656,  -7120,  -9431,  -3231,   4408,  -9924,  -5673,  -5851,  -3168, -10544,   2341,   7394,  -2370,   7031,  13644,  11886,   1997,   4122,   5971,  15840,  -1025,  -6551,  -1225,  -6880,   1891,  -1471,   6077,  -9517,   6878,  -5476,  -2408,   -705,   4004,  -4208,  -8549,  -3022,  18231,  -1414,   7065,   7706,   2989,  -7949,  -5406,   7132,  -2990,  -3583,   2952,  -7254,   5008,  -4947,   7172, -11258,  12453,  -5015, -11908,   7879, -10737, -11158,  14747,   4264,  -8046,   3247,  -3966,  -4882,    392, -16790,  -6165,  -4686,  -5138,   8977, -14000,  -2634,   1664,   5683,  -2493,   -866,  -7581,  -9071,   1621,  -3968,  -7982, -11406,  -2668,   2164,   8017,   1289,    656,   3122,   6736,  -5298,   4837,  -1124,   4829,     27,  -7696,   3854,   8360, -19065,   2492,  13825,  -7290,  -2396,   7612,  -3388,   2795, -16236, -12063,   5619,    122,   4883,  -1101,   8908,   1633,   3982,   4013,   3777, -15631,  -4073, -10119,  -8261,  -9750, -10549,  -2413,   9545,  -4752,  -2773,  10110,  -8089, -10777,  -4450,   4436,  -3198, -18279,  -7941,    615,   3043,  -6190,   4284, -12696,   1775, -13111,  10881,   5241,   6216, -11745,  -2361,   1188,   2699,   -582,   8346,  -5097,   6720,   5662,  11296,   4200,   6121,  -5208, -10445,   1896,  -2535,    435,   4562,   1036,   1421,  -5612, -14484, -13112,   8733,   1332,   2597,   1402,  -1464, -10168,  -6339,   9054,   8230,  -5061, -13397,   5984,  -4149,  14759, -13480,   4160, -17963,  -4301,  -7247,   -418,   4351,  -1570,   5638,   5089,   -702,  -3317,    797,   6907,  17316, -11174,   7622,    453,   6922,  -7052,   -657,  -3978,   4686,  -7092,   2827,  -8053,  -2023,  -6888, -11724,   1005,  -8159, -16347,  -1563,   6959,   4075,  -2387,    823,  -1899,   4178,   3980,   2230,  13714,  -2227,  -3510,  -7058,  -5485,   4690,  -4078,  -7724,  -5285,   3430,  -9010,  -8172, -13501,   4747, -18573,   5921,  10735,  -6475, -10397,  -1426, -12572,  -9250,   -841,  -9361,  -2803,  10944,  -1068,  -6449,   5751,  -5687,  -4547,  -2087, -12687,   4326,  -7111,   5833,  11032, -13878,  -8487,  -3266,   1823,   6358,  -5039,  10902,  -2898,   3071, -22911,  -2195, -12065,   2099,   7361,  -4822,  -8630,  -2494,  -1383,  -5401,  -2536, -19931,   4747,  -4144,  -2921,  -1044,   6030,   4197,  -5573, -18124,   -869,   -436,   2798,  -2998,   5378,  -3198,  -9847,    689,  -1378, -14199,  -2901,   8119,  -5484,   6143,    -61,    320, -17331,   5488,  -2747,  -2550,  -7382,   5893,  -3556,  -9922,   5325,     90,  -1839,   5763,  -9430,  -9529, -12939,    636, -13451,  -4278, -10085,  -8204,   9028,  -5119,  -5112,  -1357,   5081, -14670, -12236,  -8591,  10392,   9580,    268,  -9873,   1218,   9445,    415,   -915,  -8574,  -9941,   4135,   4064,  11793,  -8630,   -836,  -2986,  -3266,   9033,  12614, -14157,  -6632,   9202,  17232,  -6246,  -5677,   5669,  -3048,   7409,    933,   1004,  -7051,   5544,  -5288,   1115,   7748,  11160,  -6001, -10859,   1170,   1014,  -3657,  -8626,   4455,   4472,   2639,    855,  -1727,  12824,   3927,  -4317,  -1391,  -7188, -11228,  -4017, -13676,   2063, -12869, -19638,   5947,   2464,   2740,   1545,  -3871,    734, -12653,    -12,  10734,   -905,   5844, -15395,   3368,   4635,   1519,  -1721,  -6219,  -2973,  -5851,  12621,  -2927,  -7286,  -1563,   1809,  -1351,   1746,  -8724,  -7552,   3165,  22492, -10066, -17678,   4156,    295,  -2715,  10818,   4641,   -191,   -663,  -2055,  13537,   1915,     86,  -1885,  -4054,    217,  -7815,  -1062,  -7256,  -3409,  18412,
         -3158,   1729,   -508,   8561,   6245, -10899,  -3079,   1911,  -7668,   3271,   6895,   4438, -12807,   1940,  -6329, -16081,   4263, -10331,  -5372, -17493,  -8777,  -2698,   2587,   5017,   7248, -10110,   5281,  -2627,  -4874,  -6909,  -8703,  -9068,   1579,   -464, -10307,  -3752,  -8495,  -6163,    958,   3208,  -2945,  -2409,   2214, -12672,  -8993,   1945, -17892,   7150,   2097,   5466,  -9478,  10258,  -8015,  -7390, -20043,  11123,   2422, -11107, -17241,  11944,  -5355,   6694,  -7557,   5354,  -2675,  -3863,  -4682,  12113,  -3128,   2971,  -5196,   9459,  -1541,  13374,  -7426,  13289,   4973,  -3663,   1294,   1001,   3036,   4176,  -1750,   1336,  -4282,   8931,  -9730,   4470,  -8134,   4066,  -3580,   1379,  -5016,  -8322,   1439,  11239,  -2778,  -8803,  -6431, -15665, -15510,  -7537, -13951,   3555,   7429,  -2039,  16197,    125,  11954,  -3888,  -7716,  -2165, -28225,   3539,   4408,   6639,  -7478,  -9723,    173, -13477,   1377,  -5045,   5167,   -921,   8532,  -5717,   5431,   1588,   4843,  -7057,   8405,   2773,  -5202,   4803,  -3486,  16234,   2447,  -5554, -15827,    722,   5831,  -7421,   1314,   6293, -23463,  -1371,  -6515,   9697,   6405,    -36,  -6190, -11320,  10498,  13812,  -6695,  -6896,   7011,   8500,  -1689,  -5029,  -8190,   1807,   2684, -12440,  -5590,   1263,   9081,   8893,   7312, -10906, -14580,  -2571,   3964,  -8180,  -6077,  -7134, -20654,  -7924, -15531,   1744,  -8359,    477,  -4860,   4123,   -928, -18282, -10344,  -1460,   2598,  -2802,   5461,  -1191,   5664,  -5748,   1698,   6784,  -4256,  -8292,    998,   8364,   3419,  -1904,  -2304,   8152,  -3824, -10840,  -6794,   7826,  -3323, -10897,  -3437,   8299,    539,    333,     76,   5759, -10901,  11894,   3450,   2803,  -9080,   2468,    -72,    -79,    304,  -9549,   8752,   9261,   3313,   3494,  12654,   1074,  -2842,   5231,   3096,   4568,  11744,  -5048, -12261,    575,   4585, -13056,   -996,  11338,  -4344,  -5894,   -633,   8594,  -9136,   5070,  -2968,   1868,  -5132,  -5528,  12414,  -4633,  -5341,    487,  -2105,   2741,   2996,  -6943,  11769,   4034,  -6747,   8207,  -5399,   2416,  -9320,  -2320, -11787,  11009,    515,  -5026,   2152, -11123,   1163,   1055,   -757,  -3427,   1780,  -8321,   1024,    366, -11370, -10206,   7137,   8855,  -7678,    839,   6182,   3114,   -899,  -2874, -11817, -13118,   2197,   8367,  -7441,  -2952,   8280,    392,   3205,   7731,  -5168, -17188,   1570,  -6507,  -1723,  -8557,  -4162,  -5405,  11310,   -119,   7021,   7823,  -1486,   2038, -10788,   8812, -10760,   5952,   7575,   6595,     -4,  -5288,   1263,  -1571,  -2780,   1583,   8866,   9460,  -5041,   5977,     94, -10410,   1496,  -4494,   1681,  -2842,  -7848,   7455,   6056,   9741,   8691,   8833,  -4772,   5170,   5603,   4375,    843,  -5295,   -931,  -3883, -11837,  15874,   3806,   -698,  -1375,   2225,  -3895,   3034,    867,  17902,  15296,   -413,  -7462,  -2220, -10361, -16031,    -60,   1630, -10506,   2408,  -7685,   5094,   6432,  -7712,  -9065,  -4043, -12183,  -9074,    640,  -1627, -12176,  -3673,    537,  -4882, -12931,   7012, -12361, -15093,  -3900,   3315,   -976,  -2757,  -3425,   6925,   4173,   4810,  -7350, -17398,  -3474, -19036,  -1490,  -1292,   -316,  -1255,   1613,   -209,  -6242,   9309,    629,    858, -10179,  -9793,  -8056,   9373,   4368,   9884,  -1066,  -3170,  -7535,  -2772,   9011,   4110,  13697,   5731,  -1132,   5729,    -96,   6630,  -2824,  -9073,  -2300, -11975,  -4690,  -1185,   4698,  -3073,  -2101,  11803,   -616,  -2282,  -9553,  -5212,   8432,   7807, -13009,   7497,  -5343,   4972, -16585,   1173,   3521,  -2785,  -9736,   8991,   1319,   7306,   8620,  -6705, -13895,   1921,  -3840,  -1698,  -5097,   3615,   3097,  -4407,  -7832,   4588,   4614,   4870,   -214,  -5813,  -1348,   3764,   1335,  -8767,   -842,  -9058,  -6110,  -7251,   5143,   2109,  11159,  -9286, -13268,   9860,  13770,  -6357,   -141,  -4272,  -2317,  -3084,   5667,   4813,   8165,  -9578,   8225,   8784,  -7749,  -3473,  -4126,   4837,   7713,  -4003, -11934,  -1694,   -895,  10290,
           652,   1582,   7244, -11053,   -836,  -6602,   3999,  -7333,  -6433, -12814,  -6624, -12148, -12035,  -9513,   4398,   7528,  -6616,  -1446,   2682,  -5234,   3856,  -6938,  -8846,     46,  -8722,   1787,   -453,  -6257,  -3707, -10780,    980,   1899,   3522,   3430,   5364,   6369,   8233,   3080,  -1152,   3820,  -5825,   8578,  -5367,  -2322,  -5482,   3455,   1564,   1574, -12776,  -7432,   4799,  -6787,   4885,   6645,   -630,  -6354,    427,  -2871,  -5956,  -1703, -12630,  -4827,  -4153,   6936,  -8789,   4978,  -2968,  -1419,  -7916,   -166,  -8842,   4456,  -5306,  -3167,  12597,  -9132,  -2026,  -1004,   4200,  -1596,  -3996,  -4042,  -6023, -13335,  -1046, -11694,  -6705,   1909,  -1436,   7272,   4284,   9338,   7634, -10176,   2409,   7999,  -7069,   3161,   1487,   1743,  -4237,   3419,   -535,   2648,  -6640,  -7947, -17254,  -3965, -11888,   -827,   9682,  -3979,   -878, -11244,  -9795,   3270,  -8098,   -533,   2058,   2179,   1943,  -9721,  -7182,   9611,   5030,  -7031, -10037,   2759, -10203, -10543,  -1163,   8228, -11385,  -8620,  -4317,   1599,    -79,   -402,  -7241,   -866,  -8074,  10797,  -5442,  -9249, -11082,  -8161,   5820,  -4691,  -4642,   4042,  -6369,  -7957,   -952,   9045, -10292,  -3254, -10059,   6253,  -7552,   9837,  -6161,    739,  -7548,  -9030,   7222,  -6949,  -5928,   3963,   6480,   3816, -12011,  -3637,  10269,  -3596,  -2474,  -2535,  -1760,  -8020,  -6097, -12291, -10792,  -9324,   9805, -11552,  -3441,  -8454, -11089, -10351, -11386,  -5285,  -3208,   6680,   3106,   7574,   9063,   4761,   6517,   4708, -13346,  -5057,   9070, -11954, -11026,  -3417,  -3811,   7249,  -8636,  -3056,  -1927,   1193, -10440,  -4967,  -6349,   1458,    740,  -7690,   6785,  -5278,  -5036,   4481, -12320, -12034,  -1485,  -2637, -11988,   4109, -10360,  -8333, -10715,  -3299,   5271,   3552,  -9287,  -1636,  10616,  -6087,  -4020,   5082, -11123,   5851,   2366,   1314,   1331,   1714,  -9870,  -5024,  -9109,  -1848,   9652,   -637,   2409,   6312,   2851,   5463,   4480,   8928,  -1120,  -4119, -12124,   9988,  -4323,  -6366,  -8515, -13364,   6044,  -4119,  26614,   1046,  -9560,   9525,  -2051,   -782,   -264,    419,  -6045,   5522,  -6793,   4324,    145,  -1396,   1822,   6829, -14384,   7720,  -1112,  -9457,  -3302,   1393,   3565,  -8989,   5005,   3726,  -2761,  -4880,  -1255,  -1761,  -4094, -16544,   6939,   -388,  -4862, -10422,   4519,  -6546, -10005,   1779, -10423, -15917,   2653,   4406, -10503,   4758,   5383,   7868,  -7585,  -3918,  -6274,   2811,  -9088,  -6451,   3100, -16747,  -9624,   -503,   5580,     75, -15338,   9837,  -3674,     15,   3896, -22755,   2813,   1988,   6130,  -9674,  -4759,  -2434,   6106,    297,  -1446,  -3035,   -444,   4774,  -6101, -10030,  -6636,  -8482,   7200,  -2603,  -7844, -11582,   8576, -15067, -11511,  -4152,  -5883,  -4524,  -3320,   2135,  -1925,   2002,   1249,   5043,   4115,   4127,    491,  -8153,   6783, -11719,  -8220, -18679,  -9003,   2413,  -6526,   1707,   6613,   -734,  -5007,   6581,  -7237,  -4246, -16111,  -1169,  -5645,   1819,  10163,  -2930, -10253,  -6061,   1939,  -9371,   5583,  -2961, -21412, -16452, -18196,   3509,  -2683,  -5550,  -4216,   6357, -15865,  -4179,   2130,   -411,  -7463,   1307,  -6790,  -9244,  -7579,  -4428,   3708,   2292,   1605,  -2921,  -3779,  -2590,  -3636,   5834, -13204,   2392,  10630,   3218,  10624,   -215,  -8035,  -7039, -12425,   8544,   5979,  15637,   2100,  16599,  -8023,  -1259,  -1514,  -9668,  -4512,    407,   2295,  -7971,  -9881,   3229, -12087,  -3639,  -5484,  -4669,  -6101,  -7213, -12973,   5928,    662,  -9918,  -4961,  -2147,   7624,  -8156, -13053,  12734,  -8198, -12296, -12277,  -9265,   2682,    344,  -8430,  -9509,   5930, -10886, -10271,  -6127, -13365,   -980,  -9060,  -6517, -10962,  -8435,   1427,    261,  -4223, -15118,   7381,   8961,   8515,  -7487,   1426,  12800,   5729,   8646, -14539,  -4779,   3685,   7888, -11644, -13441,   1063,  -2981,  -6089, -10903,  -8070,   4452,   5183,  13089,  -6419,  -3200,   8167,   5929,  -1255,   9373,  -4967,  -2755,
