#include "Mnist_coefficient.hpp"
using namespace dl;

namespace Mnist_coefficient
{
    const static __attribute__((aligned(16))) int16_t statefulpartitionedcall_sequential_conv2d_biasadd_filter_element[] = {
          4282,  -5786,   9460,  -6498,  -5204,   7766,  -8791,  -6984,  -1332,  -7865,  -9598,  -8785,   1555,  -2951,  -7074,  11156, -13591, -16268,  10575,   8823, -18985,  -9838,   3766,  -6954,   6404,  11327,  -1094,  -1678,  -5219,  11525, -12342,   1316,   7690,  -1142,   3008,   9193,  10976,  -8504,  11144,   5527,   1221,  -1701,   9521,   2043,  -5799,   2537, -14566,  -3234,    805,  -5346,  -3598, -15340, -12927,   7269,   1812,   5132,  -2294,   4772,    609, -12044,   1128,     48,   5579, -14121,  -9276,  10017,  -2741,  10384,   3233,  -7115,   -343, -11511, -10313,  -3359,   7441,   8817,   7141,   1537,   5388,   3967,   1759,  11559,   8146,  -1395, -11930, -11259,  -7685,   8209,  -7255,   8882,  -4973,   -316,   8116,  11177, -11134,   2515,   2135,  -9743,  11809,  12506,  -9423, -11446,   9233, -14673,   2281,  -3577, -10176,  -1630,  -8915,   2189,  11661,   3903,  -4981,  -4714,  -5860,   5976,   1991,   4531,   7977,    632,   2860,   7926,  -3288, -13036, -12278,  -1380,  10504, -14780,  -6549,   6299,  -4522,  -7036,  13125,  -8085,  -6849,  -9435, -15163, -12892,  -1658,   8962,   -387,   8896,   7199,   8375};

    const static Filter<int16_t> statefulpartitionedcall_sequential_conv2d_biasadd_filter(statefulpartitionedcall_sequential_conv2d_biasadd_filter_element, -16, {3, 3, 1, 16}, {1, 1});
    const Filter<int16_t> *get_statefulpartitionedcall_sequential_conv2d_biasadd_filter()
    {
    	return &statefulpartitionedcall_sequential_conv2d_biasadd_filter;
    }

    const static __attribute__((aligned(16))) int16_t statefulpartitionedcall_sequential_conv2d_biasadd_bias_element[] = {
            -1,      0,     -2,     -2,     -1,     -2,     -9,      7,     -1,     -8,     -2,     -5,     -1,      5,     -2,      7};

    const static Bias<int16_t> statefulpartitionedcall_sequential_conv2d_biasadd_bias(statefulpartitionedcall_sequential_conv2d_biasadd_bias_element, -7, {16,});
    const Bias<int16_t> *get_statefulpartitionedcall_sequential_conv2d_biasadd_bias()
    {
    	return &statefulpartitionedcall_sequential_conv2d_biasadd_bias;
    }

    const static Activation<int16_t> statefulpartitionedcall_sequential_conv2d_biasadd_activation(ReLU);
    const Activation<int16_t> *get_statefulpartitionedcall_sequential_conv2d_biasadd_activation()
    {
    	return &statefulpartitionedcall_sequential_conv2d_biasadd_activation;
    }

    const static __attribute__((aligned(16))) int16_t statefulpartitionedcall_sequential_conv2d_1_biasadd_filter_element[] = {
         -1929,   1390, -11633,  -9560,  -2593,   2348,   3036,   7152,    720,   1353,   3384,  -1005,  11652,  -7948,  -3350,     -6,   6118,   4990,  -4109,   5849,  -9156, -12956,  -7597,  11680,   7411,  -3914,  -3828, -11060,   8799,  10965,  -4827,  -6942,   6706,  13270,  -5680,  -3640,   5381,  -9104,  -9952,  -2268,   3394,   9552,  -1895,  -9527,   4663,   6162,  -7144,  -2415,  -4784,   1276,    648,   2746,   1459,  -2946,  -6703,  -4544,   2550,  -7963,   8926,   4710,  -7025,   -968,   6515,  13165,   5957,  10625,  -9441,  -4289,   1406,  -4542,  -7334,   7830,  -1246,   6194,  -8147,  -4064,  -4753,  -3081,  -4745,  11559,   9972,  10695, -15541,   -323,  -1014, -11451, -11646,   7664,   5470,  -4729,   1395,  -1333,  13036,   6079,    118,  -3228,  -8402,  12921,   7249,  -2056,   2273,  -8832,   3630,  -2886,   3014,  -6877,   8058,   1141,  -5909,   -793,  -1883,   6549,  -1381,    912,  -7926,  -1969,  -8315,  15911,  -5191,  -4632, -10704,  -1877,  -1216,   5364,  -4772,  -9735,  10019,  -2313,  -6532, -10723,  -3526,  -9855,  -7590,   4563,  -8159,   7031, -11604, -12064,  -7659,   7208,   2875,  -5310,   -864,    966, -10155,  15203,   7990,  -4599,  -2259,  -3792,  -2217,   -365,   6537,  -8938,  -3261,     93,   -350,  -2226,   5117,   4938,   1142,   5141,  -3165,  -2487,   7272,   2577,   3861,  -5014,  -7833,  -9453,   3234,  12905, -10033,  -1095,  10421,  -5795, -18906,   8816,   5624,  -8151,  -7696,   8571, -10359,  -9949,   -344,  -1455,  -9177,  -5848, -15223,  -6635,   -485,  -5746,  -1317,   6555,  10230,  -7687,  -6738,   4023,   8792,  -4227,   9209,   3789,  -4063,  -2761,  -8683,   8595,  10530,  -9538,  -4602,   1674,  10450,  -2805,  -6823,  -3169,  -7294,   6325,   2258,  -3007,   6614,   -276,  -1218,  -2271,   2806,  -1072,  -5253,   -408,   5719,   -647,   -442,   9435,  -3375,   6584,  -3299,   5117,  -1447,   -531, -10565, -14873,   3102,   1170,  -5896,  -9520,   5787,  -1477,   8832,  -1367,  -1796,  -2162,  -3804,  -5490, -10112,   2885,   3841,   6950,  -5738,  -7231,   6634,  -7075,  -3632,   4559,   3122,  -2813,  -3167,   4389,   4728,   7287,  -8112,   3029,   2669,  -6144,   1896, -10290,   7431,  11100,  -5849,  -4234,   -924,   4262,  -2139,   4299,  -3810,   4246,  -3555,   9470,   3444,   5218,  -3767,  -9141,  -2354,  -6115,   6029,   5205, -10229,  -5463,  -7384,  -3071,  -4332,  -4390,  -2240,  -6494,  -3367,  -4202,  -9795,   6489,    535,  -9686,   1798,  -6147, -12439,   3823,  -7439,   2571,   1275, -10511,   4326,  -6967,  -8488, -14945,  -8272,   3309,  -8315,  -8122, -13215,  -2644,  -7938,  -4080,   -904,  -2009,  -9985,  -3655, -10395, -11752,    911,  -6023, -10528,  -8838,  -2067,  13378,   2167,  -4360,  -6739,  -2874,   2930,  -5422,   6895,   9649,   8132, -11020, -10639,  -1080,  -1168,  -6675, -11460,  -4334,  -3273,   8013,  -7138,  -4457,   1409,   6573,  -2017,   3622, -11791,  -4477,  -5016,   -984,   4905,  -1296, -11236,   3709,  -1369,  -3570, -11700,   6402,  -4767,   5963,  -8784,  -8941,   -158,  -4228,   5866,    -88,  -4242,  -2909, -19252,   6517,   4001,   3126,  10982, -10236,  -2122, -13184,   9587,  13685,  -3837,   5450,  -4939, -11975,   1948,   -411,   9414,   6987,  -7865,  -5602,  -2175,  -8176,   1122,   1234,   1103,  -1677,   -742,  -7285,   3559,  -4994,  -5804,    753, -10307,  -7692, -12444, -10478,   2951, -10821, -11788,   1654,  -7635,  -9953,  -1424,  -9012, -12827,   -375,  -5081,  -7899,  15527,   4813,   1660,   5420,   6801, -12931,  -6527,   2229,   5366,   6665,    701,  -8574,   5915,  -3681,  -3758,  -7196,   2649,  -5179,   1383,  -6294,   -378,     38,  -2047,   3313,   7107,   5763,   1726,  -5053,   1363,  -6658,   5750,   4133,   3807,   2541,   4948,  -8509,  -3888,    -42,   5266,  -8021,  -9272,   8193,  -8625,  -3235, -10576,  -8163,   5830, -10056,  11580,   5779,  -7572,  -8388,   6174,  -4259,  -4661,   1620,  -1139,  -2513,   2944,  -3078,   5628,  -1760,  -4568,   3757,  -5566,  -3912,   4756,  -6571,  -5192,   -564,   3440,   1045,   3187,    -88,   6780,   9160,   3045,   7784,   2450,  -6134,
          3080, -10396,   2943,   3033, -11442,   6141,  -9598,  -2051,    244,   -370, -10432,  -6031,  -3226,   5045,   6731, -11145,   1298,   1364, -10314,   5501, -10299, -10132,  -7333,  -4578,    990,  -2065, -11465,   3795,  -1268,    130,  -8097,   -918,    325,  -8856,   2738,  -6871,   3221,   8463, -11262,   8439, -10448,   5417, -10796,    762,  -5270,  -1266,  -4327,   5055,     33,    513,  -3649, -11062,  -8933,  -5620,   5502,  -3471,  -8294,  -4164, -13083,   3813,  -6726, -10275,   4292,  -3845,  -6580,  -9801,   1914,  -1991,  -7910,   5330,  -2985,   3749,   -269,   -286,  -3430,   -974,   6088,   6868,  -7034,   7629,   4518,  -6435,  -7067,   6732,  -7524,   9521,  -8757,  -6264,  -5064,   1383,  -5698,  -2753,  -2908,  -4426,   1271,   3474,   5436,   5576,  -8261,   6570,  -9225,  -6076,   7497,  14081,   5884,   2531,    207,  -3750,   4597,   6586,     93,   2511,  -2034,   -192,   8875,   4156,  -4951,  -5468,  -7571,   2408,   3330,   5185,   2503,   9915,  -7195,   6041,  -2481,   2999,   7904,   8323,   6550,   2074,   5382,   -825,   8651,  -3145,   -768,  -3172,   3229,  -6658,  -2359,  -6399,   1774,  -5747,  -8995,   3283,   6196, -10692,   6870,  -2962,  -3840,   5195,   1057,   5860,   4006,  -2901,  -9304,  -6817,   2638,  -3892,   2814,  -7825,   9678,  -6000,   9837,  -5194,   2767,   4465,   5442,   6793,   2295,   8914,   8378,  -8578,   2913,   1233,  -3064,   3600,   4315,   -973,   8594,   5817,  10477,  -2171,  -6502,    -49,   7255,     94,   9183,  -6798,   4314,   6721,   1678,  -8705,    171,  -5425,  -4695,  -5160,  -1384,   1473,   6174,   5930,   6284,   -803,  -1737,  -8559,  -1058,   1660,   3825,  10242,  -6600,   8182,  -4067,   5942,   5927,  -5909,   7257,  -3202, -10420,   5257,  -2539,  -6216,  -8086,  10949,   1919,  -5012,   2524,   3446,   5223,  10207,   4621,   1990,  -9918,  -8924,   6725, -11032,   1471,  -1643,  -5053,  -4518,  -3115,  -4059,  -1843,    243,  -8826,   2234,   5294,  10396,  -7530,  -6094,  -2010,  -2514,  -1181,   1879,  11380,   3029,    505,  -4735, -13457,    991,   3358,   9412,    375,   5521,  -4350,   8372,  10624,   6303,   2235,  -3669,   2445,  -7604,   1342,  10784,  -2833,   -882,   3000,   2971,  -8902,   3955,   7355,   -540,  -3424,  -1572,   2882,   1283,  -6025,  -3913,  -6424,   8028,   7318,  -5809,   -762,  -4269,  -8066,    774,  -5024, -11229,   1602,  -1669,  -1302,   7343,  -4176, -10137,   5011,   2767,  -9148,  -2011,    268,  -2650,   7362, -12965,  -7094,   4534,   8834,  10884,  -5374,   4978,  -2051,  -1200,  -1651,  -4400, -10008,  10873,   1492,   2564,  -7741,   5514,   7147,   1571,  -8915,   2602,   8011,  -3766,  -2019,   8201,   6955,  10574,  -6015,    266,   7643, -12707,  -4959,   9717,   4734,   3315,  -6433,    583,  -7836,  -1406,  11088,  -6005,  -2173,  -1571,  -2744,   7545,    105,  -8352,    877,  11194,   3692,  -3632,   -200,    -29,   9710,  -6392,  -1333,   5883,   -269,   3067,    517,  -9398,   6603,   6180,   8745,     68,   9949,  -9795,  -1738,   6261,   8589,  -4427,  -4947,   8700,   3794,    -81,   6457, -11766,  -8018,   5737,  -7625,   1768,   7753, -10614,  -8077,   2702,  -3936, -13347,   9299,  -2614,    238,  -5848,   1896,  -4835,  10035,   4204,   1056,   4401,  -2527,   -259,   1524,  -1873,  -2740, -10014,   9379,  -3784,   3726,  -2108,  -5767,   5913,   7382,  -1499,   2475,  -3093,   6418,   3239,   8472,  -5394,  -3293,    703,  10536,  -1216,  -2534,   6463,   1108,   2443,   7641,  -8357,   7596,    -43,   7845,   4784,   -719,   2561,   3049,  -4075,   2836,   4286,  12792,  -9336,   4793,   7372,   4054,  -7068,   8918,   9298,  -1426,  -3986,    965,  10149,  -3934,   6638,   4931,  -7623,  -2487,   3340,   1406,   1950,  -3199,   5141,   -119,   8000,  -1684,   1576,  -3036,  -7925,   2103,  -3363,   6139,  -9675,  -2233,   7267,  -1827,  -2885,   2365, -11201,  -1053,  -3407,   -466, -10133,  -7177,   6133,  -9109,   6717,   7025,   2810,   3954, -10327,   2034,   8040,  -5243,  -3485,  -6990,  -2999,  -5725,  -8509,  -2326, -12397,  -4720,   4817,  -1204,   6416,
          3481,  -6567,  -6745,  10836,  -6647,  -2068,  -5456,   2891,  -2796,  -7920,  -7220,   6044,  -1877,   7354,  -4429,   3579,  -4125,   8644,  -2504,  -1257,    998,   6215,  -4592,  -4651,   9428,   7377,  -2078,  -8721,   9581,   8850,  -3997,   1803,   2245,   1335,  -9358,   3994,  -8879,   9775,   6972, -12146,  -3606,   -169,  -4724,   3095,   9079, -14166,  -9192,  -8286,  -5465,   5185,  -5076,  -7201,   3469,   5468,  -2759,    653,  -7328,  -1027,   7517,  -6205,  -7540, -12644,   1026,  -3246,  -2628,   3994,   3663,   8169,   2837, -10852,   8971,   3940,   6443,  -4520,  -1577,   3553,    370,  -6194,  -5225,    116,  11863,   9255,   6415,  -4432,   6135,  -2549,   3973,  14355,   6216, -11157,  -3636,  -2892,   1299, -13257,   1278,    352,  -5429,   3179,   2662,  -5772,   2432,   2314,   8942,    215,   7849, -12670,   5737,  -9315,   7104,   -426,   3690,  -5499,   5027,   8595,   6935,  -8046,   6731, -10095,  -1881,  -5499,  -7902,  -3443,   5114,  12028,   -192, -11355,   5280,  -9681,  -5571,  -2668,   3914,   6009,   7081,  -4415,    604,   2797,   7441,  -8290,   7007,   4502,   4761,  12092,  -2595,  -5813,   5355,  17455,   3521,   9071,   3540,  -4551,  -8304,  -7482,  -8686,   2500,   4993, -12815,   -884,  -1926,   5237,   7339,  13454,   1956,   6656,  -3266,  -2844,  -5664,   1647,  -2306,   5380,   1015,   9989, -11930,   4626,  -2001,  -9586,  12812, -10936, -12463,  -1633,  -2853,   2879,   1043, -10286,  -6100,  -7867,   9566,  -4534,   3623,  -7619,  -5567, -12531,  -3634,   4016,   1425,   3777,   4952,  -2668,  -4763,  -1549,  -8159,   4987,   5150,     -2,  -3621,   2247,  -5985,  -6086,   1460,   5878,  -2740,    882,   3825,  11112,   7982,   2016,   9811,   5982,  -3694,   4425,  -2908,   9693,  -5328,   -396,  -4512,   5846, -13398, -12806,   -374,   5115,   2238,  -9903,   3044,  -9094,  -6722,  -8372,   4887,   6659,   5603,  -9107,  -8063,   1641,  -5116,  -4083,   6778,   8110,   1675,  -1945,   7831,  -3057,    331,   4469,  -2296,   4046,   1440, -10997,   1444,   2199,   3536,   3605,  -8840,  -6979,   3720,  -3960,   4890,    821,  -1522,   2301,   6886,   4347,   7169,  -1933,  -9351,   7187,   6185,   6542,  -1485,   7255,  -3808,    727,  -3281,  -3183,   1158,   -507,   -582,  -3686,  -1315,    354,   4282,  -1366,   3731,  -2983,  -5215,  -7942,   2666,   -690,   -140,  -5553,  -7615,  -3624,   1138,  -7812,  -6343,   -256,  -9347,  -1128,   2026,   -249,   5183,  -2428,  -8378,   4528,  -7403,   8201,  -7237,   5297,   1167,   5706,  -7795,   7184,   3785,  -7413, -15242,   7374,  -4743,  -5161,  -1293,  -8454,   8088,   5520,   3717,   3929,   2901,    510,  -3423,  -2364,  -9722,  12733,  -8738,   5932,  -1900,   3895,     15,  -5102,  -2983,    319,   1643,  -4781,   2932,  -6083,  -3951,   6211,  -8243,  -1898,   7168,  -1111,  10276,  -7206,   6355,  -1748,   9593,  -6876,  -1794,   4673,   6130,   8617,   3063,   6775,    -96,  -6607,    -14,  -1553,  -6799,   7382,   -160,   -954,  -4179,  -7776,  -6116,   1279,   7671,  -5423,   -806,   -340,   4408,  -1927,  -3954,   3325,  -1855,  -4528,  -6370,  -5137,   2014,  -2498,   3019,  -8986,   3834,   4445,   2235,  -3637,  -7982,  14543,  -3817,  -4207,  -2908,  -2383,   2003,   2857,  -5310,   2543,   2048,  -2311,  -3255,  10186,   6235,  -4715, -12037,  -1436,   1992,   6903,   3300,   7255,   2040,  -6777,   3724,  -2451,   6280,  -5185,   7448,  -6434,  -7016,   5302,  -3963,    624,   -298,    543,   1480,   7705,  -2657,  -4510,   4511,  -4460,   7845,  10649,  -3275,   4843,   -499,  -3517,  -2730,  -2164, -18241,  -6269,   3123,   7394,    -70,   5791,    824,   -740,   2695,   -601,  -2298,   6927,   5363,  -7057,  -5811,  -3261, -13307,   5980,    659,  -5066,  -1830,  -8280,   8812,   8352,   -416,  -5090,    592,    311,   2747,  -7770,   1915,   6315,  -2546,   6742,  -3025,   8186,   5029,  -7096,  -6953,  -1198,   5284,  -7876,  -6982,   -557,  -5200,   -727,  -7032,  -7057, -13062,  -4989,  -5804,   7391,  -1858,   2156,  -3961,  -7461,  -4616,  -6648,  -9444,   1531,   5744,   6588,   -230,
         -4861, -13619,  -3524,   3407, -11211,  -5040,  -2052,  10352,   5051,   4461,  -3676,   -745,   -606,    163,  -4989,  -8850,   6391,   4523,  -2850, -11218,   4749, -13587,  -8292,   3413,    230,  -7731,  -7867,   5606,  -6652,   7943,   -853,   8257, -12816,  -8856,   3715,    543,   4431,  -9698,   9046,   1737,  -8545,   5880,  -9389,   4716,   2198,   4416,   -769,   8427,   1110,  13194,   3208,    -97,  -3129,   1277,   6351,  -6306,  -9902,  11317,   6465,  -6796,  -4343,  -9555,   7986,  -7312,  -3745,  -8847,   7383,   5600,    672,  -9037,  -8272,   8346,  -6285,   3014,   5752,  -9161,   4645,  -5246,  -6966,      2,  -8076, -12965,  -3358,    165,    810,   5152,    974,   -132,   4959,   7586,  -9325,  -7167,  -6139,  11452, -13192,   7108,   7859,  -1657,   5182,   1199,   6668,  -8414,  -3387,  -1931,  -1325,  -3991,   2028,  -2377,  -5373,  -5567,   3125,   7614,   9791,  -1628,  -1152,  -8267,  -8017,   2827,   9054,    412,   -337,   6103,   4480,  -2688,  -1043,  -8559,     97,   7508,   -618, -12890,   2160,  -3225,  -8520,  -8921,  -3824,  10446,   4039,   1934, -11623,  -9757,  -8734,   3224,    985,    482,  -9556,  10300,   -730,  -7488,  10881,    416,   3657,   4737,   7109, -11840,  -6966, -10659,  -4384,    869,   4774,   9938,  -6133,   6662,  -3510,  -5917,  -3923, -13182,  -7066,  -1642,   8018,   8740,  -6562,  -4691,  -1080,  16622,  -7765,   5338,   7401,  -5555,   6642,  -9381,   6007,    282,  -9458,  10736,    988,  10364,  -7178, -14077,   6699,   4810, -10852,   3458,  -7283,   8327,   3726,  -9892,  -7225,   4401,   -250,   2072,   5775,   -537,  -4766,   9458,   2837,  13239,  -3888,   4222,  -7754,  -4603,   -807,   5967,  -7977,  -6678,   1126,  -2063,  -8943,   2918,   3679,   7603,    -91,  -6839,  -6511,   -870,  -9509,  -8553,   6157,   2843,  -9265,   5740,   2597,  -8459,   -450,  -1130,   3344,  -2927,  -5961, -11980, -19090,  -5408,   9440,   7614,  -5872,   7954,   1738,  -4787,  -9502,   1669,  -3547,   5647,  -2270,  -4613,  -8067,  -4074,    883,  -7098,  -3116,   -591,   5302,   4692,  -7967,  -3578,   4086,   6315,  -4465,    714,  -1520,   5472,   6261,  -7977,   5458,   1166,  -5472,   6043,  -2536,   6731,  -5805,   8055,   1182,   3545,   8296,  -3102,    408,  -1807,   2267, -10202,  -6511,  11967,  15443,  -6018,  -7874,   5892,   6045,  -2442,  -7782,   6286,   4594,    271,   7003,   7580,  -6822, -13237,   3808,   2558,   -514,   8184,  -7552,   7984,  -4532,   6014,  10500,  11887,  -1471,   9493,  -5682,   7898,   1825,  -2574,  -6563,  -4893,   8847,   6880,  -7102,   5590,  -3056,  14324,  -6249,   5586,  -4081,  -1999,  10263,   1324,   7159,  -5367,    504,   2892, -13657,   2823,  -3564,   -208,  -6014,   9544,  -8361,   4333,   1017,   -513,  -2695,  -8563,   1461,   -286,  -7358,   3263,   1522,    114,  -3639,   4844,   6821,  10946,  -7687,  -2686,   -908,   6956,  -6491,  -4497,   4128,   6954,  -8068,  -1309,  12650,   4567,  -7657,   6873,   1621,   -435,   5568,   2107,   7418,  -4245,   1349,   2135,   3597,   4279,   -336,  -6576,  -3353,  -5455,   -305,    445,   2609,   -342,   -682,   3954,   6182, -10885,  -7305,  -4225,    166,   2052,  -5471,   5791,  -9117,  -1853,   3625,  -8127,  -5918,   -526,   3578,   6583,   3677,  -1584,   7179,  -1401,  -3723,   3811,  -3470,  -2568,   9515,   5594,   4893,   5533,   3828,  -2264,  -4952,  -3208,  -7515,   6629,   -659,  -4436,   8656, -12122,   3319, -11573,   4361,  -2613,  -9245,   6659,   5046,  -7654,  -4396,    414,   3922,  10284,  -6091,   6408, -10090,  -5484,   7212,   -912,   5535,   8077,   9181,  -1324,   -755,   2150,   -471,   -910,    778,   8845,   7946,  -5541,   4785,  -9216,   -654,   4517,   8803,  13222,    671,    565,  -9312,  10164,   3510,   2069,   4997,  -5442,    663,  -5897,   6115, -15103,  10408,   -805,  12763,   2237,    494,   -956,    302,   8019, -10409,  -3135,  -3474,   4189,  -8834,   5547,  -4673, -13232,   3310,   3450,  -1584, -10099,  -7503,   4193,   4080,  -4115,  -6669,   2037,   8759, -11557, -11598,  -9915,   8121,  -9653,  -3807,   9299,
         -7192,  -9471,  -1009,  -9932,   7791,   4696,   2574,   8546,   5099,  11525,    595,  -9575,   3333,   6248,  -8565,  11583,  -3526, -10067,  -6780,  -1675,   4943,  10074,  -3162,   8599,   5353,   -765,  -3804,  -7538,  -3610, -14733,   4242,  -6727,  -5432,   8329,  -8386, -10044,  -7408,  -7714,   -128,   9665,  -3668,   2116,  -3209,   2546,   1167,  -1702,   1362,  -1239,   4301,   4599,  -2927, -11075,  -9546, -10716,  -3779,   3237,    732,   1749,   8951,   7015,   4741,   9424,     51,  -9429,   -383,  -4455,  10196,   5513,   5054,   -607,   2259,  -1317,    177,   3828,   5477,   3813,   5559,  -3650,   -827, -12303,  -5059,   3422,    161, -10964,   2821,  -8986,  -1226,   7674,    595,  -7507,   4908,   1676,  -4528,   7359,   1171, -11721,  -5811,  -7418,   5222,   5086,   5994,  -4759,  -2472,   4836,  -7098,  -7031,   3524,    583,  -6292,  -8163,   8870,    723,  -1256,   4052,  -8078,  -5826,  -1295,  -6071,  -8788,   1609,  -1571,  -4865,   3465,   -767,   -404,   2832,   8419,  -5501,    859,   1106,   7624,   4643,  -5553,   6189,  -1252, -10452,    108,  -1379,   3433,    -13,  -4068,  -2686,  -7107,  -3472,  -6509,   1742,  -2320,  -2597,   -619,  -6371,  -7074,   7834,  -6232, -11629,  -3309,  -8890,   5565, -10386,   3820,  -2869,   7562,   8279,   2809,  -1030,   9390,   7430,  -6784, -11844,   -539,   3037,  -2807,  -7283,   2119,  -6431,  10630,  -2266,  -5224,    451,   3493,   5455,    911,  -3304,   8806,   1729,    -66,  -9532,  -2793,   6983,   5606, -14091,  -9092,   -392,   1879,   3526,  -3886,   1926,  -3023,    202,  -1191,   4437,   2745,   1173,  -7704,  -4061,  -3953,   -601,  -3005,  -8524,   7683,   4519,  -2606,  -1190,  10250,   2562,   1474,   -239,   4729,   -396,   1709,  -3261,  -4792, -11067,    360,  -8744,   -827,   1212,   8939,  -7638,   3641,  -2631,   -622,   -720,   9111,  -4914,   6550,  -9004,    711,  -7261,   2266,   3640, -17304,  -6610,  10956,  -2717,   2621,  -6699,   7358,  -7906,    957,   7158,   5544,   -560,   5593,  -7315,  -1693,   5214};

    const static Filter<int16_t> statefulpartitionedcall_sequential_conv2d_1_biasadd_filter(statefulpartitionedcall_sequential_conv2d_1_biasadd_filter_element, -16, {3, 3, 16, 16}, {1, 1});
    const Filter<int16_t> *get_statefulpartitionedcall_sequential_conv2d_1_biasadd_filter()
    {
    	return &statefulpartitionedcall_sequential_conv2d_1_biasadd_filter;
    }

    const static __attribute__((aligned(16))) int16_t statefulpartitionedcall_sequential_conv2d_1_biasadd_bias_element[] = {
            18,      0,      8,     -5,     -3,     -4,      2,     21,     -1,     -7,     15,     16,     -1,     -6,     -4,     -8};

    const static Bias<int16_t> statefulpartitionedcall_sequential_conv2d_1_biasadd_bias(statefulpartitionedcall_sequential_conv2d_1_biasadd_bias_element, -8, {16,});
    const Bias<int16_t> *get_statefulpartitionedcall_sequential_conv2d_1_biasadd_bias()
    {
    	return &statefulpartitionedcall_sequential_conv2d_1_biasadd_bias;
    }

    const static Activation<int16_t> statefulpartitionedcall_sequential_conv2d_1_biasadd_activation(ReLU);
    const Activation<int16_t> *get_statefulpartitionedcall_sequential_conv2d_1_biasadd_activation()
    {
    	return &statefulpartitionedcall_sequential_conv2d_1_biasadd_activation;
    }

    const static __attribute__((aligned(16))) int16_t statefulpartitionedcall_sequential_conv2d_2_biasadd_filter_element[] = {
         -1979,   6436,  -7749,  -5380,   4210,  -7927,   4606,   3881,  -9558,  -4426,   -623,  -6077,   3102,   7242,   4569,  -5197,  -6530,  -4872,  -3978,  -4073,  -1356,  -8351,  -2264,  -2729, -11066,    300,  -1232, -14035,   3676,  -1261,  -2463,  -3973, -11301,  -7562,   -601,   -791,   -485,  -5941,   2518, -11195,   2750,   8807,   2881,   4638,    154, -13098, -16348,    706,   5704,  -1312,   6693,  -7386,  -3896,   6426,   2419,   5114,  -4599,   2479,  -2637,  -2204,  -7076,   6027,   1201,  -6649,   -364,  -1431,  -2740,   -285,  -6962,  -4497,  -1135, -11919,  -6662,  -2260,   3128,  -9271,   8776,  -5607,   2421,   3512,  -2550, -13176,   2119,  -7812,  -1513,   -580,  -9437,   1653,    888,   7505,   4419,   6948,   7004,  -2308, -11220,   6112,  -7271,  -2242,  -2076,  -7317,   3656,  -2090,   1251,   1969,  -9420,  -9702,  -3778,   7293,   2438,  -5664,  -2816,  10679,   -326,  -3402,  10498,  -2882,   8718,  -8869,   -359,  -6090,  -9158,   6767,  -4520,  -5618,  -2318,    472,   8143,   4036,  -5319,  -7119,   -664,  -3065,   7977,   4424,  -2180,   5294,   1895,  -8496,   -892,   8352,  12113,   6502,  -7444,   4612,  -8947, -13282,   2917,  -6594,  -9899,  -5111,  -7284, -10631,   3215,   -741,   1896,  -3560,  -8915,   3554,   5692,    824,   6630, -11469,    880,    172,  -7103,  -4360, -10642, -10172,  -1379,  -9516,   4422,  -1987,  -7509,   -906,   7798,   3664, -11549, -11205,  -3162,   4250,   3953,  -5254,    958, -14114,  -7003,    422,   1406,   1793,  -4221,   4990,   9835,  -3157,   4834,  -8991,  -3156,  -5493,   2316,     85,  -9426,   3175,   4135,  -8319,  -1982,  -7002,   2341,   2238,   7652,  -4753,  -6761,   2359,  -8179,  -1115,  -5044,  -3119,   -375,  -5183,  -6682,   7330,   2363,   4758,   8894,  -1191,  -8114,   -960,  -2068,  -6876, -15972,  -4956,   -693,  -6633,   3557,  -2059,  -6251,  -1157,  -4117,  14378,   6817,    899, -11804,    491,  -5854,  -9284,  -9748,  11032,   8850,  -4295,  -7253,  12385,   3111,  -4843,    288,  -1663,   4737,  -1186,  13468,   5499,  -4957,  -6306,  -6278,  11231,  -3457,   2959,  -5059,  -1100,   2815,  -5309,  -2353,   4453,   4844,    327,   8307,  -3176,   4941,   5167,  -9405,  11638,    860,  -5016,   4998,   2900,   8591,   2543,   2307,   6534,   9213,  -9479,   6107,   8387,   7316,  12417,  -1166,  -6000,   -564,  -1096,   5844,   1683,   6590,   1830,   5045,  -5910,   1758,  -4455,   3902,  -2252,  -2952,  15776,  13201,   2660,   3663,   1704,   4403,  -2113,   6133,  10248,  -7523,   -160,  11483,   1853, -11528,   3130,   5778,   7126,   9920,   2055,   2787,   4361,  -6906,   3196, -12694,   8650,  -7739,  -4547,   4271,  -5412,  -9087,   3038,   3370,   5951, -13477,   -419,  -1869,   3039,   6535,   6921,   -122,  -3271,  -2569,  12871,   8409,  -6819,   6079,   9166,  -6474,    -94,   6405,   4635,  -1024,  -7190,     14,  -1485,  -7573,   6188,   3850,   7398,   7430, -11236,   5639,  -2201,   1092,   7258,  -2690,   2761,  -5017,   -335,  -5044,  -6600,  -9941,  12377,   1419,  -5106,    250, -10129, -10245,  -5480,   7213,   1774, -14557,   7877,   4908,  -4131,  -5723,  -1621,   4287,   4654,    -96,   6018,  -2865,   3934,   6059,  -5121,   6405,  -5237,  -8722,   8245,   1767,  -4462,   7463,   2248,  -5836,  -4408,    304,  -7130,  -4672,   3127,  11207,  -6922,   3725,    242,    534,  11083,  -8387,  -3219,  -7142,  -7612,  -1877,     56,   2959,  -9221,  -4266,  -8653,     54,  -8727,  -7957, -11904,   4997,   4445, -12217,  -3744,  -3574,  -2103,   2881,   6811,  -4640,  -7777,  -8709,  -7857,  -5342, -10579,   2288,  -6685,   2502,   -730,  -3328,  -2988,   4003,   4249,   6155, -12694,    933,  -9018,  -3396,  -4517,   4194,  -3497,  -2024, -11179,  -3517,    118,  -3958,   1386,  12200,   8266,   5520,  -8032,  11403,    983,   2120,  -2966,   -291,  -6115,   3065, -11148,   8030,   2458,  -5186, -10931,  -2543,   4917,  -1824,   -734,  -1494,   3258, -10903,   -957,  -2082,  -4118,  -5943,   1291,   1362,  -5472,   4774, -15479,   3366,   4491,   7258,   2484,   6318,   7004,  -2384,   8993,    977,  -4056,
          7593,  -1066,  12293,   2716,    846, -11075,  -7923,   4857,  -4597,    -49,   9634,   7186, -16558,  -7203,   5626,   5476,  -1725,  -2528,  11754,   1528,   6830,  -9826,  -4656,   3137, -11336, -12621,   2185,  -1811,  -1573,  -1650, -18179,   -912,   8517,  -4396,   5086,  10285,    570,  -7566, -10936, -11396,    770,   -568,  -2733,   8532,  -8516,    148, -11950,   6412,  -2614,   -689,   6830,   4384,   2883, -12723,  -9022,   4659, -13405,  -6244,   9360,   7885, -17752,   9975,  -8106,   7983,   9563, -10372,  -3908,  -2265,  -3771,  -4079,  -8190,   5395,  -1666,  -2370,   4913,   1774,  -7534,  -3756,   6365, -10726,    493, -13292,  -3605, -11406,  -8361,  -8153, -10897,   3938,    196, -10818, -11293,   7576,  -9465,  12565, -10664,   2423,  -1495,  -5182, -12629,   2973,  -6467,  -7587,  -5992,   4689,  -3073,   5569,  -6373,  -3332,  -7280,  -3409,  -1909,  -5131,  11859,  -5082,  -1341,  -4423,   1825,   4159,  -9207,   5383,  -7968,   7977,   6480,   5805,   2326,   8000,   4728,   6391,  11779,  -1811,   4406, -10924,  -3395,  -1009,   -742,   2003, -11620,    775,   4211,   1639,    704,   2336,  -3469,   3020,  11479,  -3493,   6317,  -2913,  -7829,  -5016,  -6839,   9084,   3240,   8838,  -4679,   8683,   3088,   3675,  -5052,   5202,  -3311,   7625,  13596,  -5761,   6764,   8478,   9059,   6416, -10985,     46,   2794,   2442,  -3074,   2379,   6790,  -7991,   5473,  -2972,   9415,  -4522,  -3337,   4474,  -2946,   8251, -13311,   2443,  -2380,  -9673,  -1896,  -1341,   -904,  -5683,   3932,   6992,  10338,  -2034,  -2233,   3936,  -8150,   -990, -12017,  -4964,  -7365,  -4160,  -1347,  -1228,   8586,   3318,  -6815,   8673,    305,  -5163,   4381,   3647,   1850,   5538,  -4313,    519,   5018,   -240,  -3833,  -5883,    429,   8287,  -4323,   1492,   2374,  -8097,   4085,   8349,   -553,  -7462,   4632,    -53,   5721,    106, -11481,   2535,  -6089,   6591,   3831,   8301,   -731,  -4587,   2640,  -1371,  -2267,   9349,   3853,   8704,   1728,   8949,  -8213,   1214,  -5663,   6576,   4156,  -5171,    644,   9648,   7222,   2241,  10061,  11483,   6801,   3076,   2909,  -3521,  -9762,   6687,  -5208,  -2964,  -9667,  -7341,   3569,   9114,  -1487,  -3180,  -5931,   3613,   1447,  -3566,   3211,  -6734,  -4668,   4598,  -2206,   2759,   -164,  -2531,  -5313,  -1451,  -7410, -10971,  -1644,   7147,  -1708,  -3766,   5258,   2946,   5832,   2702,  -2016,    463, -15639,   2526,   8290,   4383,    843,  -2698,   6029,   4496,   5296,   6183,   1624,   1286,   8040,  -6428,   5710,   8703, -12926,   5085,  -5322,  -2101,   3878,   4823,  -4930,   4011,  -5527,  -6483,  -7225,  -7153,  -1713,    921,  -5021,   5046,   -852,   -865,   6336,   3863,   5834,  -3735,   5185,  -6077,  -8716,  -6148,   4627,  -1534,  -5424,   7825,   1274,   7160,    691,   8899,   4852,   9288,   8081,   6045,   8529,    550,  -8830,   5020,   8647,    160,   3056,  -9558,  -8231,   5412,  -4542,    307,  -2934,  -4276,   1805,  -9035,  -2712,   8754, -12899,  -4259,  -7356,   6356,  -3939,  -3780,  -4873,  -1251,  -7592,   4000,   -862,   1359, -13932,   1604,   4129,   1030, -14220,  -4005,  -7125,  -8415,   9282,   1307,   3895,   8040,   4911,    188,  10139,   6405, -10597,  -2320,   6921,  -4783,  -9181,   5297,  -7775,   4122,   4628,   -934,  -5681,   6139, -10700,   4679,   8679,   7788,  -7357,  -4803,   -152,  -1850,  -2920,   6108,  -4448,  -3648,  -5872,   2995,  -5727,  -7406,    -75,  -7541,  -9983, -11541,  -4483,  12585,  -2549,   6424,   1689,   -208,   5439,  -8793,   6641,   2481,  -8012,  -1929,  -5405,   4344,  -7357,   2249,  -8403,  -5472,  -6574,   4816,  -4193,    785,   3041, -11015,   3478,   2985,  -5095,  -9951,  -3557,   1455,  -1050,   3674,   -986,   8023,  -6886,   1185,  -2602,   -315,  -3842,  -2021,   5843,   -935, -12220, -11276,  -5298, -12082,    763,   6519,   1312,   7501,  -7341,  -8012,   8672,  12371,  -7029,  -5933,   9084,  -2866,   1423,   8276,  -4780,   6425,  -3541,  -3800,  -1572,   -421, -12223,  -1289, -11437,   3041,  -1712,  -5177,   1829,   2292,   4334,   -872,
         -1734,   8911,   8041,   -703,   -937,  -2179,  -9149,  -3952,   3502,  10523,  10086,  -8918,   8655,  -5087,    703,   2274,  15707,   1809,  -4972,  -1883,  10279,   7408,   3449,   8060,   9021,   8684,   -139, -10288,  -2607,   4067,  -8481,  -7381,  -1772,  -1639, -17189,  -4111, -14871,   1012,  -5754,  -3489,   4439, -11721,  -5882,  -2834, -11206, -13383,  -4455,  -5841,   -865,  -9288,  -3889,   2435,   3271,  -6842,  -6234,   6917,  -6270,   1492,  12569,  -2601,   5806,   9421,   3567, -10968,  -3808,   5862,   6780,   8386,   5060,  -1428,  -8281,  12520,  -2222,    -52,   -714,  -4427,   1537,  10557,  -4388,  -7146,  -6785,  -8262,    110,   5568,   -787,    842,  -5207,  -6042,    218,   4795,  -6517,  -9562, -13801, -15489,   -570,  -1012,   2257,   -307,  -8910,  -1947,  -3647, -14264, -14556,     49,   3800,   1441,    409,  -6670,    -25,  -8009,  -7437,   3861,  -5554,  -8465,   1705,  -6071,  -1526,   1644,   1944,  -3786,   -773,   6481,  -4968, -12269,   1522,  -9409, -11597,   1883,  -7992,   8930,  -2476,  11569,   4048,   6799,  -1842,   2050,   4285,   1551,   8880,  -7753,  -9042,   2641,  11173,   5157,   9209,  -1616,   4249,   9364,  -4818,  -3690,   4881,  -3316,   5338,   4092,  -8697,   5773,   -604,   8058,   9824,   2503,  -4194,  -3328,    740,   1102,  -4693,  -1311,   7542, -12349,  -3315,   7380,   1763,   1003,  -2919,  -3238,   2764,  -7442,   8561,  -4846, -10056,  -5493,    294,   5938,   8052,  -6439,   1337,  -1589,  -5588,   1309,  -4927,  -4460,  -3487,  -1355,  -3607,    -10,  -7737,  -5336,   4467,   1761,  -4297,   3266,  -1664,   1279,   2248,  -3592,  -6771,  -5799,  -7672,  -6518,   7096,    107,   5352,  -6739,  -8858,  -6209,   1588,  -6320,   6650,   8743,   8344,  10875,   1361,  -6146,   2860,   4218,   5164,   6793,   2982,  -6122,   1004,   1039,   8103, -10336,   4617,  -5983,   2017,  -7313,   3161,   -191,  -3308,  -5483,    538,    166,  -1735,   2362,  -7400, -11638,   2280, -12196,  -3199,   5853,   9491,   3633,  -4244,  -2807,  -7731,  -5526,  -2811,  -8526,  -2065,   2561,  -2567,  -9266,   -885,  -2668,    987,  -7197,   3562,   8077,   1144,   3994,   2529,  -8609,   5103,   1947,  -4442,  -9935,    344,  -1892,   5952,   9362,   6567,   3303,   -975,    878,   -296,   6097,   -618,  -2075,  -2073,  11635,    536,  -4484,  -7118,  10775,   2966,   4201,   5579,  -4981,   3658,  10040,   2239,  -8815,   7855,  -4748,  -5622,   6696,  -1520,    212,   9205,   2349,    332,  -4931,   1704,  -1609,  -4004,   2309,  -8861,  -2231,   7826,   2843,   6918,   6911,  -2372,  -8690,  -9610,  -4692,   -194,   1337,  -6049,  -6750,   5887,  -7888,  -2793,   7626,  -2191,  -6900,   9000,   4077,   -457,  -8336,  -7283,   6100,    603, -10247,    589, -10408,  -4264,  -4262,   2102,   7507,  -5833,   5808,   2329,  -3827,   7868,   1646,   4715,  -4508,  -8177,   5933,   2208,   5839,   7114,   9162, -10754,    416,  -5444,   9234,   7663,   -826,  -1538,   5310,  -3686,   7669,   1484,  -3016,   5618,   5860,   9111,  -2115,  -6955,   -379, -11997, -10766,  -4480,   2437,    660,   -843,  -5950,  -2083,   6003,  -8612,  -1345,  -9101,  -6372,    907,   7882,   2524, -12098,   5667,  10981,    690,    459,  -7053,   1176,   3845,  -2225,  -4793,   3477, -10582,  -6072,   -512,  -4209,  -5276,  -9152,  -4904,  -8033,    774,   6963,  -4013,   3348,  -6359,  -1990,   4617,  -4607,  -7613,   2434,   4308,  -1459, -10101,  -8199,    991,  -7217,   7308,  -1605,  -1837,  -5445,  -9843,  -3889,  -6309,   5091,   8912,    572,   1952,   6329,   6487,   -271,   7030,   8986,   1799,  10702,   2689,   8225,   5146,  -1193,  -9040,  -7672,  -4848,   2478,   4923,   2447,   8687,  -4742,    -78,   6918,   7026,  -8264,   8578,  -8294,   1625,   8747,  -7382,  -4005,  -4766,  -9234,    134,  -7571,   6221,   7337,   6533,  -4500,  -1851,  -6631,  -1123,   5775,  -3272,    697,  -7578,   4529,  -8115,  -7919,  -7153,  -4791,  -3350,    321,   6442,  -3058,  -4980,   5587,   3574,   6262,   3883,   1005,   4331,   2880,   6936,  -6153,   9248,  -6875, -10216,   3422,  -3992,
          4018,  -3688,   7327,  -1669,   4621,   9419,   1937,  -7223,  -3197,  -7642,   1000,  -3000, -11855,  -3543,  -5313,  -8871,  12102,  -8377,  13602,   6799,   4068,   7356,   1871,  -1369,   1812,  -6506,   6978,   3297,  -4682,   1690,  -2410,   8073,  12581,  -4154,   7929,  -8318,  -1146,     17,  -3852,   3786,   1858,  -5567,  -1306,   1803,   -922,  -6336,  10429,   2245,   7068,  -5135,  -1586,   4710,  -7577,  -6579,  -5194,   -481,   9787,   7107,   8388,   1896,   6183,    755,   3867,  -6369,  -5228,    295,  -4220,   8163,   7335,   5714, -11332,  -6294,   5669,  -7518,   9158,  -2680,    997,    859,  -4417,  -9151,  -3131, -10072,    812,   3636,  -8801,   3845,  -9338,   -743,  -8863,   5127,  -2858,   9158,  -2921, -10444,    706,   5507,   4232,   4829,   3519,    223,  -3902,   2621,  -7731, -11490,    342,  -3393,   3791,  -9118,  -3863,    839,   1579,  -2570,  -5590,   2013,   2112,  -1094,  -2166,  -6264,   2193,   7665,    -92,    696,   5649,  -7521,  -9359,    638,   6314, -11367,  -3360, -11211,  -3231,   6822,   5644,  -4600, -10791,  -4525,     36,   3948,   3454,   5242,    482,  -7403,  -1689,   8858,    974,   -773,   1309,   -966,  -8810,   2559,   6541,  -7696,    167,  -8301,   1539,   5481,  -1301, -11422,  -8703,  -1676,   4387,  -2370,   7745,   1516,  -1219,   1835,  -7128,   2836,   4974,  -1065,  -3740,  -9595,  -8862,   3242,  -7070,  -9537,   2393,   -191,  -5536,   7102, -12576,  -7172,   3067,  -1721,  -1456,   3574,   3430,   4541,  -8477, -13726,  -7745,  -1508,   3791,   1350,  -2336,   5035,  -6793,   2752,    460,   7410,   -361,  -2092,   2432,   8174,  -6864,   6248,   -172,  -1699,   5925,   4200,  -1816,   6986,   6874,   3861,   8296,  -7286,   3273, -10202,  -4490,    -33,  -6975,   5797,  -7646,   1269,   4421,   6003,  -4258,  -4129,  -4858,   3685,   5704,   -573,   6335,   9054, -10728, -11241,   4151,  -6983,   4162,  -4178,   2525,  -1989,   7414,   1733,  -2875,  -7417,  -4580,  -6806,  -7212,  -6895,  -6673,   3947,   5901,  -6534,   5768,   6564,   7550, -11765,   3203,  -3423,  -1816,  -6013,   -685,   6458,  -4240,  -9096,   3268,  -4386,  10919,   9080,   2506,   -982,  -4019,  -5314, -14981,   -139,  -5430,   9123,  -2061,   2182,  11131,   -135, -13702,   2606,  -2534,   5488,  -8945,   2152,  -9484, -12328,  -9210,    216,    393,  -1334,  -5810,   9823,    848,   1218,  -3251,   9254,  -2885,   4760,   2808,   -609,  -7602,  -8151,  -5862,  -8122,  -4838,  -5905,  -4967,    -72,   6018,   1916,  -9122,  -7146,   9362,  -6528,  -8877,   7576,  -8241,  -1915,  -8880,  -8713,  -3519,   2050,   3479,   5375,  -4517,    538, -11341,   1553,   6970,   9357,  -8302,   4226,  -3201,  -8341,   6268,  -2569,  -1298,  -1450,  -4068,     12,   9554,   9811,  -9727,   3906,   -669,  -2932,   2047,  -4353,  -8555,   1187,  -6325,   3169,  -4712,   6538,    789,  -5006,   5354,  -2212,  -7208,   1821,   2534,  -6570,  -7691,  -8642, -18755,   5114,  -5837,  -4234,  -6067,   2289,   9471,   6023,   3493,  11124,  -6201,    649,   3460, -11595, -10629,  -8631,   5225,   2532, -11552,    342,   5190,   9041,  -9149,   1896,  -5552,   3217,   -230,    -87,  -5092,   1703,  -6551,    516,  -5413,  -3091,   4945,  10126,  -1006,  -9291,   4590,  10886,  -3999,   5431,   3171,   9172,   1175,  -6422,   6717,   9269,   2246,  -6989,  11865,  -6711,   8064, -11507,   1031,    -34,    235,   2845,  -2304,   4972,   1425,   2567,  -1388,   4052,  -3777,  -2846,  -7818,    -57,  -6972,   1738,   1615,   5196,   6270,  -1579,   1085,  -7803,   4333,   5648,  10553,  -3012,   9935,  -8578,  -2489,   9565,   4717,   -401,   8672,  -2392,   7321,   5467,   4351,   6642,   2209,   1839,   4671,  -3812,  10895,   5904,   7300,  -5747,  -5345,   -992,   8480,   -946,  -8073,  -8030,   -169, -10375,   4067,  -3580,  10470,   2639,  -2757,   9450,  -7094,  -7447,    636,   9228,  -1793,  -2373,  -1281,  -7040,  -6818,  -1942,  -5856,  -4493,  -1330,  -5166,    171,  -1153,  -2920,  -6758,   8576,   9934,    907,   1403,    234,   9273,   3733,   2347,   4375,     65,  -3009,  -7990,
          1080, -12253,   -324,    705,   8267,  -3690,    851,   1398,     91,  -3592,  -6393,  11633,  -6985,   8056,   2268,  -8157,    876,  -3399,   3588,   9450,   3212,  12107,   1473,   -169,   -214,   2288,   3987,   1279,  -5813,   8798,  11242,   5434,   8530,  -8136,  -2386,  -4508,  -1127,  -8285,   7403,   7819,  -8803,  -4999,  -6214,  -5220,   5517,  -6568,   3635,  -6746,   5047,  -8299,   3040,   6583,   3997,   4161,  -1703,  -6203,  -1410,  -6926,  -3430, -12261,   5008,   6114,   -803, -12097,   1497,  -5807,   3171,   -428,  -2635,   2443,   2440,   9730,  -2970,  -5614,   6450,  -9111,   2554,  11111,   5029,  -7744,   3749,   5843,  -8634,   3377,   2042, -10450,  -7351,  -1080,   2505,   9099,   3307,  -7467,  -3810,   5827,   8868,   3759,  -7541,   7366,  -4780,  -7733,   7335,   7504,  -1764,  -1761,  -5643,   5724,     75,  -3718,   -558,  -9503,  -2976, -11568,   6146,  -3170,  -7136,   5608,  -4864,   -649,   2130,  -3381,   7988,   3843,   9705,  -9050,   8611,  -4447,  -9224,  -3314,   1267,   2580,  -4074,  -4403,  -9613,   8665,  -2117,  -3706,   3082,    133,  -7153,  -7570,  -3331,  -8292,   -384,   5426,  -3485,   5251,  -7853,   3561,   8099,  -5890,  10670,  -2516,   4656,   5518,  -5620,  -5631,  -9219,   6854,  -4069,  -7034,    770,   6382, -14645,  10383,  -9687,   8315,  -4388,    691,   8089,  -4114,  -8756,  -2618,   3032,   5109,  -8133,   3035,    835,  -4510,  -7365,   8239,  -5512,   1321,   2386,  -6065,  -2143,  -5564,  -2341,   7318,  -3073,   3819,  -9323,   7200,   5835,   2988,  -3104,   1413,   4547,  -8348,   6413,   6880,  -5681,  10708,   9849,  -5194,  -2007,   2964,   1973,   -217,    755,  -9982,  -9003,   1438,   6056,  -6167,  -4580,  -2648,    407,  10841,   -646,  -7621,   3507,   6652,  -3197, -10177,   3824, -10104,  -3228,   4281,  -1777,  -5079,  -1534,   6243,  -6665,   9520,   6061,   5996,  10311,   7184,  -5789,   2673,  -3164,   5828,  -4017,   2292,  -2300,  -7276,   5615,  -1504,  10526,   9305,   1515,  -9002,   4579,   9487,   3028,   6854};

    const static Filter<int16_t> statefulpartitionedcall_sequential_conv2d_2_biasadd_filter(statefulpartitionedcall_sequential_conv2d_2_biasadd_filter_element, -16, {3, 3, 16, 16}, {1, 1});
    const Filter<int16_t> *get_statefulpartitionedcall_sequential_conv2d_2_biasadd_filter()
    {
    	return &statefulpartitionedcall_sequential_conv2d_2_biasadd_filter;
    }

    const static __attribute__((aligned(16))) int16_t statefulpartitionedcall_sequential_conv2d_2_biasadd_bias_element[] = {
             7,     19,      8,     27,     24,     -9,     12,     -2,     10,      6,     -5,     35,    -14,     -8,     13,    -10};

    const static Bias<int16_t> statefulpartitionedcall_sequential_conv2d_2_biasadd_bias(statefulpartitionedcall_sequential_conv2d_2_biasadd_bias_element, -8, {16,});
    const Bias<int16_t> *get_statefulpartitionedcall_sequential_conv2d_2_biasadd_bias()
    {
    	return &statefulpartitionedcall_sequential_conv2d_2_biasadd_bias;
    }

    const static Activation<int16_t> statefulpartitionedcall_sequential_conv2d_2_biasadd_activation(ReLU);
    const Activation<int16_t> *get_statefulpartitionedcall_sequential_conv2d_2_biasadd_activation()
    {
    	return &statefulpartitionedcall_sequential_conv2d_2_biasadd_activation;
    }

    const static __attribute__((aligned(16))) int16_t statefulpartitionedcall_sequential_conv2d_3_biasadd_filter_element[] = {
         -2605, -11274,   3535,   5271,  -7444,   2806,  -9172,   5656,  -7215,   5741,   7816,   5288,  -6119,  -6529,    274,  -4280,  -6815,   1186,   -465,   1038,  -2134,  -2990,    222,   3997,   3657,  -7944,   3586,  -4137,    -79,  -5498,  -6884,   5260,   7216,   6020,  -7416,   3639,  -2188,  -7144,  -6832,  11371,  -6210,  -4244,  -5636,  -5386,  -6780, -10451,  -7907,  -3197,  -5299, -16923,  -4558,  -8369,   3697,   4179,   -115,    287,   1790,  -1193,  -5084,  -2028,   3541,  -5237,  -4035,  -1303,   7200,  -5607,    631,   1297,  -3726,  -2804,   -885,   3486,  -3392,   3135,   8454,   6322,   2514,   3784,   6868,  -3255,   5739,  -4551,   3674,  -5746,  -3738,   1894,   -909,   2634,   8257,   1924,  -3995,   6850,   2438,  -6223,   2881,  -4645,    607,  -6955,  -6916,  -1456,   9029,   4983, -16461,   1381,   5514,   9071,   -173,  10290,    -82,   9406,   3173,   5919,   6689,  -8699,   -446,   7200,  -7273,   7616,  -8007, -10192,   8614,  -5283,   9707,    335,   4995,   5768,   -732,   7724,  -6277,   3489,  -5243,   6293,   2061,   -870,   2360, -10421,   2816,   -263,  -2616,  -3552,   -674,   3194,  -2524, -10074,    574,   4764,   7452, -11285,  -3159,  -5521,   -987,   -566,   3546,   -716,   5621,  -9787,  -6883,    891,  -1035,   1727,   2055,   9059,   6116, -13247, -14709,  -6360,   2830,  -4634,   4448,   4345,   2602, -10336,  -2265,   9540,   5723,  -7917,   3499,  -3463,   4818,  -9322,  -7158,   3796,  -7230,   8481,  -3409,    569,   7206,   1492,   3470,   7140,    -64,  -7277,   3347,  -6397,    -35,  -5812,   2521,   -386,   6148,  -6786,  -7363,   9098,   7238,  -4545,   6043,  -3982,   1978,  -6701,   8584,   3322,  -7322,   6026, -11230,   7246,   2480,   4625,  -7528,  -5959,  -3008,   4710,   6798,   8138,  -2730,    -36,  -4058,  -8386, -11256,  -8438,   1242,   3411, -13955,  -3429,  10796,   2936,   4929,    -96,  -4137,   5855,   2601,  -1622,    178,  -8153,  -5886,   2161,   1603,  -1110,  -4424,   2969,   1269,   5983,  -4889,    799,   2499,  -5676,   6148,   2201,   4322,   2630,  -8408,   2340,  -3203,  -3524,  -6322,   8256,   -455,   8523,  -4049,   9106,  -2813,   -617,   1057,   3858,   -197,   3874,  -2748,   2021,  -5721,   4855,  -6695,   3801,    419,   4529,  -1559,  -7149,  -2039,   2609,   7269,   6465,  -1945,  -1134,   3993,   3423,   4862,  -9419,   8243,   3090,   8956,  -4760,   2599,   9720,   9182,  -1136,  -7878,   2828,   3474,   6936,   1532,  -5539, -10557,   2509,  -7009,   5106,   -437,   5611,  -8724,  13644,  -2013,    -59, -10160,  -6460,  -2897,  12747, -12863,  -1001,  -1840,  -1598, -11229,   2773,  -2655,  -7179,   1157,  14659,   2601,  -3568,  -3443,  -9008,    428,  -4851,    885,   3136,   2492,  -4802,   -811,   4716,   -605,  -9455,  -8284,  -8638,   7640,   9152,   1736,   2889,   3096,   -681, -10777,   3834,   6530, -11371,  -4091,  -3961, -11524,  -7585,  -1110,   -548,   6024,  -2123,  -6848,  -2433,    112,  -8038,   -860,   3307,  -8695,   5199,  -9184,  -9663,  -5215,  -5957,   5436,   6898,  -9351,  -3246,  -5829,  -6886,  -8853,    547,   1069,  11486,   -335,   -151,  -5026,   7266,  -7793,  -6761,   -857,   3128,  -8363,  -6874,   4118,   2702,  -4911,  -8846,  -1914,   7806,  10329,     52,  -4370,  -1681,  -2483,  -4570,   4762,  -1656,   1452,   -248,   9753,   7457,   2690,  -3226,   3957,   -423,  -3974,  -7557,   3456,   -182,   3059,  11049,   4402,   5297,  -3871,   3441,   8486,  -1890,   9669,  12855,   -523, -11056,   -986,   7311,   4582,   5052,   2391,      6,   2417,   5950,  -2550,   5428,   1641,  -4555,   4481,  -2622,  -1869,    979,   -557,    -22,   -575,   -868,   5107,   3686,   7423,   1731,  -1118,  -1457,  -3701,    377,  -8485,   -884,  -4591,  -1764,  -3915,  -1859,  -5592,  -8910,   7467,  -1410,   8966, -10150,   2954,   5140,  -4309,  -1943,   1326,   -621,   1267, -13943, -14467,  -4767,  -2083,  -4266,   5584,  -5892,  -6001, -11199,  -9599,   7812,  13780,  -6243,  -4488,   5414,  -5187, -11681, -12437,   2301,  -7456, -10262,  -6557,   -650,  -8325,   -949,  -7087,  -6311,  12850,  -1285,
          -100,  -1134,  -5014,   9439,   3240,   2583,   4197,  -4729,   8339,  -2389,  -2879,   4358,  -4354,  -6880,    417,  -3262,    293,  -1345,   4787, -10957, -13324,   4726,  -7542,  -8166,   7539,   6088,   1311,   3784,  -3295,  -1634,   5129, -14815,   3472,   2141,  10324,  -6964,  -7380,   2121,   2976,  -4265,   -931,  -4375,   9299,    217,   3605,  -1674,  -2641, -10520,   1829,  11326,  11221,   7351,  -9530,  -8272,   1599,  10563,   3317,  -3025,  -6039,  -2613,   6392,  -8967,   2673,    725,   3561,  -1517,   3524,  -3822,  -1732,  -8715,  -8315,  -4698,   5406,  -8044,   2086,  -2494,  -2146,    -11,   1627,  -8526,   6817,   5783,  -9325, -11016,   1405,   7112,  -4331,   -782,  -2055,   7281,  -9063,    530,   9975,  -5113,   3203,  -1015,   7207,   5989,  -3413,   9668,  -3927,  -6696,   5922,   4631,  -5197,  -9650,  -1316,   3020,  -2437,  -4048,   7616,   6381,   6018,   2264,  -9260,   -248,   -540,   4531,  -7341,  -3994,  -1209,  -3513,  -6798,   2268,  -1147,   4890,    503,  -9495,   6437,  -6761,   4797,  -4015, -13549,  -8316,  -6068,  -2785,   7654,   8997,  -1379,   -783,   -951,   7861,  -1880,  -1857,   6255,  -3945,   1516,   2071,  -1293,   2135,   3905,  -4463,  -7374,  -6093,   5092,   3075,   9359,  -1099,  -8925,   1210,  -2335,  -3517,  -2064,  -3497,  -7794,   2691,  -7367,   6163,   8638,   6096,   5960,   8355, -16490,  -5712,  -4750,  -3002,   -185,   3086,  -8934,  -7655,   4061,   5002, -15472,  -8078,   7914,  -1715,  10374,   1256,   5187,   6570,  -9939,   -678,  -3178,   7638,   4168,  -4292,  -6413,   5636,   -722,   2130,  -7557,  -2323,  -2734,    550,  -7498,   -251,   2307, -10147,   8889,    529,    881,  -7595,  -1199, -11466,  -1277,   2803, -12931,  -8036,  -2255,   3203,  -1247,   2383,  -7151,  -8428,  -1143,   1121,  -2108, -11240,  -2731, -10944,    655,  -6450,   4016, -11497,   4217,   4164,  -2421,  -2875,  -8681,   3520,   6816,  -1783,   4988,   2925,    698,   4659,   3103,   8486,   3570,  -5973, -10583,  -3940,   5630,   7691,   6537,  -5575,  -1573,   2899,  -4177,   2618,  -7859,   1536,   4663,   2358,  -5414,   3142,  -4078,   7414,  -1194,   4367,  -6149,   4401,  -2107,  -8007,   2229,  -2745,  -1698,   1505,   8317,   8881,   2042,   2638,  -9612,    694,   4027,  -8787,   3103,  -1334,   8018,  -5129,  -5823,   8026,  -6987,  -5010,  -2643,   3999,   7520,  -5456,    883,    677,   2307,   3638,   2406,   5401,  -3059,   1048,  -3845,    -43,   9039,  -7808,  -1812,   3701,  -4754, -14174,  -6200,  -1072,   8237,   3104,   1303,  -8201,  -6575,  -2287,  -4036,   9484,   3252,   -776,   1451,  -1811, -10582,   5964,   4706,   2310,   1803,  -5727,   6964,   1422,   6442,  -8372,    553,  -6922,  -5897,   3950,    669,  10426,  -3411,   9039,   -747,   5494,    -96,   1235,  -9984,   3970,   2350, -12722,   -185, -10638, -10043,  10975,  12991,  -1443,  11528,   6393,  -6561,   4550,  -1968,   3640,   2768,  11944,   8422,  -1147,   6222,  -9612,   5023,   8800,   9502,  13955,  -5813,   9302,  -6409,  -5037,  10892,   1883,  -1572,   6872,   3454,    611,    287,   9237,  -9768,   3928,   1954,    865,   9130,  -6867,  -9498,   -261,  -3462,  -9346,   2090,  -5643,  -2386, -12659,  -6577, -11274,  -1391,  -7387,  -6612,   4678,   9743,    867,   2635,   3368,   5266,  -2472,   4721,  -6960,   -601,   5582,  -3378,   8117,     70,  -1090, -11207,  -1515,   5676,   2495,   3742,   8814,   1718,  -2115, -10045,  -5344,   1263,   5037,   -916,  14555,   1065,   2849,  -1010,     84,   8779,   5214,   6455,  11579, -10973,  -4790,   2032,  -3215,  -2852, -17633,  -5957,    174,   4682,  -6153,   -501,  -5590,   1234,  -2285,   2353,   3306,  -5336,   1254,   2404,   -656,  -1533, -14017,  -2920,  -1958,  10837,  -3872,    528,   6527,   2332,   5987,   5957,   1492,   1259,  -5519,  -7244,  -6220,  -8128,  -2350,   4611,   8830,  -7105,  -8422, -14695,   1373,  -6617,  -4781,    453,  18092,  -9210,  -6980,   -692, -10284,  10631,    618,   9838,  -1779,  -6169,   1709,   6704,   8590,   -218,   6832,  -9952,   9344,   2383,   2353,   4236,    749,
         -4821,   6966,  -4471,   3900,  -3847,   7861,  -4735,   5704,   3336,   1529,  -1447,  11597,    515,   5377,   -876,  -1019,  -8631,   8655,   6302,   1684,   7716,  -6482,  -3554,  -4733,  -8142,  -8685,   6807,  12338,   4633, -12089,  -8678,  -2184,   4856,   3269,  10304,   -975,    811,   6622,  -4677, -10740,   3901,     35,   6513,  -6636,  -1915,   5302,   1262, -10706,   8238,   9008,  -4835,  -4050,  -5642,  -3524,  -7665,   -225,  -4776,   6414,  -8508,   4654,   1104,  -8695,  -2034,  -4517,  -3346,  -1576,   6807,   5649,  -9196, -12494,   1316,   5254,   5226, -10840,    815,   7917,   4572,  -7038,   6629,  -7232,    749,  -7911,   7739,    642,   8711,  -9398,   -698,   1926,  -5616,  -4657,  11152,  -7708,  -3817,   2694,  -6823,   1657,  -5056,   -651,  -3919,  -1567,  -1023,  -4542,  -2006,    677,  -3696,  -7738,   2095,   7035,  -5378,  -5482,  -1388,   1188,  -3106,  12884,    845,   2767,   2225,   1160,   6354,   2182,   -354,  -5048,  -7996,   5003,  -4871,   6921,   3301,  -6704,   3100,   7060,   2067,   2379,  -2149,   2185,   6890,   4396,  -6792,   5069,    680,  -1662,   1286, -10354,  -2263,  -1322,   2613,  -6388,   1519,  -8363,  -5577,  -7142,  -8352,   8162,   7369,  -5970,  -4597,   4021,   5175,  -8475,  -2729,   1855,  -6233, -12905,  -6542,  -6823,   1303,  -4685,   3767,  -6687,   5617,   2607,  -9435,  -9381,  -1573,  -6135,   2498,   3744, -12650,  -3060,  -8624,    224, -10223,    159,   7978,   9667,   2920,  -3944,  -4095,   5656,  -7780,   3725,   7255,  -1768,  -2756,   5271,   3495,  -5302,  -1763,  -6125,   2495,  -4370,  -6139,   2551,  -2218,    900,  -6342,  -1743,   2678,  -7965,   8454,  -5447, -10437,  -5019,  -5549,  -4306,   6193,  -6177,   6573,  -2226,  -9519,  -2067,     51,   6766,  -8111,   8019,  -7813,   1994,  -3868,  -7557,  -1748,   1479,   6618,  10690,  -7203,  -8162,   3578,  -8002,  -3247,  -8832,   7462,  -3695,  -8217,  -8544,    633,  -2321,  -1963,  -9821,  -5067,  -2233,  -5596,  -5925,  -8197,   9471,   4888,  -6210,   4509,  -1508,  -3252,    667,  -2215,  -4948,   5294,  -2113,  10431,  -2677,   4789,   1051,   1494,  -1879,   7414,   4989,   6218,   5324,  -9574,   5780,   2767,   4597,  -4422,  -4249,   -123,   3985, -10980,   6257,  -2023,    901,  -1702,  -8090,  -2989,  -3140,   -173,   2099,    487,    119,  -7232,  -5828,   -257,   7198,  -4185,  -7171, -12032,  -8224,    917,   2549,   3404,   6804,  -3147,  -2622,  -7448,   2544,   7520,  -5773,  -2898,   6293,  -2135,   8195,  -9085,  -2257,   3199,   3875, -11076,  10890,  -1701,  -3916,  -4877,   3864,  -7442,  -4498,   8977,   3913,   2167,   5673,  -7588,  -1771,  -5593,  -3244,    800,   9698,  -4532,   5778,  -1466,  -6451,   3022,  -6569,  -4633,   8359,  -1805,  -6871,   5011,  -8551,   2944,   2467,   7340,    313,   5699, -11574, -14629,  -4935,  11746,   8147,  -3858,   -819,    739,   7587,   1379,    514,   4543,   5658,  -6336,  -1973,   6538,  12408,   3873,   4912,  -5345,  -5123,   1992,  13043,  -3286, -12502,  -1630,   7190,  -6990,  -7259,   -539,  -1559,  -3955,  -6150,  -8024,  -1472,  -7139,   6986,  -4998,   7625, -11394,  -3761,  -9855,   8243,   3752,   4216,  -5473,  -2549,  -8930, -10691, -15173,   3247,   -699,    -31,   2491,   7982,  -8478,    397,   4472,  -8022,   4077,   3028,  -2253,   8964,  -6814,  11743,  -5622,  -3260, -12264,   1809,   6317,  -5742,  -2401,  -7541,   4845,  -9394,  -7615,   -580,  -8402,  -6405,   1768,  -4160,   6570,  -9280,  -3276,   2218,   3145,   2137,  -7984,  -9155,   5429,   -550, -12067,   6868,   2953,  11105,  -3164,  11153,  -4401, -10466,    266,   1716,  -4184,   7082,  -9294,   1170,   5184, -10164, -10655,   7662,   2152,  -5946,    391,    614,  -3394,  -2693,  -3223,     70,    913,  10291,   3334,  -8867,   4401,  -2873,   5221,   4182,   -826,  -4587,   5547,   3474,   3858,   5486,   1677,   6383,   3359,  11808,   2432,  -2996,  -9663,   2084,    255,  -3042,  -2888,  -7036,  -3619,  10743,  -3050,    -54, -14800,  -8423,  -6973,  -3677,   7139,  -6416,  -5105,    137,   5321,  -5812,   -318,  -1901,
          4546,   3720,  -5181,  -5510,  -6603,   8022,  -9925,  -5530,  -2045,   6124,  -2539,    201,   3680,  -4116,  10797,   6164,   -193,   6326,  -6427, -11332,  -1779,   7777,   2038,  -6462,   6092,  -4171,  -1489,   -167,   2064,   7577,   8829,  -2634,   5430,   1880, -12664,  -4831,   1435,   1922,  -8659,  -8757,  -1352,   6986,  11089,  -4345,  10262,  -4213,  -3599,   4160,  -7500,   1561,  -3979,  -1719,   2192, -12582,  -5362,   2694,  -4702,   3521,   2244,   2924,   7455,  -3225,  -6779,   3556,   6247,  -1440,  -9971,  11913,  -8963,   6901,  -5263,  -8134,  -4444,   6369,   3843,   6713,  -2873,   2692,  -3657,   8804,  10785,  -4486,   1801,  15902,     -9,   1827,   2161,   6246,  -4213,  -1679,   3727,  15038,  -6808,   5383,   2629, -10304,   4058,   4116, -11387,  -4700,    339,  -4198,  -1976,  -5121,    593,  -7732,  -7988,  -7959,   5041,    684,   1154,    545,   2542,   2840, -11294,   5110,   8779,  -2208,   -157,   8578,   7769,  -2848,  -1272,   5533,  -7989,   6190,  -5714,   4215,   9236,  10134, -10170,   1679,  -2513,  -3034,   2891,   1705,  -7817,  -3782,  -3662,   3682,  -1846,  -6030,   5795,  -9088,   6157,  10097,   2095,  10373,  11594,  -4773,   4846,   6357,   5631,   7063,   5295,  -7190,  -6235,   8898, -12850,  -5690,    819,   7545,   3606,   7884,  10238,  -7494,  -6669,   5798,   5683,  10410,  -6847,   -380,   6664,  -8467,   4146,  -1603,  -2589,   5914,  -1925,  11491,  -3234,   -921,   7489,  -4016,   8761,  -1255,  -2795,  10739,    823, -10501,  -5475,   3306,   8279,   6414,   1371,   1895,   8309,     41,  -5547, -11030,    935,  -3350,   2581,  -3110,   -574, -12295,   2481,  -9085,   -765,    722,   -505,  -6676,   3690,    501,   3022,  -2667,  -1552,   2855,   4149,  -3625,   3704,   6790,   -236,  -2742,  -6082,   2126, -10725,  -9204,   2997,  -7928,  14274,   7272,   5324,    356,   3020,   1359,  10075,   6085,  -4736,  10407,   6261,   6160,    529,   5276,     49,  -9502,   7341,  -1446,  -2683,  -6596,  -6220,  10679,   2658,   4232,  -2339,   -292,   1396,  -1902,  -8154,   2346,    506,  -6254,   3307,  -1834,  -7061,  -6346,   4590,   3176,   6997,  -5337,  -1194,    824,   9321,  -6581,  -2470,  -5183,   1645,   3242,   4081,  -1003,  -7890, -10002,  -3490,   -497,    520,  -4035,   -941,   7013,   3343,  -2751, -11525,   4427,   2186,   9081,    271,  -2859, -10193,   5883,  -3883,   6634,  10059,  10286,  -5636,   5119,   4749,   9167,   -609,  -5147,   1978,   8985,  13786,   5295,  -8872,  -8508,   7154,   1092,  -2680,   2335,   1851,   8682,   2320,  -3065,   1367,  -6951,   1660,   6702,    221,  -6724,  -3069,     -5,   4312,  -1579,   7572,   9191,    529,    407,  -3426,  -1804,   2095,  13857,   4605,   1928,  -4268,  -8404, -11485,  -5386,   5022,  -1292,   1357,  -4881,   7613,  -5133,  -3597,  -3218,  -4716,   8551,   1661,   1694,  10671,  -6150,   2956,  -4960,  -8535,   2598,  -5851,  -2303,   4804,  -9841,   7996,  -3378,  -2223,   1330,  -5683,  -7674,   1740,  -2497,  -2273,   6216,  -7630,   1943,   7370, -12684,   8657,   -898,   5981,     77,   4511,   1348,  -3357,   7297,  -1045,   -937,   6380,   -505,   -863,   4662,   2501,  10392,   5365,  -6362,  -2298,  -3854,   5511,    378,  10526,  -2721,   3840,    796,  -8042,  -7893,  -8951,   6606,  -7791,  -4076,    700,     -3,   5765,   2566, -10108,   3644,  -3603,  -6429,   4633,    693,  -6488,   2437,  -3789,   8507,  -7476,   9656,  -3804,  -6768,   6345,    -45,   4768,   8601,   3063,   5707,  -5091,  -3592,   6508,   1734,   4846,   1567,  -1802,    625,  -8544,  10772,   6001,   1982,   3544,  -6776,  -2272,   3318,    169,    494,   1328,   2691,   3021,  -1242,   3887,  -7688,   2738,    628,   7648,   5755,  -8867,  -9126,   6992,   4877,   2766,  -2733,    996,   -768,   3186,  -5104,  -3954,  -1179, -11525,  -4217,    -78,   5591,  -4796,   6506,    954,   6852,   8049,  15679,   4724,  -3739,   8919,   4341,  -2560,  -8459,   4923, -11340,   6037,  -2608,   3523,  -8041,   3518,   5152,  11770,   1375,  -2688,   6191,  -8058,  -5311,   2210,  -3275,   6325,  -5037,
          4621,   9222,   7002,  -3730,   3448,  -1098,   8453,  -6314,    200,   5870,   4687,   1466,  -6360,  -4234,   5091,   3955,   2716, -12836,  -1148,   6123,   2605,  -7350,  -2145,  -2007,  -2196,   2356,  -7636,   4081,  -2201,  -5683,  -4323,   5805, -10773,  -4332,   8815, -10872,   9034,  -9031,   2882,   -305,   6058,   3966,  -3462,   6011,  -3363,   5797,  -6570,  -4997,   5644,   5158,  -2920,  -7671,   4514,  -6071,  11098,   3758,  -2182,    879,    225,  -1018,  -5912,  -5212,  -9531, -10504,  -4568,   1136,   9114,  -2710,   5530,   8552,  10194,  -7098,  -2276,   1304,  -7480,   -582,   8880,  -5092,   5216,    449, -11287,  11212,  -7599,  -2320,  -4461,  -7220,  14622,  -9180,   3746,   4956,  -7147,   5485,  -7453,  -4712,   2819,   8208,   9515,   2879,    714,  -7356,  -2033, -11953,   7786,  -7204, -10262,  -7035,  -6284,   5778,  -4492,  -6427,   8348,  -1832,  -8273,  -9334,   5533,  -1983,    571,    969,  -7451,   9673,  -2531,    927,  -2979,    326,   -650,  -7780,  -6660,  -1173,   1635,  -8706,  -2712, -10650,  -4362,    492,  -7189,   9793,   1012,  -9836,   5088,   9047,   1300,   3161,   4760,  -5736,  -9382,  -7485,   9016,  -2761,  -4721,   2061,   4996,  -1138,  -3293,  -5107,  11110,   9816, -16559,  -8821,  -5857,  -3921,  -6762,   -345,   4513,  -3554,   6872,  -7982,  -2850,   -384,    927,  -1274,  -8577,  -3235,   7023,    163,   4976,  -4463, -10387,     -2,    567,  -3000,   4573,   6939,  -8655,   8588,   4239,   3586,    163,   4576,  -6091,   5642,   -775,  11182,  -4347,   2093,   1708,  -4969,  -4389,   7799,  -7309,   5645,   3153,   6955,   7760,  -9235,   9356,    -43,    593,    475,  -3597,   3074,  -8055,   3114,  13475,  -4575,   1441,   -806,   1152,   1843,   4262,   5939,   6904,  -6372,  -4347,   7925,  -5009,  -4205,    -53,  -7244,  -1023,   8034,  -3272,   8296,     54,  -2582,   3986,  -5949,    958,  10133,  -7480,   1676,  -4011,   -374,  -2150,   4311,   6405,  -7008, -10076,  -1520,  -4599,    793,  -9570,  -5015,   2701,  -1317,    716,   1685};

    const static Filter<int16_t> statefulpartitionedcall_sequential_conv2d_3_biasadd_filter(statefulpartitionedcall_sequential_conv2d_3_biasadd_filter_element, -16, {3, 3, 16, 16}, {1, 1});
    const Filter<int16_t> *get_statefulpartitionedcall_sequential_conv2d_3_biasadd_filter()
    {
    	return &statefulpartitionedcall_sequential_conv2d_3_biasadd_filter;
    }

    const static __attribute__((aligned(16))) int16_t statefulpartitionedcall_sequential_conv2d_3_biasadd_bias_element[] = {
             6,      9,     12,      5,     -1,     -2,     17,     14,     -5,      0,      7,     16,    -10,      7,     15,     16};

    const static Bias<int16_t> statefulpartitionedcall_sequential_conv2d_3_biasadd_bias(statefulpartitionedcall_sequential_conv2d_3_biasadd_bias_element, -8, {16,});
    const Bias<int16_t> *get_statefulpartitionedcall_sequential_conv2d_3_biasadd_bias()
    {
    	return &statefulpartitionedcall_sequential_conv2d_3_biasadd_bias;
    }

    const static Activation<int16_t> statefulpartitionedcall_sequential_conv2d_3_biasadd_activation(ReLU);
    const Activation<int16_t> *get_statefulpartitionedcall_sequential_conv2d_3_biasadd_activation()
    {
    	return &statefulpartitionedcall_sequential_conv2d_3_biasadd_activation;
    }

    const static __attribute__((aligned(16))) int16_t statefulpartitionedcall_sequential_conv2d_4_biasadd_filter_element[] = {
        -11448,  -8431,  -7094, -10754,  -7371,  -7497, -12538,   8461,  12387,  10270,  -2067,   4447, -11663,  16712, -17431,   8162, -21345,    632, -10891,   6164,  17856,  19182,  -1718,   6395,  14668,  21610,  -6021,   4705,    735, -10587,   2364,   7263,   3863, -16318,  -2128,   2854, -12775,  17678,  -4678,   3057, -13327,   7841,  16699, -23323,  -9187,   1867,  12648,   8241,  -3262,  -3567, -14446,   5613,  17049,   7530,  10527, -19255,  13086,  -8851,  -3560,  -8752,   1927,  13024,  -9981,   8776,   4327,   -717,  -5199, -16829,   2297,  18983,   4681, -21252,  18971,   -301,   8725,  -7710,   7141, -14420,   -941,   1076,  12750,  -3672,    839,  14693,   2341,  12981, -20007,   5545,   8064,   8284, -16307,   7237,   8944,  -7583, -16824, -16755,  -7132, -13800,  10331,  -3763,   1740, -11874,  -1270, -13630, -17862,  17597, -16944, -24042, -29828, -18912, -10147,   3759, -15029, -19575,  -9386, -12339,  -7439, -16075,   3920,  15945,  10427,  -5919, -25000,   3392, -21268,  -6749,   6373,   2792,   8978,  13063,   6254,  -3945, -13595, -10444, -19387, -12684,  18298,  20560,  -2216,  -3238, -16259,   1760, -12413,   4382,  17622,  12513,  15939, -10796,   9589,  -9904,   7035, -18463, -15042, -10666,    695, -19421,  -5285,  -6031,  10542,  -1703,  -5672, -20953,  -8599,   6980,   6904,  -8325,  -1886,  15142,  10544,  -1248,   5975,   4295, -14178,   8727,   8684, -14534,  -3978,   5892,   6776,  13049,   6539,    688,   9335, -11517, -14077,  16375, -22570, -22018, -18043,  -7649,   6459,  -9881,  -5024, -17609,  10455,   9035, -13120,  -9916,  -9099,    730, -10229,  -4831,  16414,   6697,  18099,  -1165, -10936,   9868,   5627,  -4192, -16706,  12040,   5332, -20767,  -4273, -13924,  -5651,  21697, -17239,  -4852,  14929,  14622,  11410, -10532, -15924,  -9945,   3411,   8377,  -9450,   1358,  15511,   8057,  15447,  -7992,  -9320, -21249,  -7260, -13841,   2377, -23516,  17624, -10181, -19313,  23673,   3153,  13831,   3439,  11091,  -6181, -19621,  -2478, -14176,  -3390,   1165,  -5578,  10984,  -4381,  14312,  -7507,  18074, -16685,  15530,  20223,   9328,  12813,  -9367,  11410, -14097,   9096, -16424,   3045,   4387,   3861,   6526, -21511,  28118, -29889,   7913,  11514,  21993,   5372,  -4305,   3619, -15731, -23006,  16623,  10354, -20941,  11451,   -296,  16829,  -6694,   7930, -11258,  -6008,  -9956,   1600,  15965,  -8534,   2371,  12017,   5168,   5058,  -6850,  -8093,  11595,  -8103,   3698,  -1716,   3055,  24100,  18961,   9643,  17946,    997,  10941, -19332,    333,   4002,  13560, -12442,   7067,  11695,   7019,  17418,  22237,  -4435,  11411, -12228,   8772,   7130,  -4990,  11994,  16439, -15044,   2500, -15864,  15295,  15507,   4029, -29151,  22549,   7782, -16698,  19737,   2995,  -9400, -10399,  -1226, -26148, -15018,  -5653, -13354,   9465,   8482, -15617,   9360,  12390,  -8717, -22093,   5794,   2480,   9741,  -4348,  -8922,  11248,  -7261,    287,  14071,  -5870, -20664,   4456,   4253,   5648,  -9047, -12828,   9996,   3014,   5242,   5826, -11116, -12486, -12481,  -5272, -15602, -14014,  -4823,   4055, -15045,   8660,  -6123,   9236,  -6563,  21871,  -5951,  12101,   5662, -20383,   5065,  16028, -16476,   7623,    500,  -5890, -20290,  -9173,  12906, -13803,  14211,  15227,   -532,   5242, -21315,  10624,   5603,   2214,   5088,  13603,  -9872, -17472,  13599,  11588,   5626,  -6829,  17552,  11985, -20011,  -3923,  -8649,   2553, -23579,  -5777,  15760,  -2586,  -1242, -10978,  17345,  11189,  14286,   7595, -16267, -18845,  15723, -10428,  -8834,   8455,   5065,  -4363,   7629,    362,  11504,  -3245, -14676, -13962, -14571,  18476,  13718, -13572,  16842,  -3623,  10285,   -735,  -2726,  12307, -16556,  18277,   2981,  -1180,  -5026,  -2451,  -2356,  -5296,  17787,  -2150,  -9352, -14195,   8198, -22609,  -1846,  10439,  15807,    306, -15145,   4252,  -2370, -13786, -14895,  18760,  -3428,    -61,   6437, -14548,  -3778, -12527, -19242,  -3124,   3951,  16570, -23143,  16043,  19033,     25,   7727,  14397,  15439, -11271,  15835,  12017,    483, -11656,  -4867,  17072,
          6228,  -6369,   8219,   8923,   1334,  13885, -20269,  10013, -15594,   5024, -11273, -13591,    858, -15037, -15625,   -411,  15805,  -7434,   7133,   1319,   9347,  11321,   8172,   6188, -16327,  -4326,  -8918,  -4725, -20047,  18341, -16548,  -7546, -10467, -12782, -20810,    762,  17641, -15149, -10935,  -8954,   3086,   3853, -10914,   3609,  -3490,   5724,   -845, -13989,  -4022,  15609,   4212,  12116,  10344,     17,   8136,  -1634,  10852, -11587,  17296,    761,  -3298,  -3205,   -826,  10718,  -8214,   1900,   1954,   4375, -15343, -14786,  15859,   9685,  -9153,   3539, -15138,   2325,  -6882,    302,  10145,  -2259,   9309,  -3585,    611,  16106,  -3752, -15217,  11242,  17199,  -1363,   9370, -13023, -11222, -16800, -12807,   5400,   8057, -19563, -13556,  17492,   2784,    555,   -833,  21321,  22092, -23949, -31198,  -6733,  13058, -15290,   6003,  17305,  -7184,   7761,   3024,  18477,   9218,   6857, -18302,  11597,  10466,  -2757,  19311,  -5427,  15149, -17618,  13993,  15850,  -3517, -10636,   1376,  17166,  13200,  -8568,  -1732,   6391,   7111,   7922, -14583,  -9476,  12407,   6501, -19731,  20678,  -2855,   8706,  -3607,   4225,  -9023,   -664,  10307,   4274,  10584, -10593, -32724, -11446,   1053,     80,  -9071,  -4172, -27434, -18470,  -8448,    507,   2192,  -2057,    421,  -7565, -14629,  18695, -13554,  11155,  13468,   9586, -19617,   1259, -30194,   4869, -10110,   5314, -23072, -15817,  -9343,  -2528,   8955,   -410,  -6249,  -5442, -10604,   5110, -22062,   1301,  -2517,  -9921,  -7670,  -6989,  -1446,  -6114,   1035, -23066,   4265,  -9317, -12650, -12505,   7917,   -677,  -8069,    818, -20897,   -705, -14035,  11293, -16835,   2369,   8720,   4315,  10810,  -3998,   9311,   1447, -23637,   2558,  11590, -12631, -10820,  18032,   1170,   6810,  -5873,  10041, -10502, -16650,  11491, -12479, -26147,  10200,  -4737, -20334, -11117,  13281,   7874,  -9148, -25347, -12121,   -360,  14729,   9374, -15810,   1618,  -5087,  12223,   4560,   2413,   9920,  16658,   9921,  13391, -17439, -10935,   4868, -10214,   7002, -16393, -22012,   4157,  -8621, -10651, -10644, -24492,   6937,  12626, -17780,  -3111,  12666,  -1331,  -7960,   1887, -21950,  -4069, -22260,    280,   4821, -24846,  -2096, -14999,   4563,  -1430,   2396,  13978,  10210,  -4092,   1156,  20686, -23538,   -794,   4210, -16109,  21189,   2905,  -6421,  -9056,   1840,   1216,  12766,  11005,   8183, -21864, -16435,  13700,  -8695, -17098, -22193,   3594,  -6584,  13895, -23520,  -1333, -10575,  13432,  -6466,  -5530, -23434,   2413,  -7868,  -2624, -16863,   5825,   1157,  -7941,  25243, -14769, -20450,  -9564,   2776,  15835,  -5452,  -3802,   8867,  -6333, -10556,   3665,   4621,  12478,  -2557,  -1771,  -3313,  -9474,  16621,  24629,  10826,   1056,   4481,   6958, -15980,  20745, -16991,  -5140,   1307,   -363, -12779,   -939, -22660,  16329,   3867,  17759, -12681, -11997, -10157,  11640,   5779,  -4864,  -9795,   7000, -29315,   9869,   5111,   1930,  11652,  15392,   4200, -21228, -16015,  -2857,  -3731,  13177,   5291,  11265, -14670,   3477, -24475, -18795,   4253, -19883,  -2322,  22243,  -6839,  -9673,  -5497, -19735, -16263,    391,   5454,   9568, -10194,  -2982, -10854,  -8539, -13064, -13475,  10125,   2039,  -1945,  13239,   1800,   1968,   3748,   4668, -14559, -11101,  -6249,  -5772, -17121,   1093,  -7564,  13666,   8845,  18045, -12900, -19563,   6197,  -9755,  19653,  16643,   8586,  -3142,    568,   9251, -13456,  10655,   4863,  -6897,   2144,   7683,  -6774, -17481,   9489, -26718,   1354,  10718, -17804,    899,   5769, -10989,  23879, -16519, -19794,   8994,  18188, -11001, -14167,  -6101,  21117,  13126,  -3859, -12956, -13951,  10600, -14653,  19327,   6217,   9958,  12202,   7524,  20921,  14934,   6709, -19750,  16047,   2100,    133,  10089, -14615, -12860,   -277,   5874,    628,  11247,  11277,  11257,  -7627,  -2084,  17729,  -5642, -11652,   1225,  17363, -11257,  12749,  21605,  13465,  14058, -15628,   3861, -11387, -18259,   2290,  -8502,  17376,  -5533,  14727,   9387, -19883,  15247,
          5791,   7335,  13732,   2755,    986,  18160,  13718,  11314,   9077,  10657,   4409, -19619,  -1732, -17208,  13470,  14476,  -6396,  11605, -16878,  -3705,  14555,  -5008, -12748,  -9938,  15785, -20995,  -1928,   7501, -10585,  -7882,  -1622,  27726,  10076,   3631, -21672,   1095,    224, -12510,  19775,   7610,   7225,  11573,  -5353,  14404,   5530, -15806,   9047,   8379,  13273,   5663,  -3085,  17796,   4247, -12702,  -9122, -18205,  13612,   8676,  -7276, -17164,   6119, -13614, -15532,  -7305,  15236,    777,   1417, -16031, -15415,    673,  19893,  11906,   -864,  -7474,  10411,   1671, -18528,   2001,   7674,  26916, -10093,  14953, -10209,  -2611,  11107,  -6923,  10821,  -5796,  -9889,   -292, -10653, -11944,  -6430,   5508,  12930,  -7931,   -328, -12933, -11786,  -4903, -13078,  -7845,   7935, -17064,  -9498,  13426,    423,  -3137,  15138,   3696,  -3137,  -3253,   3131,  -9756, -19962,   6358,   4144,  12978,   3509, -13483, -11911,   6882,   9063,  10440,  -7917, -12995,   9537,  13320,  10529,   8399, -25975,  13027, -12098,  12940,  10278,    896,  17128,  16735, -14421, -20061,   9920,   7228,   4681,  -4492,  -8150, -12605, -11458, -10885,   8838, -11845, -17530,  -4578,    210,   5215,   8296,  -4201, -13069,  14124, -11045,  14306, -13841,  11842,   2524,  15410,  -6039,    238,  -3146,  -4496,  -8937, -25107,    686, -12109, -16324,   -528, -14672,   4880,  -8076,   3079,  11830,   2802,  14132, -14389,  19175,  10841,   7414,  -9072,  15086, -19104,  -7588,   3716, -20257, -12151,  -9526, -18757,  10236, -16605,   6020,   9879,   5160,  15435,  -1965,  20033, -17355,  -7367, -18699,   4464,  -6311, -15767,   4380,  12472, -13232, -17256,  15232,  -4435,  15076,   6715,   8159, -10773,  -5547,  10302, -17018,   9991, -17744,  10197,  14130,  11311, -16412,   -955,  -8131, -11899,  21975,    229,  -4474,  13358,   9868,   7050,   3856,   1217,  -9006,   9464,    289,  -2924,  10434, -14800,   1727, -12856,  13290,  11830,   2805,  12170, -19820,  13005,  11798, -19905,  -4828,  12431,   4448,   1977,    386,   -860,   4722,   4946,  -1914, -16143, -12668, -17895, -17019,   1533, -12786, -19458, -16944,  -6007,  -2252,   2943,    478,   1571,   1864,  14856,  10299,   1327,  -8113,   8587,  -9729,   8485, -18025, -13165,  10800,  -8642,  -8730,  10707, -10049,   -335,   2402,  12811,   -189,   8720,   -377,  -1067,   8347,  11758, -20391,    856,  -8965, -12122, -21612,    -99,   6781,  14097,   -305,    -47, -15960,   5855,   5429, -14903,   8305, -18267,  -6412,   8387,   4398, -28258,   4994,  -6816,  -6337,   9263, -13055,    889,  15919,  -7097,   9579, -11478,   6823,  -3473,   1315,  -8939,  12170,  -9990,   2021, -13923,  -2611,  -9097, -22363, -11100,   9737,  15000,   3124,  -8957,   6724, -20955,  -4407,  12997,  16716, -13725, -19143,  -4662,  13841,  -7400, -13897,  -2825, -23709,  13907,  17363,   5275,   6248,  19536,  21203,  10911,  10562, -10333,  -6632, -23394,  -1134, -12663, -31085,  -2009,  10784,  -4954,   -770,  -6070, -21798,    996, -18465, -24005,   7319,  -8906, -20536,  16534,   6049,   1120, -22916,   2617,   2468, -15075, -13454, -11427,  -6120,  15465,   4191,  -1198,  -3372, -14490, -22408,   7097,  -3245,  -5070, -11579,  15251, -11406, -14223,   3585,  -8358,   1734,  21212,  17197,  10919,  -5201, -20802,  -7390,   4631,  -6493,   -807,   4604,  -7699,   9099,   3362, -12638, -12788,  -2172,  15171, -17796,   7678,   9723,  14185,  11010,   4921,  -2296,  11506,   2368,    193,  19672, -18019, -13871,  14285,  19630,  -9713,  -7379,   2599,  -8523, -18184,    353,  -3679,  -2810,  13299, -15106, -13404,  23950, -13070, -17111,  -1857,   3090,   7661, -13257,  14578, -14472,  14200,   7706,  -7588,  11604,  -4009,  -7031,  15705,  13955, -18347,  -2409,  -9440,  10031,  12420,  -1730,   8613,  -1160, -13660,  -9738,   -805, -14178,  13470,   9056, -12912,  -6289,  11279, -18526, -15888,   2474,  -9083,  12239,  14749,  -6149,   4604,  -9128, -16941,  -8479, -15668,   1748,  -6951,  14243,   1459, -13261, -16274,  -8314,  25380,   2390,  -1355,   4384, -14185,
           694,  -1512, -12278, -18558,  15479,   5818, -12034,   6648,   8713,  -3187, -16734, -11219,   3309,  -3049, -24299,  -3942,   -289,  15140,  16945, -10175, -13467,  -8731,  10805, -13548,  11594,  -6670, -18039,  -3230,   -634, -14867,  -8451,  13730,  21363,  -4438,  21175, -16663,   9944,  -1531, -17407,  16403,  -9192,  -5822, -15708,  -4107,  -9834,  16064, -15621,  10749,  -3317,  10986,  -1201,  17399, -16798,  11955, -18271,   2438,  -2444,  23674,  21122,   8677,   4873, -14755,   6662,  -7781, -13936,   1027,  14782,  20516,  -8216,  -8928,    289,  15347,   7106,   6684,  17702,    645,    368,  -3616,   -805, -18865, -15242,   8846,  -6660,  10634, -15278,   1551,  10910,   9858,  -4778,  14782,   4902, -19445,  -8934, -15607,  -8390,   6140,  -6837,  14268,  13324,   8162,   9847,  20294,  20599,  13544,  -7675,   2852,  -2445, -23596,  17997,   5301,  10274,  13872, -15325,  11054, -13447,  -3609, -17679,  -1656,   8266,  -4099,  11423,  -5145,  -2037,  -9677,   9428,  -9756, -14725,  -3504,  -4142,  -1402,   5010,   8061,  13684,    731,  13818, -19475,  -1149,  10523,  12418,  -6599, -13523,  -4776, -11587, -12846,   9204,   9596,   6860,  12914,  14978,  17720, -11769, -14110,   6227,   2125,  18844,    205,   6656,  -6752,   5885,  16832,    281, -11978,  -9686,  12728,  14409,   4568,   1726,  11875,  -2981, -11220,   4705,   3457, -10901,  -5922,   3205,  15410,   8720,   9022,  -2457,  22545,   1057,  -2185,  -6711,  19046,  19194, -20448,   -324, -13461, -19093, -11490, -15092,  -4944,  12037, -15776,  -9698,  -2458,  15424,  -2828, -12959,    606,  -3635,  -7739,  -6888,  -8918,   4760, -14098, -17483,    -18,    169,  10564, -12340, -12951,   2114,  -3654,   8965, -14543,  -5269,  -6288,  12729,   8077,    -78,  -1192,  -4187, -16060,  12118, -13923, -15686,  12182, -10475,  11414,   -996,   2362, -16371,   1591, -21459,   8990, -13679, -12715,  -5431,  -6590, -14909, -19711, -15088,   2915, -13386, -18184, -10685,   2825,  -5780, -10463, -20527, -11128,    919,  -8173,   9439,  -1103, -18882,   1748,  -9492, -10624,  -5283,   5448,    510,   3745,  -4872, -17999,  -1640, -13814,  13343,    -54,   8295,   2524, -11528,  -7974, -17079,   1363, -15520, -16243, -20418,  16951,   8781, -18995,  -4719,  -1108,  -5432, -16894,   3150, -22759,  -1580,  11364, -10535,  -9235,  -1716, -21979,  -3449,  -9261, -11621, -15225,   6255,  16926,  -6595, -15977, -11011, -12252,  -9320,  10886,  -4812, -17698,  11410,   -329,  -1522, -18840, -14528,  -8439, -22631,  14221,  16395, -10107,  -4818,  -8099,  -4486, -24039,   3422, -12940,  -5484,   9765,  10595, -15719,  -3054,   5068, -18070, -17288,   -889, -15477,  -9994,  13794, -15427,   4156,  12619,  -3307,  -4904,  12838,   5980,   8391,  -9881,   1426,   5272,  13415,  -3826,  19152,  -2418,   3449,   2932,   4274,    904, -13308,  16939,   9591,  -5091,  13643,   6990, -23127,   4298,  13243,   7686, -10086, -20772,   4114,  20812,  -2507,  -5408,  14549,  -4378, -20982,  -8127,  -3501,  -4692,  -9706,  20312,  12660,   8100,  20186, -15639,   8349, -10827,   4404,   9547,   5837,  13848, -11816,   2314,   -833, -14343,  17523,  -2075,  -1088, -12746,   3420, -22390,   4992,  11082, -10037,   3189,   7797,  11618, -19678,  14017,   5880, -12071,  -7351,  16427,  18051, -14158, -12632, -13593,   9490,  15229,   3281,  -3062,  14275,  -1985, -16895,   1839,  14186,  15966, -21555,   4124,   9577, -13325,  15752, -10423,  -5719,  -8026,   3576,  -4821, -14536, -11949,  17119,  -6933,  -8407,   -271,   8857,    790,  -6067,   1612, -11820,   1169,  13812,  16173,  -2020,  11926,  -4324,   -997,   6699, -10829,  -9223,   1688,  10656, -13974, -11067, -11678, -13231,  10680,   3771,   6814,   5531,   5957,  -7175,   9193,  -3792,  11619,   -550,  -6725,  -5414,   8957,   5147,  17093,  -9632, -15847,   2753,   5869, -14130, -21089,  15633,   6418, -10262, -12748,  -2387,  20020,   4096,   7352,  14051,  19205, -16547,   3989,  18129,  -2123,  -8162,   -864,  15684,   8351,  17014,   1114,   1791,  -5248, -14563, -13278, -13593,  -7867,  -6340, -30650,  -5856,
          2950,  18863, -12543,  -2360, -21618,  -3931, -13012, -19261,  -7662,   2385,  10285,  18906,   3144, -25232, -26571,   8666, -12911,  -9119, -20179, -18455,  13322,  -9344, -13860,   3612,  11572,  20108,   3223, -13174, -15659, -14653,   3984,  -2590,  -3590,  -7340, -22233,  21454,  -1675,  -5696,   9342,  -5476,   7795, -17011,  -6683,   8028, -16014,  -6145, -10783,   3575, -11166,  16602, -14920,  -1888, -16267, -20445,  16786, -11914,  -1514,   4899, -19968,   8152, -16847,   5254,  -8568,  -6991, -18471,  13499,    818, -22392, -16077,  -9260,  27616,  16802,   3061,  11993,  -6730,   6781, -22255,  -5192,  10235,  22738, -12703,   8159,  -2193, -19499,  -9509,   8149,  18302, -14066,   7063,  -2607,  -6433,  13133, -30514,    863,  -6231, -15103,   7277,   5289, -22097,   6418, -11568,   3546,    886,   5125,  11651,  -9416, -14082,   9755,  -9316, -22252,   3889,   7420,  16474, -17186,   4002,  11981,  -9847, -16055,   8296,   1571,  15411,   5683, -15157, -16636, -29285, -13919,  12121,  -9523,  19067, -23506, -14039,  -4784, -16592,  12294, -11589,  -4070, -15604,   4674, -16448, -23170, -22631,  15728,  11494,   9241, -15822, -13822,   -786,   2019,  -9937,  -7574,  -7246,   2618, -12669,  15424, -19743,  -5617,   8313,  -4106, -20429,  -5155,  10559,   -941,  -6729,     27,  -7706,  -6617,  12551,  11862,  17135, -12213,    544, -17545, -19408, -18031,  -5958,   5774, -12583, -19519, -10463,   9209,  -3406,  -5898, -23506,  17339, -17629,  17847,   7840,   3911,   4532, -11362,  10031,   4457,    591, -15002,  16707,  -1213,  -7795,   4266,   4430,  -8743,  -5997,   2725,  18421,   8303,  15943,  10466, -13881,  11028, -10929,  11178,   3137,  10091, -24405,   7547,   4192,   8878,   6314, -15320, -11858, -22239,  -5240, -10481,  10728,  -6497,   5377,  -3060, -18470,   9226,   9203, -10820, -14225,  11384,   7962,   8367,  13306,  -3247,   5424,  13908, -13963,  11045, -18591,  16037,  -6052,  12137,  -6181,  -6855, -10217, -14410,  11416,  15998, -10424, -13606, -13794, -11992, -14511,  11274};

    const static Filter<int16_t> statefulpartitionedcall_sequential_conv2d_4_biasadd_filter(statefulpartitionedcall_sequential_conv2d_4_biasadd_filter_element, -17, {3, 3, 16, 16}, {1, 1});
    const Filter<int16_t> *get_statefulpartitionedcall_sequential_conv2d_4_biasadd_filter()
    {
    	return &statefulpartitionedcall_sequential_conv2d_4_biasadd_filter;
    }

    const static __attribute__((aligned(16))) int16_t statefulpartitionedcall_sequential_conv2d_4_biasadd_bias_element[] = {
            -1,    -14,      1,     -4,     18,     38,    -15,     17,     14,     16,     21,     -2,    -12,     28,     18,      1};

    const static Bias<int16_t> statefulpartitionedcall_sequential_conv2d_4_biasadd_bias(statefulpartitionedcall_sequential_conv2d_4_biasadd_bias_element, -9, {16,});
    const Bias<int16_t> *get_statefulpartitionedcall_sequential_conv2d_4_biasadd_bias()
    {
    	return &statefulpartitionedcall_sequential_conv2d_4_biasadd_bias;
    }

    const static Activation<int16_t> statefulpartitionedcall_sequential_conv2d_4_biasadd_activation(ReLU);
    const Activation<int16_t> *get_statefulpartitionedcall_sequential_conv2d_4_biasadd_activation()
    {
    	return &statefulpartitionedcall_sequential_conv2d_4_biasadd_activation;
    }

    const static __attribute__((aligned(16))) int16_t statefulpartitionedcall_sequential_conv2d_5_biasadd_filter_element[] = {
          -433,  -6319,   2443,  -3940,  -7096,  -8076,   5133,   9161,   9481,  -8734,   7946,   8023,  -5406,  -5820,  10076, -11745,   3879,  -1408,  -6785,   7336,   5010,  -2089,  -1346,   4631,  -7558,  -3430,  -5504,    555,  -7333,   4747,   5834,  -2348,   5222,   4463,  -9208,   4969,  -9141,  -5005,   7050,   8825,   3066,  -3145,  -5620,   5068,   2280,   9879,  11304,   4848,  -3414,  -7192,   7998,    723,  -7091,  -2305,   7631,   5440,  -6850,   4404,   1083,   2804,   7845,  -5854,    535,   7137,  -9683,   -382,   8707,  -1785,   -775,   3730,   1759,   3871,   6809,   -231,  -5856,   6451,   2838,  -1498,  -6469,  -5434,  -2006,   7921,   7941,   6476,  -4134,   8117,   8876,   -720,  -6128,   3524,   -681,  -3560,   8530,  -6615,  -3393,    783,   2481,   5771,  -2772,  -5959,  -5793,   6302,  -4937,   4598,  11375,  -3199,    381,   6232,   6793,   7325,   3294,  -3249,  -3056,   1348,   1557,   5922,  -3912,  -3167,  -3403,   2617,  -9975,   3804,   1445,  -1033,   1376,  -4619,  -3221,  -5263,  11878,   -792,  -5306,   5517,  -7233,  -2494,  10820,   3456,   1739,  -8105,    426,  -3939,  -3909,   3964,   4982,  -4745,  -3030,   3353,  -9791,     58,  -1261,   9827,  -5864, -13583,  13656,   5526,    723,   4518, -10992,  -3691,   4482,  -9452,   2852,  -6872, -10497,   2894,   5610,  -6409,  -3283, -13932,   2644,   7712,   3169,  -7693,   5480,  -5740,  -1251,  -6091,   8840,  -1908,   1068,   6212,  -4083,   4681,   4095,  -1718, -10610,  -3562,  -2231,   4652,   8235,   4393,    -85,   5868,   1458,  -1591,   -694,   8396,   9542,  -1173,  -3682, -11972,   -598,   6878,  -6163, -10870,  -8399, -10541,     96,   9708,  -6979,   6426,  -4455,  -1347,  -3668,   3131,   5297,   6431,   1099,  12625,  -4671,  -4133,  -1681,   3042,  -8080,  -1416,     62, -12717,   4234,   6105,   1272,   5654,  -8642,   6479,   5084,   7940,  -5067,  -3062,   7842,    799,  -7207,   5598,   3353,   8263,    663,   -808,  -4046,   6715,  -4319, -11884,   1573,   9688,  -4187,   1997,  -3646,  -9330,   3919,  11083,   8250,   5592,   -522,  -4522,   5880,  12635,   3915,    976,   1349,   2457,    917,  -8132,   3806,   6602, -11886,   2163,   5894,   3453,   3591,  -8407,   -575,   8806,  -3605,    747,   2255,   6015,   3162,   6335,   2373,  -5365,  -6201,  -2740,    712,  -7805, -15310, -13276, -18856,  14755,  -9296,  -8985,  -3723,   8177, -10069,  -9492,   1107, -10132,  -2179,  -2044,  -9884,   -428,  -8697,  -1252, -14365,   1212,  -1351, -13182,  -7248,   1503,  -6813,  -8247,   1499,   1312,   5428,  -7817,  -9614,  -1142,   7005,  -3443,  -1859,   2518, -13101,  -1432,  -3290,   4920,  -6020, -11546,   8282,    262,  -2705,  -5827,    164,  -2338, -11861,  -5871, -15392,    146,   5031,  -3364,   9562,  -4553,  -3759,  -9206,  -3974,  -7318,   2782,     24,   5126,   1185,  -7077,   3542,  -8499,   3134,  -6673,    714,  -2742,  -4736,  -6739,   1990,  -7355,  11924,  -7882,   6626,  -1665,   4703,  -9476,   -387,  -8140,  -4519,   -761,  -6656,   3742,   4647,   5277,   2147,  -5198,   4567,  -3100,   4974,  -2830, -10077,  -3656,  -7491,  -5716,   7412,   6586,  -4389,   2465,   1674,   1331,  -6491,   3309,  -9820,  -5527,  -3506,  -1385,  -9413,  -2425, -11369,  -4529,    582,   9855,    916,  -1244,   7898,  -8619,   -513,   8929,  -4377,   1209,   4143,  -4361,  -3714,   4958, -10013,    297,   2186,   8292,   1329,  -5679,   -854,  -5909,    681,   1119,  -2939,    -15,  10288,  -3397,  -7637,   2109,   5642, -11619,  10149,   7328, -15459,  -4136,   8312,  -4636, -11584,   -547,  -5202,  -3081,  -8396,   1476,  -4224,  -2842,    356,    916,   6630,    763, -13030,  -1931,  -8195,   6413,   5289,   5192,  -1905,   4051,  -1014,  10491,  -5592,  -9293,   -802,   4116,  -3572, -12648,    -74,   2015,  -3145,   7796,  -4264,   9132,  -2500,   4310,  -5215,  -4860,   3521,  -7551,   -461,   1369,  -2531,  -6955,  -9836,  -5485,  -3463, -10545, -10304,  -1339,  10354,  -5244,  -3169,   2394,  -9105,   6383,  -7571,  -1096,   5847,  -2597, -13996,  -1784,   7377,   9584,   5829,   6277,  -5871,   5239,    204,
          4218,  -8949,   -121,   1124,  10637,  10626,  -5102,   2599,  -4805,   7341,   4360,  -1234,    248,  -5955,    805, -10033,   5977,  13017,  -1291,   3102,  -3917,   8566,    413,   -827,   7030,  10860,  -3120,   7593,  -1329,   2037,    -88,    -95,   6039,  -4672,   1024,   1825,  -4771,  -7811,   2570,   2042,   9675,   5318,   5289,  -8550,  -6336,   5890,   -979,  -7906,  -4323,  -4818,   3377,  -6879,   -788,    658,   4965,  -3442,   8754,  -8591,   -458,  -7168,  -4258,   7264,   3186,   4666, -11256, -10351,   -503,    936,   2509,  -4877,   7149,   7586,  -2023,  -5320,    547,  -1723,   4307,  -8647,   1608,  -2462,  -9895,   -732,  -6049,  -6599,  -5950,  -6670,  -6661,  -5971,  -4060,  -4867,   3346,   3933,   8717,   7379,  -4028,   2482,  -5028,   5573,  -6166,  -6411,   7130,   6758,  -1046,  -3172,   1890,  -8917,  -5912,   1803,  -5217,  -8144,  -8091,  -8047,  -1737,   8932,  -1442,  -8746,     15,  -2613,   6864,  -8540,  -1290,  -6675,  -1425,   7709,  -3654,   5466,  -4741,  -6054,   6525,  -5909,   3147,  -5965,   3914,  10042,    -60,   7069,   6827,   1677,  -4549,   6149,  -4130,  -5689, -11463,   9013,  -8076,   4876,  -2690,   -578,   6546,  -1600,  -2259,   4150,   8721,  -6006,   5146,   4193,   8676,  -5897,  -8518,   3819,   2263,  12999,   4752,   2836,   -789,  -5349,  -6257,   3596,  -4391,  -9637,   -390,   6068,    -60,   -699,   5736,  -2391,  -6038,   2590,  -1489,  -2898,  -1553,  -2507,  -1698,   7969,  -5871,  -3391,  -3238,  -9035,  10313,   6976,  -2351,   2090,  -8628,   1262,   3597,  -4791,   4248,   -838,  -2849,  -6800,   1083,    -60, -10146,   -358,   6920,  -9637,   2420,   2714,   6468,   8050,    539,  -2439,   3877,   6182,   4210,   5010,  -6223,  10565,   9332,  -3123,   4589,   5010,     -8,  -4191,   3239,   3501,   -126,  -9275,   -273,    509,   -593,  -6184,   -575,   3324,   5643,   5819,   4911,  -6200,  -2693,   1111,   6045,  -6339,   6197,  -7138,  -3138,  -8656,  -1800,    163,  -4059,   2090, -10099,  -6074,   -393, -10565,   1761,   4569,   5995,   1027,  -9942,  -5635,   3662,   1445,  -1291, -11721,   6409,   9380,   1277,   6569,    375,  -4647,   1500,   7372,   9571,  -1881,   6384,   7227,  -1238,   6548,  -4667, -10487,  -7646,   4748,  -7993,  -3050,  -1136,   -902,   4851,  11022,   5782,  -6905,   5355,   2423,   5569,   4794,   6909,  -2775,  -6478,  11081, -10016,  -2349,  10276,  -3197,  -7084,  -7360,  -9232,   3852,  -1529,   2385,  -3882,   1168,   4566,   7773,  -8663,   -670,  -9413,  -4385,   1826,    851,  -2213,   2741,   3969,  -9670,   8657,  -4059,  10553,  -2317,  -7845,   -697,  -1931,   5948,  -3466,   6674,  -4024,  -8011,  -4630,  -5154,   2909,   2936,   5980,   3663,   -500,   9419,   4236,   6109,    110,  10066,   1259,   4069,  -6046,   5576,   2008,   7426,   4418,   2962,  -3752, -11410, -11361,  -6093,  -3890, -11150,   3992,  -6575, -11488,  -9716,   1114,  -8983,    142,   4546,  -5069,  -7963,    347,  -3690,  -5803,  10570,  -8160,   4213,   1311,   3642,   3869,   5195,   4233,  -4514,  -3945,   9887,   4136,   -480,   1372,   2995,   -395,  -4501,  -8022,  -7855,   4643,   2507,  -1835,  -9670,  -4615,  -4208, -12232, -11788,  -3316,   6577,   1316,   3196,  -1920,  -6785, -10789,   6470,  -8135,  -1777,  -8025,  -8499,  -4534,   5451,   4924,  -5555,   2335,  -4695,   5759,  -5067, -11451,   6703, -10938,  -3954,  -8018,  -5477,   4177,   4704,  -5736, -10822,   2273,   7000,  -2120,  -2967,   -179,   5611, -12398,    929,   2568,   5653,  -9655,   9197,  -2131,  -9941,  -3656,   7131,   1351,   3469,  -1349,   4252,   1823, -10889,  -8447,   2912,   1711,  -1782, -11360,  10136,  -6505,  -6690,  -8595,  -2282,  -3031,   4507,   -320,  -1637,  -3591,   -187,  -4776,   9469,   -843,   4670,   -466,   8207,   7378,  -7850,  -4706,  -2495, -10855,   5491,  12618, -10064,  -1967,   4592,  -2734,  10334,   -813, -10779,   1695,  -2390,   4031,  -8829,  -2218,  -3371,    817,  -1760,  -8617,   4297,  -9573,  -3097, -11204,  -2113,  -4308,  -7080,   5138,  -5329,  -8628,  -9379,  -8475,   3054,   -678,  12642,
           -33,   2463,   7830,  -9568,  -2389,   7478,   3185,    385,  -5976,  -2116,   5027, -15075,   4148,   3596,  -1964,   9601,   6782,   -807,   1289,   1858, -14356,  11808,   7453,   4507,    324,   5343,  -9382,  -7729,  -7027,  -5300,   -371,  -9604,   2315,   7347, -11128,  10398,  -1296,   2006,  -1737,   3164,   1956,  -4594,  -5708,  -6226,  -1823,   7209,   3342,     23,  -9711,  -3092,  -2951,   4888,   3755,   9965,     38,  -9572,  -5934,   6956,   1542, -11674,  -3817,  -4835,  -8424,   5119,   3577,  10051,   6838,  -6076,    837,   2503,  -6643,  -3806,   4643,   7275,  -2832,  -5044,  -7045, -12896, -10490,   -715, -10017,   6361,  -3098,  -5825,   6174,   9010,   6363,  11363,    958, -11217,  11289,   4948,   8151,   6341,   3617,  -2995,  -9648,  -1792,   2029,  10200,  -2343,  -3522,  -7509,  -4356,   1778,    291,   9835,   3821,   2478,    224,  -3354,  -4701,   -545,  -6272,  -5809,   -298,  12159,  -5413,  11921,  -7161,    652,   3863,  -6456,  -8817,   8002,  -4847, -16105,   3675,  -7155,  -1464,  -6826,   1862,   1961,   4560,   2928,   2603,   -933,   6329,  -6746,   1074,  -3839,  -7848,  -9459,  -6963,    -93,    681,  -8954,  -1445,  -7130,    600,   1092,  -3466,  -7957,  -2432,  -2621,   -447,   7909, -10235,   8488,   8726,  -1822,   -650,  -5267,  -1643,  -7696,   4743,  12834,  -6522,  -4708,   9121, -12863,   2776,  -1069,  -9276,  -1694,  -2300,  -1246,   6861,  -9839,   4761,   9498,  -7379,  -2436,  -7172,    908,  -1065,   9442,  -7963,   7723,  -5529,   3333,   7787,  -3549,   4400,  -3475,   6200,   5909,   8003,  -4625,  -2247,   8184,  -4431,  -4768,   4103,  -8171,  -2188,   6838,   -715,  13835,   2108,   2757,   -147, -11021,   2403,   6464,   4641,  -4010,   6287,  -5222,   3393,  -9336,  -2992,   4795,   9265,   4753,  -3105,   3684,   5708,  -7713,  -6408, -12297,   8367,  -3365,   1358,  -3865,  -3240,  -5328,  10138,  -3450,   3674,   -690,  -6730,  -1520,   2569,   2288,  -1704,  -7040,  -1868,   8244,    738,  -7927,  -1166,   6468,   4838,  -5254,   1420,   7337,   8755,  -2412,  -6590,  -4845,  -8985,   6308,  -6250,   6168,    578,   5345,   8604,   7076,  -4829,  -5418,   3458,  -1843,  11892,  -8502,   8400,   4436,  -3243,   6350,   4989,  -7552,  -3546,   5301,  -6901,  -8826, -11789,  -3930,    -43,  -7346,  -5896,  -3067,   3826,   8823,      4,  -1042,   -624,   4954,  -9218,   3126,  -7807,   6452,  -9296,  -5729,  10935,    737,  -4297,   4212,  -6792,   5911,   3303,    -63,  -7451,  -2743,  -6622,  -6927,   8952,   4265,  -2711,   2164,   7998,  -5560,  -1294,  -7898,  -2875,   2516,  -2634,  -5483,   5106,  -3687,   4063,  -6552,   4542,   9637,  -6525,  -1193,   1644,   8591,   4419,  -2608,  -5606,  -1090,  -5562,   5360,    548,   3184,  -2937,  -9937,  -4918,  -9421, -10164,   1168,  -2697,   9484,  -3173,  11449,  -2253,   1378,  11236,   5420,    784,    797,  -7574,   6423,   4237,  -8294,   4809,  -3189,   3068,   2336,   4192,  -9826,   9901,  -3653,  -6193,    155,   4873,   8772,   -974,   3646,    535,   2431,   1049,  -5320,  -4149,   2040,  -9739,   3731,   6362,   -442,   -792,   1586,   2565,   7041,   -691,    251,   -595,   7782, -10251,   1685,    323,  -6360,  -1346,  -4176,   2456,  -6191,  -1145,   5465,  -8182,  -6049,  -2438, -10061,  -9998,   2352,    464,  -5734, -11076,  -2912,  -4591,  -8861,   -601,  -7696,  -5132,   5708, -11826,    926,   5945,  -6743,    -98,   4491,   4996, -10314,  -1915,  -8528,  -8659,  -5293,  -4435,   -449,  -1803,  -5751,  -9944,  -2662,  -6788,     -1,  -3939,  -3299,   -894, -12900,   2263,  10392,   5811,  -1216,   7870, -11430,  10843,    859,  -8202,   3512,  -1256,  -9360,   3003,   2427,   4173,   2391,  -5687, -10353,  -5161,  -4137,   1483,   5557,  -8394,  -1658,  -2698,     93,  -3883,    691,  -1229,  -5875,   6820,  -9069,   3277,   9177,   7676,  -5028,  -8021, -11948,  -2249,  -6337,  -4440,   3144,  -7938,  -7043,   6141,    340,  -4618,  -7577,  -5516,  -1950,  -3986,   5665,  -4633,   4010,   9783,   6320,  -2739,  -6790,   1325,   2113,  -3476,   8375,  -2531,   5710,   5768,
          -423,  -5359,  -4379,  -6607,   8612,   5387,    893,   5261,  -5082,    -14,   7772,   5123,  -1427,  -5901,   8459,   8319,   9255,   -790, -10566,  -3988,   5495,   7114, -10116,  -8389,  -9308,  -3079,   2245, -10730,  -6518,  -3573,   1712,   9356,   1462, -10100,   5571,   5796,  -9160,   9457,  -4238,   -343, -10346,   8617,  -5276,    197,   -902, -11578,  -2412,   3245,   5855,  -2463,  -8117,    885,   7454,  -1149, -14952,   3707,  -4279,   1328,  -7642,  -9331,   7147,  -2015,  -4332,   -829,   -968,    -45,  -5799,  -2690,  -3863,   3240, -14710,  -8698,   2663,  -8756,  -2721, -12673,   8680,   -825,   1457,  -5123,  -1762,  -8048, -10818, -12444,   1734,  -4819,  -6707, -10847,  -6804,   -622,   -100,   2156,   1704,  11817,   1731,  -4531,   -545,  -3266,   8243,  -8181,  -4216,  -3059,  -3293,   1914, -10604,  -6435,   6962,   5101,   3562,  -6556,   3248,    333,  -2486,   7046,  -3953,   2100,  -2227,  -2427,  -2586,   -823,  -1477,  -7461,  -8427,   6181,     52,  -5019,   -291,  -9428,  -1391,  -1873,  -3313,   2662,   1484,  -7631,  -8886, -11124,   1336,   1581,   9258,   -897,   3811,   4761,   2905,   4802,   6700,  -1588,   2063,   5565,  -2201,   6130,   2979,   3940,  -2115,  -3174,  -2255,   3258,  -7127,   4343,  -3702,   7774,   3638,   3780,     58,   3684,   2483,   4819,  -4316,   1148,  -4428,  -3833,   7043,   4754,  -6777,  -3664,  -3748,   7480,   5223,    348,   6437,   4626,   5231,    396,   7371,   5305,  -9415,   -689,   7868,   4217,    468,   3589,  -2681,  -3966,  -2756,     15,   6363,     25,   1438,   6266,  -7380,  -8189,  -2372,  -5106,  10113,  -9985,   5050,    208,  -7516, -11537,  -9582,   1329,   6522,  -7077,  -4506,  -8631,  -6294,   7521,   6528,  -9291,   1291,   5396,   8457,   8761,   3903,   6503,   7105,  13048,   -671,   -568,   9799,   2219,  -6692,   3802,  -7891,  -8971,  -8688,   7258,   4383,   3127,   5163,  -6627,    -41,  -3165,   7487,     36,  -2462,   7967,   3042,   -518,   2338,  -3294,  -4533,  -6235,   6110,   7227,   8823,  -7013,   6389,      7,  -6817,  -6669,   2514,  -4381,   2714,  -7989,  -9854, -10609,  -2607,   4329,    332,  -4322,   9285,   5224,   3986,  11847,   2918,   8697,   4864,  -5821,  -3288,  -4464,  -4712,  -5027,   5205,   2941,  -1825,   5458,   3505,  -6015,   8856, -11417,  12123,    568,   -448,  -2067,   7561,   2868,    530,  -2209,   3316, -10420,  -3888,  -4562,   1547,  -2424,   4051,  -4276,   4700,  -1856,   8920,   1400,   3519,  -4079,   6718,  -6208,   5231,  -6181,  -2240,   7030,   1034,  -4231,    535,  -3073,   1446,    744,   6191,   3056,   4183,   1676,   3423,  -8303,    569,   -988,  -4042,    232,  -4001,  -1502,   7356,  11725,   1118,  -4415,  -3256,    349,  -2259,    950,   5581,   1066,   2140,   -971,   1880,  -2883,   8412,  -2306,  -7130,   7611,  -3796,   8953,  10586,   -786,  -1191,  -2236,   6741,  -7125,   3737,   1252,   4089,   -206,   6396,  -7175,   8038,  -9536,   8889,     -4,   7430, -12907,  -5802,   -124,   3248,  -2070,  -1898,   8683,  -1174,  -1034,   5508,  -2152,  -4325,  -1597,  -5371,   6322,   1528,    155,   -492,   6730,   8833,  -2879,   -232,  -6110,  -6742,   2221,  -4188,   1809,  -9490,   -753,   9231,    449,   5711,  -1994,  -3344,   8187,  -6811,   2116,   7002,   6556,  -4326,  -5186,  -2993,  -6452,   4791,   1406,  -5946,  -4750,  10003,   1832,  -1130,    449,  -2569,  -4160,   5915,  -2019, -10795,   2039,  -2702,   3390,   6502,  -3929,  -6103,   4361,  -3775,  -8080,  -4222,    -94,    387,   4591,   3266,   1020,  -5273,  -5711,   3716,    787,   4319,  -8331,  -7721,  -8569,   7127,   2943,   3780,      0,    436,  -5040,    857,  -2415,  -3462,  -9586,   6344,  -6358,  -5548,   9445,  -8960,  -2976,   9253,  -5217,  -5408, -10882,   6536,  -7010,   2135,   6295,  -1465, -12356,     95,  -2355,  -3823,  -5930,  -6685,  -5777,  -1462,  -2504,   1966,  -2381,  -5927,  -1849,  -6592,  -3663,  11619,  -5507,  -3881,  -9024,  -2792,   2860,   7691,  -6450,  -2314,  -8307,  -9350,  -3891,  -1912, -11372,  -9104,  -1993,  -7917, -10954,   1148,  -2271,
