#include "Mnist_coefficient.hpp"
using namespace dl;

namespace Mnist_coefficient
{
    const static __attribute__((aligned(16))) int16_t statefulpartitionedcall_sequential_conv2d_biasadd_filter_element[] = {
         -4258, -12107,   8550,  11757,   9728,  -1112,  -7888, -15103,  -1122, -15500,   1763,   7390, -11703,   5602,  -8232,    958,  -7954,   8294,  -2077,  -4380, -18889,   5229,   6713,  -8988,   1838,  -5155, -12429,  -9148,   2189,   -462, -12212,   6264,   7254,   1351, -16709,   2387, -17303,   1675,  10604,  -7479, -19118,  -7862,   5908,   1405, -17758,   2874,  10062,   9745, -11285,   9989, -12350, -17696, -15686, -11144,   -337,  -8641,  -3428,   2120,  -1044,  -2535,   3861,   8462,    -75,   -154,  13862,  -5284, -30002, -10657,  -9048,    493,  -2965,   2799, -10148, -17468,   1315, -13377,  17037,  -9443, -11643,   2624,  -2267,   4543,  11889, -23385, -14605,   8179, -12774, -11856,    749, -16272,     86,   8531,   5209,  -2670, -10501,   1768, -11925,   7208,  -2880,   4325, -16300, -14969, -10793,  -5789,   5654,  -9589,   4363,   9047,   3637,   4157,   1639, -14217,  -6553,   2803,   -723, -14678,   3161, -17271, -15525,   9840,  -4415, -10139,   4157, -25704,  -2248, -15841,  -5646,   5262,   1098,   2838,   8839, -10427,  -2032,   6747, -12830,   1035,   5904,   -993,   3776,   3855,   4594,  -9905,  -6610, -18478, -16738,   5183,    182, -10312,   -741,   5419,   8845, -16909,  -5499,   5588,   3362, -15413, -15365,   7585, -10072,   9259,   -887,    890,    715,     44,   5799,   3103,    965,   -389,    521,   1460,  -1401, -14462,  -3781,  -1123,   4171,  -9669,  10969, -12020,   7777,    130,   2534,   3040,  -3508,   3861, -16601,    -40,  -2744,   2816,    -44,  10458,  -2062,  -8003,  -1237, -10378,  -9902,  -3066,  -6695,   8762,  -4474, -21028,  -7511,    610,   7958, -16353,   7387,    341, -11858, -13259, -11631,  -3292,   6686,   8914,  -7834,  -2191,   2830,    169, -13556,  19111, -13277,  -8020,   -954,  -9908,   3370, -14162,  -5639,   1701,  -9718,   5490,   2432,  -6647,   2151,   3123,  -3561,   3247,   5114,    615,   4536,  -4913, -16539,   3106,  -7577,  -1156,   4963,  -6305,     49,  -1205, -10962,  -9032,  -4185,   3256,   7384,  -4285,   1905,  -6083,   3518,  -5002, -19464,   -236,   7233,  -3841,  -8562,    615,  -8689,  -1507,   6923,  -7157,  -4126,  -9593, -17460,   7732,    560, -13806,  -2893,   5939,  11043,   7770,  -2786, -12800,   1383,   9229,   5141, -12954,   1840,  -1073,   5231, -14962,    -18,   1034};

    const static Filter<int16_t> statefulpartitionedcall_sequential_conv2d_biasadd_filter(statefulpartitionedcall_sequential_conv2d_biasadd_filter_element, -17, {3, 3, 1, 32}, {1, 1});
    const Filter<int16_t> *get_statefulpartitionedcall_sequential_conv2d_biasadd_filter()
    {
    	return &statefulpartitionedcall_sequential_conv2d_biasadd_filter;
    }

    const static __attribute__((aligned(16))) int16_t statefulpartitionedcall_sequential_conv2d_biasadd_bias_element[] = {
            86,    -37,    -13,     33,      1,     -3,    -70,     -2,     70,    -19,    -72,     19,    -31,     -5,    -52,    -16,    -44,    -86,    -67,    -23,    -84,    -39,     40,     56,     -2,     33,    -62,    -21,    -36,     12,   -103,    -62};

    const static Bias<int16_t> statefulpartitionedcall_sequential_conv2d_biasadd_bias(statefulpartitionedcall_sequential_conv2d_biasadd_bias_element, -9, {32,});
    const Bias<int16_t> *get_statefulpartitionedcall_sequential_conv2d_biasadd_bias()
    {
    	return &statefulpartitionedcall_sequential_conv2d_biasadd_bias;
    }

    const static Activation<int16_t> statefulpartitionedcall_sequential_conv2d_biasadd_activation(ReLU);
    const Activation<int16_t> *get_statefulpartitionedcall_sequential_conv2d_biasadd_activation()
    {
    	return &statefulpartitionedcall_sequential_conv2d_biasadd_activation;
    }

    const static __attribute__((aligned(16))) int16_t statefulpartitionedcall_sequential_conv2d_1_biasadd_filter_element[] = {
          1329,  -2697,  -2962,   4039,  10107,    811,  -4398,   1430,  -4963,  -5795,   3833,  -5717,    541,   -223,  -5292,   -610,    248,  -4022,  -2744,  -8204,  -1259,  -8683,   1269,  -2177,   1826,  -3403,   2292,  -3564,  -1783,  -4022,    160,   7107,   2063,   -443,  -2185,    771,   5581, -12541,   3527,  -4094,  -4060,   3006,   6085,  -6218,   5789,   -719,  -1962, -10956,   3286,   3115,   2110,    717,  -1956,  -8711,   3222,  -2327,  -1383,    340,   -419,   1963,   1761,  -7269,  -1918,   4190,  -6529,  -6755,  11540,  -4779,   1983,  -4263,   4946,  -1457,   3631,    -78,  -4797,  -9749,   5318,  12549,   3605, -10038,   3814,   -696,  -6493,  -6199,  -5500,  -3838,   5518,   6151,   2767,   -751,  -6206,    452,  -1497,   7216,   3774,   -329,   2443,  -1454,  -1818,   1377,  -5942,  -5594,  -1611,  -6289,    989,   1668,   7105,   1809,  -3336,   -824,   5456,  -7651,   1898,   -233,  -5141,   1986,   6616,  -1686,  -7271,   -304,   2231,  -1085,   6976,   2684,  -6147,   5677,   2339,   7043,   1243,   3977,  -4608,  -1793,  -4973,  -1255,   -747, -10663,  -1812,   2270,   1385,   5368,  -1692,   4932,   1111,  -1535,   3536,  -2685,   3113,   3765,  -3070,  -4710,   2901,  -3786,   1017,  -3420,    507,  -4123,  -1512,   2904,  -1523,  -5221,   1096,  -4535,   4411,  -1993,   -411,  -5019,  -4787,    105,  -3400,  -1064,  -3670,  -6551,  -2921,   -690,  -3351,  -3459,  -6157,    285,    136,  -3176,   -863,  -1078,    233,   1790,  -4027,  -1809,  -1996,  -4957,   1775,   2495,   -191,  -5115,   -831,  -6023,   1839,  -6454, -11790,   -450,   1901,  -3098,  -3057,  -1060,  -8141,   6828, -10117, -17765,   3071,   3771,   4878,  -2670,    871,  -2671,   3941,   5662,  -5338,   2883,    -47,   2313,  -3889,   -412,  -9980,  -3779,   1677,   2173,  -1840,  -2295,    764,    325, -10771,   4161,  -2102,  -2801,   2040,  -1006,  -7655,   7261,   -941, -15484,   3759,   7517,     59,    597,  -4016,   1547,   -573,   6170,  -6753,  -4669,   2390,   -675,  -1793,  -1530,  -5994,   5158,   -590,   3536,    923,   3556,   -561,  -5786,   1818,      6,  -4228,  -7415,   5817,   2721,  -3131,   1453,  -1823,   -927,   -894,  -3195,   5365,   2121,   1144,  -2558,    183,   2845,   3556,   -176,    764,  -3857,   3877,   2268,  -1806,  -4087,  -2325,   1930,  -4961,   3412,   2312,  -5509,  -8159,   -524,    394,  -4909,  -3964,    339,   2526,  -6183,    831,   5464,   3108,   -570,  -4637,   -522,    905,  -1654,  -3945,   -276,   3061,   -810,   2252,  -1434,   2354,  -6671,    874,   3700,  -6756,  -3216,  -4661,    951,  -5119,   1506,    534,  -2068,  -2078,   2437,  -1192,  -3091,    523,  -1507,     23,   2209,   1837,    246,   -849,  -2513,    135,  -3416,   4264,  -5002,   3630,  -3257,  -1798,     40,   -640,  -1281,   1804,  -1401,  -5010,  -3249,  -6069,   1457,   2021,   2653,  -1349,  -3456,  -6705,   1941,   2490,    109,   2509,    852,  -2323,   4536,  -5953,   4012,  -2124,  -6264,     63,    545,   3422,   3091,   1735,  -4242,   1064,   1304,  -4357,   2621,  -6487,  -5882,  -4275,   -908,    850,   1019,  -5507,  -1693,  -2666,   1440,   2018,  -4251,    723,   -217,    543,    211,  -5139,    615,   2878,   1065,  -1700,  -1473,    292,  -2846,  -5203,   -794,   1756,  -5373,   -104,   -112,   1138,   1172,  -4563,  -3023,  -6266,   -724,   -610,  -5673,   2336,   3750,   1536,   3066,  -5322,    592,   3299,  -1668,  -5968,   -815,  -5645,   2262,   2341,  -2484,  -5589,   4186,   3403,  -1106,  -4721,  -2393,    356,  -5017,   -141,  -5832,    846,   4510,   2056,    -12,   2933,  -2216,    866,  -2804,   3077,  -1274,   3622,  -1056,   2292,   1665,  -1422,   3568,  -5718,  -4728,  -1873,    530,   2716,   -231,    535,  -1940,  -3146,    360,    925,   -641,   3785,    362,   3888,  -6260,  -5239,   6480,  -1669,  -2022,  -3969,   1934,   1281,  -3395,   -326,  -1977,  -4419,  -1766,    287,    931,  -2529,   1015,    765,   4905,   1713,   -460,    834,   1748,   2401,  -5279,  -2628,    234,  -5025,   -695,   3005,  -4131,  -3349,  -7341,   3191,   1180,  -1292,    766,    673,   1384,
         -3850,   1950,  -1530,   1307,    306,  -3700,   1520,   2048,  -1566,    840,  -6563,  -3154,  -5170,  -1483,  -4348,  -5134,   1355,  -1950,   3750,   3007,  -1690,   -344,  -4224,     80,   2281,    -14,    476,  -1810,  -1665,  -2062,  -4703,  -2796,   4471,   -525,  -3024,  -5605,  -4954,    179,   3598,   -152,  -2111,  -1592,   1927,   3345,  -2470,   -199,   -197,   1661,    343,   2979,   -807,  -4450,   2310,  -1145,  -3155,   -916,  -3437,   1389,  -2741,    517,  -2284,  -7020,   5462,  -4023,   1813,   1480,  -5020,   2436,  -2352,   3964,    515,  -1805,    669,  -3385,  -4460,   4104,    -35,  -5020,  -2434,  -5347,   1386,  -4868,  -5587,  -1615,   -852,  -2797,  -2614,   -305,    573,  -7129,   4482,   3277,   -334,  -5837,   2873,  -6449,   3548,  -5666,    303,   4284,  -1691,  -5270,  -3019,  -3647,   -897,  -4190,   -617,   1919,  -4807,   -902,  -4550,  -4261,   3267,  -3643,  -4982,   4173,  -4100,   2908,   -121,    -18,  -1108,  -1179,   -149,   2763,   2539,  -3049,   1679,   1986,  -2033,  -6239,   2613,   2807,  -6915,   3144,  -6254,  -4414,   4763,   3239,   2265,   2909,    186,   -513,   -458,  -4739,  -1105,   4721,  -1192,  -5982,  -2392,   3476,  -2916,  -1553,   2147,  -2679,    212,   -897,    438,  -5829,    214,  -1678,   1226,  -3299,  -3025,  -5120,    662,  -3647,  -1924,   1072,  -2424,   1315,   3080,   4082,  -3707,  -4451,   -635,  -2241,   4931,  -3893,   -695,   1458,   1350,   -812,   1305,  -1715,   2609,    676,  -5654,   -157,   2730,   2784,   1412,   1184,   1211,  -5698,   1722,  -2466,   5514,  -3174,   -196,  -1149,   1006,   4075,   1030,  -5338,  -5029,   6018,  -5377,    393,   -452,  -1392,  -2308,  -4019,  -3719,  -3545,  -5700,    -85,   1632,   -770,   3521,   2739,   2908,   2512,   -676,   2816,  -5114,   -693,   4269,  -6775,  -4494,   2855,  -3364,  -2202,   3284,   6074,  -1296,  -1362,  -5560,  -3548,  -5000,   -763,  -6470,   4126,   2696,   2752,  -2963,  -3872,  -1569,   2178,   6874,  -5167,  -5954,  -1413,   4548,   1653,  -5048,   4023,   -797,   2292,  -1564,    -57,  -3276,    477,   2564,  -3527,  -3734,  -1582,    989,   -217,  -2490,   2091,  -3400,  -2488,  -2810,  -2548,   3436,  -2324,  -3614,   3408,   4575,  -6737,  -5802,  -5395,   -719,  -5567,  -6207,    230,   1837,   1546,  -4716,  -5740,   1003,  -4707,  -2639,  -1437,   -825,   -537,  -3298,  -1550,   1516,   1485,   2694,   -706,   2198,   1562,  -6280,    493,   1611,  -1035,  -5145,  -5513,  -3399,    137,  -1655,    545,   1838,    -60,  -1020,   2155,   2588,   3471,   2622,  -3048,   1981,  -4915,   2814,   1652,   2338,   3683,    121,  -4930,   1993,  -3488,   1995,  -4659,    786,  -3219,  -5388,  -3854,   -874,   -965,  -5129,  -4781,  -1860,  -5175,   1356,  -4495,  -4906,  -4913,  -2847,   4604,  -4941,  -4776,   1445,   5536,  -2833,   4271,  -5986,  -3770,   -747,  -2335,   4771,  -2059,  -3393,   3468,  -4718,   4138,    872,   -437,   2251,  -1600,   2489,   6434,  -4912,  -3012,   1516,    867,   2628,   3304,  -1089,  -3548,  -2984,    520,   1929,  -4715,   3188,    999,   4236,   2380,   1152,   2199,  -2662,  -6893,  -1656,  -4977,   2036,  -5548,  -4298,   6877,  -1247,      1,   2517,   5569,  -1240,   -757,    -21,    309,   -307,  -1675,   3840,   3344,    655,  -6543,   1213,  -5720,  -7114,  -2415,  -1990,  -2074,   6374, -10048,    961,  -8114,   1117,  -5982,  -5801,   4179,  -4913,   -228,  -7312,  -7111,   1513,   2252,  -3701,  -2747,  -6343,   2345,   2586,   8090,   2166,    676,   2408,   4461,   3167,   1200,    891,   -475,  -2290,   4606,   1302,  -1883,  -5932,  -4580,  -4370,   1164,    308,  -5502,    918,   2370,   -339,   -388,    796,  -1372,   2978,   3528,  -3604,  -5578,  -3008,  -1768,   5817,   1909,    560,  -2547,  -6817,  -5188,    452,  -7442,   -157,   5161,    294,   3250,  -2986,  -4114,   4319,  -1320,  -1290,   -388,  -3210,  -5662,  -3371,    839,   2390,  -4426,   2230,   9505,   3255,   4827,  -3260,   -118,   2470,   2940,   2397,    809,  -1125,  -5977,    518,  -3800,  -3215,  -4241,  -2341,  -4146,  -4038,  -1678,
         -6432,  -4146,  -3460,  -1597,  -6400,   -521,    549,  -1531,  -5643,   1890,  -5313,    -74,   1215,   -236,  -5409,  -6048,   2711,   1331,  -5714,  -4855,  -5946,  -1442,   -532,   1863,   -459,  -5183,   2197,  -2234,   4248,  -1160,    110,    -86,  -6048,  -9787,  -1222,  -5880,   7909,  -2498,  -2502,    725,  -8411,   2586,  -6070,   2066,  -1358,  -4560,  -1452,  -6176,  -1810,  -1001,  -1951,  -5245,   3843,    644,   3636,  -5292,  -5054,  -3534,  -3899,   -682,  -3008,  -5951,    302,   2939,  -3484,  -2435,    134,  -3252,   5345,  -1012,    845,  -7261,  -3803,   4404,   -245,  -2165,  -4223,  -1789,  -6381,  -6458,   -468,  -3963,  -6048,  -5285,  -1487,    920,   2351,    965,   7940,   1927,   -138,  -4117,   4273,  -4323,   2049,  -4381,    387,    765,     93,  -2750,   -729,   -143,   4536,    191,  -2421,  -4820,  -1599,  -1119,  -5602,   1223,  -2379,   1423,  -3081,   2990,   1353,  -2100,  -4841,  -2888,   2064,  -4568,   -939,   2971,   1149,  -2304,   -263,  -4217,   3561,   3066,   3557,  -3588,  -4679,  -4388,  -4231,  -2445,  -3626,   -215,  -1596,  -4862,    728,  -2805,    680,  -4088,  -3234,   5148,  -5396,   4700,   3624,  -5920,  -2455,   -102,  -7068,   1062,   5764,   4102,  -2282,   4426,  -2329,  -2845,   -474,   1785,  -2238,  -4943,  -3241,  -6105,   1442,   -309,  -3650,   1460,  -4187,   2050,   3417,  -4215,   3712,  -3322,   7230,   3949,  -5928,  -1177,  -1991,   2069,  -3951,    432,  -2255,  -1046,   -189,  -2297,  -2825,  -6000,   3722,   2186,  -2884,   5806,  -2576,   1804,    786,   3071,   2733,   4910,  -5818,  -4646,   -364,   4792,  -1749,  -2584,  -1020,  -2754,    282,  -1104,  -3737,  -2762,   1796,  -6645,   1306,  -1114,  -2418,  -5220,  -9922,  -1859,   6073,    914,   4579,  -4259,   -996,   2291,   4964,     21,   3921,  -5664,  -4485,   6007,  -2362,   4992,  -7628,  -6486,   2459,  -1074,    779,  -2275,  -5543,  -6696,  -3082,    590,  -4923,  -6852,  -5803,   -988,   1486,   -978,   4055,  -3850,  -6677,   3507,   1301,  -6018,   1046,   -291,  -4124,   3410,  -1199,   3270,    368,   3599,   3729,  -3789,  -7390,   3503,   3006,  -6401,    300,   1575,  -3794,  -1436,   3680,  -1715,   3124,  -4902,   1873,  -5309,   -460,    808,  -3512,  -1015,  -5183,   5064,   7091,  -2221,   1965,    220,  -4072,  -2676,  -1777,  -6367,   1457,  -1214,  -6078,   6079,  -6057,   2191,   3668,  -4973,  -3200,  -5051,  -3194,   1349,  -2940,  -2122,   -915,  -5815,   3414,   2306,   5612,  10039,   -661,    666,   -948,   5087,  -3208,   1112,  -7565,    881,  -1182,  -6878,  -2942,    482,  -3587,   4892,   2604,   -151,  -4253,  -5038,   4473,  -6510,   1170,  -4702,  -1429,   -556,   1918,   2447,   2377,  -3639,  -2420,  -2727,   -329,  -1562,   3195,    394,   2820,    302,  -1065,  -7673,   5030,   1222,  -3431,    358,   1624,   -449,   3550,   1390,   4271,    322,   1148,   4074,   1511,  -7026,   4643,  -2012,   1476,  -1103,   1404,  -2503,   -285,  -7597,  -5690,  -2036,    444,   1268,   3872,  -6099,   1290,  -5130,  -1061,  -5415,  -2369,   6942,  -5882,   2281,   3141,  -3444,   6512,   -889,  -4010,  -2197,     38,  -3836,  -7494,    -10,  -3183,  -2178,   2008,  -7802,  -1232,   6225,  -5655,  -2111,    106,  -2317,   5134,   1512,   2782,  -3036,      2,  -3672,   2583,  -6187,    315,   -541,   2801,  -1124,    545,  -2107,  -3685,  -4463,   2112,  -1697,  -3077,  -3806,  -5999,   3998,   3772,  -4253,  -2528,  -4815,   3211,   2609,  -4742,    828,    461,  -7131,   3015,   2312,   1759,    117,    750,    897,   1938,   3285,   -354,   3003,  -5162,   2391,    998,   2104,  -3736,    443,  -2590,   1078,   1788,  -4257,   1676,  -3890,  -5198,  -5546,  -4913,   3483,  -6336,  -3529,  -6468,  -1996,  -3142,   3456,  -6730,  -4873,   -456,   2380,  -6074,  -2390,   2891,   1173,  -3459,   2712,  -5227,    759,   2872,  -5251,   1010,   1185,  -2451,   3255,   -424,  -4067,    -23,  -3044,   -371,  -4192,   -286,   1993,    926,    593,  -2454,   -897,  -1272,   -717,     35,   2264,   -638,  -1254,   4567,  -3713,  -5921,   4197,   1237,   3258,
          3333,   -485,   -468,  -2140,  -7374,   3674,   1799,    795,  -3792,    252,   2550,    645,  -4539,  -2527,   3106,  -3792,  -2981,   1911,    510,  -4210,  -1321,  -6384,  -5638,   2041,  -4750,  -1069,   3582,  -5476,  -1414,   -506,  -3664,  -5172,  -5444,  -5237,  -6799,  -3179,    833,  -1276,  -3044,  -2278,   4911,  -1716,   3215,  -2187,   3266,   3154,   2139,  -4288,    539,  -1470,  -4094,   2126,   2995,   3405,   -837,    610,  -1289,   2650,  -2358,  -4292,  -1436,   3642,  -3615,  -5236,   2726,  -4109,   2085,  -4588,   3543,   2749,   2125,   2707,   1946,    918,  -1730,   -562,   2782,  -3800,  -4396,  -3409,   2018,     20,   5049,   -899,    631,  -1364,  -4239,  -3222,  -5797,  -2809,  -3813,   1713,  -4800,  -3566,  -2324,  -4817,   2888,  -4869,  -4842,   2654,  -6585,   3209,   1651,  -3090,   3430,   3743,   3468,  -3450,   -932,   4732,   -113,    893,  -4569,  -6146,   1573,  -2438,  -3737,  -3473,  -6145,  -6310,  -1881,  -3053,  -2578,   -749,   -548,  -3390,  -6040,  -6949,  -4510,  -4144,   4104,   3148,   2279,   1037,   -668,  -4951,   3223,   3957,   1938,  -5767,   1029,   -291,  -2524,    475,   4476,    299,  -4357,  -2918,  -3120,  -3432,   2987,   1200,  -1469,  -1616,   3015,    679,  -2476,  -4327,  -3355,   -693,   1726,   1748,    341,  -3995,  -7332,   1940,   1867,  -5531,   6006,   3394,  -5264,  -2780,   2212,   2260,   6218,  -4300,  -6387,   2078,  -2205,   3171,   1270,   1464,  -6506,   2152,    450,  -4691,    750,  -5757,   3771,   4539,  -5335,  -1923,    829,   1028,   2207,   -168,  -7525,  -3183,   -843,   4761,   3688,  -2871,  -3494,   3318,  -3573,  -3289,  -4931,   -827,   -735,    173,  -5602,  -5734,    -93,    899,  -4819,   1159,  -1897,  -2409,    100,   2227,    992,   -682,  -2032,   1663,    809,   4515,  -5582,   -924,  -2736,  -1651,  -5055,   2575,  -5298,  -1791,  -2903,    125,   2935,  -6551,    478,   4295,  -4583,  -2921,   4391,  -4510,   3790,   1880,   3716,  -4162,    223,  -1528,   4601,   3294,  -2349,    992,  -4195,  -5086,  -4431,   2827,   4127,   2927,  -2126,  -2099,   4564,    627,  -2372,   3751,  -3436,  -4419,    562,   -272,  -5203,   2036,   1084,  -2021,   -594,   1237,  -2145,   4279,  -2195,  -3964,   -521,   1858,   -940,  -3564,  -4503,  -2433,   2124,  -1825,  -4708,  -4765,   1708,   2957,  -2175,  -5535,   -650,   4007,   -492,  -4492,    -87,  -4825,   1384,  -2136,  -5886,   1021,  -1818,   1672,   2558,   2797,   1791,  -2039,  -3708,     24,  -5623,   1617,  -4416,   2612,    297,   4077,  -3503,  -2835,   4777,  -5712,   1886,  -1051,   1870,  -4102,  -2455,    172,   3906,   1017,  -4792,   3921,  -3665,   3766,   1076,   3942,   3912,   2356,   -930,  -2053,    910,   2277,  -2123,   -392,    -42,  -4026,     25,   1784,  -5172,  -5963,   2702,  -5052,  -2734,  -2755,  -5942,   -949,   1716,    224,   -408,  -5182,   1789,  -3921,  -1032,   -379,  -1939,     63,  -3661,    947,   -701,  -4767,  -4291,   3261,   -905,  -5592,   2275,   1452,  -4243,  -3012,   1169,    697,    464,    403,   -919,  -4865,    967,   2938,    254,   2848,  -5496,   -608,  -4848,  -6083,    -18,  -2972,   1273,  -4246,  -3870,   1010,  -1264,  -3707,   -365,  -2081,   1132,  -2481,  -4209,   2228,   3928,   -446,  -1593,  -1912,   2975,    442,  -3428,  -4450,  -5462,  -3392,  -6123,  -2007,  -4631,   3090,  -4155,  -3354,   2240,  -1639,  -5939,    943,   3451,  -3425,   1337,  -2883,   1120,   -501,   -728,  -1686,    -91,   -586,   1907,   2664,    924,   1247,   2120,   -175,  -1600,    845,  -2464,  -3322,  -4249,   3777,  -4114,  -5164,  -1992,    383,    -48,   -263,  -3964,   -293,  -6103,  -3023,   3437,  -5220,   3867,    590,   2731,   1613,   3241,   1616,  -2174,   4192,    342,   -555,    221,   2492,    811,  -5020,  -3455,  -5680,   2673,   2952,  -5244,   4027,  -3901,   1038,   3131,  -1211,   2028,  -3422,   1146,  -2443,   2659,  -4803,   2439,   2469,   1832,  -7613,  -4234,  -3783,    829,    518,   -737,  -4809,   1093,  -6801,  -5188,   3299,   4938,   2039,  -2292,  -6695,   2904,   2842,   -219,  -2232,
           917,  -5567,  -1153,  -1275,   -815,    -99,  -4624,    444,  -1012,    974,   1261,   2430,  -6884,   4250,  -4676,  -4868,  -4206,    557,  -3245,    372,   3075,  -4461,    780,  -5532,  -1125,   1931,  -6530,  -2912,   3965,    -70,  -4259,   1635,  -2298,  -4453,   1387,   3449,   3676,  -5526,  -1799,  -1826,  -1629,  -6360,   3599,   -457,  -2008,   5929,  -2782,     23,     36,   2811,   2734,  -2597,   1344,  -4800,  -3131,  -2432,  -2697,   3908,  -3771,    506,  -2949,   -496,  -2299,  -4517,  -5350,  -4281,   1843,    583,  -1642,  -4435,   1144,    351,  -4062,  -1590,   1961,  -4944,  -6206,   2959,   2441,   3337,    878,   1036,  -3674,   -421,    377,  -3565,   -545,   1700,  -1068,  -6772,  -2365,   1995,    302,   4818,  -4050,  -6779,   2351,   -296,   2810,  -2339,   3077,    443,  -5542,  -2440,   3475,   3236,   -483,   1066,   -203,    868,   -398,   -875,  -2280,   4501,   3523,  -2805,   -667,  -2741,  -5239,  -3763,   -550,  -1926,  -1954,   1553,  -3051,   1522,   -844,  -2483,  -3393,  -3326,  -3989,   4147,  -9158,   -686,   4375,   6798,  -1221,   4919,     56,    753,  -1198,  -2911,  -2173,   4251,  -4255,  -3760,   -974,   1110,   1799,   3919,   -842,   2017,   -280,   2318,  -2203,  -2167,  -5348,   -849,  -2977,   -403,   -683,    497,  -2423,  -1402,  -5190,   6082,  -2095,   1219,    945,  -2279,  -5485,   2201,   7483,  -2822,    -98,  -1220,   -355,  -3754,   2354,   6243,   2714,   4305,   1128,   1871,   -587,  -3290,   1424,  -2913,   -611,   4093,  -3233,   1352,    287,   1819,   1991,    706,  -1198,   -555,   3334,   4053,   2121,   4563,  -4248,   5208,    701,    606,   2426,   -654,  -1820,  -3108,  -1277,   3335,    507,   3424,  -4328,   1510,   2192,  -6778,  -3496,  -3375,  -3701,   2908,  -5862,  -1661,   3643,   -268,   1389,  -2031, -10695,   -670,   1516,  -2724,    964,  -2457,   3686,   4053,  -1690,  -2243,   2814,   4081,    856,  -6889,   2241,   1699,   1817,   5274,  -6168,   -345,  -5671,  -3925,  -2924,  -5879,  -3053,  -1483,    952,    160,  -4049,   4188,   3185,   -165,  10895,  -1334,  -5163,   2160,  -3437,  -1685,   2078,  -1197,    638,   6354,   2469,   1281,   1782,  -1939,  -5977,  -2936,  -1904,   -223,  -1656, -10937,     88,   1199,   1791,  -4518,  -1573,  -3369,  -1358,   2850,   1468,  -2854,  -7065,   -541,   3424,   1038,  -1172,  -3311,   -391,   -901,   1538,  -4780,  -1749,   5044,  -2970,   2926,    103,   1229,  -1488,   -506,  -1566,  -1151,  -2906,  -4681,  -1954,  -1756,    821,   5379,   -526,  -1535,  -3897,  -2612,   3851,  -6909,  -4145,    -53,   2212,     90,  -1684,   2639,  -1832,   4195,   2850,  -5990,   -885,  -4432,   -304,   3257,   5288,   -372,    112,  -4036,   2944,   3465,   -553, -11816,   2256,  -7784,   -720,    196,  -2320,    248,  -3545,   1295,  -1404,   -920, -10244,  -5901,   6712,   1171,  -1075,   9318,  -2076,   3166,   2100,   9413,   -727,   8389,  -4568,    112,  -2082,  -2363,   -446,  -2483,  -7336,   3862,  -8002,   2653,    908,  -4308,  -3258,   6720,   -161,   1295,  -1537,   3660,   -574,  -4288,  -8788,  -1684,   3052,   4625,  -2915,   3714,   -942,   8703,  -3286,   4428,   3464,   7352,  -7982,  -1268,  -6157,  -2967,   1176,  -1074,    851,   -659,   -891,   2657,  -1628,  -6265,  -4779,   2463,  -7771,    326,  -3061,  -1804,  -3811,  -1810,    194,  -5590,    224,   4955,   3610,   5578,  -3805,   6625,  -8459,  -5889,  -3500,   2446,  -4959,    754,  -2638,    303,  -7294,  -5118,   1115,  -3812,   3615,   6703,   3405,  -6578,  -2052,   2815,    189,    629,   2801,  -6962,   4805,  -3791,  -4228,   1952,   1211,   1106,   5041,  -6567,   4405,  -3223,  -3697,   1924,   2617,  -3702,   -806,  -2838,    480,   5056,    420,    603,  -3751,   1717,  -2371,    448,  -3516,   3406,  -3969,   9139,  -2250,   4752,  -1504,  -7263,    614,    183,  -8302,   4707,  -2754,   2948,   5177,   4443,    132,  -4224,  -1524,   2904,  -2452,  -4204,  -3109,  -3831,    506,   -478,    457,   -150,   3636,   -570,  -3870,   3733,  -1973,   -906,   -650,  -3836,   2527,   -296,   5914,   2401,
          1527,  -2248,  -7865,   6102,  -1698,  -3621,   6408,   2697,   4395,   2100,   2509,  -1795,  -3968,   6108,  -4676,   -154,   2137,   -630,    626,  -2398,   1036,    821,  -2858,  -2830,  -1477,   2749,   1294,   3057,  -3487,  -3094,    446,   2688,   1727,   2266,   7022,  -2315,   7640,   2364,   2726,   4621,  -4011,   -342,  -4526,  -2876,  -1597,   5099,   1358,  -4179,    533,    667,   1497,  -2051,  -4984,   -570,   2180,   2441,  -1445,   2133,   3377,   2374,   4307,   2758,   -265,    294,  -3526,   3373,   2686,    928,  -3648,  -7630,  -9219,   -163,  -6240,   1225,  -1645,  -3004,   1785,  -1735,   -725,  -1835,  -1564,    469,   2488,   5860,  -1876,   3582,   2963,  -4292,  -8619,   1278,   1357,  -4617,  -1626,   3679,  -5792,   1413,  -2384,   5396,   8676,   -841,  -6354,  -2642,  -3493,  -4050,  -2225,  -6454,   3334,   4894,   1609,  -5035,  -1927,  -2016,  -2792,  -1887,   3341,   4086,  -4588,  -1986,    519,  -1739,   -234,   1355,   4550,   2215,  -6307,    913,   2566,  -4722,  -2402,   -168,   -167,   1636,   2496,  -3723,   1344,   5457,   3313,  -2530,  -2662,  -2496,  -4310,   -376,   -580,   2451,   4585,  -2550,   -762,    716,    397,   5267,  -2871,  -4888,    382,   1305,   3976,  -3320,  -1310,   1854,   -346,  -1937,  -4372,   3629,  -2232,   -449,  -2421,  -6143,  -3109,   1253,   -391,   1377,   3581,  -3465,  -2930,   -991,  -2748,  -4603,    386,    855,  -2119,   1029,    523,  -4787,  -5956, -10662,  -2082,  -3830,   4486,  -6443,   1685,   3020,  -3260,  -2244,  -2316,   3682,   6774,    -77,  -8237,  -6709,  -2876,  -4588,  -1059,  -2162,  -3694,   4721,   3102,  -8393,   3459,  -4307,  -6727,    370,   4624,   3387,  -1081,  -2967,   1245,  -7590,  -2461,   3824,   1674,  -3963,  -6772,   4345,    219,  -4179,  -4784,  -7501,   6110,  -2219,   -896,  -1890,  -7504,   4044,  -6306,  -1958,  -2658,   3715,   2740,   2485,  -2267,   2039,  -8381,  -3369,  -1315,   2843,   2169,  -2057,   1694,  -4276,    585,   -843,    -47,   1410,   1860,   6965,  -3957,  -1115,    910,   1478,  -4455,   2656,  -3567,    486,   -304,   1116,   2571,   2239,   4952,  -1697,    256,   3823,   -350,  -9169,  -6835,  -4744,  -8247,   4683,  -5453,    667,  -1642,  -6159,  -6622,   2898,  -3047,  -3427,   -694,   2104,  -1847,    575,  -4974,  -2625,   1274,   3122, -10126, -10919,   -857,  -7208,   4281,   5508,  -1918,  -3568,   3378,   1303,   2966,  -6056,   3491,  -1148,  -2388,   1876,    -40,   1237,   2835,  -2700,   2832,  -3003,  -1566,   3853,    375,   5085,    488,   1498,   1180,  -4064,  -2635,  -1410,  -3463,   3210,   2232,  -1320, -12522,  -6584,  -2791, -10853,  -1049,   -356,    509,   1011,    747,   3033,   3228, -12127,  -2968,  -4754,   3468,  -3262,  -3135,    954,   3061,  -8492,  -3028,  -1586,  -5752,   3704,    662,  -3653,   1679,    274,     31,   6896,     87,   5784,  -5904,  -9216,  -1289,  -3396,   4189,  -7541,  -4389,   3688,   -495,  -4856,    189,  -5414,    152,  -4259,  -3028,   4154,   -679,  -3397,   2856,   -147,  -3292,  -2801,   3243,  -3265,   3494,  -4426,  -5120,   1690,  -6753,  -2050,   -591,  -2384,  -3805,  -6687,   3869,  -2217,  -1536,  -5272,    405,   2624,    274,   2749,  -2313,  -1102,  -1718,  -6655,  -2544,   -330,  -5762,  -3209,    905,  -3592,    -27,  -9013,    -64,    733,   3534,  -4561,  -3249,   1846,   2249,   1538,  -7733,   4621,  -8342,    647,  -3816,   4228,   3570,  -6265,  -3593,   4689,   5719,  -4062,  -2975,    292,  -4247,    763,   4425,  -6915,  -6389,   -999,   3950,  -3540,  -2794,   6248,   2975,   1223,   -214,  -1162,   -314,  -2681,   4497,   6765,    -14,  -2106,   -118,  -4414,   3800,   4239,  -4084,  -3129,   2329,   6778,  -1659,  -1130,   2001,  -2353,  -2556,   -162,  -1849,  -4668,  -6628,  -3264,   1456,  -3248,    487,   1065,  -2067,   2275,  -2640,  -2365,    394,   -837,   1356,  -3359,  -5520,  -4052,  -2405,  -3082,  -1537,  -4067,  -2465,   1291,  -3629,  -6267,   2086,    414,  -3899,   2029,   3590,  -3253,    967,    446,   4370,   1223,   5624,   1205,  -5277,  -5258,    199,  -1062,
           435,   -689,   4703,    674,   4590,  -3695,   1576,   4755,   6441,  -2459,   2796,   4267,   3620,   1991,   1000,   1485,  -2618,  -2687,    180,  -1859,  -3143,  -4243,  -4329,  -2983,   5893,  -2876,  -4275,  -5486,   1672,   4354,   -718,   3240,  -3617,  -2128,   2110,   2805,  -5784,   2891,  -5008,   6525,    887,   1111,  -4086,   4476,  -4477,  -5114,    -41,  -3381,   2921,    266,   1362,   2055,  -2706,     16,  -6232,  -4070,   3852,    444,   3485,   -257,   2269,   2240,   1995,  -1905,  -3911,   2697,   -378,  -1454,   1362,  -3451,  -4297,  -6235,   5539,    717,    554,   -848,   4147,   2777,   -323,  -1896,   -251,    766,  -2455,   -947,    -98,   -537,   6949,   7185,   5438,   -270,  -2670,   3296,   1974,   5445,  -4882,    622,  -1382,  -3990,  -1403,   -567,  -7995,   4278,   1244,  -1133,  -3584,  -6014,   1068,  -1723,   2578,   1636,  -4733,   1937,  -1302,   -779,    874,  -6180,    997,   2384,  -2881,  -2506,  -5616,   -767,   -716,    909,   2526,  -3858,  -2488,   4114,  -2766,   -209,   -215,  -1324,  -3881,   1709,  -5226,   3324,    955,   5108,   2184,  -2585,   2180,   4190,  -2874,  -2488,   4881,  -3978,  -4534,    647,  -2829,   4913,  -1046,  -2978,   1203,  -5229,   1755,    -74,  -1993,   2091,    651,  -4655,    187,   3951,  -2781,   3984,  -4754,  -6240,  -1782,  -4359,   1583,   -766,   4500,  -8221,   -395,  -1164,    121,  -4279,  -1071,   1257,    563,   2983,    746,  -6220,   3016,  -9591,   1319,   2645,    333,  -3046,  -3172,    577,   2895,   2319,   -448,   -996,  -1054,  -5765,  -4413,   -247,  -1835,  -2462,  -3838,  -1045,   3170,   1662,   1259,  -3130,  -3830,  -1884,  -2603,  -4819,  -2451,  -2817,   3558,  -3838,  -4813,   1872,   8476,  -5271,  -2720,  -2955,  -1477,  -8009,  -5457,   -869,  -2193,  -2981,  -5647,   2797,  -2452,   2342,    -46,   3215,   -521,   4094,   -415,  -4905,   4076,   2976,   1113,  -3602,  -3994,  -1102,  -1296,   2879,    295,  -5868,    457,  -4606,  -6400,  -3491,  -1889,   1843,   5385,   1176,  -4836,  -4628,   3946,   1842,  -1346,  -4057,   3963,  -5978,  -1673,   -741,    -55,  -4548,   2443,  -6707,  -1544,  -1639,    748,  -5643,   2048,  -2896,  -1409,   -546,   1752,  -1966,  -3817,  -6404,  -8217,   -789,  -1608,  -5485,   -956,   -442,   1045,  -1781,   2211,  -1659,  -4225,  -3989,  -4047,   1406,   1199,   3297,  -4582,   -448,   -517,  -2712,   3832,   1270,   1299,  -4400,  -6441,  -4069,  -5056,  -4561,  -5738,  -2758,  -7163,  -7409,    398,    516,    967,    724,   1213,   4239,  -2391,  -3028,   2742,   3508,   2468,   3016,   -148,  -2174,  -2118,  -1340,   1444,   3726,   4550,  -6518,  -2398,   5091,  -5621,   1240,  -4945,   1416,  -7796,   -434,  -6147,    477,   2839,  -3074,  -3753,   1933,  -2069,   4188,  -5894,  -2042,  -2097,  -2939,   2324,  -3845,   2695,  -1139,   5583,   -780,  -5982, -11192,   1565,   2055,  -3191,  -5290,   6706,   6325,  -1001,  -3413,   7072,   -371,   2875,    987,   2779,    722,    738,   -211,  -7212,  -1276,   6379,   3315,    662,    225,   3356,  -6309,   4845,   2619,  -4473,   3947,    493,   1171,  -3034,  -4206,  -2590,   4021,   -968,  -4089,   1803,     42,   2800,   3150,  -2573,    382,   3313,    468,   3752,   4339,  -6932,    837,  -3260,  -5815,    861,   1599,   -997,  -3129,    683,  -3596,  -1855,   -261,  -3073,  -3640,    269,   3658,    -46,  -3373,  -3594,   3029,   3016,   1304,   -254,  -5945,  -2681,   -366,   1734,    425,   1674,   -911,   2105,  -3167,  -3917,  -2360,  -6327,  -2611,  -4325,  -5263,   3241,  -5699,   4935,  -3493,  -4203,   1551,   1497,  -3841,   -470,  -2144,  -1658,   -168,   1977,   7360,  -1437,    242,   2103,   1508,   -256,  -4445,  -4466,   3842,   4021,   2869,    726,   5548,  -3985,  -5109,   4638,   2932,  -3386,  -6170,    655,  -3888,    307,  -2540,  -3145,   1771,  -4335,   1490,  -1536,   3279,   5022,    720,  -5458,  -2070,  -3348,  -2625,   2177,  -1809,  -5431,  -2690,    905,   1624,  -5508,    813,   1722,  -3714,   1969,   4539,   1814,  -2210,  -2526,  -6920,  -3565,    734,   1019,   -718,
         -4865,  -6069,  -1925,  -1117,   7076,   2836,   4389,   5055,    815,   5117,  -1299,   -896,  -5046,   3286,  -2885,   5387,   -800,   1642,  -5745,   2927,  -5156,  -1134,  -4888,   -105,   7271,  -4251,    719,    733,  -4223,  -1371,   3711,    872,  -1047,   3209,   2921,   1393,  -3378,   2249,    480,   5197,  -6304,    360,   1200,   2111,   -794,   -983,  -6868,    944,   1955,   2238,   2478,  -3701,   2928,   4869,  -4063,  -1533,   1719,  -6535,  -4433,   2066,  -1190,  -3751,  -6613,   4915,  -3919,  -5631,    209,  -3139,  -1895,  -5721,  -3461,   4503,  -6580,   -172,   1431,  -2140,    386,  -1600,   2990,  -6016,   4424,   3533,  -5745,   -316,   2214,  -8598,   5231,  -4684,    629,   3747,  -5175,  -1632,   3360,  -6490,  -2105,   4510,   3070,    -80,   3260,   -150,    502,  -4696,  -1662,  -3214,  -5936,  -3020,  -3991,  -2679,  -4017,    970,  -5959,  -5882,  -1140,    523,  -1083,  -5558,    967,  -2184,   1757,     49,   -216,   1531,  -3738,   3915,  -1013,  -4590,   3283,   3992,   -483,  -4698,   2505,    306,   3144,    707,  -2577,   3442,   1053,   2764,  -1828,   1349,  -1631,  -6030,   2856,  -6177,   4306,   1937,    459,  -7388,  -1136,  -5326,   4385,   -490,    276,   -275,    478,     49,   -180,  -5996,   -844,   3736,   2134,  -2901,    629,  -2734,  -4973,   3992,  -2990,  -1918,   1069,    783,   5564,  -4880,   2356,  -1000,   1352,    780,  -3017,   3060,     71,   -950,  -2474,   5658,   -323,   6189,  -8151,     -9,   5545,   1793,   4178,  -1915,   2551,   1285,  -1727,  -2628,  -2199,   2571,   1296,  -1004,   1421,    248,   -151,   3755,  -3173,  -2358,  -5806,   3619,   4453,   5863,  -3062,  -3631,   1076,  -5582,   -196,  -1476,   3284,   -658,    993,   -928,   -652,   3169,   3513,   1614,  -4547,   1541,    162,   2293,   3145,  -6040,  -5801,  -3270,    490,   1529,  -3174,   4839,   1602,  -2974,   2910,    -52,  -1111,   3402,  -2756,   2921,  -2844,   -151,    302,  -3430,  -5908,   2966,   2087,  -4647,   2155,  -6081,    226,  -6040,  -5578,   4339,  -3402,    179,   4638,   2170,  -1389,   5039,   -717,  -4249,   4342,  -2207,  -5412,   3220,   2868,   -536,  -4795,   3944,   2329,  -5388,  -5633,   4829,    370,  -4125,    287,   -781,   -839,   4122,  -1502,  -2985,  -4926,   3067,  -2357,   1315,   2317,  -4130,    412,   -946,  -3682,    971,   1141,  -3374,  -4902,  -4672,   -783,    227,  -6159,  -1902,  -2627,  -1839,  -3966,  -5521,  -1454,  -3456,   4316,   3987,  -5106,   -331,   4597,  -2165,   2266,  -3822,  -4787,   4537,   1949,  -3683,   2655,   1801,   2568,  -2655,  -5290,   1093,  -4902,  -4346,  -1791,   2572,   2659,  -2977,  -4185,   -562,   1122,  -4542,   3314,  -2792,   -170,   4178,   2341,   -409,    407,   1268,   2642,  -1576,  -1148,  -2517,   1698,   3414,   3925,   4932,  -3020,  -5009,   -864,    639,  -6944,    407,  -4910,   1956,   2140,   1452,   2320,   -606,  -5830,  -3034,  -2853,   3777,  -1190,    845,  -3885,   -428,  -2784,  -5580,    212,  -2996,  -2770,  -3367,  -2195,   3394,  -1652,  -4029,   4052,  -3540,  -2071,    220,  -4824,    562,   5498,   -212,   2106,   2023,   1200,    355,   1193,   3512,  -3231,   -795,   5003,  -1868,  -3180,  -4014,    589,  -3203,   1654,  -5696,  -4335,  -4798,   2307,  -2489,  -3540,   1157,  -5214,  -2241,   1736,   -826,  -2158,   3710,    411,  -2026,   3441,  -2172,  -4223,  -5902,  -1485,  -1268,  -2368,  -6230,  -4009,    668,  -2248,   2215,    392,   2259,  -5820,  -1790,  -2476,    852,  -5981,   3271,   1756,   3623,  -6083,   -925,   3442,   3478,   1626,   2293,  -2143,   1844,   8433,   6197,   4222,  -2566,    357,  -1225,   -227,   1986,    645,   -422,   1361,   8055,  -1785,   4980,    674,  -1138,   2187,    994,   1141,   3859,  -3819,  -2346,   -113,   2349,    599,   4169,   3738,   3323,   2830,  -2230,    166,   -931,   1706,   1360,   5892,   1619,  -9703,  -8914,   1683,    817,    633,   9043,  -3115,  -2769,  -2520,  -1739,  -3651,  -1074,  -1678,   2852,  -1398,   6300,  -3984,   -437,    189,  -3820,  -5287,  -1389,      3,    208,  -2055,   2247,
         -4283,   -708,    667,    107, -10796,  -6880,  -2997,  -7173,  -1717,  -1477,  -9835,   2603,    824, -13563,  -2704,  -1928,  -2851,    465,  -7335,   5718,  -2720,   3106,   -321,  -9954,  -2409,  -2958,  -7146,  -2752,  -2312,   2565,   3117,  -5973,  -1949,  -2040,   -328,   -703,   5322,   3254,  -5715,   4878,    346,   2654,   3874,   2522,  -2094,  -3325,  -2600,  -1633,   3178,   1789,  -3005,  -6605,   3116,   2872,  -7000,   4126,   2176,  -1094,  -1678,  -8567,  -4776,   1487,  -1242,  -2314,   -775,   1921,  -5515,  -3438,  -8187,   -847,   1628,   4400,  -4118,    886,  -7082,   4118,  -6109,  -3416,  -6658,   3268,  -3512,   4088,  -5080,   2613,   3614,   4016,  -8857,  -7788,   -557,  -2339,  -3237,  -2315,  -6884,   3802,  -2098,  -1929,  -1313,  -1183,  -7201,   2294,  -5087,  -4400,  -2607,  -8204,   -283,   2628,  -2038,   4862,   -200,  -5253,  -4339,  -3525,   1498,  -5159,  -3548,   -710,  -6124,   3576,   -755,  -3166,  -1847,   3140,   1493,  -5609,  -2304,   3611,   1157,   -337,  -4545,   1350,  -6116,  -4036,  -3974,   4041,  -6623,   3855,  -2388,   -731,  -3770,   2015,   -649,    595,  -7563,    254, -10338,  -9097,  -7106,  -2703,    956,    131, -10616,  -6019,   1750,    988,  -2914,  -2962,  -7929,  -2584,  -4162,   -755,  -6839,   -184,   1472,   3969,  -3742,   2197,   2349,  -2609,  -5987,   1242,   1411,  -2658,  -4594,    434,  -4233,  -2390,  -4059,  -3989,   2181,   1058,   2349,   1896,   -508,  -5344,   1837,    -29,    778,  -2740,   -943,  -1659,  -5768,   5821,  -4062,    353,  -2128,  -6903,  -4444,     51,   2365,   2944,  -3836,    -57,  -3189,   1528,  -5993,  -5524,  -2878,    273,   -454,  -9075,  -1039,   4584,  -2292,  -1421,   1731,     23,  -1549,  -4699,   2390,  -4397,  -9217,   2203,   -283,    841,  -4919,  -1974,    427,   -677,   -759,   2102,   4181,  -2304,   -651,  -3189,   1891,  -2887,  -3732,    657,  -3212,   -398,    618,   1159,   4296,   1284,  -1470,  -3705,    -25,   3511,   1963,   1999,   1956,  -1017,  -2100,    739,   -425,  -3242,   1236,  -1241,   -764,  -4947,   2028,  -4274,  -3302,  -2918,    892,   2172,  -3021,   2515,   1437,  -6285,  -2071,   4256,    152,  -5417,   4208,   -957,  -2957,  -5725,   1018,  -6607,   3108,  -2802,    672,    209,  -2438,   -156,  -2954,   -910,   1027,   2206,    556,  -5845,  -2702,  -3777,  -2694,  -1445,  -4030,  -4580,  -1914,   4716,   4291,  -4560,  -3860,   5191,   1378,   4108,  -4763,  -1389,  -2730,   3413,  -2872,  -1048,  -2746,  -5752,  -3988,   2550,  -5442,  -1477,  -1216,  -4222,   1384,   1640,   5289,  -2955,  -2719,  -3455,   1775,   3282,   3642,   -172,   1196,   2837,  -1741,   1981,  -3093,  -1778,    508,  -5388,   -172,  -4984,   -534,  -1718,  -2014,  -2434,   6067,   5072,   3322,  -6736,  -1475,    329,   4483,   1994,  -5496,  -3670,  -6065,  -2326,   7262,  -2643,   1264,  -5425,   4545,  -4260,   -180,  -4964,  -3821,  -4055,   1155,   3297,  -3486,   -804,   -762,  -2468,   -620,  -1918,   3614,   -607,  -5411,   3384,  -5449,  -3022,   1465,  -2349,  -3323,   2284,  -4897,    -30,   5531,   2200,   4605,   -816,  -2765,  -6010,    -41,  -3575,  -3911,  -1598,  -2780,  -1208,  -3324,   -876,   2032,   3369,  -6309,   1340,  -3139,  -1210,    334,  -3252,   2245,  -1459,  -4850,   4374,   3427,   -251,   2714,  -5305,  -3920,   -464,  -2644,   -529,  -5118,   5640,  -2278,   3190,   -532,  -2514,  -5635,  -2092,  -1872,   -269,   3143,   1132,  -1858,  -1304,  -4528,  -4551,   -106,   1317,  -6551,   1619,  -1115,  -3144,  -1533,   1793,  -5014,   6936,   2613,  -4631,   1209,  -5341,   1812,   1565,  -5632,  -2676,  -1398,   3365,  -1237,   2335,  -4249,   2410,   1961,  -5399,  -4375,    652,   -384,   4576,  -1041,   5363,   2656,  -2715,  -5318,  -2484,   2536,  -4969,   2112,   2842,   3289,   2834,    213,  -2313,  -5466,  -4299,  -4667,  -5302,  -4006,   2231,  -4239,  -4868,   4106,  -1764,    772,  -4997,    773,  -6375,  -1576,   2488,  -4789,  -4013,  -2060,  -2235,   2002,  -2463,    627,  -3864,   3438,   1430,  -3124,  -2604,   2299,   -868,  -7100,   1505,
         -6275,   4261,   2637,  -2041,   6421,  -2064,  -8047,   2974,   3537,   1266,  -3290,   1923,   3277,   1849,  -2356,  -4074,   1311,  -5233,  -3269,  -1040,   2269,   2463,  -3192,  -5752,  -2587,  -4583,   -481,  -3776,   3421,  -7711,  -9120,   -909,  -1834,  -8736,  -3614,   2906,  -1999,   3087,  -2601,   8956,  -2751,   5220,   4542,  -1628,   5937,  -1812,  -3087,  -3984,  -3258,   5309,   -289,    974,  -6570,  -5799,   3873,    559,   5316,  -4906,   -926,  -6571,  -1525,    -50,  -4368,  -1170,  -3816,    331,  -1745,  -5180,   2993,  -1477,  -1354,   3251,  -2015,   9340,   1916,  -3922,   -667,   -396,  -6710,    717,   1798,   1908,  -2554,   2227,  -3712,   2822,   -439,  -6791,   6689,   3670,  -1726,  -4478,   -819,    671,   1623,   2959,  -1193,   -734,   1374,  -2106,  -3758,   -286,    429,   6274,   2596,  -6685,  -5346,   8913,  -4333,  -1161,   4339,  -1267,  -5764,  -5609,  -4938,   3612,  -2610,   -959,  -5017,  -2598,  -4331,  -5680,    388,   -592,  -7215,    639,   -906,    213,   5906,  -9780,    388,  -1229,   5263,   2906,   1812,  -2334,  -1839,   3072,  -3371,  -4329,  -2919,   4402,    183,  -6132,   6910,    427,  -2844,  -3116,   1445,  -5657,   5251,   3660,   3442,  -1310,  -5137,   2259,  -1332,   1315,  -3402,  -3405,   -640,  -2697,  -5713,   -320,   6844,  -7150,  -2749,  -3515,   5353,  -8739,   -374,  -3455,  -1446,    509,  -1715,  -8455,    189,    586,  -7185,   2013,  -5477,   1220,    787,  -2887,   3207,  -2443,     53,  -5567,  -1129,  -1706,  -3752,  -2895,  -4057,   2614,    272,   1100,     98, -10414,   1652,   1307,   7845,   1261,   2996,   1448,    -29,  -3444,   5669,  -3791,  -5715,  -4252,  -4326,   8163,   2104,  -1838,   1191,   1995,   -688,   1178,   2383,   2731,  -2353,  10752,  -1612,  -1615,   5432,   2143,   4365,   -954,  -5928,  -3957,  -1403,  -5966,   2597,  -2878,  -2765,  -4709,  -2548,    121,  -1199,  -1806,   2553,  -5029,  -5568,  -2708,   4223,   5364,   1703,   4555,   6015,  -3825,   -510,  -5140,   4100,   3907,   4561,   3108,   -851,  -1891,   3730,   2085,   1095,  -2189,  -8008,   7101,  -1980,   -144,  -2238,   2008,  -2070,   4740,  -5726,  -2556,  -5270,  -2810,  -7048,   3451,  -5400,   3844,  -1730,   1830,   5214,   1609,   -918,  -3967,  -2429,   5100,    578,  -4149,  -6719,  -1140,  -5194,    999,    637,  -6044,     86,    626,  -5741,    895,   3369,  -2055,    669,  -1180,    807,   -945,  -2526,   2932,  -4898,  -1236,  -5117,    859,  -3768,   1299,   1110,   -941,  -3408,  -1323,  -6721,  -4714,    605,    173,    423,   4904,   -345,    209,  -6150,  -4155,   2460,  -1326,   -776,   3459,   4000,   5019,   -188,   4738,    763,  -4556,  -3034,    667,   3631,   4220,  -3210,    474,  -5054,    727,   2212,  -2544,  -4276,   3434,  -5288,   5401,  -2298,  -3531,   -923,   4394,  -3566,   4400,   2214,  -6416,   -914,  -6151,   1167,   5271,  -3788,  -3831,   3853,    986,  -1390,  -3545,  -5477,   -998,   1419,  -5819,   4447,  -5764,  -1183,  -2717,   2501,    509,  -6553,  -2062,   1586,  -6450,   1536,  -5587,   3753,    365,  -6215,  -4944,  -6144,  -4806,   2547,  -1124,  -4903,   1953,  -2516,  -2576,   -509,  -4159,  -5479,  -4364,  -1263,   2787,  -2754,  -3160,   3852,   2562,  -3356,  -2241,  -4313,  -2096,   2629,  -1528,   3201,    504,  -3629,    996,  -5626,   1726,   2627,  -2121,  -3238,  -3502,  -5481,  -1829,  -2217,  -3511,   3872,   3585,  -3342,   5639,  -3717,   1268,   2130,  -1413,   3482,   2860,  -4836,   1268,  -4478,  -1285,  -3241,  -5394,   4547,   4018,  -5258,  -3840,   -652,  -6249,  -3400,  -4857,  -4114,  -1875,   3047,  -1985,   -837,   3909,  -4166,    309,  -3934,  -4625,  -6406,   5320,   6062,  -5546,  -3844,   3442,  -2895,  -5553,   2399,  -1220,  -3807,    125,  -3669,    538,  -2565,  -4787,  -1155,   3385,   1092,  -1797,  -1368,   -474,  -2155,   -808,  -5028,  -5655,   1784,  -1941,  -1773,   -720,   2045,   -436,   3343,  -6326,  -5418,    259,   -352,  -1875,  -4633,  -1113,  -6243,  -5823,  -4762,   1731,   3449,  -4862,  -1934,  -3213,   1900,  -4414,  -5282,  -5539,
         -4203,  -3390,  -2766,   4617,  -4469,   1068,   1922,  -4149,   -807,   1112,   1761,   -717,   -843,  -1512,   4351,  -2297,  -3185,    632,  -4519,   5258,    290,  -5023,   3736,  -1523,  -3080,   -738,   1298,   2073,  -2187,   -612,  -4808,  -4849,  -1631,  -3974,   3221,  -3082,  -4743,   2823,  -2486,  -6116,  -1490,   3193,  -4227,  -1646,   2532,   5264,  -4665,  -2063,   -511,  -5234,    758,   1459,  -4565,  -4835,  -3299,    653,    181,    434,    412,  -6050,   -478,   5739,  -2219,   4840,  -6272,  -1690,  -3324,  -4707,   3049,  -7469,    -92,  -2650,  -4898,   -443,   -909,  -3552,   -398,   4651,  -4620,   2258,   3691,   -106,   1273,   -606,    967,  -4211,   3118,   3867,    852,  -4604,   3528,   6182,  -5740,  -3796,  -2883,   2248,   1344,   2976,   1514,   -824,   -769,   1670,   3166,    604,   1447,  -4996,  -2866,   4364,   3584,  -2042,   -744,    104,  -5630,    -40,  -2327,   -274,      8,  -2422,   -591,  -2337,  -4510,   2955,   2776,  -3320,    410,  -3556,  -5108,  -1760,  -4876,   4294,  -1349,  -4422,    733,   2083,   2964,   1537,  -2856,   3740,    835,  -1482,  -6738,    149,   2019,  -1555,    499,    813,  -5319,   2206,    617,  -5075,   4980,  -4589,  -4213,  -2839,    474,  -5467,  -2999,  -3634,  -3057,  -2922,   1005,   4105,  -2182,   1724,   -461,  -4029,  -1278,   1453,    640,   1812,  -3530,  -5343,  -4549,  -1473,   1231,   1002,  -1812,   -565,    493,   1625,   1308,   2521,  -7229,     44,  -6132,    622,    920,  -5410,  -4745,   4824,  -1183,  -5279,  -1692,  -1970,  -3982,  -2706,  -1641,  -5561,  -3040,   3031,   4585,   2329,  -2084,  -1728,   1703,   6655,   1080,  -4336,   2502,   -668,   -658,  -4618,   3337,  -5899,  -5103,   1851,   2811,  -3615,   1320,   1337,  -5798,  -5366,  -6051,   3243,  -2710,  -5360,   4380,  -2738,   5652,  -5983,   2593,   -387,   5009,   7323,   4291,   3086,   3824,   -894,   4750,   -384,   1109,   5029,   3277,    -83,  -5196,   2436,  -1394,  -5172,   7115,   1996,  -3496,  -2622,  -2214,  -3277,  -4537,   3973,   -460,  -2464,   2005,   2426,   4633,  -5765,  -6521,   2415,   5185,   3996,  -5653,  -5219,  -5586,  -2557,  -2563,   2942,  -3126,  -1479,   1170,  -1223,    319,   1525,   5251,   5178,  -2167,   1183,  -6058,   2320,   2799,  -5290,  -2941,   1185,  -7617,    773,   -488,   -955,   4663,   -311,   2374,  -1705,  -3254,    257,  -3250,   -581,   3284,  -3047,  -4868,   1641,   4407,  -6578,   4024,    146,   1566,    863,    536,   5146,    -97,  -2661,  -3077,    -92,  -1518,  -7702,   3275,  -2912,  -4370,  -5675,   1071,   -870,   1071,   3662,   -588,   1565,  -4389,    -85,  -4399,   -204,  -4125,  -2402,  -1629,    273,   3377,  -4935,  -6144,  -5336,   4101,   -792,  -1546,  -4823,   9586,  -6014,  -1247,    457,  -2988,   1780,   1295,  -6056,   5109,   3410,   2268,    203,  -2933,  -6005,    957,  -4574,  -1470,  -1580,   -481,  -7080,   2985,   9712,  -1882,  -5022,   3160,   3231,  -4875,  -5413,   3200,  -3996,  -4399,  -1871,    571,   1219,   3215,  -5784,  -2255,  -3952,    210,   2526,  -2069,  -1029,  -2975,  -1291,   3831,  -3464,  -3533,  -3147,  -3084,   5823,   4185,  -1553,   -590,   9758,  -1150,   1424,  -1798,   1850,    677,   -683,   3625,   -976,   1708,    896,   6411,   3284,    -50,  -7138,  -5840,   1220,   -652,  -3263,  -1293,  -3023,   3749,    161,  -9347,  -2871,  -3069,  -2878,    452,   5165,   1005,  -3624,  -2675,  -3464,   5902,   -450,  -5077,   5991,   -978,  -6288,   1315,   5065,   2959,    860,   1659,   -759,  -2559,   -775,  -1993,  -3043,  -1137,   1766,   -511,   3433,   6438,   -516,   -457,    382,   -116,  -1542,  -4446,  -1649,    625,  -5134,  -1258,    966,  -4899,  -1631,  -2235,  -4210,   4305,    151,  -5111,  -3566,   4843,   2082,  -4369,  -2903,  -2266,   1022,   4323,  -3546,   2094,  -5165,   2844,  -3064,   2405,  -6104,  -7466,  -2722,    989,    466,  -6680,   5053,  -3046,  -2544,   1050,   4230,  -4659,  -2781,  -4363,   2749,  -3901,  -2219,  -3361,  -6535,   2602,  -2273,  -6319,   2688,    926,   2601,  -1683,   6372,  -5160,    908,
         -1237,   4266,   3831,  -4403,  -5227,  -6576,   1616,    508,  -5417,   1676,  -4349,   -392,  -1387,  -1598,     -8,  -1399,   2593,  -5008,   3525,   2026,   4271,  -4025,   -683,  -1218,  -5278,   4718,  -3416,    742,  -4442,   4501,    294,  -4442,  -1320,    644,   7056,   1720,   1594,  -3106,    -65,    294,   2058,   5324,   1783,  -3633,  -5418,   3813,   -885,    437,  -3489,  -2078,   -490,   1424,  -6336,  -6275,   4986,  -4379,  -3934,   4308,  -5235,  -4910,   1466,    802,   2930,  -1331,  -4294,  -3088,  -3576,    993,  -3106,   3421,   2924,  -1969,   5964,   8206,   1836,  -1276,  -5505,  -3688,   3860,    188,  -1489,   3577,   3793,   -931,   3240,  -1468,  -2304,  -1155,   6524,  -1961,  -4975,  -4617,  -6941,   2662,  -5222,   1082,  -2105,    658,   -753,  -5105,  -8058,  -2782,    894,   3492,   4983,   2277,   -169,  -4635,  -4147,   2726,  -2781,  -2329,  -4205,  -5718,  -1201,  -2887,  -3535,   4003,  -5619,   2863,   4964,   -455,  -2323,   2574,  -2147,   1904,    938,    314,  -1017,  -2244,     83,  -1851,  -3464,   7306,  -5406,   1195,  -9362,    344,  -3338,   -847,   5015, -10036,   2972,   1969,  -8481,   5268,  -1614,  -1954,    807,   -427,  -3648,  -2293,   -804,   -415,  -4123,    363,   2359,  -1925,  -1754,    104,   -238,  -2976,   3307,  -3272,     33,   2231,  -2041,   2967,   1288,   5155,  -2510,   -451,  -2221,  -2624,    448,    130,   2992,   1784,  -4203,   -702,    453,    970,  -1153,  -3119,  -5411,   1519,   3392,   2427,   1627,   2212,  -1539,  -2346,  -2221,   4021,  -5716,  -3470,  -1118,   1430,  -3665,   2020,  -5698,  -4203,   2059,   1803,   3770,  -1099,  -2157,  -1131,  -5825,   -675,   3339,  -4508,   3963,   -811,  -5909,   1019,  -4596,    596,  -2331,  -4995,  -3887,   2454,    -64,  -7578,     18,   -225,  -2963,  -1209,  -3360,  -4763,   2627,  -4369,  -5261,  -7372,  -1702,  -5481,   -916,   -857,  -3414,    282,    773,   2879,  -1733,  -2734,  -3840,  -4677,   2723,   6882,    924,   -216,   1423,   -898,  -3378,   -180,   2571,  -5095,  -8177,  -5026,   2064,  -4973,   2262,  -3701,  -1256,   1482,   1148,     41,   2083,  -5282,  -4549,  -3365,   5818,    539,  -4201,     38,   1615,  -3578,  -3636,  -2334,   1839,  -1218,   5751,  -3398,   -734,   -901,    279,   1609,  -5782,  -4516,  -2660,   2637,  -2420,   1778,  -4251,  -1378,  -5544,  -1120,   -242,   -260,  -1999,  -6980,   -467,  -8454,  -2441,    266,    762,   1126,   -652,   1559,   -572,   -526,   5280, -10437,  -4546,  -8084,  -3351,   -687,    714,  -2344,  -4070,  -4084,  -5607,  -5513,  -1172,  -2326,  -2964,  -5960,   3375,    396, -12485,   1343,    546,  -5404,  -1789,   2322,   -439,   -117,   -419,  -2848,   4842,  -1565,  -1042,  -8372,   1662,   -814,  -2629,   3162,  -2300,    730,   3044,   1363,  -3172,     37, -10910,  -4465,   7548,  -3677,  10119,  -5857,   1284,  -6369,  -4389,  -2068,  -3548,  -2416,  -5599,  -3764,   1021, -11143,  -1541,  -3711,  -4364,    499,  -2187,  -1978,   2296,  -4288,   5859,  -3576,    483,  -1844,   2108,  -4638,  -3402, -10634,    297,    -11,  -2923,   -545,   1775,   2356,   -836,  -1781,  -6212,  -3292,  -5631,  -6761,  -2463,  -2619,   2161,  -3185,   5637,   -585,  -7720,   2254,  -4349,  -7974,    835,  -1559,   -539,  -2267,   -346,   1381,  -4174,    864,   -574,   1513,   1515,   6229,  -2668,   4928,    697,   1026,  -2500,  -3148,   4660,  -3241,  -3518,    945,  -2087,   3532,   -985,    419,  -3027,  -4258,  -4642,   1253,  -4671,  -2690,   2716,   -741,   2705,   3853,   4544,   2770,  -5124,  -3830,  -4239,   3314,  -1822,    979,  -2309,   2724,  -1266,  -2702,  -4968,   -509,   3376,   6199,   2322,    272,  -6470,  -1308,   2689,   2657,   3379,   4987,   3111,   2482,    570,   5757,   3136,   6495,   3777,  -2003,   1107,   -346,  -4107,  -1963,   2899,  -2730,  -6816,  -3445,   -487,  -2264,   1443,  -1543,    423,  -5890,  -4696,  -5696,   1221,  -3694,  -3677,  -3461,  -3804,  -1290,   2976,  -5672,     43,  -5858,  -4396,    349,   6069,   -717,  -3978,  -5295,   1003,   3277,  -4209,   2570,  -5936,    442,
         -4833,  -2311,   1821,  -4775,  -1143,  -1342,  -7581,   4432,   2431,  -6415,   1481,   4880,    926,   6626,  -1626,   -832,    351,   3563,   -160,    805,   4407,  -4756,    602,  -5232,  -1155,   4147,  -4951,  -3917,   2444,   2620,  -2295,   -642,    694,  -5795,   1447,  -3613,  -5430,    -34,   2711,    -92,  -2102,  10158,  -2287,     93,    944,  -5239,   -650,   4345,  -4515,  -3482,  -1079,  -2492,  -4336,  -3777,    449,  -6948,  14204,    344,   -135,  -1686,   2544,  -3245,   1588,  -1831,  -6056,   3800,  -1680,  -1582,  -5331,   2150,  -2881,   -848,  -3901,   6978,  -6982,  -2180,   1038,  -1724,  -3610,  -5956,   3429,   2064,   2927,  -4116,   1891,  -2806,   -980,  -1599,    -13,   1428,  -2768,  -3782,   2461,  -3478,   3713,   1939,   -563,  -3210,   2202,   2756,   4495,  -7247,  -2433,  -2662,   6925,  -2218,   -650,  -2029,  -3515,   3872,  -5193,   2347,  -2966,  -3990,  -3202,  -4423,   2742,   2346,   -669,   5552,   -881,  -5308,  -2136,   6219,  -2467,   4061,  -3543,  -1534,  -6535,   2342,  -7355,   3072,  -6833,  -5058,    -65,  -2178,  -7089,    551,   -671,     14,   1218,   -276,  -7334,   1668,   1756,  -6727,    683,  -5758,  -7615,   2165,  -7569,   3627,   5044,   2391,  -6789,  -1557,  -4320,   2879,  -6099,  -1837,    777,   2827,   -825,  -5038,  -6096,  -2186,  -5770,  -3105,  -1260,  -6610,  -5431,   4283,   4129,  -7645,   3993,  -1277,  -4150,  -3891,  -3740,  -1085,   2716,    364,   3727,   -271,  -3185,   3741,   3735,  -4117,    969,   1780,  -3680,   3803,  -4961,  -5826,  -4046,  -2500,   3238,  -3430,     57,  -3354,   -851,  -1738,  -3175,  -1666,   -777,  -2212,  -3557,   4318,   1031,   -199,   2233,  -6381,   3617,  -2378,  -5022,  -1728,   1898,   1092,   3726,  -3751,   3798,  -2122,  -3705,   3017,  -2206,   2862,   1329,   -779,  -6688,   2108,   -984,  -2295,   1108,  -6476,    817,    533,    435,  -7298,   2073,  -4751,  -6670,   -876,   3387,  -1953,  -1856,  -3720,  -3928,  -1699,   1774,   -750,  -2808,   2218,   3104,  -2924,  -5537,  -5334,  -5006,  -1662,  -1030,  -6411,  -4059,  -3958,  -6055,   -594,  -5785,  -3991,   3174,   3262,  -3802,  -1647,    471,  -5381,    -94,    229,   2535,   1699,  -2120,  -3519,   1638,  -6797,   5784,  -5830,  -4054,    803,   2812,  -5407,   2409,   2039,  -6490,   1693,  -2182,   2378,   2068,    141,  -4027,  -3787,  -6866,     27,  -2421,   2969,  -1615,   -586,   3495,  -1059,  -4119,   2390,   1085,   1869,  -2526,  -4565,  -5614,  -5114,  -1107,   -849,  -4547,  -1125,  -2354,   -978,   -484,  -1659,  -3696,   3635,  -3324,   -251,   2976,   2543,  -2669,   -726,  -4512,  -1770,  -2016,    715,  -1710,   5520,  -6942,  -4874,   3694,  -5062,    643,   3342,   1548,    337,  -5845,  -3809,    296,   -461,   3482,  -5385,   1577,  -7495,   2042,  -6845,   1467,   -727,  -5302,    101,    -49,  -2057,   -842,  -2574,  -5735,    174,   3548,  -2942,   2194,   3699,   4080,  -4288,  -6056,   1483,   2187,   2884,   3421,  -2438,    188,  -4849,  -5209,  -6776,   3444,  -5167,  -6091,     25,   1837,   2570,   3019,  -5533,  -5503,   -187,    816,  -4458,  -5945,  -5808,   2229,   2107,  -1266,    476,   -100,   -193,  -4927,    706,   1647,  -3030,    243,   1646,  -1286,  -2315,  -5566,   -281,  -4198,  -5060,    -15,   3454,   3572,   1697,  -5016,  -5414,   -564,  -5452,  -5102,  -5236,   2638,  -5862,    618,   2783,   -569,  -6374,   1397,    284,  -1714,  -2065,   3042,   3185,   3775,  -2345,    336,    582,    266,  -2233,  -4767,   3055,  -3319,     63,   3420,  -5171,    764,   3099,  -4031,   2735,  -5701,  -5237,    186,   4027,   2031,    960,  -5373,    922,  -2946,   1214,     -4,  -4278,  -6205,   4904,  -4876,   -614,   1941,  -1715,  -2013,  -6139,  -6345,  -1257,   2506,  -1573,  -2359,   2060,   -686,    138,   2146,  -4984,  -2553,   3051,  -2974,    544,  -2245,    681,   5339,  -1094,    445,    367,   -365,   6461,   2884,   -829,   1229,   3621,  -2752,  -4101,   3722,   1692,    530,    482,    466,   1474,  -4165,    286,  10682,  -6528,  -1645,   5265,    510,   1978,   -108,  -4365,
          3154,   2402,   1146,  -2829,  -1092,  -4316,  -2343,  -6570,  -3776,  -4501,    428,   -661,    -41,  -2914,   3648,   1177,  -4576,  -5726,   -992,   1298,   -457,   1215,  -5097,   3320,  -6054,  -4937,   2606,  -4902,  -4922,  -4697,  -4822,   1504,   3716,  -3303,  -1695,  -2954,    893,  -3153,  -1991,  -4310,   4542,  -3560,  -4225,   1404,   -973,   3573,   -961,  -1617,   4333,  -5770,  -2146,  -1470,   3488,   3573,   3412,   -633,  -5605,  -4650,   2223,   -364,   3144,   1111,   -477,  -1797,  -1264,   3588,   3639,  -2722,  -1387,  -1731,  -2900,  -1177,   3267,  -1651,   3582,  -5304,   1904,   3525,   2881,   -387,   2082,  -2419,  -5722,  -1040,   3841,  -3520,  -3050,   6336,  -1741,  -2833,  -5860,  -5899,  -5825,   -577,   4082,   1016,  -3279,  -2776,  -2892,  -6097,   2084,  -1180,   1705,  -4759,   -492,   1597,   3333,   1344,   3988,  -3984,   1599,    -38,  -1647,  -5624,  -4677,   1468,  -5907,  -2915,  -2792,  -1205,  -1298,   2341,   2203,  -4146,  -2869,   -573,  -2909,   3785,  -2945,    235,   4753,   1679,  -6515,   -523,  -5069,   -743,    575,  -1328,  -6121,  -2483,    -92,   3260,   1364,  -1752,   4368,  -1278,  -1159,  -3249,   3791,  -2798,  -2908,  -1287,    144,  -2953,  -2450,   1206,   4157,  -4725,  -5700,  -3141,  -3675,  -4649,  -5912,  -5647,   -441,  -3850,   3189,   4853,     19,   4303,  -3764,    642,   -173,   2582,  -1031,  -3183,  -5778,   3784,   3295,   -608,  -5184,  -4801,   3616,  -6487,   1271,    853,    947,   4677,   2904,  -4538,    350,    -95,  -2259,   -113,  -3656,  -6137,  -2141,   3191,   3341,  -2646,  -3828,   1117,   -175,   4666,   2044,  -3071,   2186,   4502,  -4796,  -3580,  -2511,  -2489,  -2556,   2666,    245,  -8175,    279,  -4297,   1815,    940,  -5178,    382,   -445,  -5489,  -4672,   4937,  -1194,   2422,  -4231,   -336,   4316,   3259,   -337,   4335,   2666,   3558,   2979,  -6208,  -1594,   1225,    -27,  -6584,  -1412,   3475,   2470,   2166,    523,  -9721,  -2636,  -3930,  -2476,   3058,  -4375,   2403,  -4767,  -5603,  -4444,  -4296,   1029,   1226,  -3161,  -3828,  -6229,  -2061,   1111,  -6453,   -261,  -3466,  -7864,  -4691,   -380,   2473,    270,   3635,   6274,   2519,    489,  -4340,   -943,  -1049,  -2757,    109,     16,   2235,  -4513,   2736,  -2590,   -603,  -1301,  -6149,  -4818,  -4590,   3271,   1925,   4145,  -7417,   4873,    263,  -5880,     20,  -5693,    577,   2295,    188,  -3153,  -2097,   4089,    648,   3354,  -3546,   3280,   1625,  -1213,  -3111,   3095,   -547,  -4394,   2155,  -3674,   4623,  -1551,  -7415,  -1232,   1948,    800,   1853,  -6683,  -5461,  -1490,    736,   -765,  -5101,  -1638,      0,  -6301,   2351,  -5501,   1237,   -612,   1106,  -3812,  -5314,  -7432,   1745,  -4450,  -2526,  -1570,  -2164,  -2178,  -1582,  -1866,   3703,  -1353,  -6399,   -459,  -1928,  -5502,  -3922,    101,  -7429,   1495,  -2608,  -2773,   3307,  -6075,   2279,  -2423,  -1109,   2637,   1223,   1302,   2323,  -1503,   1647,  -7677,   -279,  -4590,    895,    819,   1150,  -4584,  -1977,  -1098,   5350,   1145,  -1749,  -1989,   3566,  -4774,   1739,  -6526,   5579,  -2190,   3411,   -114,    296,  -3700,    450,  -3730,  -1607,  -2426,   3920,  -5375,   2542,  -1285,   1070,  -2419,  -1909,   3127,   4232,   2861,  -2643,  -5006,   -483,  -2799,  -1664,  -1405,  -3875,  -3525,   1288,   7001,  -4082,    379,  -1204,   1196,  -1067,  -3580,  -3223,   3660,  -4357,  -3744,   3028,   3903,  -1803,  -7873,    706,   3495,  -6718,   1878,  -4582,   4918,   -204,  -1184,   -257,   4162,  -1381,   2381,  -1428,  -5748,  -7737,  -2931,    324, -10877,  -4782,  -7710,  -3848, -10413,   1431,  -6845,   1780,   -219,  -6673,  -3679,  -1455,  -4012,  -2013,  -6872,  -4247,    212,   2687,    302,  -7725,   2081,   -564,   3055,  -5858,   -624,   -616,  -1557,   2201,   -628,   4073,  -3145,  -2349,   5871,  -2424,  -4909,  -2091,   3959,  -1592,   2556,   4379,  -2474,  -4754,  -4312,   -267,  -2947,  -4625,  -6718,    211,   1090,   4101,   2515,  -1803,  -6713,  -4843,  -2255,   6431,  -2761,   2211,    203,   -856,
         -2826,   3137,   9483,  -5413,   5895,   -394,   -452,   -976,  -3463,  -4444,    566,    797,   -554,  -1432,   3759,   1035,   1033,   -896,   2244,  -4237,  -3754,  -6503,   9861,    730,   6223,  -1048,  -4823,   2536,   -161,    -85,  -3974,   -496,   2450,    329,  -4872,  -4993,   -547,  -6158,   2086,  -2757,   1870,   4301,   3105,  -3022,    456,  -4542,    145,    578,    -50,   1547,    485,   2581,  -5602,   2106,  -4953,    274,    364,  -6139,  -3164,    211,   3856,   5227,  -3170,  -4750,  -5384,   4605,  -5519,   1052,   3065,   -800,   2777,  -3039,  -2996,   -342,  -5111,  -5986,   2620,   1598,  -5251,  -4870,  -4751,   3016,  -2397,   1505,    941,   3285,   1221,  -2764,  -7493,  -1137,  -1626,   2696,   -509,   2706,  -4535,   2522,  -3448,  -1102,  -2027,   2207,   4450,   4173,   3028,   2711,    228,   -395,   2347,  -2616,  -2577,    711,   2438,  -2480,  -4661,  -3770,   2700,  -3952,  -5103,   3246,  -2583,   1724,  -8954,   -374,  -5444,   -814,   1254,   4281,  -1471,  -1752,  -4032,   2335,  -5739,   2717,    664,  -2474,   4279,   2998,   4189,   1764,   4202,   1228,  -1692,  -4294,  -4538,    -68,  -4690,  -2350,  -3838,  -2908,  -4825,  -3390,  -1910,  -4380,   7048,  -5028,   2355,   3218,   2474,  -1529,  -2063,  -1982,  -2895,   2980,  -2143,  -5339,    190,  -4466,  -2448,   1114,  -4408,    108,  -5324,   1463,  -3877,  -1969,  -4889,  -5249,   2903,   -788,  -3133,   4221,    216,   1861,  -3075,   2089,   5681,     -9,   2077,    173,  -2111,  -2390,   3162,   4206,  -4737,  -4978,  -2619,  -5481,  -1929,   1744,  -3356,  -6227,   2837,  -3498,   4061,  -3683,   1710,  -4278,  -2272,   3087,   3257,  -4503,    335,   -561,   1081,  -5345,   3705,  -4483,  -1060,  -4926,  -4153,  -4550,   3968,  -2029,   1438,   2438,  -1065,  -3140,   1888,  -5649,   -560,  -3682,  -5217,   -725,  -2589,   -126,   3592,  -1221,  -5224,   -469,   2809,   5459,    658,  -2538,  -5861,  -3063,  -4912,   2187,  -3269,  -3290,  -3300,   -344,   -431,  -4390,   4411,  -4197,   1052,  -2495,  -2860,   2829,  -2434,  -2002,  -4257,  -2011,  -5560,   5117,   -767,   3553,  -4880,   1991,  -5695,  -4710,  -2398,  -5119,  -3527,   -652,  -1031,  -3793,   2851,  -4453,   3845,   -639,    981,   3414,   4473,   -358,   -515,  -4853,  -4156,  -1769,   3894,    961,   3758,  -3675,  -5700,   1079,  -1104,   1697,   3250,   1559,    141,  -3499,   1482,  -1970,    357,    -92,  -3370,   4664,   4336,   1948,  -4093,  -4479,    707,   1078,  -5711,  -3466,    159,  -2111,  -4587,  -4360,   3556,  -3659,   1879,  -3072,    212,  -2772,   3282,  -3898,  -5091,  -2185,  -2855,  -1311,  -4169,  -2559,  -1374,   1966,    805,  -1465,   4477,   2667,   1582,   3135,  -1513,   2736,  -1104,  -4985,    437,  -3974,   -164,   3027,  -5612,  -1187,   -136,   2221,  -6529,   -226,  -5333,  -3512,  -2808,  -7148,   2785,  -4642,   3858,   2870,  -4006,   2844,   -344,    798,    916,   1929,   2601,  -5780,  -3481,  -4043,   3254,  -1140,     73,  -6087,  -4574,  -4558,  -2161,  -3678,  -4262,  -6707,   3896,  -2609,   -797,   5240,  -2843,  -5821,  -4037,   3960,  -5692,  -1982,    380,   3722,   3162,  -3964,    462,   -278,   1626,  -2978,  -2790,  -3757,  -1522,   -644,  -2133,   3748,   -495,  -5849,  -2135,  -4714,  -1771,  -3274,  -2294,   1721,  -2339,  -1721,   1009,  -4826,  -1489,   4166,   -771,   1040,   3207,  -2340,   5340,  -1602,   2919,   2153,  -2229,  -3013,   3240,   1631,   1875,   1895,  -2690,   -328,    877,  -2745,   2775,    309,  -6274,   1602,   3482,  -4887,  -2175,   3434,   -342,   -210,   1676,  -5154,  -3594,  -5468,  -2943,     70,  -6153,  -1043,   5730,  -4229,   1079,   -232,  -1002,  -1116,   3454,   4990,  -1735,   1891,  -5819,  -5194,   3128,  -3628,   3593,   -808,  -4416,   2381,   2718,   1142,   3940,  -1707,  -1426,   1299,   2644,   -294,  -1093,   1678,   2244,   1187,  -1964,  -6079,  -4591,  -3903,   -457,  -1815,  -3676,  -3736,   3620,    925,  -4396,   2218,   -463,   -185,   1146,  -2868,  -1397,    -47,  -5757,   2640,   2661,   -801,   -872,   3684,  -3180,   2531,
          1117,  -5811,  -4546,  -5634,   1998,   2765,  -2156,  -5692,  -4139,   1078,  -5579,    658,  -2590,  -1741,   4043,  -3685,   4005,  -5457,   -476,  -4843,   2575,  -6829,  -7992,  -1244,  -3706,  -5905,   2865,   1885,  -2531,    901,   2116,   3409,  -2283,   3288,  -4754,    103,  -6528,  -5435,   2505,  -2958,  -4494,  -1880,  -6031,   2789,  -3480,  -5520,    558,  -4150,  -4525,  -3887,   1205,    117,   1246,  -6457,  -2946,    765,   3264,    397,   -944,  -3305,    694,  -2198,    790,  -6096,  -3380,   1826,  -4856,   2344,  -6227,   1691,  -6817,  -1601,   5201,    888,   -192,   3215,  -2761,  -5853,  -5509,  -1744,  -3660,   1135,   2471,   2866,  -5036,  -1878,   1915,  -6251,   2820,   3174,  -1473,   2105,   -822,   1790,   2393,   -759,   1253,   -440,   5623,  -3756,   -605,  -7701,  -3322,   1112,   2952,    -29,  -2990,  -1863,   -336,   1316,   1319,  -1180,   4560,   4660,   4005,  -5417,   4684,   4829,  -2530,  -3638,   -709,  -3736,    272,   -233,  -2573,  -2926,    670,   3344,  -2338,   2805,   -761,  -3032,   1394,  -4648,  -5242,   3779,    218,   1827,  -1162,  -2669,   2388,   3235,    923,  -2041,  -4913,  -4560,   1971,  -3733,  -3414,   3882,  -2924,   -174,     22,  -6446,    551,   3586,   -446,    525,  -6402,  -2487,  -4094,  -1636,   2501,  -3322,  -5592,   1587,  -6206,   -230,    593,   3976,  -5777,   -853,  -2328,   1077,  -1089,  -1412,   2621,  -1077,   1665,    602,  -3216,   4041,   1575,    -31,  -4735,  -2181,  -3208,   -661,   1227,  -1941,   2448,  -2006,   2489,   1416,    101,  -1455,  -6083,  -5375,    818,  -4106,   3271,  -7232,   1185,   4447,   3913,  -5425,  -1513,  -2169,  -2116,   1244,  -6344,    290,   2212,   2185,   1670,   5210,  -2000,   2122,   2666,    272,    405,   4716,  -4243,   5927,  -4825,   3016,  -3201,    -30,   2139,   1737,    528,   3921,  -2209,    231,  -6416,  -8049,   3641,     91,   -557,  -5957,     -4,   3779,   1115,  -3598,    217,   2338,  -5015,   4887,   -412,  -6524,   1087,  -3382,  -2651,  -6280,   -233,   1983,    652,    585,  -5512,  -6335,   -525,  -1970,  -4791,  -4794,   -315,   3229,    241,   -774,   2180,    456,  -1907,   3602,   4796,  -2861,   3521,  -3792,   -208,  -3886,   3990,  -3354,  -1578,    303,  -5946,  -3829,   4266,  -3407,   -463,  -3564,    366,   -996,  -6219,  -1922,  -6611,  -5607,  -7531,    269,    221,   1374,  -3179,   1877,  -4322,    408,  -3168,  -4070,  -3212,   1125,  -5884,  -2804,  -2717,  -4308,  -6412,   -927,    227,   2784,  -6196,  -2058,   1660,  -6659,   1509,  -5388,  -5620,   2622,   3820,  -5237,  -1810,   -216,    890,   2098,  -3282,    416,  -4798,  -2859,  -3931,  -2441,  -2525,    371,  -1326,  -4985,  -2702,   2043,  -5898,  -3227,  -5045,  -1970,  -1103,    102,   3527,    701,   1030,   1193,  -4784,  -4091,   2486,   3955,   2372,  -1913,  -6223,  -1916,  -4184,   2327,   5176,    493,  -4060,  -5054,  -3431,   4695,  -1153,   2217,   1844,   2965,  -4227,  -3263,   2534,   3620,  -5287,  -4929,  -7530,  -6650,  -3057,   1775,  -4501,   4285,   3934,   1884,  -4727,    929,  -1176,   1146,  -5702,  -6291,  -3982,  -1918,  -1840,   3921,   -673,  -2657,  -3391, -10950,  -1108,    219,  -4066,  -3319,   2304,  -5893,  -1298,  -2160,  -4943,  -3868,  -5834,   3238,   3511,  -5352,   3996,  -4889,   1942,   3621,  -2520,  -6629,   1670,   3047,  -5061,   5047,   1260,  -4989,   1976,   6082,     78,   1141,  -3739,   -303,   4097,   3285,  -2349,  -2777,   1381,  -6864,  -4292,     73,  -6006,  -9061,   2218,  -3503,  -1106,  -5016,   2605,  -4247,    468,   4440,  -2905,  -3812,   5486,  -4195,  -7458,     69,  -4630,   2049,   4855,    821,   -771,    638,   1167,   4371,   2392,   -645,  -1992,    903,   1702,   4711,   4008,    658,  -1876,   1572,  -5417,  -4949,   -880,    102,  -1406,   7122,     65,   -352,  -3394,  -1678,   2013,  -1692,  -3769,  -9756,    591,  -5467,  -4306,  -4149,   3167,    463,   -658,  -2888,   1085,   1925,    946,   4910,    417,  -1683,   1746,  -2270,  -3710,  -7254,  -2614,  -1408,  -4594,  -9284,  -4552,    299,   1441,   2045,
         -2418,  -6588,  -2515,  -3375,  -3339,  -6120,   1690,  -3502,  -1671,  -6378,  -6799,  -1144,  -1188,   6950,  -1055,   2198,  -1607,   -752,   3173,  -6130,  -1920,   5240,   4710,  -4499,   2437,   -735,  -5910,  -3168,   5262,  -5120,   4304,    -21,  -3542,   2946,   2776,  -1740,  -8409,  -3117,    861,  -2141,  -3118,   3133,  -5399,  -4482,   2530,  -1294,  -3525,  -3112,    515,  -7021,  -2922,   2580,   -357,    -35,  -2777,  -5168,  -1074,  -3315,  -3737,  -9159,   4452,  -1991,   2864,   -780,   1704,  -2034,  -1376,   1670,  -2503,  -3091,    -86,   2816,  -6082,  -2142,   2359,  -4286,    443,   2136,    786,  -3876,  -5618,   3518,   -719,   4277,   1138,  -2174,   1015,  -6593,  -5018,   4547,   1014,  -3020,   3249,    415,   -169,  -1467,  -2120,   3305,  -1218,  -4173,  -1131,   2277,   5325,  -1129,  -2656,  -2635,  -5173,   3495,  -5399,  -4159,   -916,   -549,   -713,    490,  -1066,   2203,    472,   -779,   3426,  -2065,  -6410,   4831,    130,   -453,   -971,   3763,  -3911,  -7695,   3040,    559,  -9084,   -742,  -6721,   2042,   -924,  -1363,   -925,   2168,  -5448,  -2321,  -3563,  -4666,  -2901,  -5688,  -2843,   4296,  -5832,   -579,   3438,   4818,  -5099,   -347, -12123,    814,  -5010,   7528,   3170,   2505,   4142,  -3105,   5913,  10215,   -321,   4774,   2425,   5459,  -7862,   1339,   4563,   5928,   -106,  -4816,    983,   8421,   2471,   5681,   6645,   3870,  -3484,   6656,   2602,   -863,  -6879,  -7595,  -1406,   2562,   -317,  -3433,  -3262,   1298,   -861,   4145,    359,   2054,   1525,  -2233,   5103,   5734,  -5546,  -3184,  -4745,   3766,  -1516,   2622,   1158,   7441,   2396,   4613,   7042,   4746,  -2529,  -2099,  -3540,   1348,   1962,  -4667,   5081,  -6273,  -8704,  -1456,    572,   3050,  -4677,   1748,  -9360,  -2617,   2772,  -1751,  -8678,  -7858,  -3160, -11066,   3856,   1350,  -6673,   5850,  -4760,  -6643,   -646,  -1989,  -7930,  -3909,  -5915,  -1691,  -1553,  -1634,  -1898,  -9865, -12443,  -5639,  -4653,   1427,    469,    745,  -3297,   2079,  -7299,   -399,  -3449,   5291,   5300,   4612,  -4217,   9837,  -3356,   1151,    726,    253,  -1270,   4835,    515,  -6226,   7386,  -1416,  -3094,  -3615,   -251,  -7016,  -5598,   2911,   1479,  -5733,  -2187,   -670,  -5550,   2551,  -7989,   1136, -10323,  -3053,  -1157,  -1089,     26,   1103,    410,    753, -11539,  10718,  -8449,   6538,  -6581,  -2342,  -9314,    158,   -833,   3518,  -3514,   -727,   2607,    785,  -6183,   1940,    354,  -5638,   -436,   4721,   1037,   1068,  -1356,   1706,  -1710,  -1617,  -3887,   4284,  -3743,  -1686,   3780,  -5445,   5914,   2805,   -509,  -2591,  -1534,   4633,  -2599,   1826,  -4514,  -1556,   -231,   5852,  -1882,   1484,  -7153,  -2673,  -7419,   2993,  -6216,  -1093,   2921,  -2550,  -1533,   -926,   1155,   2998,  -4321,    730,  -3573,  -5258,   3703,   3104,  -8109,     46,  -3782,   2760,  -3211,  -2100,  -7076,  -3104,  -1064,   2798,   4130,  -1839,   1555,  -2426,   2451,  -4081,  -3175,  -3340,   2152,   1447,   -191,  -4283,  -1576,  -2368,   -853,   1902,  -7056,  -2033,  -2142,  -2786,   1244,  -1707,  -1289,  -1993,  -1711,  -2483,  -4390,   1463,  -1546,  -6797,  -3490,  -4607,  -4635,  -3154,  -1213,  -5077,  -3724,   2340,   -787,  -2420,  -1749,  -2837,   3926,   1312,   2884,   -856,  -9533,    276,   3659,  -3146,   9099,  -2652,  -1235,   6099,    817,  -2380,  -5521,   2870,  -1542,  -3896,    680,   1112,   1796,  -4523,   2614,  -1012,  -2289,   2889,   5238,  -1736,    318,   1414,   3504,  -1447,  -1709,  -2965,    908,   4148,  -1817,   4176,   4873,  -3634,   1811,  -4615,  -5773,  -1399,  -2370,   1443,  -2397,  -4275,   4625,  -5334,   2030,  -5901,   -960,   1184,  -3448,   2514,    604,  -5798,  -4678,  -1072,  -3610,     35,  -3419,   2250,   3862,  -5991,  -2569,   3945,  -4880,   4320,   2669,  -3581,  -6101,   3531,   3232,   4847,  -5128,    464,   -426,   2838,  -5419,   -315,   -342,  -3347,   -114,  -1528,   3605,  -1674,    718,  -3448,  -2991,   2330,   2605,  -3821,  -3262,   3104,   -522,  -4032,  -6125,  -1961,
         -6028,     -2,   4617,   1513,    741,  -1839,   2574,  -2550,    226,   1961,  -3255,  -1944,  -3822,  -1915,  -5588,    -64,  -2319,   -968,   2465,  -1809,  -3340,  -4897,   -316,  -2024,   -855,   3158,  -4454,  -4188,   1920,  -1364,  -1310,   -139,  -2424,   1743,  -2817,  -1797,    869,  -3749,  -5208,    511,  -2349,  -1088,  -1155,    173,   1556,    446,  -5013,  -6126,   4209,   1933,   2479,   2188,  -2436,  -5976,  -2126,  -4809,  -2096,  -6098,   -722,   2268,   -280,    934,   3462,   1701,  -2173,  -5117,   2083,  -2604,  -2835,   1433,    812,   1015,   4395,   2121,   2034,   3014,   3706,   3454,  -3597,  -3414,    521,  -3722,  -1518,   1922,    669,    342,  -4778,   1995,   1917,   1331,  -4850,   2504,   4062,   -292,  -5047,   2497,   2063,  -5047,  -4806,  -2655,  -1798,    753,  -4040,   3534,   5711,   2361,   4831,  -5540,  -2010,   1312,   2033,  -1582,    433,   -565,  -4959,  -1338,   4453,   2065,  -1122,   1641,    229,  -2645,   2204,  -1699,  -1871,   -475,  -4685,  -1015,   1254,  -1780,   -948,  -2452,  -4585,    233,   3551,   1830,  -5342,   5639,   -755,   3087,  -4993,  -5405,   -925,   3374,   2746,   2518,  -3204,   1165,   2732,   4131,  -4459,  -2798,  -5529,  -4266,  -5436,  -4094,   2353,  -3111,  -2884,  -1448,  -1170,   -957,   5061,   2843,   3425,  -1955,   -953,  -5825,  -2223,   2856,  -3943,  -1269,   2812,  -5955,   2784,   4827,   1035,   -855,   4369,  -2485,  -1561,   2591,  -2737,   2384,  -3827,  -5125,  -1892,   4385,   1407,   3298,   3978,  -4405,   1982,  -2977,  -6825,  -3459,  -4177,   3167,   -735,  -5420,   -750,   1018,  -4850,  -3799,   2212,   2731,   1496,   3597,   1305,    701,  -3777,   3424,  -3437,  -2366,  -5130,      7,   1041,   -576,  -3239,  -4521,   3506,  -4655,   1828,  -1155,   1257,  -4619,  -5954,   2851,   2172,  -1639,  -8384,  -2763,  -5203,   1282,  -4267,   4965,  -6585,  -3335,  -3230,    533,  -5596,  -3356,    -81,   2711,  -7506,  -4271,  -2171,  -9001,   7500,   2994,  -3771,   2218,  -1662,   2255,  -1794,   3348,  -2362,  -2151,  -1808,    855,  -6838,   1393,  -2199,  -1862,   3611,   3991,    554,   1959,  -6885,  -7543,  -6881,  -2442,  -1379,  -7371,    835,   6720,  -4211,   -804,  -2075,  -5674,   4249,  -4402,  -1056,  -7152,    442,    795,   1113,   2983,   3702,   2825,  -8484,  -1125,  -4788,  -1646,  -5544,    541,   1126,  -4846,   -890,   7324,  -2559,   1687,  -2725,  -1480,  -6722,  -6903,  -1811,   1699,  -2712,   1323,  -8013,     71,  -4035,   -463,   3376,  -8619,  -4866,   4616,   -799,  -4415,  -1325,   1346,  -3732,  -1390,  -3828,  -5551,  -5589,    487,    964,     11,   2655,  -4337,   5062,  -3579,  -1079,  -3539,  -2925,    658,  -7501,   4923,     78,  -8159,  -3774,      4,  -3310,   1979,  -4361,   2517,   -764,   2070,   2774,  -2510,   -981,  -3716,   3751,   1016,   -507,   5255,  -7395,  -5492,    930,  -1834,    891,    263,  -1558,   1118,  -2449,   4778,    596,  -2988,  -3947,  -5472,  -5001,  -3804,   5193,  -8243,   2912,    521,  -1134,   2875,  -2171,  -5061,  -6785,   -684,  -2986,    705,  -6898,  -2394,   -521,   9593,  -6474,   1240,   3410,  -3751,  -1580,  -3955,    915,   6660,   1462,   4754,  -1695,   2760,   1980,  -2321,   2958,   -640,   1027,  -3251,  -3830,   3094,  -4363,   1342,  -1173,  -3066,   -128,  -3272,   1734,   1604,  -3632,  -4101,   4799,  -2779,   4454,   1121,   3086,    481,   3599,   1301,  -5655,  11686,   -246,   3154,   -987,     76,  -7063,  -2937,    551,   -299,   -438,   4212,  -6066,  -4968,  -1472,     33,  -2037,   1082,  -2162,  -1234,    814,    348,  -7691,  -6252,   -880,   7592,   4614,   7627,     -9,     61,  -4828,   3696,  -2332,   4321,  -2448,  -2784,  -5179,   4170,  -4538,  -6656,  -3037,   -221,   -381,   2908,   3114,  -5049,   2991,   -525,  -2546,   2727,  -5760,  -6287,  -1976,  -1148,  -3577,  -2033,  -4930,   2132,   4430,  -1138,  -5109,   2289,   1952,   1247,  -2172,   -318,   -102,  -1695,  -2902,   4969,   1889,  -5143,  -3873,   4576,   4472,  -4518,  -1659,   1592,  -7575,   6546,    765,  -2962,    751,   3382,
         -3503,   3984,  -3791,   -432,   2034,   2131,  -3291,  -4208,   1863,   1258,   3432,   3798,    137,  -2026,  -3777,  -2845,  -4842,   4783,   2389,  -5763,   -258,   2463,   1600,   1490,   -133,  -6555,  -4124,  -4546,   2716,  -3502,  -2882,    656,  -1927,  -3971,   2293,  -2277,   2953,    611,   2033,  -4344,  -1887,  -1116,  -1876,   -310,    -11,  -2160,   2419,  -3347,   3862,    -54,   2028,  -1752,   2146,   1983,   2689,   1532,   1439,  -4382,  -7481,  -2339,   1391,  -5315,  -4687,  -1243,   -546,   3356,  -5209,  -5315,   3517,   2351,  -4474,   1973,   1977,   1507,   1248,  -6367,   2333,    889,  -1127,   -674,   1448,  -6048,  -2047,  -4111,  -5322,  -1738,   1364,   1713,  -5517,   -884,   2060,  -1005,  -4941,  -1441,   2955,  -4997,  -1601,  -5358,   1921,     92,  -1673,  -1046,   -633,  -4150,  -5487,  -1301,  -4760,   1792,  -1969,   5002,  -1384,   3250,  -4126,  -1615,    394,   1323,   1966,    146,  -2183,   2213,   2936,   1626,   1652,  -1516,   -114,   -450,  -1442,  -4729,  -3823,   1772,  -2239,  -5006,  -2896,    713,  -1932,   4528,  -7033,  -1462,  -4764,   -717,    443,    199,  -3265,  -2198,  -1891,   1231,   -726,  -2855,  -3344,   -482,  -2967,   4448,  -4040,    140,   3670,  -5537,  -1050,   2223,   3328,  -3739,  -3422,   2629,   3978,  -3206,  -5393,  -4012,  -4035,  -1766,  -2414,   1310,  -6171,   -301,   4153,   3123,   -401,    554,    177,  -2750,   3010,  -2091,  -4073,  -1005,  -3078,  -1736,   3273,  -5869,   4007,   3325,  -1647,  -5035,  -5153,   2263,  -5271,     59,  -5218,   1248,    623,  -2240,   3697,   2358,  -4488,   1459,    968,  -6455,   4222,  -3891,   1686,   2453,  -1600,  -1758,   2967,   1334,  -5669,   4049,  -6240,   1849,    325,  -3350,   1035,  -3410,  -4918,   2309,  -6618,  -6407,    216,   3966,    409,   -255,  -1915,   1729,  -2721,  -5470,   -410,  -4887,   2927,   -334,   3646,   -737,  -5085,   2484,   -609,  -6013,   3874,   -537,  -4543,  -2694,  -4717,    759,  -2248,   1994,  -6037,  -5780,   1579,    -49,   2539,  -4185,  -4762,    747,    871,  -6497,    183,  -5237,  -3174,  -3324,   2355,   -732,   3202,   1305,  -6305,  -8001,   2451,    600,  -4603,   -315,   -923,  -4022,  -5868,  -6057,  -1638,  -4071,   3096,  -1322,  -2489,     11,  -5894,   2405,  -1687,    150,   -569,  -6263,  -2805,   3160,   6268,  -1782,  -2478,  -6529,  -6669,  -4618,  -3837,   -434,   1618,   1370,  -4226,  -4433,  -1490,   1066,   -315,  -1055,    958,  -6070,   3617,   1459,   2386,  -1356,   -685,   3506,  -3213,   1679,  -4054,   1208,   -758,  -3644,   1455,   2899,  -4911,   1052,    212,  -8381,  -6146,  -4340,   1060,   2446,   2852,  -2067,    750,  -4104,   2874,  -4240,   1042,    -99,  -1582,  -5118,   4292,   1350,   4998,    475,  -3086,  -1527,   2519,  -2433,  -3224,   1081,   1736,   2306,  -2315,   -553,  -2681,   2000,  -1394,  -2486,   2307,  -3557,  -2346,    756,  -1497,  -4194,   3652,  -2398,  -1408,  -6979,   4109,   2669,  -3325,  -2485,   6979,  -4006,   -612,   1060,   1996,   5967,  -4591,   -217,   2117,  -1582,   -493,  -1906,  -2871,   4138,   4438,   1738,  -6109,   2105,   1071,   1951,   4161,  -2878,   5186,   -359,   -548,   5037,  -2003,   3485,   -906,  -6179,  -3462,  -3488,   1254,   2570,  -4135,   3347,    444,  -2890,   4535,   2797,  -1545,    788,  -1671,   3776,   3014,  -2898,   6174,   3223,  -1505,    190,  -5359,   7663,  -3859,  -3705,   3779,   6460,    332,   1579,   2901,  -2614,  -1398,    697,  -4241,   3213,  -3078,  -7257,  -4661,  -1736,   3328,  -4207,   4235,     78,   -325,   3061,   3569,  -4062,   2800,  -2743,    674,   5906,   -379,  -2649,  -3416,  -1419,  -1793,   2404,  -1280,  -8981,   1522,  -1302,   5625,   -895,   3236,  -3724,   -370,   6242,   5068,  -1643,    919,  -4815,    142,   -162,  -2448,  -3798,    235,  -2101,  -6167,   3318,   1309,  -1515,   3466,   4130,  -5169,   6604,    949,   3238,   -933,  -2853,  -1664,     57,  -2319,  -3746,    180,  -3765,  -4099,  -3919,  -6505,  -3528,   2244,   3062,  -4225,  -6997,   1213,   3644,  -1001,  -2523,  -1323,  -5952,
         -4309,  -5983,  -2478,  -5982,   4242,   2267,  -1677,   1407,  -5381,   4103,   1368,   2217,  -1740,   2936,  -4896,     14,  -3726,  -2509,  -2880,   -679,   1318,   -665,  -1035,   3638,   3973,  -8644,   1488,   7289,    437,   2984,  -1510,  -4379,   -375,  -3588,  -3267,  -1638,   -765,   2015,   -690,  13471,   -800,   7495,  -5391,   5027,   -808,  -2642,  -5151,  -4175,   3023,   5538,  -7415,  -1878,   -295,    362,  -3506,   1810,   3985,   1837,  -3370,   5218,  -3991,  -1512,  -5156,   -527,  -5016,  -2385,   -564,  -2405,   4874,   3220,   1401,   2513,   -609,   1701,  -2996,  -3985,   1836,   2367,  -3894,   -192,  -4856,  -4746,   1058,  -2138,  -5602,   1144,  -1050,  -5364,  -2286,    530,   3048,  -1680,   2753,  -5102,    537,  -3998,  -1844,  -2685,   1573,   3590,   4368,  -4407,  -1952,   4541,  -4147,  -2276,  -2043,  -2804,  -5311,  -1831,    664,  -2413,  -2525,  -6107,  -4852,    359,   -601,  -4243,  -2285,  -6214,  -2695,  -6299,    263,  -1173,   -451,  -3119,   1724,   -499,   3148,   2931,   2402,   2883,    602,   2869,  -5888,  -7220,   2787,  -3430,  -4996,  -1020,  -1312,  -5642,   2051,   4226,  -2884,   1173,  -3211,  -5118,   3064,   2818,   1719,    982,  -1109,   4212,  -3967,  -1788,  -5996,  -4980,  -2608,   3825,  -4832,   3113,   3657,   2667,   4871,  -2985,   -180,  -2136,    471,  -3306,  -4030,  -2041,  -4797,  -4174,   -149,  -1444,    177,  -3382,  -6038,   -375,    784,  -2601,   1879,   -652,   2932,   1580,   -645,  -4420,   2496,   1538,   2465,  -1623,  -2584,   2614,   2917,  -2326,  -1213,  -3054,   1411,   1506,   1242,  -3481,    359,   1560,   3687,   1144,   3017,   3790,   4748,    322,  -2153,   2667,    936,  -3403,   1625,  -6233,   2469,  -4207,  -5857,  -2290,   -794,  -6105,   3509,    843,    337,  -1089,  -3772,  -3905,  -6370,   1653,    934,  -2500,   -794,   1400,   1483,   3206,  -5149,  -4266,   -202,    327,   3520,   2228,   4362,   4166,  -1866,   2333,    607,   -480,    359,  -4997,  -1644,  -1865,    793,  -6016,  -4337,    935,   3800,   1085,  -3725,   1539,   9271,   3730,   4393,     41,  -2410,   -840,  -6214,  -2908,   3559,   4145,   5266,    722,  -1695,   1346,  -1196,   1000,    373,   -601,  -1252,   2728,   2080,    954,  -1278,   2716,   -484,   1806,   1391,   1730,   1602,   1140,   1255,     44,   5516,    -89,   2310,  -4460,  -3823,    882,  -1034,   -971,   3788,  -4115,  -5195,  -1667,   -389,    145,  -3133,  -2861,  -1750,     81,   2570,  -5289,  -2895,   2461,   -397,  -5896,   4372,  -5133,   2315,  -5662,  -4776,  -3040,  -2236,  -3173,   2409,  -3627,  -5695,   4207,   2648,  -1049,  -5153,  -5571,  -2249,   1912,    668,  -2459,   3399,   4213,  -3948,    162,   2844,   3059,   1076,   2594,   2804,  -2217,  -1015,  -2410,  -1731,    740,  -5981,  -1768,   4814,   1678,  -6026,   1225,   3450,   5784,   4926,   5583,   -346,  -3358,   4151,  -2149,   2183,  -3368,    348,   4327,  -6711,  -4327,  -5318,  -5583,   -276,   -745,   4605,   -754,  -3503,    671,   3023,   1571,  -3579,  -2956,  -1062,   -467,  -1304,  -3845,   7296,     54,   3590,  -3905,   -175,  -2988,  -2990,   1261,    384,   -339,   4222,  -2182,   -197,  -3551,  -4742,  -1355,   2768,   -838,    117,   1703,   3246,   4463,  -7038,  -1064,  -3701,   6254,  -2684,  -5186,    -76,   -744,  -3221,   4266,   2368,   -434,  -3052,   -946,    846,   -426,   4664,   6462,  -2821,  -2019,   3896,  -4850,   3872,   3190,  -5022,   2543,   6317,   4268,  -4023,   4264,   4117,    862,   8170,   2225,  -3592,   4002,   2154,    152,  -3596,   1181,   2177,  -8876,   1265,  -4012,    -55,   6894,  -7656,   5916,   -513,  -3783,   1890, -13197,   3666,  -1331,  -5225,  -2832,   -610,  -4874,  -1303,  -3651,    609,  -6671,   7410,   -766,  -4910,  -5557,  -2179,    115,    -66,     12,    832,   1167,   4944,   1813,   4379,  -2461,   2897,   2112,  -7679,   -538,  -2870,  -2581,  -2916,    488,  -4023,  -1663,  -2119,   1049,   -883,  -5097,  -4018,  -1644,   3651,    717,  -3077,   4667,   2468,  -3626,   1598,   4584,   2113,  -7466,   -933,   -167,
         -2607,  -3908,   1633,   1862,  -5592,    660,  -7088,   7363,  -4513,   3931,   1937,  -4169,   2114,  -6737,   4183,  -2240,  -6155,   4007,   -884,   1109,  -3217,   5812,  -1472,    -85,  -6720,  -3887,  -5043,  -5633,  -1592,    723,   1039,   5058,   4974,  -4523,  -6308,  -4419,   2038,  -4588,   3954,   -213,  -2429,  -3943,  -6103,  -5376,  -4627,    497,  -4324,   1523,     25,  -5539,  -8099,    567,  -1803,  -8029,  -5674,   3079,   2328,    -29,  -7488,    100,   2775,    369,    437,  -2339,  -8557,  -5163,   3869,   2040,   3587,  -5044,  -3946,  -1033,   -549,   2528,  -4851,  -5241,   -609,  -6704,   1566,  -7779,  -1674,  -5438,  -4278,  -4578,  -2358,  -6864,   -309,  -1868,    156,  -6914,  -3789,     69,   3940,   -526,    782,  -5002,  -5386,  -2483,   3410,  -5715,  -1191,  -2205,   -613,  -6542,  -6238,  -6636,  -7951,  -7523,  -2218,  -6144,  -7549, -10909,  -2944,   -516,  -2266,   2695,  -1345,  -1744,   4804,  -3778,   2955,  -3271,  -5413,   2598,    909,  -4274,  -5977,  -1920,    332,   1289,  -3850,   2427,   -804,   4503,    452,   1378,   -834,   1096,    -82,  -5616,  -4231,   1162,  -1601,  -4232,  -2245,   3632,  -5609,   3772,  -5279,   3282,  -1728,   3185,  -2329,  -3992,  -4848,   1099,   1239,  -4258,  -5472,  -2693,   -872,  -2006,   3854,   1279,   -751,  -2452,   1399,   2681,  -5751,  -4029,  -2363,   1687,  -3912,   3547,   2509,   -153,  -4997,   2354,  -1920,   1122,  -2309,  -5096,  -5363,   2363,   2522,  -5855,  -5001,   -646,     90,  -5208,   1560,   -877,  -3414,  -4099,    954,  -4839,  -3364,     -5,  -1018,   4808,   2969,   -190,   4021,   2857,  -3209,   9052,   2544,  -1901,  -4313,  -4428,   1071,  -4969,    601,   3174,   -555,    222,   5981,   1473,  -4383,  -1359,    976,     92,   3633,    135,    746,   3251,    252,  -4978,  -2504,  -1485,   2831,    -31,  -1294,  -3829,  -6063,   2584,   3729,   3811,   -568,   2692,   3135,   -616,  -4179,  -1049,  -4900,  -4340,  -6103,   1721,  -1630,   1081,   2762,   1393,  -1679,  -4504,  -5331,  -3640,   2522,  -5974,   3421,  -5175,  -5421,   -978,  -2774,  -1129,    550,   1247,   2049,  -3746,  -5652,  -3595,   1850,   1973,    743,   2219,   3279,  -1852,  -4888,   2756,  -4246,  -1771,  -3295,  -4104,  -3139,   3560,   4282,   2482,  -2367,  -1032,   -862,  -5874,   3479,  -5155,  -1636,  -4952,   2608,   1710,   3072,   -874,   1028,  -6040,  -6889,   1875,   3400,  -1408,  -2146,  -2693,    639,  -1876,  -3625,   3641,  -2785,   2634,  -2214,  -4784,    353,  -4765,   -942,   1935,   2164,   1000,   -666,   1771,   2191,  -1966,  -5037,   -739,   -874,  -1814,   3060,    879,   2317,   2086,   -460,   3200,  -4728,   2648,   2934,    757,    188,   1026,  -6360,   3762,  -1174,  -5337,  -3670,   3689,  -4009,    110,    729,    444,  -3982,   -980,   2188,   -969,  -3034,    -76,   5400,  -2013,  -1827,  -2915,     24,   -742,  -1701,   3539,  -5477,  -4220,  -5218,  -4890,  -4282,    896,  -6195,   1343,   3867,  -1680,  -5820,  -6500,  -5031,  -2207,   -285,  -3258,   3968,   2269,   3345,   3207,    945,  -3305,   -406,  -1335,   2362,   1396,   -997,      5,   3014,  -4272,   2861,  -3658,  -3340,   1785,  -5202,   2897,   4334,   1786,  -1301,  -6274,  -3424,   -625,  -2307,  -6415,   -438,  -3100,  -6166,  -5483,  -1715,    -86,   2560,  -4961,   -927,  -1953,   1239,  -4217,    -48,  -5484,  -6198,   1722,  -1503,  -5504,  -2323,  -5472,   1946,  -4289,   1957,   -585,  -1335,   -111,  -3483,   3382,   2286,  -3754,  -3111,  -3893,    798,    281,   -852,  -2714,   2737,   3852,    590,   3604,   1404,  -1166,    428,   3711,    -60,  -5858,  -5368,   -607,  -3191,    975,   2415,   3350,   -243,   5105,   1959,  -5000,   -204,   3063,  -4454,  -5207,  -1943,  -5854,   4063,   2339,   3976,   2684,   3472,  -5935,   3891,   -150,   3679,    195,  -3788,  -4457,  -1524,    765,   -209,   2314,  -3771,   6018,  -4383,   4356,  -4600,   2295,  -1169,  -2009,  -4393,  -6075,  -5034,    -92,  -5234,    827,   1020,    956,   -968,   2428,   3395,  -4019,   1105,   1364,   1773,   -488,  -3808,   3090,
          3673,    247,    424,  -2142,  -4362,   4975,   2734,  -1110,  -2190,   3841,  -4281,   2114,  -4986,    567,  -5226,    880,   -397,    719,  -1321,    873,  -2582,   2649,  -2858,  -1656,    118,   -110,  -3526,   -416,     37,  -2458,  -2327,  -4288,  -4463,  -2998,   3864,  -5583,  -2550,   -967,   3602,  -1730,   3973,  -3508,   1804,  -5619,  -5256,  -3178,  -2896,   2353,   1140,    732,  -4570,   2886,   2185,   2937,  -2568,   -952,  -3883,   3932,   1323,    -86,  -3752,   2588,  -1928,   1656,  -4764,   1081,  -4426,   -173,  -3037,    782,  -2630,    992,  -6071,   -268,  -3956,   1334,  -1900,  -4114,  -3238,   -725,  -5492,  -2719,  -1653,    805,   3810,  -2461,   3426,  -1850,   1948,  -5122,   1786,  -4505,   3674,  -6049,  -3774,   1882,    489,  -3415,   2291,  -2933,   2281,   1396,  -7880,   4232,  -1314,   2204,   -767,    217,   2440,   4186,  -4232,   3062,   5960,   -359,   -181,  -5299,   1439,   1032,  -3146,  -2536,  10441,  -1989,   1618,  -2538,   4630,  -3022,  -1144,   -366,  -5124,  -5996,   3853,   3625,  -8200,  -6355,   1696,     26,  -2148,  -1845,  -1867,  -3971,   2438,   1038,   -632,   -169,   3561,   3956,   -590,  -5801,  -2156,  -2486,   2774,  -4028,  -4137,  -4690,  -3089,    412,   2066,   -799,    470,   -414,  -3852,  -4779,  -4702,  -3063,    377,   2715,   -244,   2876,    803,   3515,   -692,   3905,    360,  -4267,   3535,   1163,   3845,  -2582,   3502,    961,  -4549,  -5552,   4183,  -2287,   -302,   2479,   2445,   -345,   1803,  -5756,  -4432,  -3223,  -3402,  -1540,   2117,   1384,   1373,   3078,   4384,   1844,     52,   -693,  -3008,   4802,  -3415,    588,  -3071,   3049,  -2827,   3920,   1143,   3386,  -4541,  -1475,  -3249,  -1882,  -6660,   1583,  -3504,  -3607,   2602,   1593,  -3817,  -3141,   5241,  -5403,   4073,  -1088,  -5244,    124,   4000,  -2466,  -5985,   4335,   3657,   3222,  -2161,    -62,   -240,  -4725,  -4577,  -4740,  -3670,  -3724,   1683,  -2136,   4321,   1162,  -4121,   2830,  -1850,   3887,   4142,  -2020,  -3508,  -3713,  -3731,  -2557,   1459,  -1867,  -6746,  -4314,  -1360,   -453,   1273,    519,   -439,   4287,   4551,   4102,  -1829,   2665,   4024,  -2921,   3162,    458,  -3415,   3917,   4205,   1418,  -6319,   1248,  -5279,   5382,   -416,    -75,  -3095,   -623,  -2047,  -5419,  -6531,   3910,   1629,  -1443,   1966,  -5942,     51,    780,   1081,  -2172,  -2056,   1889,  -4069,   2534,   -497,  -4003,   -817,  -4471,   3083,     39,   1274,   -856,   3221,    736,   1243,  -1011,  -6624,  -5833,   1529,  -1775,  -6072,  -2090,   2349,   3516,  -3376,   1740,  -1081,  -1101,  -3335,   4317,  -3500,  -3063,   3966,  -2782,  -4793,  -2990,   2464,  -3052,   4251,  -4361,  -1995,   3006,  -2024,  -3364,  -4085,  -5852,    -16,   3308,   2344,  -2681,  -1626,   3496,  -5340,  -3293,   2128,   3036,  -1788,  -4711,  -2052,  -3609,  -6821,  -4084,   3571,    499,   2722,  -2416,  -1425,   3331,  -5706,   3066,   1591,  -1215,  -4906,    575,  -6445,   2509,  -5958,     91,  -4228,  -3329,   2831,   -584,  -2456,  -5078,   4475,  -1733,  -2688,  -1873,  -2533,  -1443,   -863,    654,  -5107,  -1053,  -3188,  -3674,  -5436,  -1943,  -2895,  -5611,   1107,   2034,  -5445,   2446,  -3998,  -4120,   -746,  -2512,    410,  -2838,   -857,  -1165,  -3243,   -429,   2662,   -128,  -2189,  -5527,   -201,    358,   2383,  -5462,   1454,   2647,   3305,    241,   2343,  -2994,   3894,  -3170,  -1339,   4151,  -2528,  -5438,  -2162,  -6190,   3003,  -2931,  -2776,  -1956,    658,   1787,  -2372,  -3106,   3678,   1960,  -2654,   4178,  -4925,  -2056,    154,   -199,  -1632,   1580,   3297,  -2478,  -4077,    612,    -96,  -2207,   1342,   2317,    371,   4802,  -1389,  -4256,   1837,   2745,  -1882,  -1894,  -7146,   -998,  -1145,   2990,  -6579,   -848,  -1247,  -1928,   3546,  -3144,  -5482,  -1398,   2243,  -2132,  -4631,    466,   2171,  -1331,  -5592,  -1170,   1726,  -6423,  -4946,   2179,   2095,  -1040,  -1858,   4008,   3062,  -3269,   3391,  -3426,   1593,  -3396,   3906,   5121,   -721,  -3717,  -1781,  -3081,  -4250,  -1522,
         -1252,  -2263,  -2189,  -1703,  -2659,  -4688,   4086,  -1291,    474,  -6014,   2334,  -2782,   -202,    794,  -4969,  -3519,   2021,    134,   3074,  -8056,  -3586,   2259,   4366,   2173,   3950,  -4953,  -2464,  -4173,   2707,  -3344,   3267,   2589,  -5477,  -2726,  -4320,  -3912,   -190,    331,  -5087,   3178,   -727,  -1712,   -186,  -2388,  -1017,   4855,  -2479,  -1739,   -877,   -711,     65,  -4280,  -8177,   1304,   -528,  -6839,   -847,   -980,   1927,  -6703,  -1980,   -927,  -1386,  -7702,    897,   2380,   4170,  -1157,  -7896,  -3377,  -3291,    246,   3068,  -2230,  -2367,   3818,  -4502,   4699,   3942,   1924,   2736,  -1903,  -3993,   6883,   -369,   3038,  -1159,  -6522,   2082,   4336,   2692,    422,   3179,   2747,  -5663,   -707,  -6790,   2189,   1251,  -4289,    125,   3751,   3106,  -4925,  -6514,  -1516,  -2145,  -4643,   -288,   4069,  -4769,   2795,   1325,  -2459,   1989,  -2904,  -4311,  -3907,   -695,     21,   5349,  -3241,  -3053,   1021,  -1934,   -683,   1784,  -3706,  -5269, -10841,    320,  -7042,  -4151,   1647,  -8415,  -2101,  -4952,  -2125,   1611,  -7818,  -6218,   6098,     53,  -3398,   1557,   3011,  -7670,  -5237,  -1401,  -2644,   3011,  -1738,   -525,  -6275,  -8587,   4450,   3136,  -3392,  -1440,  -3601,   2610,   4928,   1306,   2256,  -3957,  -9758,  -1158,  -7566,   7729,  -2562,  -2582,   3501,   1953,   -210,   2509,   -788,  -5286,   2704,   2203,  -2652,   2712,   1406,   4014,  -7560,   3886,    841,   2835,  -6966,   -909,   3406,   2823,   2239,  -1828,    750,     53,   -135,   -919,  -8965,   1526,  -5476,   9302,    640,  -7521,   5836,   2453,  -4404,  -4139,    592,  -1509,   -770,  -3802,   -539,   1014,   4800,   2615,   2790,   1583,  -4879,   2809,    392,   1764,  -4673,  -2009,   4182,   1062,  -2490,   -325,  -2943,  -4684,  -7796,  -5822,   -909,   4115,  -7182,   2565,   -405,    790,     47,  -1498,  -4146,   4450,  -3687,  -4470,  -5332,   3361,  -2837,  -5839,   1200,  -3687,   3010,  -4083,   2898,  -2191,   2877,   1078,   2303,   1325,  -3447,  -5977,  -4432,  -2245,  -3240,   4359,   1698,   2502,   -258,  -4821,   1038,  -1700,   2764,   3072,  -4808,   3481,  -6181,    888,   1093,  -5824,   1121,  -2405,  -5428,    154,  -6328,  -3148,  -5481,  -1610,  -5082,    393,   3272,   3655,  -1769,    402,   1318,  -6285,  -2489,  -1478,  -2172,  -3784,  -1040,  -5797,   2935,  -4527,   4750,   3010,   1553,   2784,   2732,  -7009,   1763,  -1167,  -1339,  -4681,  -5563,  -2455,  -2788,   1581,  -3129,   2433,   4092,   4516,  -6204,   3943,   1940,  -3624,   2276,  -5070,  -5077,   -660,    908,  -1427,   1151,    734,    211,  -3148,  -2402,  -5898,   -380,  -1338,   1979,  -6492,   1536,   3824,  -1379,  -2529,  -2106,     63,   3189,   -803,   3342,   2922,    800,   -524,  -2818,  -3818,  -5611,   2076,  -2902,    -27,  -5277,  -3202,  -3104,  -2422,  -4068,   -206,   -984,  -1519,   1135,  -2284,   1172,  -3842,  -1844,  -5120,  -2486,  -3518,   1691,   1220,  -2678,  -4671,  -6788,  -1608,   -444,   2168,  -4086,  -5311,  -4958,    517,    876,  -1579,  -4435,  -3072,  -4716,   3340,  -1196,   2462,  -3346,   -267,  -1247,  -4423,   1043,   2812,   1542,   4153,   1403,  -2633,   3354,   3086,   -789,   3107,   -232,  -3175,  -1113,  -4314,   1519,   1780,  -3257,   4375,    582,    180,   -948,   3796,  -4068,  -7616,   -838,  -5902,  -4275,  -6091,   4394,    125,    222,  -2374,  -1778,   1387,    -57,  -4344,  -1963,  -5371,  -3904,   -986,   -208,   2429,   2575,   2952,   2822,   2736,  -2699,   1069,    794,  -1797,   -209,     -4,   2028,  -6089,    995,   4949,  -3695,   -980,  -2311,   1070,  -4240,  -2046,  -2582,  -4410,  -2610,   -449,  -2838,   2863,   3359,   1937,   -739,   -560,  -2694,    168,   -523,   4791,  -4026,   2051,   5938,   4181,  -4567,  -5839,   -271,  -1696,    618,    395,   -991,  -3756,  -1853,    375,  -2649,  -2783,  -3992,   -407,   3846,  -1743,   3072,   -449,  -4418,   2482,  -4733,    -69,  -5389,   3076,  -5656,     64,  -5542,   -607,   -968,   4101,  -1220,    892,  -2817,  -2577,  -5746,
