#include "Mnist_coefficient.hpp"
using namespace dl;

namespace Mnist_coefficient
{
    const static __attribute__((aligned(16))) int16_t statefulpartitionedcall_sequential_conv2d_biasadd_filter_element[] = {
         16707,   2300,  -8182,  22322, -14423,  14097, -12250,  18078, -17090,  15874, -11220, -19217,   3529,  16795, -25591,  23438,  10363, -13548,  16946,  20473, -18283,   3870, -20142,  16344,  19664,  -5951,  21957, -13698, -21464,  -7273,  -6881, -12587,   7928, -24784,  -7092,  16657,   6710,  -7218,  20430,  -7651,  15002, -14083,   6638,  -1719, -15260,  14950,   5917, -26093,  13006,   2530, -25657, -11976,   -602, -11850,   3779, -22782,  22286, -19114, -14220,  25096, -16141, -17356, -11703,   2045,  -8111,  21334,  20057, -24071, -10320,  17540,  15484,  -1388,  23285, -18419,   8936,   6223,  11548,  18729,  15159, -20231,   4822,  -6062,  -9843,  11101,   1812,  -7213,   8286,  21661,   7296, -15645,  -3630,  -1512,  18565,   2093,  12999, -24260,  10206,  13942, -11239,  16047,  13523,   4366, -17171, -24490,   2795,  20987, -13571,   7724,  -8009,  -8571,  12558,    470,  20402,  21687,  20175,  -8466, -13220, -26648,  -3858,   -904,   1424,   6915, -13270,  12376, -25541,  -7219,  16492,   -728,  16305,   2292,  16020, -25440, -25212, -11143, -20597,  -5684,  17911,   2476,  13080,  -9125,  16701,   9748, -16750,  -8836,   9346,  16501,  14175,  23192,   4595,  16827,  13246,  -4270,  18612, -19345,  14447,  -9276,  -3648, -16165, -18318,  12118, -21215,  11164, -11744,  -9173,  -4563, -13219,  11578,  20197,   8682,   3228,  11701,  20299,   5348,   6344, -19976,  15647,   3148,  -3238,   5770,  -1352, -24240, -13032,  10499, -13082,  17967,  -8438,    548,  -3817, -24755,  -5902,   8007,  -2636,  -2864,  -8642,  21712,  19839,  10170,  10655, -18315,  17063,  -6038,   6751,  -2496, -25267,   4131, -15913, -22226,  -5089,  -6149,  -7627,  12721,  13314,  20487, -13467,  13633, -20892,  13333,   5869,  -4047,  13897,  10388,  -9330,  28111,   7689,   5532, -14516,   -189,   -378,   1160, -25551,   3709, -20898,  -9480,   9593, -13954, -22930,  -3446,   1181,  15268,  14362, -13752,  19222, -11009,  27310,  11704,   8731, -13270,  -2556,   2812,   9934, -22638, -25127,  13929,  14970,  11965,  -1559,  -3784,  -3497,  -5853,  10799, -18978, -14490, -11829,  -6296,   -453, -19223,  25227, -17175,  -7146,  -3572, -23823,   6074, -22972,  -1898,  -2025,   7420,    413, -22506, -20286,  18488, -23126, -20322,  -7076,  18870,   4912, -25504, -25211,  11674,  18429,  18906, -24929, -25485, -26111,  -2071,  -4697,  11024,  17169, -19512,  -4667,  20867, -12586,  11348, -24838,  -7907, -13373,  10549,  20630, -14622,   2809,  -2312,  -5004,  -8936,  10058, -15539, -22570,  16069, -21040, -15315,  -9466, -22615, -22198, -14567,  19931,  17260,  19914,  14035, -20970, -12658,  -9949,  -8064,  16485,  -7503, -15830, -12730,   3229, -13239,   4353,  -2275,   2397,  -4505,  -8560,   7039,  13680,   1893, -15494,  11734,  18525,   7331,  19417,  14951,   6992, -17501,   5361, -23365,   8576,  -8572,   2836,  19778,  18550,  -6780,  -1257,  17701,  15853, -16195,  16563, -24884,   2026, -10929,  12019,  -9676,  15694,  17736, -18503,   6683, -18402,  -3374,  -4366, -15848,  -9979,  -4744,  -6972,  16738, -19495,  -8998,  17245, -24180,  10524, -22732, -16059,   7517,  -2621,  12962, -18603,  11301,  13373, -17503,  18862,   1743,  -7416, -24406, -25399,  -8374,  -6559,   1957,  -5005,   -404,  -6427,  15147,  13541,    604,  -6863, -16880,  -4528, -15997,  13288, -10007,   2585,   9597, -16908,   1181,   6461,  16292,  10355,  17404,  21652,   6892,  21284,   4439,  14721,  10767,  -3190, -10376};

    const static Filter<int16_t> statefulpartitionedcall_sequential_conv2d_biasadd_filter(statefulpartitionedcall_sequential_conv2d_biasadd_filter_element, -17, {3, 3, 3, 16}, {1, 1});
    const Filter<int16_t> *get_statefulpartitionedcall_sequential_conv2d_biasadd_filter()
    {
    	return &statefulpartitionedcall_sequential_conv2d_biasadd_filter;
    }

    const static __attribute__((aligned(16))) int16_t statefulpartitionedcall_sequential_conv2d_biasadd_bias_element[] = {
            -1,     -1,     -1,     -1,     -2,     -1,     -1,      0,      6,      4,     -1,     -1,      1,     -3,     -2,     -1};

    const static Bias<int16_t> statefulpartitionedcall_sequential_conv2d_biasadd_bias(statefulpartitionedcall_sequential_conv2d_biasadd_bias_element, -7, {16,});
    const Bias<int16_t> *get_statefulpartitionedcall_sequential_conv2d_biasadd_bias()
    {
    	return &statefulpartitionedcall_sequential_conv2d_biasadd_bias;
    }

    const static Activation<int16_t> statefulpartitionedcall_sequential_conv2d_biasadd_activation(ReLU);
    const Activation<int16_t> *get_statefulpartitionedcall_sequential_conv2d_biasadd_activation()
    {
    	return &statefulpartitionedcall_sequential_conv2d_biasadd_activation;
    }

    const static __attribute__((aligned(16))) int16_t statefulpartitionedcall_sequential_conv2d_1_biasadd_filter_element[] = {
          7192,   1726,   7390,  -7547,   2777,  -8061,   4627,  -5562,   7086,   3513,  -6733,   1267,  -3518,  -7291,  -2987,   3774,  -2136,   2480,   -715,   4130,   1092,  -5262,   4842,     85,    550,    896,  -8173,   2108,   2516,  -6140,  -6613,   2620,   7910,  -3691,  -8667,  -6797,  -9512,  -2839,   8054,   1706,  10762,   7658,   1032,   1357,   3237,   3384,  -4556,   3553,    691,   2378,   7354,  -9172,   6376,  -2046,   1268,   2401,  -3237,    599,   2345,   2044,   1132,   1449,  -5418,   7979,  -1431,  -6542,   8816,  -4508,   5722,  -8029,   3571,   5293,   3654,  -1230,   9379,   3750,   8889,  -9151,   2715,  -6216,  -9669,  -7079,  -4647,   3013,   6296,  -3935,  -1903,  -2942,   6140,   -682,  -7847,   4949,  -8498,  -6334,  -8042,   -381,    557,  -5005,  -4893,    -65,   4056,  -9086,  -7537,  -5583,   4033,    371,  -2602,  -3607,  -2971,  -9439,   1149,   2687,   7995,   5177,   4474,    303,   4440,  -1435,  -7150,   3382,   6433,   6919,   7816,   4468,   5153,   5365,  -3023,  -3819,   2507,   1650,  -8119,  -5237,   5490,  -1824,  -8316,   6185,   3249,   9482,  -6212,   3648,  -4108,   -779,   9097,   2298,  -2087,   8036,   3740,  -1537,   3319,   3398,  -2804,   2665,  13778,  -5165,  -5643,  -1925,  -8548,  -2099,   7185,  -1314,   4272,  -2573,  -6667,  -9222,   9444,  -9033,  -7809,   5861,   5232,   4085,   -560,  -8249,   5473,   6725,  -5233,   8799,   4588,   6000,  -8854,    -29,  -2705,  -4912,   2274,  -4483,  -8594,  12041,  -6085,   3193,   5880,   6483,  -3421,   7383,   3336,  -3508,  -9407,   8091,  -4808,    -22,     78,   1928,    954,  12601,   7559,   2000,  -6452,  -7191,   5804,    258,   7176,  -8931,  -1627,  -9175,   7785,   4416,  -6129,  -5203,  -5342,  -5388,  -5684,  -4811,   6399,    164,   7650,   -242,   6898,   4439,   5223,  -5863,  -2686,   8679,   5236,   7184,   5952,  12409,  -2742,  -9120,  -5190,   6543,  -8978,   8475,  -8277,  -9300,   8631,   -151,  -1335,   -864,   7533,  -5103,   8165,   2560,   2136,  -2126,  -1543,  -6202,  -1252,  -1066,    929,   7603,  -1655,  -9587,  -3509,  -4214,   2992,   1381,  -1544,   9094,  -7522,  -5103,   6109,  -5742,   5627,  -3807,  -6888,   4365,  -6368,  -9704,   7236,  -1698,   6030,  -4648,   4915,  10270,   9598,   7111,   1073,   -749,   -212,  -2551,  -7193,  -8278,   2591,  -7209,   5151,  -3148,   1868,   4505,  -3743,   4886,   8360,  -5272,  -3664,   2414,   -786,  -3186,   7729,   3400,   7293,   2151,   3392,  -2161,   -380,  -8336,  -6192,  -4883,  -1100,  -7288,   5209,  -7179,   5748,  -3523,   5572,  -7870,   -976,  -2468,   8729,   6537,   5595,  -3736,  -1074,    726,   2869,   5308,  -2046,    209,   4687,   3694,   2821,  -8751,   1663,   7458,  -7242,  -3654,  -3124,   4045,  -2005,   5495, -10278,   -914, -10377,   8898,   5090,   4783,   1100,    448,  -9887,  -2780,   4110,   2374,     15,   -866,  -3046,  -3055,   6673,   -235,   5835,  -7109,  -8379,    400,  -8175,  -6317,   7181,  -5076,    408,  -9531,  -8759,  -9803,  -1275,  -8013,   2914,  -8945,  -1579,   4051,   5220,    694,  -5741,   -472,   6256,   -928,  -3001,   6581,  -7323,   2146,   9540,   1832,   3989,  -5837,  -3318,   4051,   2887,  -4770,   -767,   4779,   8027,   2933,  -6721,  -8504,   7335,   7073,    901,   3895,  -9392,  -9287,  -5108,  -4157,  -2752,   8191,   2751,  -8440,    -23,  -2961,  -6398,   3742,   5078,   3223,  -6757,   -905,  -8415,    -41,  -4001,   8285,   2752,  -9442,  -9252,  10387,   4560,   3223,  -5423,  -4163,  -5710,   5766,   7261,   3748,   7498,  -9165,    -14,   2304,   2767,   3357,   7402,  -8311,   2270,  -2943,  -4562,   4875,  -4986,  -1355,  11856,  -3843,   2351,  -3139,  -6682,    818,  10115,  -6312,  -7476,  -7321,   -466,   8670,   -507,  -5713,  -7398,   9445,    436,   1743,   7082,    179,   7165,  -6770,  -8796,  -5536,  -5655,   1539,   5483,   5915,   2951,   8353,   1243,   8440,   -556,   3078,  -5079,  -4401,   7773,   1076,   7784,   4223,     95,  -8411,   4927,   8463,  -4590,  -7030,  -7575,   2014,   1505,  -2877,  -5139,   -610,  -5545,  -2359,   2913,   7735,
          4998,   5153,  -8103,   7026,  -4071,   5238,   2566,   2198,  -4314,    -20,   3717,   2230,   8408,  -2588,  -7769,  -3850,   5295,   9425,   3080,    769,  -9560,   1467,   2459,    398,   -489,  -4423,   9708,  -5173,  -1916,  -1866,   8534,   6810,   6920,   8371,  -8415,  -2379,   7693,  -8825,   8614,   6552, -12726,   5671,   5255,   4839,  -2693,   6605,   8108,  -4569,   5998,   6149,  -1300,   -641,   5535,   6375,   2395,  -8935, -16850,   1698,  -5963,   1544,   2808,  -7585,    560,  -8231,  -6568,  -5437,   2072,     46,   3012,   4254,  -1019, -10206,   7466,   5112,   2597,   1594,   7574,   7288,  -5962,   -619,  -6440,  -1767,  -6203,  -5702,  -2314,  -3435,   -980,   4864,   8410,  -6114,   8300,  -6260,   5655,   6270,   6300,   5208,  -6895,   5024,   7656,  -2194,   1463,  -1655,   5700,   7739, -10195,  -9606,   5960,   7055,  -2418,   8652,  -7299,   -457,  -1716,   6751,   5654,    -13,   1783,   1843,   6006,   3443,   6774,   2257,   6700,  -8134,  -5759,  -7423,  -6778,  -9308,   6840,  -4283,  -8050,    996,  -6100,   3583,    197,   3703,   7475,  -2833,  -5944,   9229,   6637,  -1412,   1785,  -9645,  -3531,  -4121,   -158,   7404,   5692,  -6574,   5533,    226,  -6499,   5520,   7915,  -2791,   -320,  -6487,  -4615,   4466,   5199,  -2587, -10120,     48,   4492,  -6184,  -9894,  -1460,  -3684,  -3394,  -5630,  -9354,  -9984,   4179,   4846,   7166,  -7772,   3102,  -1740,  -1597,  -5733,  -4172,    759,  10147,  -9260,  -5188,  -4902,   7370,   8333,  -6099,   8317,   -545,   7486,  -4088,  -2374,   1799,  -5257,   5681,  -8533,  -5763,  -4776,  -5544,   3378,  -5393,   3024,  -3793,  -9194,   1662,   2081,   -705,   1592,   1036,  -8576,  -7892,   2150,   3452,   2273,   3919,  -6760,  -5757,  -7251,   2636,   6662,  -5282,   -584,    656,   8558,   -689,  -2896,   1222,   7432,  -8717,  -4652,   7964,   3132,   6423,   5151,  -4947,  -8777,  -4698,   3438,   7769,  -7532,    -39,  -8805,  -9400,  -8504,    241,     47,  -3529,  -9178,    375,  -9426,  -9911,   7610,   -387,   2945,  -5431,   -232,  -2853,  -5655,   3222,   7195,  -3344,  -7052,   6676,  -9863,  -4112,   7345,  -1116,  -5519,  -2952, -10158,  -7683,   3327,   1134,  -3987,   7755,   5075,  -2147,   1535,  -8576,   2863,   -516, -10046,   5593,  -8260,   2804,   2203,   3989,   1706,  -8099,   6527,  -5613,   5085,   7060,   2638,   -894,  -4877,  -5338,  -9193,  -2151,   4138,  -8457,   7489,   7969,   3766,    121,  -4963,   3553,  -6891,  -1154,  -5827,  -5679,   1468,  -4351,  -2377,   5649,  -9942,  -6283,  -9628,   6076,   1137,   6187,  -5232,   8558,   4573,  -7723,  -1033,  -7099,   2935,   9074,   8959,    174,   8764,   4824,  -1073,   2614,  -7378,   8411,  -4760,     16,   2563,  -4300,  -3699,   -692,  -8529,   2303,  -3509,  -3999,  -7039,  -2963,  -2828,   2670,   1254,   7249,  -2499,   4847,  -3175,  -5879,   5419,   6999,  -8658,  -4865,   3710,   1764,   4101,  -5327,  -4744,   9401,  -1019,   1381,   2167,  -1951,   4467,  -3558,  -1713,   5971,   6460,  -8017,   4254,   5400,  -1758,   3551,   1396,  -7188,  -6395,   8009,  -7747,  -1861,   -828,   4094,   3601,   2949,  -7815,  11017,  -3615,   3014,  -6795,  -6787,   8615,      3,  -5021,  -5564,  -1528,   -628,  -5955,  -3781,   7698,  -1298,  -4034,   5922,   2837,   -842,   7953,   -710,  -5057,   -989,  -6040,   5717,   1731,   6544,   2352,  -4876,   7894,     15,   1617,  -5633,  -7773,  -7429,  -4144,   5846,    557,   2922,  -7663,   4237,   1888,   4831,   1734,   7790,   6122,  -4458,  -5635,  -9575,  -8136,  -5205,   -991,  -8438,  -9498,  -6986,   2253,  -4334,   5588,   6777,   5269,  -3479,   1267,   7487,   1117,   2212,  -1753,  -9431,    770,  -4601,   8262,  -4896,  -4660,   7977,   3206,   2548,  -1228,   5928,   4433,  -9492,  -7500,   5447,   5483, -10122,   2537,  -6009,  -2375,    725,  -5811,  -7184,  -1240,  -2867,  -1768,  -9406,   3009,   2252,  -9146,  -1135,   -505,  -7555,  -8043,  -2087,  -1403,   5654,  -2933,   1711,  -8786,  -7695,    197,   6695,   6289,   2555,  -9133,   7666,   3849,   2953,  -6894,  -3456,
         -1208,   7233,    137,  -7516,  -3934,  -6980,   1569,   1070, -10871,    212,  -5031,   9116,  -9057,  -8439,   9214,  -6851,  -7552,   7747,   6844,  -8685,  -8459,   6623,   1378,   7393,   3810,   8378,   4834,  -6934,  -5889,   4401,   -850,   9553,  -3426,  -8957,   -744,   6908,  -7288,   -379,  -8353,   3417,   4749,   3602,   6161,   2677,   5481,  -8568,   4672,   7580,  -1085,   3287,   5255,    -59,  -4464,  -8363,   -372,   6507,  -8538,   -474,  -6412,  -3111,  -5172,  -1685,    466,  -6909,  -3137,    795,  -7192,   6764,  -6239,  -6479,   2280,   6510,   5332,  -6449,  -4064,   4610,  -8185,  -3701,   5631,   8803,  -3036,   7229,  -5473,  -9766,    711,  -7217,    607,   5262,  -6972,  -1012,   5358,  -8841,  -7706,  -9123,  -8496,  -9632, -10115,  -7048,   3828,   6485,  -1623,  10054,  -2160,  -8282,   2502,  -5477,  -4285,  -4822,   -709,   -716,  -2937,  -1601,  -5818,  -3339,  -4914,  -2878,   4106,  -6671,   7431,  -4677,  -4031,   3099,   4726,  -1030,  -7661,   4675,  -7252,  -4346,   4441,   6884,   4581,  -3539,    -25,  -2551,   -358,  -3865,   2044,    -49,   9267,   3923,   4865,   6305,  -8852,   7600,   2622,   4838,  -2717,   6767,   8369,   7697,   1990,   6137,   1827,   4123,   3102,  -3933,   8354,   4688,   2879,  -3057,   8324,  -4263,   5842,  -5350,   7583,  -5524,  -5245,   6980,  -5194,  -3517,  -6251,   1635,   3462,  -1112,   -394,  -4391,  -6871,  -4212,   4947,  -1241,   9228,   1072,   -401,   5408,   2245,   -409,   8720,  -6910,   9392,   5392,  -5743,   6556,   9512,   -733,   8207,  -4245,  -6306,  -1292,  -6198,  -3767,   6220,  -6963,    408,   3342,  -4937,  -2149,   6282,  -5528,  -5370,  -7203,   7451,  -1857,   3344,  -4162,  -4010,   5507,  -7141, -11979,    322,   3860,  -8590,  -1422,   8542,   4094,   5590,  -2025,  -3591,  -1893,  -1082,  -4743,   1574,  -6518,   1542,   -944,   7417,   5258,   7540,   6375,  -2620,   6416,  -6871,  -3392,   8637,  -4612,   9551,  -4639,  -1009,   2002,   7870,  -6428,   1264,   6812,   1115,  -1373,   1096,   -165,   3135,  -9663,   -934,   6444,  -7955,   6408,  -4523,  -3929,  13243, -12446,   8075,  -4063,  -7563,  -4472,  -3440,   3254,  -2832,   9606,   8487,  -1025,   2359,  -5223,  -4806,   2737,   2839,  -2313,  -3345,  -3465,  -2635,   5468,   -178,     90,  -9266,  -7843,   7642,  -4013,  -7132,   8703,  -4874,   7389,   1161,    287,   1478,  -2150,   6983,  -4322,  -6510,  -5529,   3078,   7388,  -2739,   4944,  -1713,      3,  -3816,  11514,  -1933,   6745,  -2545,  -4422,   3996,  10236,  -9263,  -4906,  -1670,   -238,   9932,    726,  -1645,   -258,   8085,   2739,   1350,  -4531,   7893,   -119,   6919,   6181,  -5048,  -5943,  -2317,    948,  -3067,   4250,   7036,   5182,   8954,  -1889,   8548,   8246,  -1197,    724,  -4420,   8055,   3385,  -8221,  -9255,   2801,   1348,  -2619,   9901,   8733,   3159,  -2091,    -78,   8294,   8204,   1341,   2461,  -5993,    887,   7575,  -5012,   5383,  -4732, -10275,  -5540,   4481,  -8271,   -452,  -1648,   2991,  -3615,  -2896,   -770,  -6735,  -2769,  -2408,  -4471,   5251,  -6342,  -1746,   3760,   5785,  -4471,   4499,   2118,   1479,   -206,  -6853,   7031,   9328,  -6547,   1653,  -5404,  -8005,  -6214,   4895,  -8103,  -4288,  -6800,  -7107,   8343,  -6986,  -7698,    551,  -6213,  -7883,  -5485,  -4280,  -7802,   4143,  -1483,  -4015,  -6651,  -7118, -10356,  -6296,  -6708,  -5525,   9376,   4870,   1103,   5204,   2177,   2924,  -8967,   2738,  -3748,   2587,   7061,  -6283,   3374,  -5522,   5233,   4413,   3008,   1655,   -149,  -3881,   9566,  -6361,  -4153,   3824,  -2361,  -9104,   5436,   6328,  -1255,  -5085,  -4349,  -5732,    230,  -8321,   5182,   5027,  -9289,  -9545,  -1763,   4174,   2275,   5265,   6132,  -7296,  -7286,   8861,  -6389,   9570,   7948,  -8174,  -5815,   2201,   4114,   6747,     57,   6122,   4172,  -4014,  -5017,  -2502,  -3017,   2595,  -1389,   4281,  -2083,  -6875,  -3761,    280,   5110,   6823,  -4837,   1979,  -1575,   2105,    949,   1453,   7209,   2136,   1284,  -5812,   2512,   7209, -10016,  -8157,    378,  -3806,
         -3098,  -6290,   8144,  -9059,  -9327,     43,   7594,  -4950,   5212,  -2028,   8635,   5066,   2715,  -2159,  -1321,  -9377,    425,   7904,  -9795,  -1373,  -1054,  -7506,  -9764,  -4104,   6593,    772,   2016,  -3649,   7741,  -7913,  -8158,  -2839,  -9400,  -2112,  -2949,   9099,  -6068,   5859,   -771,   -426,   -932,   6404,   8227,  -6023,  -2342,  -6858,  -2913,    322,   5749,   2651,  -1733,    227,   2117,   -672,   1949,    265,   1590,  -3443,   4430,  -1199,  -2645,   2581,   1861,  -2632,   4219,  -2281,  -7876,   7867,   8179,   3148,   5768,  -2098,   5013,  -6708,  -3669,   2841,  -4668,   4787,  -7702,   3245,  -8320,   9455,  -9467,    501,  -2266,   7193,  -1860,   2603,  -4541,  -3997,  -3162,  -6131,   3156,   7137,   7344,    380,  -9832,  -2289,   4069,  -7761,   4970,   -258,   1119,  -4250,  -3389,   4365,  -3407,   7267,   1603,   4574,    352,   7587,   6024,   6104,   6584,   8136,   1311,   1071,   2886,   6714,  10279,  -8333,  -5895,  -5051,   7797,    870,   1876,  -5840,   7003,  -4338,   3466,  -3482,   4794,  -3342,  -8749,  -3019,  12754, -10211,  -5303,   2780,   1702,   6245,   3222,  -8117,  -1495,  -2059,   1960,   8640,   7615,  -6249,  -5845,  -6567,  -5884,  -8604,   9998,  -3878,   1602,   8262,  -2529,   8253,   -775,   8233,  -2859,  -7219,  -8836,   5108,   1149,  -7909,   5454,   1382,  -7516,   8360,   9771,   8398,  -7277,  -1186,  -2295,   8257,   2766,   7248,  -3712,   5339,   1538,  -2167,  -6553,  -7939,  -5753,   9220,  -5112,  -2784,   -232,   1462,   5106,  -2160,  -6773,   6251,  -2318,    756,  -1893,   2871,  -3630,   4490,   5273,  -7238,  -3054,   1022,   6452,  -2963,  -1007,   -947,  -1789,   1729,  -9223,   8412,   1235,   4911,   2846, -11557,   5294,   -330,   1089,  -1014,   1659,  -2838,   3787,    995,   -440,   2536,   2581,  -8345,  -4685,    -10,  -4630,   9269,   7326,   3171,  -2937,   4185,  -3728,  -2481,   5581,   6897,  -3067,  -5884,   8225,  -4209,   8353,  -6172,  -1684,   6694,   3475,  -8204,    653,   4389,  -7313,    440,   9045,   4957,   4723,   6085,  -1265,   -863,   3010,  -2294,  -8906,   4572,   3985,   8404,  -2862,   9094,  -3590,  -7314,   4286,   3036,   3353,   8736,   8049,  -2551,   1188,   2214,   2412,   1458,   6572,   5878,  -6317,  -8151,  -6446,  -3758,   9306,   7781,   2546,  -8310,  -6316,   5692,   2560,   -849,  -4797,  -7784,  -2420,  -4085,   1497,  -4299,   1008,  -6507,   5465,  -5996,  -5674,   1328,   2904,   2634,   7651,  -4587,  -1571,    839,  -2693,    234,   1644,   -830,   2997,  -8280,  -6384,    284,    306,   5227,  -3347,   3340,   8045,   9443,   4701,  -3359,   3979,  -1788,    769,   1884,  -2121,   5018,  -3665,   1281,   2824,    835,    401,  -5428,   2021,   4196,   1229,   3820,  -1944,   6061,   -641,  -8151,   8909,  -4848,  -6756,   -265,  -2697,   4808,  -2794,  -2022,   4450,  -3579,   3319,  -7045,   4441,   8606,   8364,  -2875,  -8585,   5362,   3332,  -3656,  -9518,   2272,  -6412,   5609,   2573,   4143,    242,  -4658,     40,  -6905,   6063,  -6295,   4655,  -4748,   8399,  -4946,  -1539,   6402,   8467,  -3727,    278,    -53,  -7173,  -5053,  -5857,  -5968,   1811,  -3624,  -2548,    -25,  -2212,   6130,   6860,   1609,   6044,   7968,    430,   4410,    -47,  -2510,   4118,  -4617,  -4684,   5250,  -4759,   7032,   6723,  -7157,   8956,   6638,   8321,   1568,   7706,  -3555,  -3147,   5073,   4195,   4066,  -1559,  -8984,  -7187,   5049,  -4042,   6088,   8689,   7972,  -3553,   4394,   2928,   2291,   8440,   6379,   1931,  -1343,  -6423,  -2385,   1809,  -2131,  -7067,   2311,  -7621,   4911,    -44,  -7085,  -7344,  -3157,  12556,  -6260,  -1260,  -9976,   1342,   8884,   1370,   4158,  -7340,  -5633,    664,   6021,   8551,    790,   -677,  -4659,   7590,   5816,   8633,  -5520,  -5172,   1180,  -8000,  -3007,  -3107,  -3640,  -1015,  -2790,  -9780,   8809,  -2733,  -8097,  -4252,   2130,  -3279,   8403,   -567,   -196,   6061,   6423,   2264,   1040,   9380,   4872,  -6615,  -4575,  -3098,   3193, -10519,   3046,  -4556,   4280,   5008,  -7991,   5271,    555,
          8079,  -2905,  -6603,    588,   4385,  -8753,   2589,  -2137,   -404,  -5092,  -4123,  -7011,   4994,   4060,   5374,    -20,   5203,     54,  -2459,  -4053,  -5336,  -1914,      5,  -3012,  -6455,  10491,   3959,   6870,    334,   6593,   8281,   4208,  -5499,  -2588,  -6522,  -3673,   4444,   6350,  -8468,   1854,   7547,   -530,   5005,   4946,  -1382,   3545,   2061,   1475,  -2954,   2162,  -5226,  -2335,   6023,   4036,   6987,   7409,  -3039,   5333,   4238,  -3627,   3753,  -6851,   5065,  -3741,  -2199,   7377,  -2310,  -5466,   3342,  -8135,    736,  -2380,    -26,   2706,  -2475,   8309,  -5835,  -4794,  -7908,   2764,  -6097,  -7751,   6360,   1549,   3375,    301,   7201,  -3689,   4871,  -2703,  -4437,  -7538,   4775,   3053,    439,   9808,   -335,   6377,   2309,   3545,  -8548,   7254,  -4029,   1977,  -4714,  -4374,   7735,   4546,  -3895,   3178,  -7787,   2786,   4347,  -1190,  -1202,  -7877,   6423,   6524,  -7333,   7129,   7759,  -9601,  -5549,  -6133,  -1382,   4917,  -2839,  -5882,   2528,  -8072,   4867,   8706,   8399,    435,   4364,   7803,  -3063,  -8146,   2113,  12225,   1007,  -7009,   2775,  -2963,   6291,   1198,  -3357,  -4922,   8283,  -1551,  -5501,  -1942,  -1717,  10700,  -2207,   7156,     31,  -4181,   2439,  -2237,  -2510,   5746,   6167,   1129,  -5695,  -4222,  -1292,   9456,  -6666,   6453,  -3886,  -5971,   6413,  -1582,  -4457,   5858,   9855,   4183,  -6037,   1939, -14109,  -3357,   -855,   5691,  -4015,   8612,   2433,  -8264,   4540,  -2863,  -7370,  -1738,  -6827,  -3338,   5139,   1136,   -336,   8330,  -8795,  -5588,   1423,  11436,   1523,   5231,   9850,   1597,  -9403,  -2428,  -7982,   7604,   2068,  -5918,  -4136,   7293,  -3770,  -2152,    986,  -4106,   4218,  -4380,   2100,   -446,  -3968,   -422,     24,  -5665,    897,   2859,   -756,  -6002,   6776,  -9101,   5725,  -2622,  10275,   3022,   3719,   -305,    -82,   4388,    787,   6366,  -5045,  -2125,  -1607,  -5447,  -4718, -12001,   5585,  16948,    481,    850,   4003,  -6178,  -9960,  -8586};

    const static Filter<int16_t> statefulpartitionedcall_sequential_conv2d_1_biasadd_filter(statefulpartitionedcall_sequential_conv2d_1_biasadd_filter_element, -16, {3, 3, 16, 16}, {1, 1});
    const Filter<int16_t> *get_statefulpartitionedcall_sequential_conv2d_1_biasadd_filter()
    {
    	return &statefulpartitionedcall_sequential_conv2d_1_biasadd_filter;
    }

    const static __attribute__((aligned(16))) int16_t statefulpartitionedcall_sequential_conv2d_1_biasadd_bias_element[] = {
            -2,     -2,     -3,     -2,     -3,     -3,     -2,      1,      2,      5,     -4,     -2,     -2,     -1,      0,      0};

    const static Bias<int16_t> statefulpartitionedcall_sequential_conv2d_1_biasadd_bias(statefulpartitionedcall_sequential_conv2d_1_biasadd_bias_element, -8, {16,});
    const Bias<int16_t> *get_statefulpartitionedcall_sequential_conv2d_1_biasadd_bias()
    {
    	return &statefulpartitionedcall_sequential_conv2d_1_biasadd_bias;
    }

    const static Activation<int16_t> statefulpartitionedcall_sequential_conv2d_1_biasadd_activation(ReLU);
    const Activation<int16_t> *get_statefulpartitionedcall_sequential_conv2d_1_biasadd_activation()
    {
    	return &statefulpartitionedcall_sequential_conv2d_1_biasadd_activation;
    }

    const static __attribute__((aligned(16))) int16_t statefulpartitionedcall_sequential_conv2d_2_biasadd_filter_element[] = {
         14507,   7109, -15852,  -4600,   8282,  -5084,  -8043,  21275, -12118, -12532, -17427,  10116,   2450,  15893, -16385,  12567,   5974, -11324,  11244,   5938,  -5555,   6374,   2550, -19226,   7397,   7338,  15816,  -3791, -13574,   5021, -18233,  -6265,   7086,  -7969, -18833,   7400, -10135,    311,  -3278, -12507, -12796, -11427, -11803,  16449, -18431,   9951,  15382,   8948,  -5038,   7685, -11269, -11232, -13395,   8034,  12201,  -4565, -15887, -19112, -10616,   4618, -19070,  13042,  -4520, -14485,   8851,   4174,  -1405,  13724,  -3179,   3516,  14298,    127,   4622, -13778,  13980,   6688, -15414,  13047,   4452,  10513,  -5096,  16876,  -1611,   9270,  10839,   6640,   5807, -16669,  -5745,   -384,  10875,  13701,  -6118, -10650,   8660, -12214,  10573,  -2649,  -9413,  -2841, -12162, -16015,  -2481,  -8918,   -455,   4307,  19547,   5525,  16909,   4987,  14260,   1423,  -6161,  -7330,   5116, -13870, -11520,  -5010,   2327, -10550,   7994, -12382,   5870,  12190,  18357,   -528,   -964,  -8369,  10500, -12279,   9719,  17330,  -5289,  -4214,  17554, -10138, -20703, -17307,  20677,  -6891,  10517, -17754,   6355,   4031,  -8407,  13146, -18335, -15453,  11467, -15650, -11462,   6423,   4636,  23325,  -9407,   3801,  14107,  -1015,  10698,   7534, -10733,   -469,  -6685,  15604,  -3888,  17313, -11905,   3094,  14367,  -9037,   9102,  -9810,  12646, -16822, -12376,  13077,  -3702,   7944,   4403,   8509, -14934,  12513,  18497,  19920,  13870,   5010,  17083, -15929,    634,   -282,  -9464,  -6495,  17615,   3613,  -6840, -19240, -16810,  17715,   8701,  -5912,  13666,  16390,  -1081,  17809,  10348, -16510,  15955,  14652,   4901,  -1157,   5640,    580,  15163,  10626,    107,  -9742, -16401,   6306,  12167,  -9973,  10352, -12422,  19916,  -4468,  -9271,   6445,   9036, -13571,  -4519,  18850, -15437, -11267,  17571,  -7041,  -3547,  17076, -15768,   2961,    226,  -3346,   5472,  10410,  -3959,   9802, -18196,   6801,  -1057,  16762,  11961,  22828, -17499,  -1025, -16965,  -5910,  14803,  16018,  -4119,   1774,   3526,  14078, -14576, -16813,  10287,   -536,  16336,  -2538, -13690,   8478, -17780,   3601,   2981, -11740,   2217, -14405, -16069,  -2045,   2358,  -9111,   9133, -12432,  10432,   2998,   5752,   6608,   8176, -10554,  -6977, -11932,   4215, -12771,   -175,   7670,  -2911,   9913, -14498,  -6497,   7186,  10330,  -2793,  12122, -17177,   1095,  16521, -10327, -17382,   -221, -16741, -17593, -20361,  -1210,  -3264, -18064,   5528,  -2549,  17264,  -5581,  17113,  -8736,  -6225,  -9834,  10506,  13596,    296,   7028,  13164,   4710, -14401,   6273,   8639, -13112,  14452,  -4607,  -7458, -13937,   1359,  15825,  -2064,  -7365,  14003,  17038,   5799,  -1594,   3873,  14761,  10471, -15036, -17235, -12829,   3208, -13971, -10362,  13773,  11643,  13520,   5563,  -1035,  -1033, -11022,  -5860,   5136, -19348,  15794, -13520,  15473,   8033,  10801, -15351,   4120,  12723, -19058,  14710, -18562,  16827,  13766,  11798,  -2448,  15717,  -9060, -15141, -18605,  14119, -14820,   5714,  -7378,  17288,  12742,  13934, -16059,  14482,  16495, -19387,  -4362,  -8315,   -528,   1507, -18337,   4078,  14224,  -6044,   -824, -14953,   7894,  10951,   8460,  10219, -15121,   9498,   2858,  -9072, -11792,   4671,   -695,   3336, -10297, -16892,   9006, -16366,    136,  -4839,   8148,  18197,   8981,  -2925,   8400, -19025,  14592,    594,  -5741, -18588,    220,  12495, -15840,  -1907,   2659,  10523,   8580,  16103,  -8926,  -6821, -16140,   -242, -13498,  18226,    274,  15821,  -3790,   9452,  17843, -11099,   8702,   3611, -14192,   1805,   8126,  -5328,   4109,  -3251, -14875, -12530,  -4757,   2696, -17603, -21344,  -1879, -13260,  14979,   6828,  -7605, -17289,   7853,  -4346,  -6452,  -6857,  14475,  -7587,  13050, -19039,  17918,  -3916,  15370,  12965,   7125,    876,  -6272,   9408,   7382,   2148,   2433, -12461,   5054,   1540, -10421, -11218,  14132,   4790, -14566, -16603, -14446,   7744,  -5420, -16825,   3132,  -8962,  -1941,  -6893,  -7296, -11591,  -8284,  13334,    305, -14891,  16689,
         -6541, -18028,  -7551, -15532, -11117,  15587,   5036,  -6951,   3475,  14682,   6240, -20416,  -5946,  12277,   3847,  10292, -12916,  -5242,   5399,   7142, -18028,   6631,  -9492, -15118,   8640, -10318, -16248,  11434,  -3890,   2715,  -5899,  11409,   -960,  18301, -17104, -12214,  10050,  -8831, -14195,  16875, -12269, -10628,    -40,  -7206,  -6040,  17773,  17136,  17824,   -589,  15292,   1615,  -8710,   8931,  -8884, -13476,  -6485,  11816, -12322,  15815, -15412,  16316,  -2324,   2022,   3414,   1328,  -4486,   -472,  -1445,  -2330,  13265,  -9569, -15523,  -6986,  17612,  10640,  16361,  17579,  15394,  11469, -16632,  -5133, -15918,   9713,   9548, -12299,  17276, -10508, -14295,  11395,   8753,  17156, -14651,  -1565, -12029,   6047, -14553,   4604,  -4156,  -1051,  -9921,   9588,  -3473,  -2809,  -8168,   2151,  13266,  -7617,    447,  -3706,    969,  13927,  -7856, -19145, -11856, -13729,  17053,   3847,   7393,  15292,  14989,    125,   2223,   4492,  14485,  11297,  13760,   8906,   4533,   4177, -15792,  -6736,  12349,   1826, -12931, -10323,  -5879,  -6275, -11090,  15067,  -3487,  17936,  -7435, -10834,  14825,   -626, -19132, -11460,   6200, -14065, -10702,  -3675,   3170, -14386, -17546,  12867, -10016,   8844,  17841, -13669, -11491,  13126,   4292,  -2140,  13146,   2553,  12144,  -3231,  15255,  -5189,  15325,  -7006,  15663,  -3732,  -6912, -18915, -12403,  10983, -19136, -15811,   5490, -10234,  16832, -17178, -10222,   1636,   4876,  -1797,   9073,   7365,  11018,  -6300,  19612,  10776, -18139, -17731,  14112,  -8603,  18281, -16140,  -2940,  17272,  13625,   3904, -16566,  -2880, -15167,  18503,   5329,  17970, -20399,   4561,  -1802,  14325, -17120,   7510,   1700,   4445,  -1023,   8488,  -3382, -15442, -11689, -19670,   3647,  -8192, -13600,    480, -12671,  -6221, -11372,   8466,  -5887,  14127,  14550,    -33, -16552,    551, -13999, -13643,   2029,  14995, -16234,  -3997,   4661,    122,  17047, -12798,   -694, -13828,   2870,  16081,  17014, -15712,   7385, -19897,  18420,   -406,  14448,   4192,  -8377, -18636,  -5091,  -4026,   3074,  -8869, -19801,  -6333, -17983, -18416,   5361,   1895,  13699, -12539, -14159,  18148, -15770,   4490,  15750,   9037, -12410,  -9403, -15469,  -2285,  11603,  -7066,  14392, -13507,  -2978, -15491,  -4658,  -3230,  -2373,  18565,  10319,  -2921,  14639, -13765,  12137,  10816,  -6706,   6426,  -5292,  -1940,  -9607,  -9953,  14050,  17140,  -2844,   9369, -19937,  -4503,    514, -18990,  -4827,  -2243, -17293,  -4444, -10992,  -4679,   6341,  -4243,  -8476,   -930,  13080,    194, -15894, -15558,  13327,  14912,   2740, -18812, -11205,  -5189,    749,  11582,  12346,   3125, -16774,  11304,  15201,  -9618,  -6442, -14801,   2925, -12520,  15702,  14145,   7207, -16824,  -5188, -12215,   3415, -13113, -18752,   5055,   2549,  -4359,  14037, -20020,  12153,     47,   5396,   4809, -16233,  16945, -17907, -17071, -11475, -14997,  -7113, -14061,  16528,  -6844, -17808,  15285,   9102, -17745, -15591,    249,   1486,   9003, -20524,   1649,   5291,  -7890, -16113, -10356,  -6151, -10909,  -1022, -14094, -18152,   5257,  -3174,  12415,   3270,   9380,  15490, -12734,   9103,   8833,  14475, -14884, -17960, -10718,   5393,  12940,  12634,  -7859, -17206,  16323, -19689,   -330, -16268,  15619,  -6040,  17940,  15175,   4653,   4304,  -9860,   9399, -10527,  -6799, -15822,  11023,  -4290,   8420, -18402, -10677, -11571,   8096,  17201,  -3758,   6174,  14003,   7906,   8634,  16448,   5952, -10243, -14370, -14591,  10816,    524,  -1789,   8297,   7147,  -3400,  -1680,   2032, -18358,  -5308, -14584,   1831,  10349,  11748,  20445,  -2070, -18683, -12442,  -1714, -17861, -12133,  15627, -16111,   1175,  16398,   2557,   -990,   5542,   9755,   4406,   4939,   9325,  -8064, -12929,  -1615,   4112,  -2364,  13925,   9493,   5941,    688,  -2211,   4768,  10998,   7725,  16776, -14845,  11088,  11363, -17504, -15743,   2259,  -3999, -17271,    276,  16891, -14198,   -500,  15941,  14140,   2489,  -2342,   5110,   2387,  -2599, -15204, -19092, -13052,  -5307,
         15939,  -7402,  11776,  -9228,  -2061,  -5796,  -2830,   1094,   3235, -11155, -12641,   7956,  17402, -19680,  14823,  -5972,  -8049,   7547,    714, -19165, -18707, -10962,  10123, -16000,  -9165,  16352, -11839,  -1024, -14196, -16080,  10062,    857,  -9780,   5950,  12065,  10711,  -9157,   3041,  15954,  14943, -16674, -12375,  15062, -18282,   9774,   6504,   -375,    -32,  14410, -17545,   8083,  -8733,  11161,   5323,  17370,   9558,  13612,     14,  -8267, -13260,  17402,   1008,   8380,  14686,  -8491,  16891,  -9998,  -9836,  -4465,   2174,  -9088,   9913, -16869,  12378, -10933,   8720, -13606,   8337,  12231,   9988,   3782, -15453,    597, -15585, -15050,  -2436,   5656,  -7828,   5616, -15857,   1176,   -164,   -775, -16851, -17932, -16082,    816,  14206,  17065, -18813,  -6609,   1175, -12672,  -1019,   3594,    675,   1516, -13780,  -9702,   7252,  -2557,  18639,  -2915,  16845, -16586,   6362,  -7499,   7288, -19117,  -1381,   7912, -19828,   7701,  11488,  -6731,   3780,   2161, -10071, -16120, -19137,  -9520,   2904,  -7723, -13126,   3175,   6919,   8634,  -9489,  11343,  17300,  -1145,  -3729,  12055,   6891, -12799,  -9887,  -7624,  -1722, -13904, -17622,   1241,  -8581, -14380,  -9026,  15295,  14793,   7479,   -555,  -2087,   9659, -19605,  10566,  14043,   -795,  15906,   4906,  -7661, -17405, -17625,  -3509,  -1386, -14309,  -3206,   4401, -13607,   3883,   7370,  -6358,  12279,   8599,  -6494,  -8527,   3818, -16599, -15011, -12133,   5817,  13861,  -3334,  -3441,  17221,  -9220,   4988,   8619,    184, -11899,  15316,  13518,   6692, -12227, -18079,  13871,  11436,  -4251,  -5525, -14882,  11387,  15676,   -164,  -7993,  14526,  -9544, -19894,   7922,   3018,  19139, -14697, -12386, -13909,  -8603,   7778,   8056,  -5148,  -4303,   8865,  10997, -13568,  -6353,   8012,  -2338,  -5584,  17512,   1983,   9306, -15237,  -1827,   1515,   -396, -12603,  -9167,  -5171,   5630,  -3801,  16344,   5942,  -4267,  -5767,  -9952,  12512, -15123,   3726, -10423,  14411, -14235,  -4760,  -7044, -13292,  15626,   -436,  10188,   4044,  -7345, -14894,  -4528, -15141,  16579,    945, -12615,  -3092,    648, -18820, -10990,  11146, -12582, -17288,   9558,  -4030,  15484,   6621, -15858,  -6615,    659,  17266,  -5931, -14131,   6661,  16932, -13056,  -6734,   -324,  -4897,   3409,   4005, -18505, -15736,   6259,   5807, -16562,  -9284,  -2301,   6307, -10631,   6913,   3804,    274, -14392,  -1828,   1501,   1670,  10576,  12899,  11398, -18298,  11269,   8282,  -6727,  -3842, -10551,  -6801, -17349,   6047, -17001,  -3717,   5179,  16324,  -3042,  11013,    826, -14355,  10157,  -4090,  -5033,  -4398,  -5685,   6086, -14773, -10905,  16305,  -3981,  -5189,   3551,  -6741,  11582,  16188, -10880,  11786, -16901, -18485, -18979,  15895,   3351,  12954,   3023,   2453,  -5314,  -9464,   8908, -10634,  -9357, -15100, -16670,   7762,   2454,  -3140,   9787, -18298,  -7040,  -5678,   6225,   -227,   4340,  10139,  -2460, -15679,  -4351,  14975,   1949, -18463,  -8357, -12801,  16853,    -46,   -973,  -8002,   8748,    743,  13437,   4879,  -8323,   3471,  -7746, -16108,  -8472,  16491,   6882,  12794,  -9770,  13684, -10033,   1544,  -2472, -16092,   2399,  -9344, -16779,  13102,  -9706,  12200,    853, -10598,  -1022, -10548,  16189,  17295,  15807,  -3875,   8666,  -8887,   3688,  -2417,   1513,  15320,  11277, -17633,   1853,     37,  -3262,   8959,  -8271,   9791,     67,  14629,   -290, -13481, -13209, -19795,  -6156, -11796,  15037, -12813, -17502,  -6980, -16950, -14036,  -5212,   7289,  -9381,   7210,  -8030,    307,  -8402,  13832,   8535, -19567, -15918, -18338,  -6888, -10530, -12129,  11733,   4238, -17734,  -5617,  14600,  -3218,  -7183,   8438, -17319, -16498,  -2145,   6485,   1800,  12049,  -4455,   4590,  16425,  -7154,  -1176,  12931, -20029,  15975,  -2909,   3937,  -5544,  16355, -18522, -10242,   5182,  16524, -15586,  -9326, -12853,  -5583,  -5418,  -7108,  -9069,   1119,  -2033,  -1003,  15062,   9426,   7124, -18002,   2426,   7490,  -3993,   2460, -12400,  -5227,   4016,  -8332,   1805,
          3532,  -5079,   2640,  -4872,  -2341,   2597,   2975,  -1662,  10091, -13536,  11816,   9230, -17266,  -8291,  -5405, -17074,   5178,  11812,  10648,  -5811, -11092,   2962,  10366, -19428, -13191,  -5066,  11332, -10971, -15021,  10839,  -8139,   2273,  14665,   6666,  -1512,   -315, -19692,   6286,  -7640,  -2128, -18223,   2087,   5070,   5065,  13930,  -8988,  -8725,    564,  16221,  -6407,  10048,  15451,  -5032, -11523,  -7753,   9434, -10823,  -7921,  -4077, -10830,  12701, -15383,   8480,  -5703,  -4592,   5302,  -5399, -18732,  -2444,   3873,  15057,  14863, -18277,    122,   5166,  -1430,   -343,   1272,  -8411,  15258,  -6880,   3406, -11395,  16801,   4141,  17715,   7086,  -9082,   -662,    353,    134,  -4054,  -6814,   7995, -19350, -15523,   1923, -14864,   6158,  -6356,  -1802, -13208, -18149, -10604,  -6755,  10116,  12629,  -7499,   8739, -17053,    139,   5893,  12501, -15335,   7114,   9730,  -1253, -15058, -11020,  -9455,   9209,   8422,  15054,   3637, -20130,   1826,   -856,  -1993, -13518,   6942,   9847,   5686,   2633,  14028,   8993, -15507,  13453,   5406,  19437,   -490,  11282, -19595,  -4442,  -4902, -10356,  11125,   9461,  -7702,  13896,  16153,   1886,   1296, -15847,   9860, -14459, -17172,   6113,  12615,   2256,  -6189,  17348,   8543,   6799, -20433,  15152,   6952,  11298,  -4425,   8217,  15079,  12414,  11140, -14887, -10878,    446,  -5043,    128, -19106,  15086,  -1034,   8527,   -842,   7365,  -1601,   6821,  12214,   7109,  14716,  -6991,   -492,  -6088,  -3191,  17759,   2068,   7530,   9277, -14886,  -6711,  13598, -19534,   5373,   5563,    937, -10006,  -5692,   9915,   5327,  -7552, -11374,   -295, -14504, -12700, -16049,  -9484,  -2633, -20838,   5841,  14934,   4243,  11801, -20376,  -6854,  13893, -11166,  18209,   1921,  17036, -14845, -14924,  -1256, -19156,  11345,   1120,  13470,   6312, -10345, -13334, -17257, -19254, -16658,  -8115,  -8414,   5318,    239,   6681, -12132,  14750, -12469,  -4631,  -1407,   8548,   3464,   9130,  -7814,  18127,  -8871,   9106,  -4426,  10710, -14379, -14976, -14983, -11832,  -3391,  12379,  -9266, -14065, -18302,   6938, -17466,   4931, -13752,   5840,  -1507, -17183,  11477,  12591,   -512,  14295, -13728,   9998,     -9,   -919,  16624,   5914, -12354,   6191,   2596,  -7432, -18309, -17014, -11474,  -1856,  17551,  13848,   1933,  -7242,   4962,   7169, -10474,  14249,   3574, -10922,   1438,   3627, -11666,  -2906, -19646,  -6894,  -5727, -15708, -14887, -14490, -19711,  -7339,   9806,   6301,  16610,  -7244,  11372,  11557, -15095,   4247,  13136, -18411, -10727,  -9167,  -1438, -19110,  -9226, -19077, -12601, -17052,  -2273,  -6351,  -2933,   4261,   6996,  13665,   5134,  -6572,    372, -14733,  -8239, -10978, -11442,  18538,  -4121,  -7182,  -5992,  -4651, -15153, -12604,   -790,   6755,  10235,  15323,  10478,  -2726,  18946,   2616,  17521,  10427, -15502,  -3051,  16963,   4509,  -2398,   5167,  10127, -11913, -15066, -10470, -13228, -14138,   9641, -12882,  -1692, -12283,  17715,  15970,   9171,   4246,  10047, -11783,   3120,   -991,   8414,   9378,  -2915,  -8692,   7346,  -4037, -10548,   8784,  11524,  14408,  13717, -16203, -12210,   2336,  -6524,  -7042, -16500,   9922, -13881,  19005,  11414,  -8813, -15170, -11091,  -1087,  -8469,  18092,  13610, -11086,   1581,   2095,  -2689,  -1389,  -2471,   7432,  11361,  -9854,  -7987,   9277, -12976,   2874,   3849,  12997,  16216,   2166, -13957,  -1135, -14594,   -494,   8007,   8670,  -3323,  15868,  11905,   8887,  -8334,  17374,  -8858,   2338, -14777,  16770,  -6859, -14530,   3519, -10931,  11951,  -7825,  15036,   4356,    953,   2171,  -9297,  -3064,  -6555,   8377,   6387,   1316,   5594,  13926,  14531,  -4808,  -7983,   1443,  15870,  17177,  14679,  -2466,  19107,  16717,   8583,   1318,   9738,   5736,    770,  15875, -12795,  15532,   8655,  -4608, -15405,  -4663, -17614, -10822, -16349,  -3845,  -6514, -18734,   4329, -13984,   -337, -14989, -13954, -16869,  10504,  -2048,  -7539, -13112,   2040,  18483,  14437,  12369, -21285, -10626,  -2747, -15607,
         -5051,   6416,  16098,   -149,   -417,   1148,  -8408,  -7673,  -3445,    809, -12529, -12146,  11012, -14343,   9343,  10685, -12560,    864,    792, -17926,  11661,   -859,   3116,  -5602,   3417, -16780, -16987,    616, -10550,   9353,   4426,   9675, -18652,   2176,  -9542, -13392, -13084, -10644,  15150,   3793,  -9533,  18986, -11557,  14315,  -2912,  -6676, -12581,   2704,  16825,  10752,  -2942,  -7885,     33,   5940,  -1448,  -1571, -20474,  -5738,  -2691,   5578, -10540,   9293,   8604,   4413,   -368,  -4384, -12312,  13329, -10971,   7398, -16416,  -4665,   3178,   4757,    661, -19677, -18952, -12090, -12010,   2719, -17355,   1893,  -5608,  -1008,   7613,  16607,  -4667,   5427,  11438,  19381,   2504, -12172, -12443,  13630,  11263,   8169,  15068, -19260,  -8546,   1899, -11681,   3345,  -2045,  16514,   -628,  -9915,   5409,  17255,   5561,  -2737,  -4576,  12805,  -8246,   4225,   3655, -20257, -11404,   3609, -10483,  -2383, -17982,   3028, -18355,   8066,   6467,  -6006, -14498,   5913, -18244,  13754, -16228, -18989, -15197,  -4573,  -4349,   9291,   2409,  -1737,  -8975,  13863,   9217,  -6772,  -5655,  14792,  16771,   3688, -15264,  -3793,  13959,   9281, -13044,  -6134,  -4208,  11759,   7562,  -5308,   9403, -13079, -18132,  15580, -11117, -12169, -10922,   7780,  -3446,  -9510, -13161,   8766,  -3011,   1940, -16152,  10768, -14605, -18062,  16750,   8349,   1179,  -3859, -17061,  -6480, -10627,  -2439,   2894,  -4728, -13734,  -7479, -10802,  -8420,  -3293,  -2246,   7302,  -6008,   2383,  11495,  -1093,  12845, -14123,   5854, -16767,  12904,   1605,  10568,   9046, -16399, -10499, -20645,   7014,  -5570, -12821,  -6464,   3916,   5183,  16075,  14337,  -7764,   3717,  -5805,   2659,  -7122,  -2015,    313,  -8154, -18768, -17240,  12737, -11414, -14568,   5912, -19526,  -1450, -10543, -14715,  13570,  15441,  12203,   2814,  -7903,  10072, -20622,   4141, -19011, -17008,  17479, -15574,   2446,  17259,   9962, -11066,   8320,  14239,  -5815,  16370,  -6981,   1376,   4044, -10737};

    const static Filter<int16_t> statefulpartitionedcall_sequential_conv2d_2_biasadd_filter(statefulpartitionedcall_sequential_conv2d_2_biasadd_filter_element, -17, {3, 3, 16, 16}, {1, 1});
    const Filter<int16_t> *get_statefulpartitionedcall_sequential_conv2d_2_biasadd_filter()
    {
    	return &statefulpartitionedcall_sequential_conv2d_2_biasadd_filter;
    }

    const static __attribute__((aligned(16))) int16_t statefulpartitionedcall_sequential_conv2d_2_biasadd_bias_element[] = {
            -3,      0,     -3,     -1,      2,      1,     -6,     -2,     -3,      1,     -3,     -4,     -5,     -2,     -2,     -4};

    const static Bias<int16_t> statefulpartitionedcall_sequential_conv2d_2_biasadd_bias(statefulpartitionedcall_sequential_conv2d_2_biasadd_bias_element, -8, {16,});
    const Bias<int16_t> *get_statefulpartitionedcall_sequential_conv2d_2_biasadd_bias()
    {
    	return &statefulpartitionedcall_sequential_conv2d_2_biasadd_bias;
    }

    const static Activation<int16_t> statefulpartitionedcall_sequential_conv2d_2_biasadd_activation(ReLU);
    const Activation<int16_t> *get_statefulpartitionedcall_sequential_conv2d_2_biasadd_activation()
    {
    	return &statefulpartitionedcall_sequential_conv2d_2_biasadd_activation;
    }

    const static __attribute__((aligned(16))) int16_t statefulpartitionedcall_sequential_conv2d_3_biasadd_filter_element[] = {
          3589, -10197, -12433,  14391,  21180,  16717,   8983, -11226,   5351,  -1537,  -3133,   5398,   2359,  -4769, -21520,  13778,   8921,   -260,  10827,   4355,  16080,  -7165,  -1841,   8256,  16584,  10742,  -2315,   3430,  16637,  -2187,   5704,  -6736,   4313, -11092,   5240, -15138,  -1165, -13962,  -8898,  16592,  11385,   5190,  15341,  -1288,  -9434,  -2550,   3051,  12471,  -5456,  11238,   7064,  12625,  14539,     32,  10720,   -733, -16972,  -5560,  -2660,  -1123,  -7508,   6977, -13502,  -7281,  10135,   3363,  -6033,  15683,  10180,  17067,  -1470,  -9944,  -7363, -22281,   1094,  -2848,   7415,  -1590,  -3232, -11232,   8116,  -9658,   5942,  10663,  -5107,  -9590, -14673,   1235,   2617,   3381,  -1652, -13769,  10337, -10891,  17949,  11110, -23084,  14258,  -7294,  -8685,  -6429,   2293, -15545,  12253, -10117,  16482,  15391, -19636,  -2496,  11161,   8438,  -7443, -22603,   -880, -10125,  12661,  -8208,   6029, -17896,  14222, -13573, -11537,   4090,  -9811,  18368,  15834,   5839,  14800, -11848, -15340,   4525,  14858, -14633,  -7918,  19196, -14381,  -3378,  -6545,  -1931,  -2419,   2174,  -1886,  18102, -15063,  -3037, -11565,  -4846,  10382, -17264,  -7387, -15487,  12969,   8813, -12202,  -5569,  16385,  -8814,   -178, -17085,   7437,  13321,  15112,  14389, -10612,   4557,   1808,  14383,  -4454,   5158, -16756,  17075,  -5557,   2676,  13505,  -5766,   6505,   7156, -13472,  10313,   5099,  -6571,  -8331,  -4276,  16114,  -7478, -14226,   1648,  13478,   3571,   1739, -13364,  18473,  15913, -17976, -14503, -15095,   9881,     92,   2540, -18483,  -3797, -18184, -14931,  -3891,   6571,  -5068,  -9318,    547,   7138,   2745,  -4260,  -1718,  -3148,  10070,  -1446,   9997,  13364,  -5231,  -5322,   7494,  -2432,   8071, -16671,  16645,  -9154, -13004,   8822,   3966, -15031,  10867,   3803,  14735,   7039,  12401,  11986,  -9190,  13686, -18139,  -1162,  -4729, -14986,   2396, -10937,  12034,   -250, -16521, -12644, -13988,   2068,   9970,  -2533, -16800,   6719,   9382,  -8766,  15875,   5532,   9210, -19610,  -1159,   8136,  -9917, -11208,  17314, -15565, -15381,   5193,   1553, -17215, -11525, -10249,   2736, -10289,  -9717,  -1704,  -9169,   3537, -12294,  -7393,  -7419,  -3679,  -5457,  13012,   5535,  13345,   8604,  12602, -12435, -13343, -18732,  -8321, -16299,   6236,     12,  15906, -13728,   6888,  16930,   8953,  -3625,  12853,    688,  15544, -10030, -18891, -18203, -17184,  16894,  -4367,  10541, -10038,  15663, -13872,  -8423, -13338,  12354, -13651,  -4985, -21591, -15268,  -6188,     60, -10724, -11433,   4189,  12908,   1499,   2267,  13282, -14149,   2487,  -7454,   1292,  16272,  14881,   2684, -19865,  -4093,  -8943,  19196,   3596, -10289,   6593, -10730, -11721, -14677, -12078, -19620,  11489,   7391,   9286,  14872, -15778,   5678, -12874,   -499,  -5119,  16039,   3758,  18348,  -7950,  13780,   9082,   8430,   7387,  -2806,   5247, -16388,  11720,  -7490,   7037,   -103,  -1010,   9212,   7404,  12877, -10749,   2374,  18145,  -6166,  11303, -19104, -12419,   6601, -14629, -16143,  -9261, -13580, -18587,    914,  -2736,   -360, -18541,   -375, -10602,  18273,  18662,  10572,  20728, -16862,  -7684,  -2205,  -2918, -14951,  -4361,   3774,   8479,  -9390, -11068,   -711,  -9453,   1518,  16889,  16367,  20178,   3043,  11659,    952,  16860,  17535,   6095,  17285,  -5063,  17052,  12678,  14021,  12267, -13920,   6036, -17147,  -9478, -16645, -14063, -13248,   5928,   8645, -14153,  12321, -11846,   8521,  15923,  18807,   1085,  -9991,  13955, -17214, -13430,  -3340, -12677,   1547,   -347,  -9773,   -134, -15053, -16550, -14138,  -8245,   9535,  -6029, -12850,  -6479, -13429, -13198,  -6104,   6592, -15804,   7198,  13040,  -8234,  -5222,   3496,  11589,  -5937, -10483,  -9251,  11312,   4861, -20422,  -8444,   3715,  -8768, -14586,   3860, -18455,  -4768,  18127,    299,  -2657,   6178,  16649,  -4907, -17432,  -7578,  12545,  -6076,   5575,   4559, -17472,   5868, -12642,   9906,   9429,  11768,   -608, -18062,  12632,   7191,   -806,   4385,   -865,  -7699,    -43,
          3818,  -8161,   -919, -15576,  15816,  -5247,  10738,  13983,  15125,  14255,  15396,    343,   2680,   3385, -10929,   6137,   2097,  -1374, -18165,   6672,   9797,   3054, -20028, -19246,  14876, -14231,  17374,   -469,  -4490,  15861, -12604,  14792,  13101,  -6488,   2017,   4607,   5353, -10722,   4065,   6426,  -5366,  12174, -14645,  -9194,  12341,  10778,  12324,   4879,  16748,   2456,  14296, -16957,  12065, -16120,  -5780,   4987,  12540,  -2573,    971,  -9775,   1059,   6899, -12251, -10368,  -3679,  10054,   9839,   5529,  -9896,  13646, -11633,  12570, -17599,   7295,   2200,   5079, -18050,  -8445, -16400,  -6633,  16435, -19524, -13827, -13487,  -4312,   1518,   1307,   7094,   9564, -10746, -15669,  15053,   6495,  16423,  13648,  -8833,   8066,  -2175,  -4035, -10347,   3847,  -5371, -15009,   4394, -13415, -11286,   2527,  -9992,  12426, -20069,   2055,  17065,  16907,  -5750, -14942, -18682,  11962,  10933, -11138,    544,  -2587,   7560,  -5620, -13383, -17285,  13308, -11262,  -7984,   2921,  -7502,  10979, -15933,  -2641,  -9884, -13849,   2847,   3182,  -5305, -17611,  -9040,  -3445,   3414,  -7177, -12408,  -3315,  -1914, -17010,   7596, -14555,  18709,  -4546,  16379,  12562,   5609, -16254, -12416,  19698,   5783,   5718,  -9192,   7183, -17959,  17989,   9044,  15933,  -7852,  -9438,  10276, -13319,  -9452,   -604,   8821,   7133,  -6163,  -2288,   6963,    189, -13959, -16533,   3137,  13763,  -3760, -17954,   5184,  -4588,   5747, -16311,  -9786,   9709,   2136, -15947,   1554,  16381,  -9303,   2901,  14473,  -7300, -16249,   7947,  -4597, -19414, -10029,  17676,  -9364,  -7494, -13868,  -7558, -15840,   6520, -13263,  15691,  -3347, -12087,    468,  -9027, -13569,  13519,   4948,   9522,  17280,   2738,  16068,   5634, -16672,   4740,  13072, -18353, -15839,  14237,  10649,  -5224,  -2297, -18413,  -9481,  17731, -18588,  -5283,  -3513,  -7977,   8756,  -4922,  -7454,  -7130,  14723,   9606,  12930, -12884,   5960, -14735,   8209,   8992, -13420,  15114,   1411,  -8414,  11256,   8584, -10470,   3869,   -676,    950,  11816, -13857,   6295,   5274,  -6206,  -1200,  17615,  -4236, -19379,  13655, -13665,  -2424,  -4578, -18160,   2610,     41, -10780,   -931, -17157,   9156, -12726, -12707,   9829, -12414,   6566, -14494,   1526,   7652,   4662,  16608,  -7075, -10195,   7596,  18296,   4141,  -9941,   4642, -13882,  10326,  -3195, -12988,  -6429,  17440,  -8476,  -6240,  -4624,   9467, -18107, -14384,   2904,  13981,   4904, -12473, -15968,   7097,  -1635,  -6069,  12808,  -9736,   2128, -14740,   9768,  -1787,  -5224,  -8299,   3548,  -5729,   8976, -13690,   -476,  15156,  -2621,  -6104,  10436,   8665, -15998,  10766,   3360, -14414,  13788, -15787,  11161,   -504,   3021,  10958, -15997,  -4294,  11707,   6413, -19374,  15391,  -8862,  12392,  -4023,   2296,  -9669,  13746,   6337, -19211,   3095,  12148,  15172,  -3521, -16257, -10397,  -5626,   2773, -11625,  14742,  12381,  13735,  -2402,   7944,  14763,  -4786,   9621,  -5731, -12482, -15081,  12284,  -9822,   4258,   8401,  -7391,  -6890,  -9636,  17811,  11334, -12933,  -7722,  17985,  14351,   5948,  16957,  11883,  14778, -13026,   8897, -13914,   3799,  -7173,  13094,  17496,   9732,   9446,  14563,  -2372,  -3006,   9159,  -8620,   9059,  -4909,  -9071,   8704, -12926, -16185,    461,   9013,  18873,  12263,   2706,  -9893,  17665,  -6805,  -9821,  10615,   5578,  17378,  -9268, -14456,  -4526,  17049,  -1791,  -9839,   1724, -13501,  16975, -11725,   1650,   5285,   3376, -19985,  13919,  -1128,   -939,   6727,   6520,  16985,  14132,   5122,  -2261,  -4931,   7042,  -9732,  -8708,  -9850,  18412,  -7507,   8906,   8992,  -7268,  -6342,  10693,  -8320, -16632,  17151,  -8601,    406,  -7265,  15020,  17534,  10819,  -9530,   8892,   6796, -11089,  -5769,  19320,  17481,  -1830,  -4818,  15080, -16568, -16480, -12078,  -1871,  11468, -18656, -13579,  -1310,  -7274,   4111, -18562,  -9660,  -9489,  10483,  -4540,  -3751,   7855,  -4414,  -8025, -17646,  -3266,   3253,  14316,    -77,   4358,  -1463,   8330,  20304,  -5746,
        -10834,   6534,   8260, -15598,  15903,  -4426,  13498,  -2284,  11840,  13873,  15921,   9866,  13904,   4870, -10449,  18471,   2325,   4889, -12553, -14728, -19809,  12208, -17331,  19226,   8431,  10467, -18014, -11434,   1231,  18241,  15666,   3212,   1165,  -8464,   5271,  10974,   6521, -12580,  14047,   5377,  -2239,   1833,  11586,   4816,   1913, -17991,  13874,   6574,  -5510,   7581,   9227, -17872,  15161,   2302,  -7881, -14235, -17062,  14411,   1678,  -9441,  -4206, -12596,   8480,  -3343,  -2713, -15578, -11638,   2828,   6109, -14042,  11151,  -2199,   8329,  -5616,  -3579,  16364,  -9223, -16116,   4702,  17098,  15501, -19959,      9,  18828,   7909,  -4519,  11775, -14897,  -2584,  15840,  12293,  14840,  14821, -18396,   6925,   9252,  -9995,  12736, -17487,  23863,   1179, -12608,  -9288,  13656, -15858, -17866, -11235,  -1621,   3557,   3562, -10647,   8526,   2458,   7066, -16583,   6977,  -9728,  -5340,  -6821,  11829,    905,   2528, -14530,  11554,  -7613, -16204, -15162,   3236,  14489,  -7602,  15588, -18842,  -3309,  12733, -10694,   -691,   5243,  15955, -18384,  11558,  14779,  -2413,  -4705,  -5798,   3788, -16680,  -8386,  13725, -10036, -14185,  10137,  -5409,   9834,  17480, -18880,  -8211,  12578,  -1462,   1849, -17044,  -3087,  11822,  16605,   9806,  -4608, -14043,  14832,  12183,  15141,  14539,  11525,  -4833,  -7911,  -3511,  17834,   3703,  -2687,  -1430,   5827, -13747,  -7188,   1283,   -251,  -1838,    355,  18942,   -829,  -2987, -12430,  -4949, -13662,  16256,  -2479,   1922,  12795,  13022, -20559, -13106,   1234,   3849,  -1244,  -7221,  12036,  -1188,  -3604, -16553, -11456, -11278,   3080,  -2905,   6949,  -6826,  10128,   9067,  15219, -11042,    261,   6509,  10242,   7883,  13162,  15201,  -9622,  -8388,  15213,  -6918, -14578, -10061,  -6323,  -7495,  13464,   2251,  -5829,  18907,   5879,  13207,  -4315,   1777,   7291, -11097,  16270,   3848,  14048,  -9553,   3600,  11364,  12508,  17806, -13437, -18222,  -7205, -13574, -16343,   -541,  -4921, -13542, -20218,   5649, -16360,  -6300,   9404,  12829,   8137, -13172,  11521,   6442,    -49, -19255,   9056, -15500,   8797,  -8348, -14894, -16668,  -7939,  -2978,   -886,  -8172,  16103,  15642,   9966,  -1356,  11300,  -9267,   9074,   9878,  -6102, -14794,   2019, -20281, -10771,   9113,   -736,  -3649,  -5628,    579,   8644, -11833,  -1955,  -3252,  -5248, -18100, -12193, -16630,   5348,   6783,  -3572,  -6771,   6765, -13275,  -9192, -11630,   8121,  12994,   5007,   9923, -17579,  -1569,   6819,  14886,   -726,  15043,   6169,  -2777,  11054, -15824,   9084,   4741,   5491,  -8255,  -4933,  15183, -17144,   1665,   6913, -12950,  15308,   8135, -14931,  14873,   4674, -12884,    671,  -9182,   6411,  -3209,  16632, -16878,  12320,  -9980, -16787,  11600,  -1562,   3064,  17351,  10589,   6205,   9775,   7537,  10834,   7919,   5419,  12257, -15627,  13888,  11067,   6682,  -2954,  10973,  -9681, -13143,   3073,  -4998,  -9290, -13560,   9373,  -4984,  -6891,   6682,   5193, -12370,  15319,   6766, -17957,  15861, -19061,  -9260, -17119,   4513, -13470, -11712,   6397,  -7683,  -9639, -10406,   9984,   8870,  -5839,   2308,  -7776, -19210,  -8457, -12616, -10432, -13779,  18882, -16396,  -5409,  15670, -11598,  12997,   5557,   7802, -18500,  -5581,   8112,   6995,  -3060,   2063, -17796,   3701, -13413,  15246,  -3726,   1041,  16475,  -1082,  -9499, -11205,   6465,   4654,   6617, -20859,   8029, -12049,   9515, -18495,   2167,  12274,  -1850, -19680,  15170,  13402,  -8708,  -1782, -13430,   2296,   7168, -19968,  -6422, -18133,   -433,   8294, -17552,  -7849,  -2760,  12599,  -2833,   -188,   8531,  14224,   4315,  -5347, -16303, -14191,  -3185, -11044,  13545,   2342,   3300,  -3352,   3142, -17240,  13859, -11260,   7198,  10606,  -8799, -12895,   5575,   5832,  14069,  -9217,   8072,   -899,  -6115, -15521,   -595,   3790,   6160, -14185,    879,  -2282,  10962,  -7893,  -6424,  14252,  -5092,  -4944, -21846,  -5907, -17090,  -2790, -20396,   9442,  13983,  -9884,   3003,  17578, -13576,  -4306,  11489,
        -12676,  -3484,   5001,   8628,   -910,  16809,  13995,   5388,   2807,  -9827, -18463, -12749, -13945,  12982,  -6744,  11360,  -1939,  -9780, -13107,   2477, -21567, -14538,  -4028,  -2352,  11170, -15057,  10897,  15369,  -8041,  10127,   6645,   3052,   4051,  -3690, -19840,   1059, -18127, -16192,   2656,  -5005, -11687,  16660, -15404, -13836,   2817,   7287,   8431, -20152,  -4640,   7883,  11590,  -6493, -18748,  -2511,  -6319, -16744,  -3265,    441,  12415,   -134,  -7769, -15378,  -3429,   2170,  -9116,  -6707,  -3257,  -4362,   1133,   3882,  14942,   -476, -12504,  13249,  17537,    -19,   9752, -19862,  -9582, -12380,  12832,   3025,   8129,   6910,  15099, -11085,     52, -14734, -17026,  -3204,  -2807,  -7400,  15753, -13419,  -2844,   1188, -19140,   8366, -16928, -10072, -19918, -18780,  12911,  -9846, -15132,  -1740,   8886,  -3847,   -798,   7715,   9538,   9154, -12293, -11582,   4947,  14538, -20784,  -5548,   1403, -17339,   2641,   1381,  13461,  11400,  14138,    -59,   8481,   8899,  -3175,   7864,   5723,   6075, -12838,   6398,   5527,  11670,  16454,   4796,  -8841,  -2620,  -7878,   9820, -16904,   9613, -14212,  14760,   7457,   4865,  -9292,   3794,  -6942,  16667,  10429,   8479,   8023,  -1334,   1771, -15507, -13532, -15299,   8692,  -1804,   9962,  15695,  -5625, -10553, -11551,   3413,   6311, -19890,   1865,  14823,  -9464,   5765,   2911,  19189,  10491,   4483,  14009,   8657,   7094,  -5664, -10626,  -3034,   7508,   -590,   5776, -12546,  -6207,  -7375,  -2302,  -1154,  -9546, -19348,  -8064,    539,   2875,  11168,  -5091,  13337,  -9574,  -9934,    767, -18972,  -6229,  13416, -17071,  13327,   1932,   5395,  -4182,   2040,   8034,  -9650,  -6454, -17608,  13423,  -7988, -12288,  -8994,  13868,   5658, -12945,   -538,  16574, -15223,    257,  -4302,  14804,  -2665,   3596,  12184,  11093,  13216,  11208,  11594,  10136,  12163,   7808,  -3686, -17045,    168,  -6674,   8168,  -3677,  -3991,   -588, -16304,   7810,  -2783, -18511, -17566,  10188, -18792, -12485,    566,  14322, -19340,    183,  15960,   3969,  14620,   2154, -15756, -10527,  -7378,  12961, -18800,   2758,   4665,   -460,  11827, -13799, -12150, -12011,  15807, -15968,  16352,  16889,   1020,  -4055,  16144,  -7998,   3479,  -7666, -21283,    546, -18330,   4458, -19610, -16400, -20755,   7328, -18323,  -8465,  11171, -11645,  16561,  -3872,   5732,   6190,   1955,  15278,  16837,  14379,   4904,   -793, -10051,   7628, -17631,   9518,  -5432,  -1085,   5126, -15877,   4921,  12349,  11963, -18190, -14159,   5986,  12539,  -4313,  -4822,  -6875,  16888,  11713,   -693,  -5146,   6432,  -8740, -16265,  10081, -15019,  -4437,   9309,  12218,    202,   3118,  11523,  15103,  -9807, -16332,  15652,   5726,  -8546,   -673,  -8302,   2724, -18399,   1344,   5599,  -9367,    702,  10995,   8636,   2910, -18099,  14427, -15934,  11515, -13076,  14261,   5747,  15971,  11290,    585,   2251, -10599, -11384,  -3864,  -1614,  14956,   8712, -19573,  -3832,   6856,   6878, -18248, -12738,   2169, -14444, -13996, -17175,   5560,  -7427,  -1695,  -9111, -20199,   3744,   -878,   4636,    472,   -803, -14568, -11190, -16289,  11390,    337, -13001,   1770,  -3262,   4068, -18196,   6775, -14126,  12923,   8440,  13813,   -223,  13222,  11014,   9814, -10810, -12593,  12776,   -946,   2540, -11781,  -9619,  -8839,  -2585, -10497,  12716,   3960, -10259,  -8605,     61,  -8621,  -1083, -10848,  11466,   4261, -18809,   8585, -18169,  11199,  10776, -15727,  -8368,   6714,  -3632,  -9728, -14714,   9170,  15890,  12792, -18371,  13312,   4188,  15501,  -3472,   6457,   1254, -10045,   -222,  15710,   7675,   9741,  13482, -11831,   9058,  11885,  -8812,   2714, -20934, -16158,  -2208,  -6329, -17901,   6993, -16028,  -8136,  11705,  -4201, -10624,  14761, -14682,  -8941,   4878,   2313,   2200,  17028,   4416, -17769,  -9527,  -9763,   9092,  17681, -14034,    945,  17598,   5766,  -7858,   2451,  17416,  -1192, -16864,  19957,   8690,   -107,  18543,  -8896,  19286,  -1473,   6417,  -2970,    326,    -61, -12800,   -644,  16874,
        -17445,  -9103, -11166,  10830,    134, -11700,   -206,  18260,  -2102,  12662,   4065, -18145,  17855, -17401,   2029,  18869,   8270,  -5314, -18035,  11408,  17837,  18795,   8430,   -564,  -7547,   8684,  -2565,   5909, -18493, -13930, -14515,  -5700,  -9999,  -4809,   5356,  12408,   6361,  11084,   7488,  -5446,  -5341,  11139, -12073, -11108,  -6301,  -1216,   6530, -13863, -13981, -13379,  14282,    -48, -13489,  -6761,  12740, -13735,  11175, -14482,  -4853,  10763, -13899,  -3816,  18663,  -1115,  11122,   9889,  -7323,  -2504,  16808,   9405, -15805,   9990, -14779,    315,  -3828,   6656,  -5875,  -8215,  12597,   2220, -18368,  -1185, -15882,   9214,   1302,  16569,  -8699,  14316, -13005,  16289,  18421,  10823, -15123, -11553,  -1860,  13769, -15181,   1064,  16688,  -2823,   9165, -14363,   7841,  15597,  15839,   6037,   8589, -11401, -18192, -17087,  -9625, -15380,  13077,   6606,  14284,  -9267, -12215,  11945,   6081,  11900,  19762,  -5733,   2812,  -1476, -12009,  13215, -14596, -11657,   8339, -18316,   4688,   4964,  13126,   3166,  -3325,   9892,  15206,   6076,  -7184,  14906,  -6500, -10116,   5973,  13133,   6373,  -4440,  -8218,  -4139,  17147,   1723,   5175,  -9749,   1184,   3792,    -84,  16537, -11849, -15920,  -7429,   9725,   4957,  -1461,  -2903,    923,  -1833, -12969,  -5901,  15721,  13113, -10358,   4975,   7954, -13198,   6579,  -4220,   2665, -11491, -18394,  10432,  10417, -11078,  -7872,   4754,  -4686,  18703,  13722, -16877, -17570, -14481,  -9575, -17125, -14299,  -1587, -13312,  -1938, -10649,  15696,   5826,   9878,   8138,   7517, -10013,  14091,   -950,  -8269,    994,   3854,  10227,  11795, -14477,  17871,  -3143,   1228,  12069,  13397,  -2682,  -4103,  17017,  -1481, -15010,   5500,   6540, -16238, -14344, -16557,  -9081,   3860,  -4601,   8600,  -3410,  -6813,  -8672,  -5423,  -1827,  -2157,  12247,  -2646, -13616,  -1813,  -6805,   6589, -11960,  13877,   1234,   1269,   -171,  -3713,   6812,  -5745,   7370,   -827, -14948,   8083,   9263,    614,  13642};

    const static Filter<int16_t> statefulpartitionedcall_sequential_conv2d_3_biasadd_filter(statefulpartitionedcall_sequential_conv2d_3_biasadd_filter_element, -17, {3, 3, 16, 16}, {1, 1});
    const Filter<int16_t> *get_statefulpartitionedcall_sequential_conv2d_3_biasadd_filter()
    {
    	return &statefulpartitionedcall_sequential_conv2d_3_biasadd_filter;
    }

    const static __attribute__((aligned(16))) int16_t statefulpartitionedcall_sequential_conv2d_3_biasadd_bias_element[] = {
            79,    -42,    -46,    -45,    -23,    -14,    -26,      2,    -43,    -61,    -65,    -45,    -50,    -44,     10,    -15};

    const static Bias<int16_t> statefulpartitionedcall_sequential_conv2d_3_biasadd_bias(statefulpartitionedcall_sequential_conv2d_3_biasadd_bias_element, -11, {16,});
    const Bias<int16_t> *get_statefulpartitionedcall_sequential_conv2d_3_biasadd_bias()
    {
    	return &statefulpartitionedcall_sequential_conv2d_3_biasadd_bias;
    }

    const static Activation<int16_t> statefulpartitionedcall_sequential_conv2d_3_biasadd_activation(ReLU);
    const Activation<int16_t> *get_statefulpartitionedcall_sequential_conv2d_3_biasadd_activation()
    {
    	return &statefulpartitionedcall_sequential_conv2d_3_biasadd_activation;
    }

    const static __attribute__((aligned(16))) int16_t fused_gemm_0_filter_element[] = {
         -2626,     29, -19122,   1424,  -1705,  -2899,  13911, -10366,  -6207, -13194,   1259,  13024,   1424,  15012,  -5042,  13953,   8229, -10467,   7987, -11965, -16290, -11269,   5927,  -1283,   3071,  -4772,  -5181,  13667,   9184,   8793, -10934, -11109,  -6956, -18732,   8852,   1145, -13938,  16322,  12519,  10703,  -9403,  -8235,  -8315, -14431,   9801,  13999,  11069,   9457,   4252, -19530, -11241,  10562,   3897, -14620,  14851, -11215,  11800,   1024,  -8303,   2938, -15460,  -1773,  -8047,   6698, -16424,  15880,  18035,  12533,   6231,   3579,   2365,  14834,  17216, -16999,  12926,  -2057,  10578, -16354, -15317,  -8647, -15282,  13993,  10838,   9579,   2793,   5007,   1487,  -9667,  -7154,  -8459,  -4863,   5778,  15571,  -6697,  -8645, -11103,  -6929,  -7264,  14579,  -8342,  -4807,  -1686,  11127,   7903,  10622,  -7024, -11069,   1211,   8664,  16161,  -2260,  -1791,  -9886,   3047, -16708, -11047, -19228,  -1316,  -7227,  10695,  11008,  -8522,  -8796,  -4155,   2203,   1515,  -5491,  19595,   3323,   4986,   9657,   3961,  13407,  12102,  15219,    416,   6240,   8050,  14758,  -1754,  20139,  18976,  -3355, -16385,  -4432,  -2855, -11720,  -3346,  13037,  18123, -18050, -16713, -12214,   1901,  13141,  13771,  18334,  12833,  -2481, -16824,  13623,  15382, -19808,  19852, -16745,   7270, -19882, -13231,   3929,  11743,   1917, -13470,   -507,  13157,  11776,  -3542,   2746,  17142, -19713, -17840,  -4528,  13264,    655, -20757,  -8291,   -738,  -7263,   -695,  16924, -13355, -19604,   1398,   5130, -11650,  -4458,   3236,  -3571, -18426,  -3791,  -1167, -17122,  -7495,  16375,  -9977, -14970, -14731, -11196, -19150,   4274,  14746,  -4524,  -5149,  17326,  -6310, -15828, -11504, -18021,  12707,  10878,  -1906,  15337,  -4963, -14138,   6847,  -6556, -10691,   1863,  14028, -16968,  -4193,   8174, -13574,   4453,  -9220,  13905,   8623,  -2020,   3175,  21853,   4012,   5922,   9787,   6694, -16736,  -8655,  13613,  17844,  -4873,   3533,  14548,   3387,  -2865, -13403,  -1220,  16697,  -5770,   9180, -10386,  17862,  -2186,  18441,  19018,   5120,  -1268, -17958, -10160, -14145,  -5958,  -3235,  11354,     -1,  15625,  18403,   2285,   9758,   7255, -16069,   3137,   2208,  18645,  17137,   7434,  -8675, -10755,  11420,   1653,  -6279,  14454, -16671,  12603,  13180, -10170,   4627,   3149, -18599,  19509, -10086,  14169,  14703, -15135,  -7808,   8535,  17720,  -6533, -11477, -17825,  -8231,  17943,  17437,  -6651,  -8558,  -1846,   3648,  13765, -10029,  -8986,  -9175,   1461,  19803,   7065,   7659,   4770,  -7143,  10253,   2653,   1242,  -8218,   5903,  11761,  -3387, -15465,  18311, -14787,   5156,  10510,  11776,   9227,  -7156,   9434, -15991,  -5001,  -5301, -16889,   5898,  16008,    454,  -1438,   6231,  16831, -13416,   6302,  -2997,  15715, -16479,  19165, -18891, -16416,  -8428, -10967,  10702,  -6468, -10196,  -7069,  -4538,   9175,  -6421,  14608, -11492,   4277,   7455,   6718,  -8894,  -7966,  16781,   -249,  15436,  13371,  -7540, -14745,   8788,  13166,  -2769,   6094,   5558,  -3089,  -2366, -19222,  -7697,  15648,  -5750,  -4619,  14905, -15655, -10888, -12283,  -3876,  13866,  18425,   2194, -14013,  -9934,  -2821,  14156,   8095,   7033, -15863, -13743,  -3269,  -9576,  -6683,  15924,  12174,   3078,  -2533,   9437, -12790,  11446,  -2974,   1096,  17497,   8136,  -6144, -13178, -11811,   4920,  -6841,  11685,  14381,  19766,    210,  -2793, -12636,    533,  12850,  14462,  10108,  -8238, -15060,   8696, -11442,   7716,   2776,   8131, -17967,  -8989, -14389,  -5213,  17754,  16505,   4170,  -9949,   3922,  -7934, -14876, -10848,   -398,  -8842,  -6533, -13224,  -8864,  -5810, -16355, -16882,  -6155,  -2579,   7847, -14292, -16684, -12752,    735,    940,  14580,  14602,  13041,   8422,   7025, -12725,  12165,  -9021,   5086, -14145,  -8604,  14709,  14688,  -6369,   8632,  21364, -10060, -14949, -16502,    696,   5506,  10982,   2106,   2092, -16156,  -3318,  11458,   3520, -14789,  -2224,   6455,  12722,  -3292,  19268,  18319,  13847,   9197,   1345,   1393, -18912,  -7629};

    const static Filter<int16_t> fused_gemm_0_filter(fused_gemm_0_filter_element, -17, {1, 1, 256, 2}, {1, 1});
    const Filter<int16_t> *get_fused_gemm_0_filter()
    {
    	return &fused_gemm_0_filter;
    }

    const static __attribute__((aligned(16))) int16_t fused_gemm_0_bias_element[] = {
           969,   -969};

    const static Bias<int16_t> fused_gemm_0_bias(fused_gemm_0_bias_element, -13, {2,});
    const Bias<int16_t> *get_fused_gemm_0_bias()
    {
    	return &fused_gemm_0_bias;
    }

}
