#include "Mnist_coefficient.hpp"
using namespace dl;

namespace Mnist_coefficient
{
    const static __attribute__((aligned(16))) int16_t statefulpartitionedcall_sequential_conv2d_biasadd_filter_element[] = {
        -11126,   5418, -26903,  13567,  17538,  22636, -22423,  17140, -18345,  19905,  12648,  -7384,   7203,  26393, -12629, -22931, -10712, -14580,  19488,  24020, -27479, -16118,  12862,   3936,  26539, -23380, -22609,   6080, -12627, -24910,   8556,   9697, -24124,   7143,  18836,  12215,   2210, -21908,  21376,  -5782, -11618,  13003,   1754, -13485,  -5743,   4705,  -8724,  24431,   4091,  16988,  -9857, -22934,  11651, -22384,  13663,  -3849, -32447,   -913,  12798,  -3341,   3000,   2998,   9365,  -4056,   9404, -20285,  10788,  12948, -11780, -25960,  23001,   6106,  -8379,  -4547,   7304,  -6935,  16243,  20775,  14093, -28200,  -9905,   7506, -15947,  10059,  -9376,   9016,  -7992, -14756, -17014, -21213,  18350,  13989, -12332,    250,   -463,  13605,  16220,  12167, -11269,   6439, -11772, -23078, -12582,  11087,   6602,  -5175,  19246,   7568, -19859,  -9647,    187,  -3416,  20885,   6577,  -4290, -14330,  24334,   1247,  -5746,  -9346,   7271, -15519, -17974, -11708,  -2302, -24928, -12855,  -3015,  -3939, -15228,  25299,  11985, -15375,  20049,  -6688, -15927,  -2062,  22595,   -674, -15769,  24591,  -8210,   9968, -16495};

    const static Filter<int16_t> statefulpartitionedcall_sequential_conv2d_biasadd_filter(statefulpartitionedcall_sequential_conv2d_biasadd_filter_element, -17, {3, 3, 1, 16}, {1, 1});
    const Filter<int16_t> *get_statefulpartitionedcall_sequential_conv2d_biasadd_filter()
    {
    	return &statefulpartitionedcall_sequential_conv2d_biasadd_filter;
    }

    const static __attribute__((aligned(16))) int16_t statefulpartitionedcall_sequential_conv2d_biasadd_bias_element[] = {
           232,    167,    204,     72,     13,    178,     48,    100,     16,     -8,   -148,    152,     16,     -1,    151,    210};

    const static Bias<int16_t> statefulpartitionedcall_sequential_conv2d_biasadd_bias(statefulpartitionedcall_sequential_conv2d_biasadd_bias_element, -8, {16,});
    const Bias<int16_t> *get_statefulpartitionedcall_sequential_conv2d_biasadd_bias()
    {
    	return &statefulpartitionedcall_sequential_conv2d_biasadd_bias;
    }

    const static Activation<int16_t> statefulpartitionedcall_sequential_conv2d_biasadd_activation(ReLU);
    const Activation<int16_t> *get_statefulpartitionedcall_sequential_conv2d_biasadd_activation()
    {
    	return &statefulpartitionedcall_sequential_conv2d_biasadd_activation;
    }

    const static __attribute__((aligned(16))) int16_t statefulpartitionedcall_sequential_conv2d_1_biasadd_filter_element[] = {
         -4896,   2378,  11496,   5987,  -3439,   1258,   -680,   3994,   2142,  -5049,   3988,   3638,   -375,  -2590,  -1459,   7270,  -2366,  10464,   1692,  -8138,  -1123,   5484,  -2313,  -2012,    495,  -2124,   3708,  -7733,  -3500,   2009,  -7133,  -7739,   7423,   1839,   -364,    -33,   2035,  -1968,   1192,   4527,   1810,   3682,   2105,  -6193,  -2279,  -3687,  -4836, -11511,  -8237,   6121, -11518,  -2246,   3022,  -5601,    702,   1880,  -3890,   4149,   1637,    404,   1141,  -2627, -10339,   3026,   -994,  -3326,   3317,  -2171,    453,  -7253,    313,   3287,  -3633,   2092,   3019,   5575,   3078,   -315,   4419,  -6840,   7456,  13168,  -5351,    971,  -2750,   2706,     83,   2820,  -3510,  -2437,   1116,  -2787,   -299,  -3883,  -3116,   -999, -17459,  -1015,   1026,   2570,   1643,  -2634,   2355,  -2700,  -4038,   1921,   -247,  -2765,   -936,  -1700, -11433,   4332,   5652,  -3374,  -7321,   2914,  -3632,   1374,   -350,    801,   1770,   3501,   2779,  -2438,   4013,    245,   2700,  10572,    705,  -1061, -13459,   4627,  -1967,   -771,  -1458,  -3566,   4255,   1628,   1764,   4169,   -414,  -4153,   1613,   7708,  -5950,   -207,   3255,   4430,  -1995,   3836,   3813,  -3686,   1340,   4301,   4084,   -926,   -823,   3667,  -3952,  -3290,   3805,  -4732,  -3499,  -5141,     41,  -2701,  -3087,  -4569,   -561,   1160,  -4626,   4313,  -1636,   4613,  -2171,   1967,  -3194,   3860,   3826,  -1515,  -1183,   1876,   3384,  -4594,   -839,    394,   -839,   3044,   -319,    703,  -3734,    420,   2707,  -2629,   -634,   1440,   2293,   1099,   1251,   3224,   3965,   4192,  -1827,   3630,   3670,   -407,   1928,  -4336,  -2067,    134,   1599,   2213,  -4553,   3151,  -3391,   -842,  -1577,   3476,  -2988,   2905,   1386,  -2641,  -3016,  -1464,    790,   -107,  -2195,   2396,  -4625,   -230,  -3090,   1426,  -2292,  -4333,   -181,   1187,   3470,  -4314,  -4348,    712,  -1319,   -690,   4433,  -1348,   -781,  -3400,   -755,  -4970,  -4695,   1220,   2465,  -3161,   3309,    -76,  -4837,    917,   3689,    655,   3186,   3220,   4090,  -4602,   1250,   -350,  -4761,   -110,  -4025,  -1964,    624,   -322,   3472,   1856,   1166,   3683,  -2653,  -2854,   2223,   2907,  -2312,  -4188,  -4014,  -3652,   1981,  -4105,   1429,   1723,   2243,   3654,   3305,  -3610,    858,   3496,   4305,  -1736,  -3588,  -3556,   -898,    865,  -2653,   3830,  -4669,   1426,  -4558,  -1136,  -3036,   -173,    423,  -3860,  -3695,  -4584,    -16,    387,   -533,   -246,   3427,   -808,  -3134,  -4207,    332,   1907,  -1740,   1355,   -718,    478,  -1159,   3721,  -4331,  -1464,  -1720,   2292,   1541,   2945,   -733,   1808,  -2175,    778,   -717,  -3207,    468,  -4233,   1426,  -2593,   2198,  -1505,   -867,   1727,  -2791,   1535,  -4829,   2047,  -4689,   4941,     94,   2845,  -3531,  -1431,    973,   3921,  -4401,    325,   2673,   3278,  -2357,    -63,  -4431,    834,   3812,   1909,   2397,   4021,   2831,  -3872,   3110,  -1738,   3719,   2582,   2607,   2320,   3118,  -2581,    748,  -3024,   4225,  -1739,  -1894,  -2636,   1313,  -2769,  -3080,  -4186,   3269,   1852,   1426,   4384,   -639,   2633,   2640,    387,   2845,  -1805,    943,   3140,  -4166,   4056,   3706,   2530,  -3229,  -4134,    838,    224,    -78,   1545,    374,  -4209,  -2301,   3277,     42,   -701,     86,    990,   3388,  -1398,  -3468,   -307,  -1389,  -2170,  -3965,   1650,  -2726,  -1316,  -3325,   4706,   2610,  -1868,  -3107,  -8192,   -684,   1781,  -4542,   1008,   -120,    201,  -3453,  -1437,   4497,  -3025,  -3052,  12774,  -2782,    858,   -718,   1861,   1819,  -1395,    300,   -476,   1956,   -610,   -326,   3160,   3543,  -3006,   3799,    392,   -802,    -86,   1708,   -538,   3039,  -7441,  -1654,  -3904,   2229,  -1163,   4589,  -2327,   2635,   1111,   3975,  -5055,  -6702,  -3540,  -4166,   4608,   2815,   4350,   4321,   3849,   3118,   3321,   2773,  -2386,  -1304,  -3336,  -4632,  -5639, -11510, -10642,  -7540,   3445,   1495,  -2227,    700,   5047,   3987,   1797,    960,   2529,  -5085,   1142,   1828,  -1756,
         -1602,   -666,   3091,   3376,  -3539,   2455,   4152,  -2001,  -2371,   2255,   2855,  -1891,   4446,   -332,  -2313,  -2708,  -2732,   5655,  -7130,  -1605,   2245,   2760,   -963,  -3913,    750,    264,   5230,   1189,  -2544,   4460,   5907, -12290,    554,  11710, -10454,   4641,  -2572,  -1456,   2266,   3370,  -2794,   1329,    991,   -826,  -3354,  -3822,  -2513,  10772,  -6288,    584,  -2550,    -76,  -4412,   4480,  -3093,   4671,  -4029,   2771,   -892,    241,  -1240,  -4106,   -938,   1925,   6285,  -2425,   2071,  -5341,  -4418,  -2826,   2645,   4279,  -2532,   3915,   -325,  -4607,   2888,   4071,  -3068,  -7323,   5370,   3716,  -5460,    149,    856,   2127,   -663,   -486,    803,  -1875,   2652,  -3168,  -4655,   3902,    673,   -636,   2691,    139,   5083,  -1211,  -4493,  -1266,   2330,  -3553,   2001,   -591,  -4554,  -4769,  -1694,  -4255,   3398,  -1138,  -7149,  -1963,   -237,  -3004,   2768,  -1972,  -4144,  -4013,   4071,   2017,  -1939,    432,    485,    953,  -2454,   1164,    385,  -1028,   3128,    786,  -2283,   4522,  -2431,  -1823,   2230,  -2677,   -146,  -1113,   2816,   -743,   -625,  11991,   -972,   1840,  -2852,   3539,   3348,   5000,  -3461,  -1972,  -2275,   3374,   2423,  -3633,   -512,  -1318,   3799,   8110,   -837,   -601,   -552,  -3126,   1419, -10915,   4039,  -2864,   1457,  -3534,   -251,  -4322,    178,   3286,   1630,   2251,  -2324,    331,     45,    188,  -2912,  -3055,  -1499,   3231,   -869,  -4436,  -4776,  -4194,  -2475,  -1302,  -4193, -10479,   7642,   3816,  -2659,    445,  -3657,  -1903,   3989,  -3754,  -4412,   -114,   2136,  -3359,   -473,  -3436,  -2314,   -750,  10311,   8313,   9315,  -1846,   5596,   7628,   4535,   2692,  -2817,  -2007,   1412,   -200,   -799,  -4616,  -1602,  12707,   7184,  11941,   6992,   3803,   6699,   9889,  -1447,  -1053,  -1455,  -1121,  -4132,   5674,   -974,  -1989,   -993,  13213,   7382,  15493,  14949,   2421,   3452,   5635,   2313,   -337,   2143,  -2258,  -2023,   4326,   1406,  -4711,   -744,   3705,  13851,  12612,   8224,   3816,   4134,   1947,   3671,      8,   2713,  -1694,   2023,   2864,   2098,  -3089,   6666,   4597,   6809,   1653,   7825,    529,   4553,   2299,  -3512,   3084,  -1748,    873,  -4950,   9677,   3396,  -2922,   3506,  12953,  16399,  11563,   6371,  -1958,    811,   6998,     29,   4052,   3488,   -329,  -1758,   -359,   4429,  -1473,    977,  11816,   8577,  16856,   8235,  -1842,   3418,   7665,  -3460,  -1066,  -1261,  -1503,   2173,   9480,   1955,  -1854,   2122,   9771,   8597,   9980,   4977,   1065,  -2417,   6361,   -161,    434,  -4448,  -2671,   -124,  -1260,   2788,  -4292,   -113,  -5675,   5226,   8937,   5228,   2528,   2216,   1306,  -1519,   -773,  -1018,  -3179,  -4201,   7521,  -2352,  -1374,   6294,  12359,  -3605,  -4798,  -5112,  -6087,  -4274,  -6159,   2931,   3627,  -3668,  -2788,   1459,  -3927,   1453,   3427,  -5475,  -7668,  -2137,   7530,  -9089,   7354,   5182,   -114,  -2847,   -275,  -4531,   2564,   4237,  -3328,   5483,  -1950,   3092,  13159,   -748,  -5553,   4908,   2069,   2173,    184,   -591,  -1197,  -4970,  -3812,   1998,  -1209,  -3609,  -1812,   3708,  -2310,   5326,    848,   5647,    622,  -3310,   9082,  -4165,  -2420,   3723,   2040,    712,   2787,    895,   2019,   6014,   -943,   3078,  -3419, -11876,   3886,   2468,   -514,  -1701,   1748,  -2851,  -1298,   1422,   2367,   2819,   2317,  -3175, -12805,  -8521,  -3386,  -2638,  -4159,   -633,    704,   2362,  -1307,   2517,   -662,  -2126,  -1416,  -1841,   1395,  -4713,   7689,   9897,  -6689,  -3306,  -2251,   -877,  -5921,   1986,    609,   2527,   2710,   4048,  -1097,   -875,   -917,  -5576,  -1790,    -77,  -5386,   2844,  -2083,   2270,   1160,   -606,  -2691,   2071,   1737,  -3673,   -840,   1930,  -2164,   4907,  -8513,  -7979,    579,  -7171,  -1389,   1033,   1954,   5687,  -3954,  -4482,    146,    513,    833,  -4398,  -2255,  -1747,   -445,   8589,   -807,   5373,   -640,   5973,   3888,  -3769,   3371,   -697,  -4325,  -5221,    160,  -2789,    322,    577,   3091,
          4792,   5124,    570,   4346,   3059,   1090,   2978,   3184,   -769,  -3197,  -5653,  -1306,  -1286,   1259,   3771,   3515,   2488,  -1499,   1256,    974,   3321,   2762,   3068,  -1561,  -3483,  -1923,  -1485,   -104,   2624,   4475,    268,   3437,   9530,   5759,   4727,   3829,   5047,   3268,  -3344,  -4569,   1258,    163,  -7165,   5175,  -2737,    601,     80,   7065,   7902,   6490,   5590,  -4454,   4131,  -1057,  -3538,   -281,  -4295,  -3883,  -5996,   4874,  -2499,  -2669,   3147,   6013,   7646,  -1683,   3110,    -77,  -1281,   5328,   2132,   2257,  -5003,   1407,  -3575,   4478,   4447,  -2426,   3119,    781,   3982,   5178,    -24,   3589,   3173,    532,  -3681,   -487,   -178,    304,  -6723,  -2700,  -1275,   3797,   4218,   8399,   4534,   2247,   1726,  -2751,     44,   2105,  -3098,  -2402,   2921,  -2940,    653,   3562,   3640,  -1781,  -2677,   2807,   4288,   3157,  -2554,    225,   2005,   4327,   1619,  -3609,  -4587,   -345,  -5883,   1217,   -651,  -3328,   1427,   5827,    160,   2234,  -3320,  -2395,    818,  -4368,   1161,   2067,  -2037,    -59,   3245,  -4746,   4288,     40,  -3928,   2047,   -217,  -2176,  -1213,   -685,   1378,  -3572,   4039,   -296,   -730,  -1687,    243,   2108,  -1406,   4092,  -4048,  -2748,    923,   -423,   2978,   4096,   1624,  -3128,   2340,   1372,   1073,  -4312,  -4436,   1063,   4205,    623,   3316,   3084,   1283,  -4797,  -3121,  -3961,   1431,  -1658,   2828,    479,   2647,   -765,   2084,  -4323,  -2578,  -2969,   -441,    560,  -3761,   1738,  -4491,   -389,    153,  -4570,  -2456,  -3775,  -2079,  -1579,   3151,   -578,  -3610,  -2233,   3461,    736,   1725,  -2127,  -1700,  -3283,  -1023,   3513,  -3393,   1166,   -827,   -162,  -3918,     97,   2025,  -2204,  -4244,  -3309,  -1781,   3702,   -629,   2341,    234,  -4689,   2751,   4189,   3657,   4939,  -4242,  -2408,    146,   4190,   3722,  -3848,   2790,   1688,  -4729,   1150,   2053,  -4578,    185,   -915,    645,  -2085,  -1814,   3913,  -1863,   3448,  -1996,   4426,  -1755,  -4290,   -597,   4269,   4290,  -4619,  -2981,  -2661,     37,  -4029,    542,   -593,   2902,  -2851,   4141,  -2838,  -1647,  -3395,   3192,  -7202,    510,   2762,   3340,  -2004,   1135,  -3800,  -3616,  -3055,   2461,   2886,  13425,   -213,  -1928,    114,  -6736,   6395,   2598,   -789,    732,  -6863,   1092,  -3098,   1110,   1236,   -195,   4359,  -7058,  -3381,  -3472,  -5573,  -4182,    900,  -4079,   1556,   3457,   4416,  -2489,    344,   2222,   -731,  -6197,  -3324,   6421,  -5589,    806, -10152,   -841,   -543,   3449,   9714,   2797,  -2348,   4279,   1563,   4970,     82,   5920,   1239,  -2298,    107,  -1040,  -5906,  -2654,   5600,    414,  -2856,   2670,    431,   3880,   3746,  -2406,    811,  -1370,  -4658,  -2029,   4490,  -6504,   -881,  -6195,   -541,  -2515,  -6729,  -2614,   2881,   1129,   1702,   1384,  -3622,  -1545,  -2985,  -2420, -11647,  -1970,  -6132,  -4496,   1403,   1263,  -7192,   3059,    825,   1680,   2951,  -1951,   1354,   2369,  -3075,  -5905,  -3521,   7093,  -6741,   -541,   1497,   2060,  -4594,  -4320,   3131,  -2705,     11,  -2284,    149,  -3386,  -1134,  -3210,   3376,     95,    379,  -4939,   3335,  -4362,   3622,  -5975,  -5607,   3337,  -4106,   2380,  -2699,   3590,   1849,   9222,    515,   4222,   4574,  -1734,  -2283,   1122,  -3958,   3725,  -3230,  -3888,  -2451,  -3292,  -4399,  -2566,   3461,    368,  -4177,  -5122,  -1739,    434,  -4526,   -314,   2957,  -3214,   2394,   1526,  -2733,   -500,   2872,  -1609,  -3109,  -1980,   1014,    512,  -4504,  -1256,   3078,    694,   2347,  -3590,   2598,  -3556,    346,  -3054,    579,   1689,  -2040,   1787,    625,   1526,  -2586,  -2578,   1147,   -630,  -4436,  -3580,   -485,   3071,   3399,  -2827,  -3009,   -222,   -889,    252,    174,   1221,   2110,    958,   3447,  -3511,   3664,   3792,  -1517,  -3414,   4397,  -3350,    119,   2570,  -3017,   4219,   -954,   -228,    359,  -4526,   3216,   3143,   1197,   2178,  -3348,    919,   -143,   4050,  -2378,  -4765,  -1978,  -2819,  -3510,
          1010,   1434,  -1479,  -4049,  -1673,  -3188,   2370,  -2877,    -86,   2279,   -475,   3199,  -1234,  -1879,    612,    476,   -551,  -1401,   3738,  -1078,  -1868,  -3305,  -2013,  -2095,   2957,  -2684,   2092,  -4255,  -4331,  -4214,   3274,    664,   2130,   4051,    406,  -2249,  -3151,    -87,  -3198,   2063,  -2363,   4237,    638,  -1617,   4070,   -656,  -1327,  -3105,  -2085,  -2398,   6236,   5078,  -2527,   8374,   2232,  -3341,   3101,   1629,   1304,   1261,   2505,   1739,   7290,  -2393,   1851,   3031,   2053,   4955,  -4104,  -1229,   2319,    156,  -1142,    175,   -180,   4120,  -3836,  -2172,  -6997,   8327,   5366,  -4911, -10899,  -6111,   3083,   3780,   2872,   2088,   1446,  -2984,  -3824,   1570,   -205,   -598,  -5526,   5777,  11531,    450,   5276,   1802,  -1729,  -8333,   3853,  -1036,   1031,   3748,  -3094,  -1451,  -1965,   1220,   -479,  -6055,   2405,   4095,  -5337,   4110,   3820,   6814,  -1993,   6455,   2676,   -678,    618,   4139,   7049,   2978,   2222,  -6507,  12744,   1681,  -4787,   2507,  -1061,   -387,  -1828,   4281,  -2090,  -1445,   3714,   -484,  -3502,   1976,   7025,  -7195,  -8795,   -432,   6740,   4098,   1049,   5015,   1771,  -2188,   2277,   -201,   1775,  -4520,  -2960,   3364,  -2308,   -329,    474,   -285,   6923,   1898,   2626,  -1613,  -1756,  -2843,   3442,  -2369,  -2896,  -2106,   -624,   3934,   4499,    -50,  -6343,   7284, -12699,   2260,  -1673,  -2565,   -754,    992,   3039,  -2787,    747,   4836,  -1383,  -2210,   -837,   2368,   1818,  -2838,  -3223,   2515,   1172,   3881,   1895,  -1462,   4015,  -1644,    277,    139,    504,   1137,  -3472,     50,   1350,  -1342,    415,   2540,   2012,  -1861,    976,    498,   2994,   2344,  -3373,   1706,   2050,   4023,  -2972,  -1436,  -3765,  -2254,    398,   1880,    842,  -4416,   1594,   1779,  -3326,  -1251,   3785,   3595,  -1351,   2932,   3723,   2705,  -3052,    104,   2353,  -1555,  -1618,   1957,  -4235,   -158,   -416,  -4189,  -3316,  -2410,   4350,  -2719,  -3900,  -2208,   1597,    289,    430,  -4351,    244,   -420,    872,  -1381,   -747,   2795,   2122,  -1660,   4566,   -770,  -4723,   4139,  -3651,   1357,  -4334,    899,   4347,  -3306,  -3432,   4057,    718,  -4614,  -3741,   2136,  -1272,  -1301,   -934,    792,  -4157,   1224,  -2362,  -4688,   3375,    504,   3254,   3202,    416,    827,  -1683,  -3720,   3117,   3375,  -3323,    829,  -4644,  -3780,  -1724,   2410,  -2692,    557,  -4091,  -1903,  -1074,   4082,  -4419,   1275,    707,  -4105,   2864,   2541,   3692,   -832,    990,   -158,   1597,  -4603,   -723,  -3919,    711,   1548,  -3086,   1427,  -4698,   -169,  -4336,   3144,  -5987,   -703,    585,  -3463,   -441,   8924,   -158,   -935,    887,    325,   3976,  -4587,  -2038,  -4086,    778,     97,  -1597,  -4309,  -5275,    783,  -3966,  -4670,   1681,  -4465,  -3540,  -4566,  -1638,  -1155,   3478,   4497,  -7683,  -9586,   5050,  -1211,    523,   3605,    542,    111,  -3297,  -2340,  -4747,  -1939,  -3952,   5478,   -683,  -1537,  -1658,  -1276,  -9229,  -5359, -10575,  -1239,  -2038,   1673,   3277,   1112,  -2869,  -2889,   4853,  -3733,   -130,   -159,  -3844,  -7720,   3548,    203,    134,  -1894,  -1924,     38,   1898,  -2211,  -1754,  -1238,   2587,   4372,   2377,  -3442,   -415, -10390,  -4091,  -8072,  -2507,   -860,  -4928,   2312,   -847,  -2167,    -84,  -4698,   4467,  -2408,   2672,  -3484,   3444,  -5209,   -944,  -7533,  -3392,   -926,   2189,  -2754,  -3284,   3692,   4016,     32,   2811,    786,    695,   3975,   2334,   -488,  -5524,    776,  -6111,  -3245,   4588,    270,   3254,   -749,  -3033,  -2692,   3081,  -4497,   1331,  -4336,    670, -28410,  -6469,  -2032,  -4456,   -151,   -423,  -4091,   1119,   3497,  -3284,  -3554,   2821,   1001,  -1766,   3681,  -3149,   9812,   6608,    140,   8061,   5616,   4557,   6346,  -3315,   2746,    366,  -3701,  -2336,   2317,    710,  -2062,  -1379,  10603,   9106,   7889,   3811,  -1402,  -1239,   5237,  -4101,    856,   -384,   -597,  -2491,  -1951,   2618,    590,   -898,  10811,
         16410,   4455,   1915,   1001,   -827,   3172,    824,  -1139,  -2962,   1325,   -998,   4137,  -2734,   -162,   -507,   2956,   2958,   8906,    763,   1971,  -2691,   1462,   1917,  -1463,  -3650,   4846,   1058,    379,  -1842,  -1720,  -3443,   5304,   1407,   1597,   2276,  -2258,   3919,   1664,    398,   -542,   1890,  -2094,    295,   -150,   1071,   2642,    -27,   8504,   7389,   -866,   7292,  -1265,   4344,   2384,     13,   3681,   2847,   2748,  -3261,   5578,  -1339,  -1636,   -828,   3528,  13101,    -88,   7987,    203,  -1378,  -3989,   -171,   3147,   2456,  -3086,  -5131,   2948,   6822,   2929,   2154,   8366,   -218,   2588,   3689,  -3643,   -758,   2996,  -2041,   4110,  -4987,  -1307,  -3614,  -3081,   5850,  -2345,  -1043,   6357,   6470,   5521,   9708,  -3005,  -2191,   7334,   3746,   3175,  -4658,  -1162,  -4221,  -1932,  -3495,    928,   3927,   6463,  12683,   6606,  15367,   -775,  -4030,  11200,   -347,   2598,   2656,   2856,  -2147,  -2145,   1298,   3256,   3992,   -766,   8279,   7414,   8992,   -370,    568,   3030,  -4942,   1981,    581,  -1040,   1008,   -388,  -3595,    429,  -4978,  10029,  15780,   4361,   9816,   3349,   1652,   2549,   2470,     84,  -1060,  -2501,   -628,   4971,   3668,   4360,   5022,   9618,  15576,  12941,   7367,  -3128,   -367,   6997,   -593,  -1819,   3161,  -3796,  -1507,   4792,    911,    532,   6417,   9586,   -195,   9902,   7715,   3180,   2492,   9234,  -1240,   2586,  -2354,   1079,   1986,    526,  -2610,  -1573,   1412,  -9056,   4879,  16086,   9663,   3405,   -522,   3559,    652,  -4403,  -3985,    774,  -2106,   4964,    524,   -679,  -1511,   4322,  12124,   8077,  15772,  -2561,  -3851,   8589,   2117,  -3911,   -787,    148,   2885,   4250,   3807,   -368,   3619,   9333,  11501,   4889,  11266,   6796,    563,   4223,   2259,   2921,   -889,   2558,  -1837,   3214,    490,  -4669,  -5363,  -1194,  10399,   4870,   6919,   -108,  -2543,   5734,   1546,   3904,   3598,  -2121,  -1477,   6477,  -2340,    596,   -291,  10508};

    const static Filter<int16_t> statefulpartitionedcall_sequential_conv2d_1_biasadd_filter(statefulpartitionedcall_sequential_conv2d_1_biasadd_filter_element, -15, {3, 3, 16, 16}, {1, 1});
    const Filter<int16_t> *get_statefulpartitionedcall_sequential_conv2d_1_biasadd_filter()
    {
    	return &statefulpartitionedcall_sequential_conv2d_1_biasadd_filter;
    }

    const static __attribute__((aligned(16))) int16_t statefulpartitionedcall_sequential_conv2d_1_biasadd_bias_element[] = {
            82,     -5,     -5,   -130,     -7,    239,    -64,     35,     -6,    -80,     -2,     41,      0,    -98,     80,    261};

    const static Bias<int16_t> statefulpartitionedcall_sequential_conv2d_1_biasadd_bias(statefulpartitionedcall_sequential_conv2d_1_biasadd_bias_element, -9, {16,});
    const Bias<int16_t> *get_statefulpartitionedcall_sequential_conv2d_1_biasadd_bias()
    {
    	return &statefulpartitionedcall_sequential_conv2d_1_biasadd_bias;
    }

    const static Activation<int16_t> statefulpartitionedcall_sequential_conv2d_1_biasadd_activation(ReLU);
    const Activation<int16_t> *get_statefulpartitionedcall_sequential_conv2d_1_biasadd_activation()
    {
    	return &statefulpartitionedcall_sequential_conv2d_1_biasadd_activation;
    }

    const static __attribute__((aligned(16))) int16_t fused_gemm_0_filter_element[] = {
         -8206,   6673,  -6162,   4136,  -3789,   -948,  -1966,   4761,  -2924,    -83,  -8389,   5199,  -7776,   5937,  17579,  -5866,  -1621,  -8821,   6888,  -7263,   3533,   3082,  -2848,   4040,   7177,   1963,  -2563,  -7214,   3046,  -7574,   6639,   4609,  -6907,   2327,   -487,  -4099,  -1306,  -1322,   7817,  12214,   5518,  -6027,  -8119,   4722,   4394,  -3373,  12354,   4128,  -5542,  -3393,  -4722,    957,   3935,   7118,  -2750,  14321,   8514,   7306,   5079,  -7207,   5055,  -1816,  13363,  -6548, -16538, -11054,  -1006,  -5033,  11438,   3277,   3033,  -9787,  -7181,    204,   3656, -10102,   2864,     65,  11207,  -4218, -12081,   3407,   4952,  -8904,    695,   3447,  -6699,  -5712,   -615,   8022,   7591,  -7226,   9325,  -5448,   9506,   4347,   -440,  -6948,  -3119,     20,   1237,  12289,   3875, -19681,  -8083,  -7825,  -7378,   -710,  -7573,  -7623,  16058,  -2621, -14820,   -471,  -9198,  -2587, -11056,   5430,  -3616, -19581,   1677,   1037,  -4133,  -2081,  -4590,   2892,  11933,   2069,  -1144,   -403,   4612,  -6615,  -3183,   -338,   4456,    883,   7110,   2523,   6395, -10249,   3960, -11450,   1398,   1490, -12297,   2027,   6002,    315,   3199,   3729,   5631,   -435,   8214,   5900,    801,  -2272,  -5994,  -9327,  -6833,   1102,   4588,   3529,   1786,   4502,   5284,   4463,  -6088,   3688,  -1362,   2930,  -5721,  -5141,     23,   1987,   4413,   6608,   3654,  -6929,  -7762, -10338,   5600,   2968,  -8576,  -5757,   8509,   6177,  -7729,  -8510,  -4406,  -3834,   5537,   6897, -11627,   4037,   8907,   5851,   1482,   5387,   1306,   4996,  -9050,  -1081,   7825,   8044,  -3163,  -1620, -20859,   1442,    507,   7533,    946,    931,  -3100,   5815,  -8051,   1071,  -7680,  -6529,   6912,   5122,  -1063,  -6163, -12954,  -1067,   2589,  -3200,  -2204,  -3673,   2461,   7489,  -9425,   2169,   8174,   2925,   6591,  -5816,  -6586,  -4847, -31056,    -77,    868,  -3094,  -3102,  -5646,  -1470,   7042,   3906,  -8195,    299,  -8963,   6574,   4327,   -278, -11065, -30756,   4366,  -3811,  -9440,  -7662,  -6347,  -2638,   1615,   2875,   6030,   7587,  -4822,    712,   9691,   3819,  -9983, -11368,  -5682,   8601,  -4083,   6290,   5455,  -5347,  -4952,   8994,   2388,  -3171,   6335,   4750,  -2323,   4761,   5825, -31651,   8126,  -2109,  -2041,   3709,  -3062,   6614,  -4999,  -9048,  -6063,   4521,   4242,   8419,   3679,  -6002, -10411, -22499,   3988,   4961,  -2057,   7477,  -9474,   7028,   3087,   3883,  -6967,  -5822,   8751,  -2215,  -8462,   2675,   4339, -19377,   5474,    908,  -2416,  -6077,  -3148,  -7836, -14201,   9477,   5001,   -648,   4406,  -6031,   1020,  -6652,  -2589,   -404,   1009,   7588,   -421,  -7031,  -4236,   8773,  -9963,  -5714,   6141,  -4091,   8688,  -7699,   4159,  -1058,  -4619,  -7862,   2394,     21,  -4627,   1927,    734, -13208,  -5135,   1975,  -6877,   7089,  -4474,  -7550,   6068,  -8847,   4055,   4857,   2346,   7416,   2742,   7956,  10428,    456,  -5336,  -3994,   1616,  -6388,  -6155,  -2282,  -2243,   5606,  -6798,  -9196,  -1445,   4410,  -6179,  -1916,   3381,   2102, -26239,   6741,   4576,    398,  -6551,   7807,  -6328,   7061,   7564,   3652,   4056,   7830,  -2190,   4989,   6201,  -5860, -18737,  -4804,  -5586,   3060,  -4375,    510,   9157,   5175,  -2441,   4260,  -1516,  -2205,   8772,   4782,   2969,  -1275, -19497,   -496,   6608,  -9214,   7425,   2798,  -8897,  -8798,    233,  -7793,   7087,  -9810,  -5395,  -9543,   3257,   7260, -14145,  -6536,   6593,   7483,  -1823,   7778,   6628,   1349,   4237,  -7349,   2900,  -7895,  -3062,   7289,  -2037,   4677, -31072,  -7287,   7143,  -5663,  10334,  -7679,   4257,   5990,  -2275,   8757, -10226,   1145,   2015,  -5699,  -1694,  -5284, -29548,  10201,   -785,  -5338,  -3391,  -6862,  -7064,   3831,   6224,  -4486,   -717,   9435,   3760,  -5265,   5890,   6744, -30049,     54,   -123,   7194,   8442,    456,  -2727,  -8768,   9854,  -1697,   4312,   9021,   4997,   7878,    373,  -7789, -16269,  -1765,  -7687,  -5008,  -4280,   4851,    700,   9098,  -3274,    733,  -4443,
         -2559,  -4611,    758,   5795,   5436, -17690,   3997,  -1840,  -1121,   4195,   6426,   1517,  -5476,    -77,  -6652, -16631,    746,  -3749,   5713,   7309,   2224, -14715,   3080,  -3818,   4726,  10083,   6368,  -1326,  -2106,  -1319,  -8265,  -3495,  10268,  -8018,   7016,  -1218,   6283, -18966,   7317,      5,   2476,   1995,  -5367,   -176,  -2689,   2146,  -5717,  -6071,   -179,   4249,  -9079,   3185,  -8579, -10375,   6752,  -4955,   8384,  -5444,   8878,  -6354,   2422,    194,   -664, -10876,  -5800,   1467,   6409,   4361,  -6969,   1753,   6697,   1779,   7911,   6307,   4276,  -2181,    412,   3591,   8731, -21810,   5937,   7026,  -9132,   -209,   1566,  -9189,   2885, -10255,   2140,  -3039,  -8625,  -8421,   7984,   7839,  -2412, -15459,   -307,  -8092,  -7530,  10724,   7220, -10471,   -980,   -573,  -3954,  -1148,  -4557,   2821,   5584,   7401,   1114, -20031,   -112,   1274,  -5320,   3716,  -4833,   2705,  -3144,   8069,    562,   6792,   1339,   6555,  -6964,    403,   6294, -18554};

    const static Filter<int16_t> fused_gemm_0_filter(fused_gemm_0_filter_element, -15, {1, 1, 64, 10}, {1, 1});
    const Filter<int16_t> *get_fused_gemm_0_filter()
    {
    	return &fused_gemm_0_filter;
    }

    const static __attribute__((aligned(16))) int16_t fused_gemm_0_bias_element[] = {
             3,      2,     -4,     11,     15,     16,     18,     20,    -16,    -41};

    const static Bias<int16_t> fused_gemm_0_bias(fused_gemm_0_bias_element, -7, {10,});
    const Bias<int16_t> *get_fused_gemm_0_bias()
    {
    	return &fused_gemm_0_bias;
    }

}
