#include "Mnist_coefficient.hpp"
using namespace dl;

namespace Mnist_coefficient
{
    const static __attribute__((aligned(16))) int16_t statefulpartitionedcall_sequential_conv2d_biasadd_filter_element[] = {
        -13267,   -695, -11754,   5677, -12066, -13837,   -101,  -8991, -15198,  -5656,  -8220,  11066,  -6171,  -5876,   2771,  -2431, -12134,  -2541,  -4531,  11129,  -4494,   7734, -13969,  -4889,  -9810,  -8369,  -1903,   4819,  -9287,   4659,  16637,  -4425, -14631,   8538, -13421,   6523, -10943,   3811,   7192,   -523,  -4589,   5755,  12673,  14561,  -9938, -14540,  -6548,  12166,   3497,    706,   2146,  -4350,  -9467,  13021,  -6101,  -8845,  -4796,   6947,  12729,   3998,   5105,  -1161, -13133,  11808,  -3576,   6110,  11348,  -2528,  -5953,  14641, -13897,  -5479,   -641, -13893,   7713, -12072, -12340,  -4955,  -3602, -14557,  14729,  -3967,  13882,    238,   2345,   7098,  -5304,  -4722,   1687,   5172,   8671,  14452,  10879,  -9808,    842,  -6101,   6336, -16395,  -4313,  -7065,   6330,   4144, -13161, -14566,  -7460,  14347,   7014,  -4154,  -3407,   -771, -13415,   9363,  -1130, -16787, -15559,   1475,  -8362,   7667,   2829,   2111,  -8961,  -6494,  -2009,   3972,  11071,  -9419,   6335,  -8302,   1157,  12520,  -9319,   4878,  11833,  -8663, -12954,  -7077,   2223,  12229,   3775,   -745,  -9270,  -4849, -15313,  -7521,   6301,  -7982, -13337,  13900,  -5706,   4563, -11843,    291,  -9316,   7423,  -3503,   9066,  -1554,   1381,   -294,  11426,  -4973, -14981,   4601,  11629, -15115,  -1285,  10452,  -7187, -12518,  -9210,   9193,    915,  -5921, -13880,   3619, -12011,    -56, -13074,  13260,  -3782,  -3295, -11714, -12430,  11073, -10944,  13472,   3236,   -543,  -2963,  -1673,  15456, -10718,   1213,  -6624,   7657, -13383,  13568,  -5906, -14743,   -446,  11509,  -9807,   8123,  -4221,   9810,  14129,  -7892,  12579,   2924,  10678,  -2847,  11109,  -7479,  -6541,  -3205,   7794};

    const static Filter<int16_t> statefulpartitionedcall_sequential_conv2d_biasadd_filter(statefulpartitionedcall_sequential_conv2d_biasadd_filter_element, -16, {3, 3, 3, 8}, {1, 1});
    const Filter<int16_t> *get_statefulpartitionedcall_sequential_conv2d_biasadd_filter()
    {
    	return &statefulpartitionedcall_sequential_conv2d_biasadd_filter;
    }

    const static __attribute__((aligned(16))) int16_t statefulpartitionedcall_sequential_conv2d_biasadd_bias_element[] = {
             0,      7,      4,     -2,     -8,      1,     13,      2};

    const static Bias<int16_t> statefulpartitionedcall_sequential_conv2d_biasadd_bias(statefulpartitionedcall_sequential_conv2d_biasadd_bias_element, -8, {8,});
    const Bias<int16_t> *get_statefulpartitionedcall_sequential_conv2d_biasadd_bias()
    {
    	return &statefulpartitionedcall_sequential_conv2d_biasadd_bias;
    }

    const static Activation<int16_t> statefulpartitionedcall_sequential_conv2d_biasadd_activation(ReLU);
    const Activation<int16_t> *get_statefulpartitionedcall_sequential_conv2d_biasadd_activation()
    {
    	return &statefulpartitionedcall_sequential_conv2d_biasadd_activation;
    }

    const static __attribute__((aligned(16))) int16_t statefulpartitionedcall_sequential_conv2d_1_biasadd_filter_element[] = {
          3862,  -4014,  11875,   6129,  -7350,   5775,   7093,    844,  13474,   6791,   4889,  -6958,   -275,  -6242,  12250, -12293,  10484,   1845,  -8901,  11486,  11180,   7294,   7621,  -6355,    885,  -4480,   5677, -11321,   1016,  14540,  -8378,   7513,   8908,  -2707,  -2047,  -2251, -12031,   8279,  -6424,  -7394,     35,   -567,   8221,   3354,  -3488,  -2703,   4560,  -9946,  -8686,   -692,   -910,    915,   8393,   3505,  15089, -12806,   9422,   7950,  -5919,  10504,  -6680,  -7348,   7063,  -5176,  11875, -12792,  12260,  -8234,   1395, -12528,  -6696, -11775, -10132,  -2239,    910,  -2892,  12168,  -7409,    984, -13056,   3408,  -3755, -11004,  -7228,  12273,   1873,   6490,  -4891,  11248,  -3804,   2259,  -1010, -12546,   2142,  -9235,   -469,   4115,   8976,   1571,   1028, -13052,   2003, -10164, -13576,  11286, -11076,  -1809,   3057,  10814,  -3101,   9192,  11753,   2418,   7449,   9883,   6132, -10465, -11677,  -3793,  -2070,   8998, -13024,   1802,  12151, -12914,  10000,   1882, -13225,   1482, -12432,  -5648, -13012, -11464, -13433,   1692,  -8909,   3074,  -3044,   1357,  11731,  11836,   5323,  -8747,    282,   9154,  -6439,   4882,  -6531,   9121,  12063,   8961, -13471,   1013,  11123,  -7196,  -7041, -11276,  -8651,  -5170,  -2797,  -1572,  -8698, -10015,  -3480,   7707,    578,  -3390,  -7483,  -5697,  -3743,   6054,   9194,   1905,  -8621,   9000,  -3649,  11743,  -6599,   5412,  10991,   3520,  -6481,  -8659,  -3135,  -1567,   2177, -12900,   9484,   1665,   7062,   8441,   8847,  -6621,   5740,   2332,  -2042,  -4825,   -622,  -5510,  -3696,   5158, -13487,   6086,   6814,   3689,  -5429,   3175,  -8279,  -4186, -11118,   4413,   3050,    -32,   5369,   3933,   1564,   -272,   7173,  -1665,  -1456,   6738,    524,   -573, -15903,   -711,  -3560,  -8052, -12504,   2020,  11768,  -4865,  -7357,  -2848,  -7391,    404, -13388,  -9023,  -1843,  -1685, -14029,   2625,  -7727, -11360, -11860,  -1863,    423,   7718,   7747,    645, -12571, -12963,  -2495,   6946, -12804,  12039,  -4454,  -1921,  -5273,   2380,  11631,  -2573,  -3125,  -8581,   7520,  -2800,   6171,   5790,  10110,   5367,   4884,   1371,  -4675,   1348,   7993,  -3127,   8423,  -4303,   5822,  -4962,   3713,   8125,  11613,    372,   -252,  -4136,  10500,   5419,  -8946, -13568,  -9794,  -6843,  -7990,   6445,   9482,   4669,   3279,  -2105,   6262,    733,  -1457, -10794,   -199,   6714,   -781,  12486, -13698,    455, -21046,  -7972,   4973,   5430,    221,  -9569,  -3712,   4658, -11973,  -2024, -11092,   7055,  11121,  -8437,  -2251, -13178,   5047,  -1066,  -3188,   9848,   2769,   8314,   -124,   1697,  -9824,   7384,   4733, -12482,   3014,    302,  -7859,    297,    746,  -3736,  -7804,  -5651,   3964,  -4561,  -4541,  -2779, -14544,   9459,   7552,  -1445,   5589,   2156,   -381,   3991,  -3219, -11201,   4436,   6430,  -7010, -11306,   1429,  -8605,   -386,  -4197, -12927,  -1029,  -5038,   4886,  -2242,   9115, -11904,   1753,  10470,   7928,   4796,   5402,   8655,   6600,   5273,  -6410,  -1523,  12715,  -3035, -10573,    712,  -9371,  -2113, -13649,   2450, -11174,    259,  -8821,  -9655,  -1250,  -6332, -10030,  -2298,  -9078,  -7146,   7850,  -9057,  -3969, -13731,   7761, -11890,  -1305,   4304, -14105,  -6078,   -299,   3892,  11314,   7124, -10043,  -5803,  -9019, -10732,  -7163, -10776,   7229,  -7691,   4606,  -6583, -11773,    -45,   1310,   -144, -12190,   9518,   3484, -11782,   1848,  11015,   5819,  -7286,   5825,  -3738,   4495, -12675,   7046,   2432,  -3325,  13383,   5885,   6302,  14085,   5165,  -4107,  -1031,   1509, -11559,  -5955,  10577,    743,  -1947,  -5642,    221,   9771,   9250,  -2429,  -2980, -10555,   7029,  11338,    364,  10568,  -2601, -11910,   4154,   2415,  -1026,   7059,  11869,   7402,   5729,   8899, -12197,  -8272,   6445,   1814,  -7189,  -2472,   6877,   9909,   8483,  -3310,  -9846,   3652,  -1752, -10432,  -6488, -10561, -12782,  -6864,  -7472,  10436,   4376,   6452,   6254,   9595, -11896,  12432,    -26,   8963,  16750,    184,  11599,  -6992,   5759,   2875,   4392,
         -3620,  -3509,   -749,  -6024,   1177,   2339, -18511,   6888,  -5571,  -7865,   8746,  -5451,  -6885,  -4912, -11705,  -3691,  -2210,  -4924,  12195,  -5432,  10043,  10043,   6388,  -4460,  -5339,  -7739,   4978,   9534,   9747,   7360, -13570,   2173, -10530,  -3334,   6329, -10179,    476,  -5135,   5298,  -6976,  -8744,  -1627,   9368,   8029,   3083,  -2544,   8810, -11727,  -3970, -12244,   1080,  11084,  -9115,  -2983,  -5441,  -7510,   6586,   3519, -13668,  -8157,  -2061,  10502,  11517,   3579};

    const static Filter<int16_t> statefulpartitionedcall_sequential_conv2d_1_biasadd_filter(statefulpartitionedcall_sequential_conv2d_1_biasadd_filter_element, -16, {3, 3, 8, 8}, {1, 1});
    const Filter<int16_t> *get_statefulpartitionedcall_sequential_conv2d_1_biasadd_filter()
    {
    	return &statefulpartitionedcall_sequential_conv2d_1_biasadd_filter;
    }

    const static __attribute__((aligned(16))) int16_t statefulpartitionedcall_sequential_conv2d_1_biasadd_bias_element[] = {
           -18,     -5,     -6,    -24,     82,    -12,     37,     14};

    const static Bias<int16_t> statefulpartitionedcall_sequential_conv2d_1_biasadd_bias(statefulpartitionedcall_sequential_conv2d_1_biasadd_bias_element, -9, {8,});
    const Bias<int16_t> *get_statefulpartitionedcall_sequential_conv2d_1_biasadd_bias()
    {
    	return &statefulpartitionedcall_sequential_conv2d_1_biasadd_bias;
    }

    const static Activation<int16_t> statefulpartitionedcall_sequential_conv2d_1_biasadd_activation(ReLU);
    const Activation<int16_t> *get_statefulpartitionedcall_sequential_conv2d_1_biasadd_activation()
    {
    	return &statefulpartitionedcall_sequential_conv2d_1_biasadd_activation;
    }

    const static __attribute__((aligned(16))) int16_t statefulpartitionedcall_sequential_conv2d_2_biasadd_filter_element[] = {
         -7667,   -350,   6669,   8053,   4729,   6838,    406,  -7315,  -9414,   8490,  -6234,  -4101,  -1487,  14377, -11249,  10113, -11397,  -3996,    131,    564,  -8487,  -4391,   8118,   7294,   5993, -13837,  11635,   6980,   6816,   9391,  11993,  -7159,  -5791,  -4134,   2302,  -4531,  -7311,  -8733,   4412,  -2587,   8071,   4978,  12580,  -6344,  -2925,  10650,  -5114,   2691,  12572,  -3960,   3717,  13556,  -1319, -10807,  11444,  -1080,   8571,   7173,    608,   3301,  -7155, -10767,  -9200,  -4810,  -2507,   4088,   1263,  -3582,  -7995,   5989,  -4554,  -9069, -10245,   7589,   2138,  -9723,  -9244,   6180,   3066,   4698,  -4998, -10479,   -333,   6493,  -8845, -12758,   9612,   1993,  10578,  10745,  -9975,   9897,   2937,  -1592,    190, -12526,   2375,  -6761,  -1454,   8824,   3047,  10980,   6170,   3053,   9934,   7671,  12119,  -5517, -11305,   4887,   1145, -13132, -14592,   3122,   1512,  -8940,   2504,   4191,    777,  -2618,  13126,  10417,  -6511,   1687,   -269,  -5882,  -4593,   2836,  -8494, -10364,  -8620,   4207,   5394,   6981,  12857,  -1839,   7977, -11481,  11792, -10077,   1424,  -1609,  -7784,   4972,    -71,   8251,   -770,  10918,   3555,  10479, -10239,   6377,  12362,  11827,   8020,   1882,   8743,   7238,   9508,  -5279,   5646,     18,  -4565,  -9396,   3959,  -9289,  -9740,  11760, -13279,  10713,  10898,  -1011,  -6531,    -57,   7514, -10510,   -247,   9333,   3584,   -148,  -5512,   6806, -11308,   5024,   1065,  -5858,  -1269, -11323,  -7815,   3712,   1507,  -7356,    872,   -114,  -4550,   -244,  -4518,  -7570,  -8687,  -5251,   8205,   7636,  -8014,  -4716,  -4339,  -6029, -11434,   5991,  -1861,  10001,  -1864,   4902,  -4813,  10911,  -1544,  11730,   7587,   4569,  -4349,   7337,   9292,  12176,   2001,   -712,   1621,  -8536,   9536,   -468,  -3994,  -2099,  -8292,   3642,  -2018,   9459,  -7852, -10211,   6199,  -9338,   1350,  -4599,  -6938,  -2377,   9847,   -173,  -1934, -13136,  10826,   1170,   8324,  11073,   6653,   2255,   9231,   8640,  -8409,   8731, -13245,   5666,   -169,  -4330,  -1297, -13670,  -9498,   3729,  -9538,   8878,   -605,   5439, -10752,  -8977,  -5578, -13851,   -868,  12620,  11347,   1026,   3382, -11392, -12233,    985, -10705,  11623,   4936,  -3021,    923, -10268,  13084,  -5501,   4834,  12476,    880,  -8210,  12069, -10370,  -8415,   8991,  13611,  -2288,   1573,  11070,   7488,  12973,   1980,   3119,   1478,  -7349,   3836,   2576,  14998,   5323,   7397, -11241,  -4258,  -2795,  -5176,  -4894,  -1873,    640,  -2362,   3106,   3372, -11779,  -8616,   9895, -10818,  11859, -10712, -11854,  -5859,   3957,  -5991,   2498,  10437, -15196, -13227,  -9160,   8700,  10494, -12282,   6067, -11061,    598,  11260,   7879,   2127,   4613,  12630, -11858,   3291,   2220,   2694,  -3490,  -8573,   8307,   8514,   3024,  -3383,  -4429,   2299,  -9634,  -2940,    930,   7387,  -4921,    690, -12739,  -9050,   2172,   5994,    362,  -9296,   4862,   9922, -13145,  -6499,  11728,  -1022,   -905, -11862,   9185,  16512,  -9618,  -4276,  -5011, -12041,   9898,  11058,  11532,   3543,  -9670,   4293,    907,  -6816,   7371,   4308, -11011,  -5653,   1121,  10507,   3955,  -5023,  -4100,   -434,  -9370,  -7498,   7572,   2856,   1032,   2367,   7055,     50,   8357,   -769,   5107,   9545,  -3867, -10777,   -998, -10532,  -5094,  -6802,   6638,   5862,   1469,    879,   -100,  -2325, -10450,  12248,  -1436, -11728, -13369,  -9379,  -1127,   4575,  -1651,  -3057,    -32,   2417,  -3460,  -1455, -12698,   8348,  -2851, -15226,   6320,  -3572,   2774,  -2497,  -2824,   7645,  -3081,   6947,  -4792, -11123,  14873,   5406,  -1932,   8207,  -2644,  12998,  -9980,   5056,  -7285,  -2281,   6942,   3942, -10746,   4793,   2938, -10237,  18730,  -6005,  -4318,   8244,    786,  -1059,  -3888,  -3131,   2283,  -3645,   7053,  -5082,  -8606,   8498,  -4926, -10555,  18118,   1133,    640,   2961,  -3437,  10186,  -8134,   5053,   3603,   6276,  -9766,   6614, -10494,  -5915,  -2707,  -8869,  -8580,  -8532,  -7907,  -4325,  12313,   8532,    853,  11695,  -9894,
          8764,  -4826,   1842,   2222,   2342,   8491, -12155,   5528,   4898,   9221,  -3595,  -8231,  -2464,  -2719, -10443,  -8468,   5679,   -131,    396,  10731,   9076,   2063,   1466,   4635,  -3590,   4748,    -52,   7447,  -9963,  10843,   1181,  11090,  -7864,  10792,   1855,   9473,  11785,  13830,   3706,   5377,   3107,   5417,  12276,  -9385,   5389,  -4514,   9220,   8963,  -3433,   7468,  -3195,    712,  -6446,  -9652,    647,  -2643,   4841,  13563,  -3013,   -236,  -3562,    593,  10452,  -2484};

    const static Filter<int16_t> statefulpartitionedcall_sequential_conv2d_2_biasadd_filter(statefulpartitionedcall_sequential_conv2d_2_biasadd_filter_element, -16, {3, 3, 8, 8}, {1, 1});
    const Filter<int16_t> *get_statefulpartitionedcall_sequential_conv2d_2_biasadd_filter()
    {
    	return &statefulpartitionedcall_sequential_conv2d_2_biasadd_filter;
    }

    const static __attribute__((aligned(16))) int16_t statefulpartitionedcall_sequential_conv2d_2_biasadd_bias_element[] = {
           -96,    -17,    -69,     67,     48,    104,   -200,    144};

    const static Bias<int16_t> statefulpartitionedcall_sequential_conv2d_2_biasadd_bias(statefulpartitionedcall_sequential_conv2d_2_biasadd_bias_element, -11, {8,});
    const Bias<int16_t> *get_statefulpartitionedcall_sequential_conv2d_2_biasadd_bias()
    {
    	return &statefulpartitionedcall_sequential_conv2d_2_biasadd_bias;
    }

    const static Activation<int16_t> statefulpartitionedcall_sequential_conv2d_2_biasadd_activation(ReLU);
    const Activation<int16_t> *get_statefulpartitionedcall_sequential_conv2d_2_biasadd_activation()
    {
    	return &statefulpartitionedcall_sequential_conv2d_2_biasadd_activation;
    }

    const static __attribute__((aligned(16))) int16_t statefulpartitionedcall_sequential_conv2d_3_biasadd_filter_element[] = {
          4210,   3640,   1185,    375, -16104,  -5262,  -4430,   6151,   -664,   1338, -10646,   7217,    811,  -4752,   7043,  -5132,  -9190,   5026, -12966,  -7687,   8102, -11433,   -170,  -3873,   8168,  -8163,   7846,   5185, -18108,   1736,  10930,  -5595,  -4809,  11389,   4597, -10467,  -1633,  -8330,  -8828,  -5478,  10729,   4618,  14069,   5465, -15252,   3170,  15448,  -1194,  -2204,  13246,  -9711,  -5455, -13227,  -3694,  10079,  -5290,  -2200,  -2059,  -1497,   -850,  -6554,   6053,  -6794,  13609,   2848,  -1110,  -3761,  -6145, -12943,   8319,   -691, -12178,   8864,  -4747,   8760,  10761,   2208,   9160,  -9499,   3175, -14063,  -8310,   -960,   6127,  -2926, -12104,  -9407,   3533,  -2812, -12965,  -4742,  -3946,   8571,    103,  -3354,  -9575,   1219, -11313,  -5923,  -3666,   1797,  12875,   5348,    109,   6882,   7631,   8715,  -5593,   4510,   6811, -13737,  -2206, -13433, -12372,   3330,  -4476,   4801,   5952,  -7673,  11570,   2886, -10494,   1794,   2589,   7175,    867,   8641,   7501, -13398,   3929,  -5317,  -3419,   4864,  -7511,   1669,  -1524,  -1664,  -6129,  -4858,   1905,  -7790,  10112,   7269,  -1044,   4360,  -6306,   2651,   5155,  -3772,  -8082,    777,  -3756, -12272,  11406, -13465,  -2211,   1694,   1205,  -4649,  -3985,  -8683,  -6800,   7821,  -2396,  -3110,  10694,   1911,  -7035,  10433,  -2708,   -830,  -5001,   4361,   4898,   9961,  -8832,  11654,   1148, -13053, -10254,   4603,   1870,  -7557,   1370,   -356,    256,  -7554,   9581, -14005,   7719,   8903,   6609,   1720,  -3511,  10085,   7560,  -6669,  -4319,  11534,   5745,    625,  -7441,   8555, -13004,  -1565,  10517,   2910, -13569,  10149,   9254,   -872,  -4036,  -3150,  -8784,  -9829,   1964,  11751,  -5316,  -1739,   3745, -12633, -12200,  -3829,   4146,  -3835, -12562,  -4926,   6007,   -664,  -3752,   8255,  -3364,  -2366,  -3492,   7668,  -4162,  12395,   8086,   6942,  -6138,    939, -13751,  10481, -12701,  -2909,  -5800,   8545, -12888, -12125,   9141,   9399,  -1132,  -3701,   1055,   8066, -10248,  11176,  11459,   3523,  -8107,    369,  -2695,  -6692,   5006, -10344,   2925,   7139,   3522, -14439,  -3550,   3503,   9174,   9343,   -180,   8027,  -5442, -13683,  -5418,   -419,  10855,  -7370,   3231,  10917,   -921,   3787,   1335,  -4085,  -9353,   1307,   1086,   8498,   6190,  -2338,  -1439,   3859,   5103,  -9733,   -172,   1027,   5725,  -2525, -13329,  -6884,  -5685,   2215,   6619,  11550,   6197,  -9109,   -408,   3942,  10307,  10691,   5747,  11214, -13131,   2462,  -4369,  -9367,  -3939,   3852,   3636,   5717,  -6566,  -4015,  -7570,  -7776, -13603, -12772,   4888,  -6806, -13940,   1465,  -6983,   4076,  -3309,   5591,   7570,   6922,  11872, -17746,  -9472,   4224,  -6496,  -5590,  -3423,  11978,   5236,  -4880,  -2612,   3553,   1082,  -5171,  -3291,   8536,  -7029,  -5218,  11856,  -3583, -10492,   3039, -13172,  -4292,   -431,   1421,  -6144,   7602,  -6336,  -3410,  -7307,  -5115,  -2216,  -7134,   8530,  -1761,   9229,  -7466, -10384,   5775,  -5735,   -520,   2384,  -9313,  -2918,  10482, -13317,   5391,   8900,  -4272,  -3433,  -5315,   5296,  12153,   -780,   4779,  10428,  -2834,  11218,   1354,  -2823,   3121,   6303,   6047,  -3630,  -5674,  10989,  -8909,  -3919,  10577, -13195,   4154,   2949, -13941,   2385,   4706,   1996,   3908,  -3384,  10541,  -9913,  -7973,  -3877,  -1238,  -4660,  10222,  -6355,  -4602,   2415,   2846,   6700,  -1718,  -6672,  -5071, -14694,   3117,  -9337,    192,  -1757,  -8369,   3819,  -2909,   6453,  -2598,  -3256,   6193,   4118, -10585,   1577, -10911,   4246,  -6032,  12879, -10653,  -1078, -15296,    291,   8058,   1439, -11289,  13447,  -7128,  13365,   8605,   3920,  -2122,  -1690,    316,  -2925,   2170,  -5619, -11311, -11485,  10068,   3613,    -10,  -1437,    567,   5423,  -3447,  -5057, -11978, -13581,  -7047,  12670,  -7364, -16208,  -5748,   7548, -10528,   6875, -15510,   9353,   8467,   2495, -10099, -10181,   -261,  10692,   1028,  10194,  -4063,  15230,   4455,    206, -11649,  11116,   4378,  -8485,  -5370,   -977,  -9631,  -8120,
          5329,  -4839, -11315, -12918, -12773,   2740, -13790,   2165,  -8231,   8538,  -2470,  -3085,   8156,   5964,  -9324,   9863,   4527,  -4703, -10306,  -2401,  -2394, -10397,  -4803,  -3928, -13701,   1756, -13537, -12420,  -2209, -13203, -11225,  -9068,  -2308,  12551,   4324,  -3809, -13900, -13331,    228,  10076,  11793, -12620,   1374,  11126,  -4836,   6065,  10584,  -9665,   3889,  -9279, -12382, -13321,  -1829,  -1933,   2288,  -7035,  -8623,  12446,  -6928,   7804,  -4115,   3264,   2792,   -832};

    const static Filter<int16_t> statefulpartitionedcall_sequential_conv2d_3_biasadd_filter(statefulpartitionedcall_sequential_conv2d_3_biasadd_filter_element, -16, {3, 3, 8, 8}, {1, 1});
    const Filter<int16_t> *get_statefulpartitionedcall_sequential_conv2d_3_biasadd_filter()
    {
    	return &statefulpartitionedcall_sequential_conv2d_3_biasadd_filter;
    }

    const static __attribute__((aligned(16))) int16_t statefulpartitionedcall_sequential_conv2d_3_biasadd_bias_element[] = {
           -72,   -157,   -362,    133,   -350,   -106,    132,   -174};

    const static Bias<int16_t> statefulpartitionedcall_sequential_conv2d_3_biasadd_bias(statefulpartitionedcall_sequential_conv2d_3_biasadd_bias_element, -12, {8,});
    const Bias<int16_t> *get_statefulpartitionedcall_sequential_conv2d_3_biasadd_bias()
    {
    	return &statefulpartitionedcall_sequential_conv2d_3_biasadd_bias;
    }

    const static Activation<int16_t> statefulpartitionedcall_sequential_conv2d_3_biasadd_activation(ReLU);
    const Activation<int16_t> *get_statefulpartitionedcall_sequential_conv2d_3_biasadd_activation()
    {
    	return &statefulpartitionedcall_sequential_conv2d_3_biasadd_activation;
    }

    const static __attribute__((aligned(16))) int16_t fused_gemm_0_filter_element[] = {
         -8956,  -2305,  -7113,  11160,   7064,  -5835,  11255,   -718,   5880,  -8157,   7400,   -152,   3618,  -1903,  10646,  -7491,   8142,  -4427,  -1658,   7334,   8339,   7758,   4305, -16234,   -542, -12052,   4312,   -777,  -2590,  -3946,   4027,  -8171,   6606,  -4869,  -2125,   9633,  -2277,    -80,   1097,  -3765,   6252, -11682,  -3267,   4779,   5307,  -7282,   7332,  -3362,   4433,  -5084,   4764,   2366,  -1873,   7602,   1733,  -7083,  -2461,  -1060,   3671,   3551,  -4650,   3701,  -3532,   4152,   5297,  -4335,  -4299,  -7700,   2201,  -5446,   3070,  -7204,  -2994,  -2450,    317,  -1206,  -2693,   8005,  -1999,  -2311,   3784,  -6517,   5541,  -7415,   1749,  -1380,   -523,  -6674,  10526,  -7839,   5229,   5241,  -7986,  -7183,   -591,  -8556,  12673, -14420,   -158,  -9712,   4026,  -1913,   1442,   3975,   3177,  -1571,   3396,  -4942,   1965,  -7344,  -2912,  -3364,   4673,  -1567,   7114,  -4762,  -5705,   7361,  -3087,   1751,   2641,   2744,   -463,  -8272,    630,   2874,  -6499,   3748,  -3173,  -2367,   6740,  -7940,   3650,  -7097,  -7841,    867,   -570,   1985,   3279,   1579,  -1735,  -6309,    362,    303,  -4593,  -3494,  -3643,    -56,  -2582,   -282,   1533,   8309,   1275,   -895,   7022,  -2569,  -1303,   6376,   2614,   7401,  -4203,   6267,  -4056,   8591,   6805,  -7577,  -5127,  -1279,  -8124,   6220,   2006,   7639,  -8757,   4654,  -4304,   1488, -11011,    106,   8636,   -750,   5295,   4367,   5139,   4290, -13203,  -6068,   5268, -10638,  -7632,  -8435,   7082,   1128,    451,   1308,  -8111,  -6037,  -4924,   2813,   3261,  15054,   7285,  -7679,   5781, -10147,   -237,  -5401,    944,  14579,  -2884,  -5392,  -3414,   6065,   4227,   7284,   6193,  -9401,  -1983,  -7099,    216,    409,  -5817,   4444,   7056,  -6192,  -2826, -10441,   7025,  -4793,   7861,  -7074,  11246, -11903,  -1739,   4008,   2181,   6910,   4459,  -2737,   8240, -11705,   6651,  -1586,  -8670,   3587,  -1513,  -4811,   2003,  -1801,  -4080,  -1236,  -7874,  -4143,   7092,  -8659,  -6293,  -5961,  -1672,  -8175,  -4152,  -2313,   2184,  -8762,   4145,   2326,   5354,  -6084,    698,   9076,   2979,   8347,   1442,    976,  -6592,  -8632,   3102,  -1274,   7487,   4362,   8727,   7639,   1972,  -5503,    550,  -6050,  -3948,  -1410,   5159,  -5186,  13866,  -1762,   4071,   -663,   -984,   6930,   -935,   3927,    147, -10595,  -1007,   2818,    396,  -5248,  -2467,  -9615,  -7870,    601,  -3511,  -3596,   3030,  -4175,  -1818,  -5981,   1241, -15490,   -531,  -2885,  -6987,   7770,  -8807,   -875,   4029,    760,   8259,  -2959,   2494,   6464,   5748,   1271,   1693,    566,   7217,   2232,  -4390,  -8891,   2063,   4753, -11256,  -1304,   -454,  -3065,   2608,   3073,   3642,   1264,  -7135,  -1050,   2683,   2792,  -3105,   -908,    234,   5075,  -7732,    874,   6889,   5098,   6874,   3986,  -4215,   5170,  -7741,   9505,  -5784,   8627,   2131,   3791,   1351,   1517, -11294,   6458,   1471,  -4928,   2117,   6715,   2220,   3214, -17046,   4194,   -365,   5392,  -7261,   7510,   2547,    402, -12656,   6527,   5224,   -562,  -1943,  -7709,   4714,   2356,  -6900,   6690,   -522,  -3225,  -6590,   4859,   4719,   3776,  -7648,  -4125,   4308,   -373,   -661,   5120,   7309,   7553,    816,  -4477,   3769,   1549,  -5583,  -2682,  10387,   5301, -17066,   1377,  -2896,   7596,   5197,  -7070,  10561,   2383,  -3617,  -4870,  -1074,   4359,    387,   6601,   8383,  -4511,   2453,  -7191,   6830,  -5321,   6149,   2711,   8042, -13704,   5729, -10056,   5885,   7761,  -2948,    660,   8079, -11486,    301,   1376,    921,   2800,  -2014,  -4607,   7929,  -7629,   6853,   4474,   2997,   8717,   7182,   5119,   -128, -12910,   6643,   3972,  -4749,   8731,   2283,   -828,  12009,  -6496,   6650,  -8245,   1372,   -395,  -3912,  -2569,   2448,  -5381,   5207,  -4518,  -8581,    621,     59,   6358,   7283,  -4082,   1216,  -5603,  -6618,  -2101,  -1615,   5204,  -2447,  -8891,   2371,  -9711,   -952,  -3107,  -6991,    277,  -2739,  -1952,   4315, -12112,  -6306,  -3209,   3560,  -2218,   6043,   4778,
          2272, -10551,   1030,  -5373,   3926,   4357,   8229,   1448,  -1492, -14376,  -2993,  -3108,   7527,  -3629,  -2259,   2228,   6217,   -140,  -7572,    489,   6127,   6712,  -3448,  -3377,   4715,  -1906,  -8063,  -6831,  -6120,   8499,  -5887,   2371,    593,   -625,  -1034,   2304,  -1899,  -4289,  -1666,  -3648,  -3580,   5265,  -8596,  -3135,   7178,   7792,  -5288,  -4161,  -7921,   1266,  -5573,   4867,   4018,  -2607,   5369,   4124,  -8076,  -6758,    553,   3858,    223,   2900,   3946,  -2277, -15189,  10787,   2877,  -8145,   1838,  -3281,  -5817,   4605, -12350,   5394,   3469,  -2445,  -7162,   2275,  -1433,   2500, -18395,  10658,  -4832,   2816,    720,   4948,  -1749,   7651,  -3052,    622,  -4280,  -1633,    257,   2784,  -1177,   5549,  -1630,   4611,   4873,  -3993,   2664,  -4346,   -879,   6289,   1631,   4474,  -3889,   4974,  -1367,   1564,   6929,   7648,  -1407,  -3714,   -707,   7004,   3249,   9650,   9023,   6099,  -5026,  -5694,   4061,  -3899,   3417,   2787,  10750,   -811,    544,   9865,   2883,   4343,    638,   5604,   9724,  -3706,  -4954,  -4948,    645,   3136,  -1716,  -2676,   9300,    424,   2465,    -54,  -2712,  -4226,  -2009,   8290,   4155,  -1779,   2046,   1060,   6144,   1136,  -6811,  -6508,  15269,   1191,   6571,  -9064,   5548,  -5349,   -468,   8279,  10560,  -5214,   6987,  -8577,  -5189,   1643,  -1718,   5907,  -5604,  -3750,   5015, -10793,   8279,   2197,   7644,   3604,   6083,    268,  14395,  -3739,   2729,  -4731,  -4871,   3518,   2618,  -2021,  -2163,  -5833,   6799,   2660,   1689,   5635,   7473,    386,   1798,  -1500,   3513,   6307,   -226,    534,   4499,   -746,   4452,  -6953,  -5802,   7088,   -164,   5224,   1765,   4504,   4293,  -5709,   -994,   1287,  -3020,   7989,  -5809,   1503,  18526,   3373,   4133,  -6510,  -2815,  -2500,  -2325,   1573,   8870,    265,  -8085,   8483,   2286,   7589,   1113,   1825,  11220,   7053,   5773,   3742,  -5388,   4874,   1867,  -6359,  -3553,   3652,   4992,   4240,  -5381,  -6966,   3419,  -1619,    572,   2089,  -1989,  -2479,  -4347,   6931,    490,  -1425,  -6582,   1853,   -411,  -4337,  -5476,   5789,  -4411,   7335,   1455,  -4781,  -5710,  -6206,  -3597,   -314,  -1346,   6501,  -6243,   7866,   5745,    153,  -3324,  -3014,  -2759,  -3320,   2351,   5115,  -3611,   9148,   1521,   7155,   5367,  -3795,  -9372,   4701,    138,   7724,  -2415,  -2708,   5618,  -1496,   3022,  -1810,   7766,  -5928,  -2986,   1533,   5101,  -3434,   9481,  -4203,  -2818,  -5665,  -6521,  -6354,   9304,   9471, -15630,  -3938,   2000,  11424,  -4898,   -282,   7841,  -3454,   -696,  -4480,   1072,   -939,  -7312,   -139,  11083,   6251,   5293,   3578,  -2660,   -218,  -4512,   7754,  10338,   6830,   2023,   4240,  -1180,  -3872,  -2951,    999,   7871,  12014,  -1463,  -3281,  -1593,  -2605,   3519,   1145,  11752,  -7397,   2191,   -820,  -1526,   -123,  -2107,   4574,   8033,   8782,  -6901,  -9814,  -2751,   8058,   4603,   6023,   9611,   9791,  -6230,   4895,    438,   5934,  -2929,   4298,  11046,   6081,   1673,  -3071,   4027,   2572,   -840,   1037,   9388,   6621,  -9750, -10474,  -2133,   3971,  -2979,   4006,   1132,   3286,   -658,  -3651,   -715,  -5169,   6903,  -6118,   8891,  10116,   1787, -11372,   3752,  -5716,   4574,   3588,   7580,  -1561,   4702,  -4606,  -2619,  -5126,   2903,   8223,   2114,  10404,  -1261,   4719,    602,   4669,  -2951,   2824,  -2245,    828,   -127,  -1606,   6705,  -4406,  -8269,  -1731,   5462,   5103,  -1249,   4903,    364,   6847,   6512,   -346,   2106,  11344,   -727,   2025,  -4655,  -4712,    901,  -2024,   4689,   4922,  -3006,   3243,    542,   5867,  -7485,   3138,   8635,  -1591,    873,  -2087,   5134,  -6032,  -6697,   7240,  -1815,  -5174,   3249,  -2211,   2627,  -2112,   -687,  -6595,  13155,  -5834,  -3866,  -2107,   3916,  -3014,    788,  -5228,  13551,  -8434,  -4303,   2547,   9717,  -3605,   6161,   6760,  14116,  -2195,   6402,   4078,  -6733,  -6441,    524,   7888,   6658,   5979,  -8884,  -1985,   1690,   3843,  -9249,   3311,  11534,   1765,
          6700,    352,  10047,   5992,   -461,   7858,  14219,   4117,   6348,   6557,  -1373,  -1398,  -2598,   2725,   3233,  -2978,  -1963, -10082,   5083,  12111,  -1986,   -597,   3161,   8466,   1373,   2745,  -2107,   8794,   8721,  -3508,   9178,   8804,  -2744,  -2166,   6682,   5852,   1758,  -4551,   8247,   7735, -16354,   6451,    163,    200,   -900,   2598,   9727,  14611,  -8175,   3626,  -6949,   5289,    674,   8150,   2933,  -1181, -15407,   2080,   7115,   2659,   4803,  -1136,   8726,   3351,  -7716,  -7774,  -1691,  -6034,   3971,   8684,   -287,  10656, -15781,   6394,  -5431,  -4234,   3058,    755,   7780,   3201,  -4847,  -4514,  -5991,  -4152,   5594,  -1385,  11858,   8631,  -8897,    991,  -1723,  -1454,  -7165,   2794,   7285,  10504,  -5336,  -7643,    470,  -6138,   -610,   5184,    420,  10937,   -374,  -4000,   3788,  -5681,  -5207,   4424,  -8146,   6908,   5013,  -4874,   1643,   6947,  -5481,  -6466,  -1475,  14331,  -1977,   2246,  -1946,  -4294,   2460,  -5718,   5571,   7328,  10395,   -621,   6769,   6711,  -2221,   3691,   5623,   5353,   4912,  -2130,   5715,  -5423,     18,  -4255,  -1477,  -5141,    504,  -2057,   3872,  -6153,  -1546,   4958,   1795,   3288,   6048,   4992,  -6336,  -7474,   -640,  -1633,   -653,  -1941, -15783,   7036,   2961,   1284,   2199,   8388,  12213,  -1443,  -2357,   4766,  -2626,  -7324,   1363,   8009,   9312,  -8398,  -8651,  -2428,   -417,   4161,    635,   8762,   3763,  -9619,  -3017,  -4165,   3577,  -3487,  -2815,  -4805,   1462,  -2707,   4363,   1731,   9237,   5704,  -9619,   7591,  18559, -11544,  -1633,  -1581,   6487,  -2651,  -4490,   8839,  11577, -10429,   3983,  -8325,   5469,   -302,  -1964,  -7071,   7946,  -4580,   8712,  -8938,  10124,   -286,  -2147,  -1378,   2623,    620,    800, -11299,  -2949,   3944,  -8101,  -5308,   7883,  -2068,  -3424,  -4264,    -52,   6409,    158,  -5075,   6360,   1409,  -5574,  -4261,  -8122,   6713,  -2376,  -4175,   2095,    801, -10913,  -5819,  -1923,   8399,  -5437,   -843,  -1223,   2388, -13016,  -2746,   -421,  -4880,   2564,   3884,  -1742,   3087, -11290,  -7185,  -5604,    444, -10077,    550,    934,   4351, -12285,   2170,   5050,  -5435,   2920,   3912,  -8349,   6965,  -1242,  -1344,   6135,  -2183,   3873,   6199,  -3352,   3194,  -2507,  -4843,  -6613,   2388,  -1697,  -2553,  -1845,   2419,  -4517,  -5281,  -7542,  -7091,   5535,   5713,   3299,   5362,  -7114,  -1501,  -6456,  -9182,   3866,  -7124,   -110,   4874,  -2104,  -4104,  -2031,   1196,  -5762,   5327,   7452,   1537,  -3031,   1410,  -7263,   -562,  -3878,  -5440,  -3520,   -640,  -7793,    577,  -7543,  -4557,  -5631,  -5350,  -6379,  -2744,   3292,    278,   3558,  -2989,  -7136,   6266,   4253,  -1257,  -1467,  -8484,  -4997,   5332,  -5290,   -476,   6113,  -9888,   5850,  -2985,  -2111,   4766,  -5527,   2950,   5587,  -1120,    358,  -3517,  -2205,   5644,  -8189,  -1642,   1145,  -7958,  -2327,  -3269,   4903,  -7292,   4914,  10399,  13725,  -3748,   -202,  -7851,   6434,  -8987,   2348,  -2140,    304,    269,  -1672,  -5214,  -5403,   4390,  -9818,  -2327,   9819, -12205,  -2630,    178,  -2918,   8194,  -6924,    252,   5085,  -9103,  -2579,    922,  -5173,   4622,  -1563,   8257,   4278, -10185,  -8656,  -4948,   3217,   8520,    566,  -6205,   5281,  -8432,  -4307,  -7586,  -5566,   3552,   2212,   8101,   4739, -17056,  -8960,    -94,  -7246,   3486,   3543,  -5261,   -147, -10447,  -9974,   2386,   6896,  -4687,  -4262,  -1838,   2953, -10058, -10885,   7438,   7263,  -6134,  -4203,   3453,  -1254,  -1162, -17707,    423,  -1353,  -7300, -10647,   1903,  -1543,   2747, -12708,   6052,  -2336,  -3758,   3332,   6554,   8550,   3159,  -2993,   3283,   3115,   8955,    701,  -1742,    185,  -4632,  -8406,   2887,  -7141,  -1838,   4099,  -3068,  -2240,  -6844,  -1581,  -7736,  -1017,   7478,   7033,   1858,    597,  -4233,   4985,  -6015,   6688,   4819,  -3674,   7816,  -4333,  -2599,  -1806,  -6834,  -4536,  -2399,   3385,   4679,  -5713,   -353,  -9455,   4395,   4480,  -4006,   4269,   6852,  -9124, -11191,
         -9300,  -2854,  -5453,   4808,  -8828,   1706,   1863,  -6837, -10615,   2930,  -2948,  -4849,  -1729,  -8594,   2777,  -6503,  -8371,   1372,  -2100,   4978,   -701,  -2520,   3949,   1270,   1305,   -452,   7896,  -2089,  -9009,  -7981,   2169,   7750,  -2678,    684,  -2466,   6871,  -3592,  -8069,   4619,  -2470,  -5096,  -9131,   8178,   7703,  -7317,   7589,   9328,   2499,   2514,   -464,   3005,  -8476,   3225,  -4871,  -5900,  -2902,   3175,  -4833,   1905,   9130,  -6253,   3768,    356,  -1098,  -5337,  -3235,  -4525,   4778,  -3553,    972,   -767,  -3689,   -426,  -3219,   3172,   5547,   4754,  -4805,  -2168,  -2623,  -5344,    168,  -5018,   2247,  -1473,   5189,  -1759,  -3774,  -5498,  -2610,   -290,   8068,    264,   2162,   1856,   4273,   2661,   3265,   1646,  -1887,   3998,   2057,   1974,    205,  -2683,   1776,   1957,  -3606,  -8572,   5443,   -542,  -3294,  -1523,  -3997,  -5239,  -5669,  -7535,   3466,   4036,  -5201,  -8438,   -260,  -4517,  -4313,  -6438,  -5208,    265,  -1115,   3790,  -2554,   4127,   7524,   7737,  -2575,   8902,  -3187,   4355, -10473,  -2165,   8616,   3111,  -1125,   4789,   6885,   -931,  -2367,   7564,   5205,  -1173,   4753,  -3080,  13700,   7221,  -2396,  -7425,   -815,  -4691,  -6445,  -4579,    886,   6805,  -3226,   5713,     91,   1793,  -6794,  -3315,    426,    144,  -5856,   2341,   2862,   2799,  -4779,  -8959,  -7125,   6921,  -5135,  -7846,   -715,  -7370,  -4825,   1749,   1728,  -2804,   -487,  -5161,  -5771,    716,  -9780,   1183,  -6034,  -2225,  -8190,   1304,  -2293,  -5536,   7230,  -2917,   -742,  -1963,  -5092,   6730,  -4132,   3383,  -3533,  -3575,  -3160, -10358,  -2417,  -5303,   5346,  -3873,  -4240,  -6459,  -3789,  -6123,    675,   4780,  -3044,  -5837,    435,   5512,  -1777,  -8941,  -4708,  -1736,  -7457,   1479,  -4708,   -975,   1030,  -1434,  -9067,    -10,    -30,  -2857,   6325,  -3519,   7632,  -1187,   6588,   6372,   9288,  -9577,  -1175,   6826,  -2106,  -5226,  -6031,  -7534,   9463,  -9828,  -2028,  -4846,  -2559,  -4769,  -7209,   7359,  -2611,    572,   5439,   3750,   2497,  -5341,  -4822,   6885,  -4284,  -6550,   6264,  -5202,  -4287,   7729,   1869,  -8043,   -975,  -6931,  -8042,   3909,  -3612,  -5908,   -470,  -4518,   -215,   7527,  -2037,   5811,  -3786,   6107,  -2235,  -8449,    -95,  -3431,   2981,  -2168,   -215,  -3925,  -2965,   6100,  -2754,   1684,  -4843,   -223,  -1091,   7539,    660,  -1729,  -3918,  11480,  -8873,   -130,  11387,   5613,  -3560,   8693,   3899,  -1810,   1959,   7652,  10000,  11357,  -3173,   6522,  -3729,   1394,   4214,    108,   4142,   6981,    928,  -2064,  -2107,   2678,   4124,    760,   1997,  -1117, -10418,   6458,   2706,   4541,  -3612,   5272,   2003,   9516,   6797,    757,   1911,   4470,   6753,   4947,   7498,   4985,   4628,   3716,   6853,    965,   -259,    589,   8545,  11980,   1334,  -1713,  -1917,     36,  -6331,    233,  12582,   9310,   6705,  -5056,  -1446,   5828,   1058,  -2477,    776,  14725,  -7529,   6673,   8129,  -4261,  -4096,   3209,   2669,   4527,  -5307,  -4848,  -7535,   6148,  -7610,  -2924,  -3006,   2866,   1038,   5957,  -7815,   -687,   3694,   -506,  -2154,  -2458,  -1533,   7191,   6848,  -2121,  -1019,   3081,  -3190,   3134,  -7231,  -7776,   8538,   3807,   6192,    158,  -6765,   1680,  -6563,  -4038,  -1434,  -5881,  -5229,  -1894,    -95,  -1307,  -7300,   4696,   6580,   4923,   5614,  -1754,  -2721,  -3035,   2323,  -7347,   7150,  -6245,   7738,   5468,  -8744,  -4816,   9503,     86,   8598,   6221,   1963,   7134,   3468,  -1454,   5829,  -1891,    683,   1148,   -164,   1241,   1065,   7901,   -149,   2683,  -2444,  -2570,   7510,   2629,  -7595,  -2649,  -7659,  -5849,  -4101,  -2312,  -3916,  -2756,  -1517,   2160,    260,  -3361,   2042,    924,   8490,  -4994,    653,  -1139,  -1534,  -8254,   9660,   3800,  -7280,    318,    523,   7419,   2473,   1171,   5135,   3975,   4692,   1430,  -4685,   7318,   -271,  -2235,    -56,   7223,   3332,    -86,  -1491,   9438,   4106,  -3852,  10109,   4454,  -5433,   1780,   3272,
          8392,   -769,  -2772,   7998,   5494,  -5303,   6404,   2544,   9973,  11332,  -1859,     -8,   4330,   1979,   7654,  10961,  10053,  13670,  -3286,   -563,  -1641,  -5050,   3903,   4416,  11026,   1779,  -2994,  -2747,  13137,   6038,    -78,   8584,   -606,  -3497,   3785,    209,   1870,  -1894,   5172,   3494,   9535,   6358,   3214,   8178,    -90,  -2315,  10930,   3908,   9230,   6594,   4236,   5218,    497,   3286,    588,   5692,   6175,   2219,  -7768,   5642,   2037,   5323,  -1803,   7872,  16743,  10810,   8339,   7576,   4154,   2783,   1608,   -432,   1789,   5406,   4720,   8888,   7108,    651,   5584,   4491,   -852,  -2951,  -1114,   5508,   1617,   3271,   -713,  -3058,   7679,   3503,  -4694,  -1764,   5028,  -8311,  -1183,   8481,  -1985,    801,   3285,   1280,   9544,  -1709,   4774,   9275,     62,   4502,  -6913,    150,  -5215,   4659,    243,  -2073,  -3449,  -3644,  -7179,  -1052,   2010,   5492,   1196,  -2441,     21,  -9844,  -1812,    229,    314,  -8273,   -504,   7524,  -5291,    145,   2916,   1700,   5470,   1924,    161,  -3369,   1497,   -818,   3288,  -1199,   4042,   5076,  -1930,  -1951,   3416,  -2025,  -2672,   3351,  -3102,  -4489,   6344,   3589,   4268,  -5373,  -2019,   5580,  -5907,   3279,   1631,   3064,   2871,     43,   8280,  -5916,  -5432,   7251,   1115,   8183,   3688,    258,  -5108,   -832,  -3060,  -8440,   1183,  -4822,   2802,   8518,   8150,     76,  -3415,  -2620, -10166,   4218,   3902,   -577,  -1645,   2846,   5050,   2841,  -2617,  -8270,   2195,    822,   4653,  -4050,  -4455,  -1835,   1045,    163,   1042,    768,   7375,   2645,   1890,   2839,  -2652,  -5982,   8413,   4495,  -2641,   -798,   1757,  -5523,   4395,   3119,  21150,  10023,    687,   -885,  10785,   2871,  -3856,   1467,  13929,   -751,  -2457,  -1828,   7266,    132,   9529,   9541,  10550,  10111,  -6796,  -1216,   4466,   1126,   5612,   -411,  -6681,  -1760,   4018,  -3742,   -818,   1813,   7061,   2176,  -1020,   8725,   5494,   7259,   5037,   4499,  -1957,    714,   4850,  17393,   -676,   6075,  -3113,   3413,  -6122,  -1743,   4803,  12218,  -7549,   1608,    733,   3945,  -2852,   2806,   -337,   2839,   3431,   2933,  -4955,   3494,   2317,  -1323,  -4930,   5056,   8739,   2078,   5544,   -390,  -5395,  -7592,   4978,   3671,   6861,  -3109,   6915,   2482,   5217,   3326,  -4401,   3764,  -5949,   6290,   7301,  -5247,   5733,  -6154, -15181,   3209,  -1456,   5176,   7864,   3732,  -2423,  -2485,  -6025,  -1465,   5869,  -9633,  -3356,   4313,   2247,   6638,  -6353,  -1570,  -6700,   1439,   -526,  -2953,  -9031,  -1836, -17729,   3762,  -2512,   7042,   5062,  -5807,   4118,   3509,  -7767,  -2485,  -7959,  -1413,  -4490,   -203,     22,   3691, -15018,   2670,  -4107,  -2882,     39,  -7972,  -7524,   -362, -10450,   1043,   8640,  -5446,   3860,    183,  -8759,   1645,  -8208,   -361,   3117,   6901,   6728,  -3870,  -5206,  -4358,      1,   6952,  -6503,    223,   6264,   5592,    430,  -3565, -13423,   2498,  -3379,   1338,  -5587,   5923,  -9314,  -1466,    811,   -220,  -2767,    306,   4010,   1020,  -5255,   1890, -20401,   1560,    -69,  -7158,  -4431,   1038,   -184,  -5055, -15003,  -4726,   1699,  -5441,  -4079,  -5270,  -9538,  -8857,  -9102,   6359,    828,  -1972,   6980,   2325,   -513,    578,  -1443,   9731,   2353,  10770,   3239,   7326,   -252,   3972,  -1514,   4705,  -3449,  -1302,   4341,  -2547,  -4234,  -3633,  -7238,   6219,   7859,   2239,   4876,    332,    126,   6464,  -2248,  14163,   3298,  -1204,   3271,   6135,   1820,   7447,  -9119,   3812,   -144,   -376,  -9783,  -4519,    543,  -8779,  -1607,  11390,  -6252,  -8057,   3203,   7488,  -3635,   7722,    514,   6211,   3636,   3215,  -5366,   8414,  -7757,   1266, -20728,   9351,   5337,  -7632,  -1976,   3183, -11725,  -2113, -11524,  15016,   -866,   4137,   -446,  -6659,   1361,  -6200,   3852,  12700,  -1226,   8588,   6347,   2809,  -6227,  -5033, -16089,   6794,   6234,   1637,   -994,   7515,  -3198,    490,  -5194,   4941,    510,  -4328,   4302,  -3392,   -268,   -914,
        -14059,   5968,  -7227,  -6773,   3239,   2454,   1672, -11335, -15383,   5842,   5498,  -7275,   2517,   4990,  -9847,  -3554, -13250,   7302,   5778,  -3380,  -8197,   6383, -11313,  -9639, -10299,   5146,   6683,  -1589,  -8136,   4018,   1976, -10366, -11712,   2047,  -4918,  -6482,  -5751,  -5349,  -6109,   2464, -13154,    132,  -8427,   -426,  -2166,   4668, -10274,   -210, -15511,   1319,   4285,   7580,   1564,  -3119,   4944,   -623, -26585,  11145,  -3098,  -7398,  -3647,   2466,  -4812,   3581,  -1293,   6782,  -7425,   1928,   3920,  -3214,  -3841, -10544, -10740,   6446,   1606,   2508,   -877,  -7512,      5,  -2633, -29206,   8436,   1637,  -7857,   5469,   7881,  -7685,  -8474, -15998,   1674,  -1593,  -5804,   2661,   3183,  -3696,    721, -29317,   6111,  -3506,  -8247,  -5651,   4929,  -5063,  -1108, -16949,    498,  -2388,  -5422,  -6816,  -4034,  -3322,  -2033, -15129,  10302,   5399,   1544,  -2362,  -8050,   1282,    -52, -15631,  10473,   -925,  -1073,  -5006,   7346,    259,   -919,  -8008,  11595,  -3887,  -3733,  -8080,   3266,   4107,   5260,  -7653,  16260,   3094,   9074,  -7127,  -5712,   -446,   4731,   3644,   1855,  -7118,  -4802,   6573,   4732,   -525,   8005,  -1893,  -2091,  -3252,   8717,  -4455,  -1604,  -5636,  -5016,   8916,  -2659,   4902,  -3534,   4996,  -3465,  -4356,   8359,  -7761,   9968,   6899,  -9260,  -3448,    606,   5658,   1612,   7357,  10767,   2806,   6387,  -9233,  -4553,    281,   2292,  -4698,   8133,   3599,  -6189,   4032,   -567, -14154,  -6788,  -8188,  11139,    885,  -3015,  -2839,  -3530,  -2396,    417,  -5730,  11809,   -337,   4504,  -6650,  -6380,  -4749,  -2725, -13314,   3806,  -4465,   4689,   1214,   5838, -11141,  -9108, -14033,   1569,  -7995,   2068,  -5223,  -2600,  -6768,  -2946, -22344,  -3897,  -6071,  -5911,    772,  -3621,  -6603,  -2917, -11874,   6091,   8316,   2807,  -1350,  -6880,  -2712,  -3810,  -5412,   -722,   8184,  -4906,   3341,  -2725,  -5710,    766,  -9055,  -3044,   1353,  -8912,  -2914,  -4302,   6209,  -7538,  -6136,   6099,  -1580,  -3061,  -4428,  -6567,   5597,  -5776, -10347,  -3771,   4015,   5956,   6763,  -6487,  -4108,   1558,   3460,   1747,   5837,   5520,   7669,  -3846,  -9856,  -9843,   9748,   3036,  -6414,  -2503,  -4093,   8370,   -269, -13607,  -2678,  -3073,   7657,  -2543,   1553,   6666,    544,  -9036,  -6795,   2658,   3087,   1695,   6630,   7228,  -6220,  -5566, -13093,  -5523,   1350,   1459,   4254,  -2638,   4319,  -3874, -13391,   6536,  -7601,  -9284,  -5390,  -8734,  -7581,  -6135, -10075,   1874,  -2940,   7018,   7390,   8180,  -8847,  -8011,   3441,   5082,  -1841,   6304,    810,   2551,  -7036,  -4907,  -4569,   7568,   -367,   6459,   3457,   2463,  -2222,  -6531,   8708,   2863,  -2965,    785,  -5529,   2681,   3088,   1580,   6918,  -1921,   3923,    722,   2175,   7586,  -5567,   3548,   3412,  -5756,   2421,   4044,   2160,  -8422,   -751,   3183,   3032,   1344,   -122,   4196,  -1112,  -4795, -10539,   8007,   3593,   8463,   8503,  -7224,   6059,  -3820,  -2134,  -3325,   6246,  11844,   6789,  -2369,   2792,  -6871,   -712,   1865,    569,  -1132,   5177,  -9301,  -4783,   3605,  -7493, -12951,  -7684,  -1492,    316,   5390,  -3636,  -8869, -12094, -14266, -10661,   -611,   -311,   1773,   3902,   2753,  -9297,  -6208,  -2760,   9264,  -8596,  -1701,  -5115,  -2930,  -4262,  -4794, -15148,    643,   5782,   -303,  -9354,   5859,  -3798,  -7986,   2605,  -6752,  -3407,  -3026,   5012,   3850, -10776,   -363, -16543,  -8798,   6118,   3622,   5018,  -1124,  -7885,  -7827, -10725,   3946,  -1353,   3548,  -3375,   5390,  -7414,  -9492, -11625,   5023,  -4404,   4940,   6437,   2270,  -6385,  -6529,  -5661, -11900,    391,  -8156,   3291,  -2409,    213,  -1674, -13658,  -5931,   7043,   4051,  -2043,     98,  -5840,  -6005,  -3387,  -8195,  -7447,  -7148,  -2566,   1975,  -8365,  -7068,  -2531,  -1135,  -3352,  -2591,   2099,   -371,  -3332,  -8596,  -6805,      5,   3715,  -7189,   4787,   -461, -13624,  -2356, -11747,  -3306,   6272,  -4088,   -333,   4371,  -1793,  -1173,
         -2724,   2829,   6223,   6890,  -9092,  -3517,  -3214,  -1475,  -2311,   7127,  -7067,   1578,   4340,  -2994, -10723,  -6712,   4378,   1798,   1643,  -3583,   4727,   3409,  -4260,   2573,  -4399,   5182,  -1460,   6539,  -4004,  -7905,    845,  -5609,  11754,  11187,   4800,   2332,   1852,  -6180,  -2078,   2551,  21151,   5602,  -1611,  -1738,  -4361,   3390,   6737,  -5417,  10093,  -1627,   7483,   1993,   4385,   8156,   1347,    694,   1889,  -5276,    -66,   5184,    762,   2593,  -6607,   -288,  10623,   4293,  -4902,   1013,  -7360,   3032, -13303,  -3198,   9176,   2308,   -327,   2147,  -4856,   5169,  -7159,  -1832,   6072,  10601,   8326,   1214,  -1753,  -1405,  -5751,   5205,   3799,  -1892,    250,    477,  -5561,  -5131,  -1183,  -9933,   4553,  11977,   7731,   3531,  -9949,  -8048, -13857,  -9696,   1202,  14077,   5165,  -5417,   5558,   6271,  -8363, -10358,  -2963,   5469,   1451,  -9379,  -1648,  -6964, -10753,  -6331, -10009,  -7098,   6249,  -8481,   4532,   7133,  -9722,  -3778, -11277,  -6748,  -7972,  -4051,   1783,  -5037, -11316, -14552,  -6627,  -4590,  -4339,   3112,  -9972,  -2057, -10986,  -1773,  -9414,    -10,   3185,   6237,   1634,    911,  -3560,   1053, -17816,  -1080,   2236,   6178,  -4667,   4599,  -7078,  -5802, -18307,   2492,   7325,   6084,   3901,  -2653,  -4443, -15136, -12004,  -2644,  -6156,    416,  -1068,   2095,  -5301,  -4829, -17928,  -2763,  -2917,  -4287,   1299,    929,  -5568,  -9457, -18386,  -4319,   1057,  -3652,  -3176,  -6932,  -3683,  -6512,  -9491,  -4488,   -627,   5700,    634,  -8319,  -3441,   5908, -12577,   1666,    468,  -7408,   1275,  -5727,  -8364,  -4486,  -7607,   4478,   5214,   4321,   4212,    341,  -3263,  -3539,  -8315,  -1569,   2776,   3372,   7192,  -2200,  -2535,  -7928,   5114,   9809,   7432,   6869,   4115,   4959,  -9927,  -6869,  14672,     68,   7747,   5341,  -1127,    338,    213,   4575,  11379,   7176,   4854,   -853,  -2704,   1758,   3596,   5013,  20335,  -2970,   3144,   8685,  -7139,   2908,   7658,   8016,   1952,  -2719,  -4844,  -3920,   3745,  -5800,  -9734,   6474,  10967,  -9233,   3352,  -1497,  -1788,  -6519,  -5757,   3587,   8013,  -6417,   -384,   2857,  -4164,   8234, -13480,    -86,   3776,  -6151,  -2387,  -6396,    990,   8486, -12072,  -3757,    958,  -5443,  -1750,  -7323,  -5857,  -5511, -10567,  -1568,   -527,    237,    183,  -9853,   3214,   4416, -13279,   5723,   -420,  12978,    -82,  -3060,  -9091,   4851,  -6310,     67,   4697,   9458,   2576,  -8101,  -6309,  -4524,  -4591,  -7635,  -5756,   9507,   -160,   4273,   1423,  -7549, -16262,  -8068,  -3980,   8804,  -4271,   -205,  -7768,   5169, -12403,  -7984,  -3897,   8156,   2067,   2211,   1780,  -1109,   -923, -12849,  -5439,   6726,  -5691,   1763,  -5523,   7214,    542,  -4682,  -4118,   3569,   6236,   7183,    495,   5120,  -7452, -11530, -14652,  -2666,   6739,  -1720,   2121,  -1756,  -9385,  -5419,  -8056,   4638,  -8881,  -7615,   3533,  -1573,  -3574,  -7379, -22937,  -2045,  -9088,  -1249,  -4219,   2557,  -1776,  -6953,  -9376,  -3140,  -3786,  -1840,   5926,  -6166, -14262,  -1192,  -8398,   1486,  -1349,   -417,   5652,   6753, -10753,  -4268,  -4995,   3566,  -4228, -10017,  -5055,   7295,  -5629,   -812,  -5951,  -1985,   -516,   7379,  -6036,   6683,  -2682,   2607,  -6225,   5834,   6795,  -1498,    774,   6306, -10947,  -2298,  -7773,   6111,   1544,   5994,    525,    415,  -4394,  -2071,  -4814,   3054,   1285,   5750,    120,   2148,  -8687,   1121,  -2031,  -3614,   -131,   2739,   4136,  -5600,  -7287,  -1049,   8539,   5199,  -5845,  -4871,   -208,    604,  -4966,   5140,  16469,  -3374,   -251,  -5821,   2057,  -4679,   1016,   2371,   8258,  -7024,   4395,   5244,   2887,  -7761,  -9339,    649,  13002, -10877,   6110,  -6688,   9769,   3779,   4045,   7949,  15280,  -8378,  -1269,   3092,    689,  -1744, -13129,   9153,  -3309,  -4831,  -7408,   1439,   -171,    307,  -8173,  10944,   3510,  -7252,   4111,  -1505,  -4358,   1092, -14465,   6196,   1402,  -2525,   5020,  -1292,   4660,   4891, -13457,   -194,
          3107,  -1184,  -5364,  -5483,   4819,   5752,  -5701,  -2845,  -7163,   5880,   2279,   1891,  -1277,  -4333,   3122,   -862,  -3676,   3278,   7486,  -4388,   4907,   1002, -12620,   -174,   2493,   4385,  -5300,  -3287,  -9923,   5829,    118, -13409,  -3597,  10870,  -4148,  -7871,  -9962,  -8361,  -2013, -11994,  -8078,  10844,  -9105,  -4722,  -9452,   6663,  -7245,  -2278, -12318,   5133,   6695,  -7025,   6388,   6545,  -5675,  -6943, -14045,   7950,  -5013,   6905,  -2915,  -5159, -10759,  -7246,  -9632,  10257,   -606,   6792,   1551,   2875,  -7495,  -3387, -12862,   8515,   7220,   7264,  -7439,  -2992,   -770, -10660, -16433,   4438,  -6163,  -7776,  -6650,   7018,    -99, -12070, -14887,   4871,  -4718,  -4906,   3731,  -5998,    -95,    686, -21256,  13254,  -4657,   2758,  -3020,   7163,  -4966,  -6728, -13505,   2312,  -3313,  -4367,  -4514,   8243,  -7308,  -4330, -15605,    860,  -8210,   2258,   7274,  -7308, -11510,  -1084,  -6059,   9173,  -6174,  -1458,   3742,  -1089,   -127,  -1819,  -5690,  -6272,   1978,   6213,  -1840,  -6790,   -968,  -2342,   5141,  -7841,   1955,  -4255,  -6904,  -7195,  -9723,  -2464,  13211, -10488,  -6840,   3740,   1689,  -2636, -10316,  -5747,  17563,   5940,   9006,   6095,  -2832,  -4874,  -2079,  -2010,   8549,  -9471,   8063,  -2599,   7153,   -754,   2725,  13688,  14067,   2408,   2964,  -1219,   2756,  -7382,  -4683,  14607,   1336,   -423,  -2219,  -1408,   2914,   1206,   -553,   6178,   2407,   -994,   5222,   4382,  10696,   7814,  -4845,   3417,   6675,   5722,  -1024,  -8851,   5530,   4480,  -6003,   7202,  -2316,   2486,  -5569,   4591,  -6519,  -5069,  -9370,  10422,  -7422,   -530,  -6756,   1700,   4779,   5624,  -7444,   2058,   1748,   1182,   4590,  -7569,   -527,   4256,  -7217,   2913, -10665,   2955,   4203,  -7606,   3219,   6535,  -3164, -10946,   -869,   6575,  -8162,   3936,  -2742,   2773,    929, -10445,  -3439,   8923,   1196,  -8062,  -3047,    321,  -2286,  -2977, -11384,  12816,   1237,   5463,    581,   4805,  -8875,  -3766, -11781,   8725,    708,   5142,  -3485,   2094,  -1956,  -1065,  -9399,   8320,   2404,  -3552,   5592,   3342,   4506,  -4539, -17598,  11056,   -611,  -3346,  -2090,  -3574,  -7833,  -5044, -10932,    861,     -5,  -4759,  -1493,  -7929,    526,  -3732, -17307,   4439,   8870,   3024,  -1333,   -824,   -446, -11038, -19786,   5089,  -3293,  -6850,  -3752,  -4174,  -7414,   -993, -10279,   9300,   4924,  -2179,   1893,   1588,  -6304,  -4664, -10968,  -1659,  -6976,  -7387,   4037,   -800,   -605,   3946,   2588,   7256,   3625,  -1597,  -3735,  -7263,  -3615,    269,   6199,  -2131,  -7045,   6949,   4334,   7925,  -8935,   -453,  11919,   5868,  -4277,   -200,  -4302,   4415,    441,   -775,  24372,  -6412,  -4321,   3663,  -3810,   1341,  -3639,  -1420,  24526,   3443,  -6206,   3853,   7912,  -5221,  -3876,   4161,  22516,   -431,  -5975,   2686,   4804,   5462,  -6687,   3445,   7293,   4151,   6002,   7545,  -4134,  -7475,   1427,   4481,  10422,   1686,  -3077,  -9387,   5297,   7739,  -4203,  -3004,  10577,   9751,   4164, -10214,   6759,   2899,  -4236,  11212,   5101,  -5408,  -1376,   1963,  -2811,   2245,  -2821,   3862,  14087,  -1255,  -5412,  -9252,   6726,   4404,  -4002,   3507,   2767,   6310,   -778,  -8713,  -4254,  -1455,  -7590,   5150,   3372,   1292,   6080,  -6805,   4757,  -2859,    591,   2968,   5328,    114,  -6696,  -3797,   1167,   3697,  -5627,   1000,   -610,   2553,   6396,  -4687,   6412,   4327,  -4531,   6305,   -771,   8501,   5165,   7849,   7597,  -3488,  -4915,   9077,   3477,    989,   -437,   6492,  -3012,  -1095,   -989,  -1696,  -5302,  10170,   -863,   1560,  -2405,  -2750,  -3202,   3911,  -2539,   3072,  -1058,   3294,   6667,  -5676,   6581,  -3336,  -1835,  11733,   6668,  -1098,   5876,    197,    755,   7958,  -2718,  -1569,  -5932,  -3687,   4773,  -3203,   5345,   3497, -10328,   8945,   6562,  -3897,  -1458,   6685,   8224,    622, -12051,   2877,  -7438,    429,   3460,  -1795,  -4954,   8461,   2751,  -1434,   4296,  -6459,  -5037,   5899,  -7648,   4290,
         -1386,   9562,   5150,  -1828,  -3271,   2440,   4078,   2655,  -1963,   8744,  -6046,   3288,   -416,  -7427,    221,   6861,   2973,   2485,   5859,   1939,   -527,  -5684,  -3825,  13050,   3957,   4491,  -6472,   3250,   6145,   4121,  -2708,   4109,   9819,   4042,  -6228,   8282,   5022,   7813,  -3546,  -5287,  14037,  -2689,  -6019,   2813,   5931,  -7826, -10577,   2900,  21278,  -4569,   5825,  -3494,  -4058,   4428,  -2081,   2934,   9188,  -3392,   6626,   2052,  -5666,   4544,    393,   -929,  11915,   8653,  -1641,  -8108,  -2300,   4423,  -2312,   6435,   -836,   9643,   7718,  -8067,   4761,   5007,   3616,    -14, -10817,   7878,  -5458,   4683,  -3879,   1746,  -3900,   8455, -11458,   5818,   8244,  -4654,  -5040,  -7604,  -7748,   1398,   1392,    214,   -683, -11199,  -2926,   4219,  -8335,  -4995,   3813,  -6974,   7572,  -5341,   5595,   1345,  -7623,  -1311,   5921,  -3593,   1993,  -1866,   6552,  -2245,   1514,  -2285,   1218,   2087,   -597,  -2468,  -5059,   3668,   1803,  -6742,  -6007,   7062,   2429,  -2497,   7009,  -3997,  -6559,  -4764,   2189,   1453,   3984,  -3626,   6371,   4545,  -8665,     83,  -2094,   6244,   -959,  -3353,    117,  -7695,  -5994,   3185,  -3106,   9930,   8394,  -2074,   -868,   3240,    721,  -3811,   9743,  -2138,   7209,   -210,   2582,  -1815,  -2979,  -1532,   9195,   1090,   1313,     86,  -3072,   8020,   3414,   3688,   7029,  -1069,   4282,   -506,  -3931,   5035,   1868,   -419,   6304,   1299,    849,   4805,   4859,   7823,  -7433,  -4431,   1253,  -1536,   7003,   -960,   4440,  -6726,  -3210,  -3913,   5086,   2599,  -6147,   4092,   7962,   7959,  -4952,   3010,   8406,  -6021,   3955,  -1894,  -1088,   -640,  -1789,  -1392,   6507,   1359,    644,  -5943,   7690,   7126,   4765,  -7131,   3490,   3381,   6242,   1833,   1316,  -4647,  -6563,   1399,  -2441,  -3421,  -3219,  -4016,  -4953,  -2674,    627,  -9130,   5928,   1112,  -5618,    827,   3320,   8850, -11639,  -9099,    -83,    806,  -3302,   -112,  -3721,  -6915,   -835, -10721,   -163,  -1516,  -3408,  -7055,   5678,  -5475,   2272,  -2223,    459,   3329,   2713,  -2204,   7173,  -2905,  -2118,  -5520,  10074,  -3511,   2996,   3874,  -3695,  -5258,   5988,   2673,   4086,  -2900,  -1218,  -9482,  -3967,   6771,  -1446,   7213,    108,  -4622,    632,   6882,  -1264,   3678,  -1150,  -2782,  -2734,  -4162,   7798,  -9519,    -17,   1191, -14817,  -7541,  -3035, -13079,   -761,  -2576,   2217,   7550,    919,   9623,   1866, -11473,  -4744,   4222,   6248,   3805,  -8650,   5593,   8899,  -9825,  -4790,  -4767,  -8278,   6875,  -7821,   5040,   7812,  -9981,   1666,  -3890,   1194,   4533,   2625,   5779,   7933,  -4795,  -3163,  -8295,   2075,  -1069,  -4830,   8106,  -3717,  -2470,   5779,   -790,   5941,   7313,   4703,   7898,  16411,   -177,  -2634,    532,    487,  -1963,  -6142,  -4502,  10747,  -2059,   6240,   5744,   4134,  -7489,  -4809,   -592,  13248,  -2461,   4782,  -8140,   5757,  -7561,   7981,   3829,   8929,   -839,  -1018,   6780,   -230,   7827,  -1936,   6407,  15359,    965,  -2001,  -2961,   3044,   3921,    740,   2048,   1150,  -5411,   6282,   1332,  -4495,   6823,   2459,   9779,   3998,  -5770,    946,   7714,  -4737,   4043,  -1900,   -358,   9889,   -912,  -2971,   2417,    401,  -3071,   -967,   2883,   9765,  -4470,    304,  -2227,   2616,   2821,   1497,   5055,   6276,  -4578,     29,  -5434,  -4032,    867,   1841,   3245,   6415,   5505,  -7791,  -3319,   3032,   4200,  -2317,  -2017,  15192,  -6136,    359,   5880,  -6493,  -4297,  -2952,  -5178,   7648,  -6789,  -4839,   1318,   7140,  -6047,  -7390,  -8465,  -1498,   6670,   3191,   5577,  -2862,   8255, -10315, -10383,  -9275,  -2876,  -1234,   1017,  -3777,  -4526, -11246,  -3204,  -4311,   6043,  -5965,   6048,   5402,   8002,  -9105,  -3946,  12470,   6419,   7000,  -5358,   4495,  -1582,   3975,   4260,  -1382,   1975,   5379,  -5839,   2320,  -4720,  -2011,   2470,  -3950,   6446,  -6303,  -1380,   5173,  -4953,  -1354,   8372,   5430,  -1524,   5855,   -545,   -439,   1682, -10430,  -2333,
          3918,  -9186,   4845,  -5858,  -8572,   2011,  -5217,   1003,  11419,  -7235,   6181,   2162,   -182,     15,    590,  -2668,  12550, -10943,   3609,   -294,   9357,   7596,  -5744,    786,  11641,  -3630,  -3372,  -5019,   2813,   4723,   1178,   4758,  10176,  -4314,   3577,    732,  -1273,   2391,   -941,  12903,   8248,    134,   7436,   2563,   7119,   2684,  -4040,    651,  13523,   -755,   3829,  -5945,   6364,   7069,    645,    149,  13825,  -1024,   8375,   5323,  -3295,  -4450,    652,   4920,  11077,  -4132,   6177,   3271,   2683,   2411,    952,   8280,  10863,  -2475,    500,  -7701,   2559,   3727,  -1080,    580,  12986,   2502,  -7866,  -3034,   1345,   7504,   7282,  -1531,   8475,  -2052,   3489,      7,    447,  -7543,  11612,   4940,  10918,  -1615,   -495,   4509,  -5268,   -514,   5534,  11343,   8827,  -6584,   -999,   5629,    588,  -6951,   1254,   5023,  16864,  -1309,      7,   6102,    724,   1817,   -544,  -4984,  15000, -15002,   6303,  -1827,   5620,   7899,   3293,  -3321,  17006,  -9129,    532,   5327,   8034,   2648,  -3951, -11860,  11555, -17308,  -5727,  -4596,   -113,  -3379, -12562,  -4110,   5003,  -9310,  -3237,  -2211,   8622,  -7820,  -1191,   -932,   1790,  -5075,  -2880,   4991,   3251,   6318, -11595,  -4469,   -126,   2976,   6027,   4819,   5527,   4832, -10766,    677,  -4990,   8711,   4348,  -3785,   3825,   4676, -11090,  -4197,   1768,  -6701,    226,   3732,   8167,   4431,   2087,  -5410,   -565,   5920,   4968,  -5905,   1807,   4330,  -2467,   2474,   4364,   1670,   6635,   3710,   1628,  -5776,  11059,   5259,   -748,  -3842,  -8032,   1194,   6413,    337,  -7361,  11682,  -6704,   3631,  -1234,  -5225,   4910,   5956,  -1969,   4296,  -7270,  -5813,   -485,  -9788,   1964,  -7365,  -9620,  -2281,  -2764,  -2113,   5146,  -3981,  -6063,   -588,  -5670,   5408,  -4419, -15229,  -5414,  -6194,   4344,  -2510,  -6603,   9151,   5137,    510,   7812,  -1057,   1823,  -7829,  -3232,   2569,    317,  -6482,  -6437,  -4227,   5231,   3940,   6301,  -1045,   4299,  -9199,    581,   6730,  -1776,   2331,   4321,   4625,   5811, -11221,   4153,  -8158,   5782,   4944,    790,   4586,  -2005,  -6495,   4397,  -2756,  -4708,  -1542,   2238,    433,   3428, -12340,  -7195,  -4658,  -2235,  -5275,   5003,  -1358,   3522,  -8153,  -6741,  -3260,    855,  -5281,  -2251,    949,   4270,  -7709,  -7303,  -3066,  -5980,  -4462,   5587,   7112,  12869, -13419,  -7848,   8240,   8268,  -5148,   7692,  -2196,   5423, -13623,   -422,   5203,   3188,   7979,   2419,  -1573,  13159,  -7759,   7683,  -6002,  -6750,  -8110,  -7621,  -4275,  10345, -17242,   4506,    722,   6972,  -4182,   -701,  10483,   7194,   1107,   8315,  -7539,   4805,   8251,  -2314,  -5818,   -986,   5787,   2364,  -3159,  -2580,  -7171,    891,  -9366,  -4699,   2584,  -3670,   -511,  -6797,  -5001, -12524,  -8467,   1937,   6352,   -379,   3251,   1074,  -2667, -13067,  -4322,  -5689,  -2575,   -313,   6770,   7255,   1196,  -2637,  -7025,    638,   7357,  -4569,   1121,    167,   3356,  -6247,  -7911,  16472,  -6486,  -2371,  -6117,  -3350,   -688,   2672,   4354,  11275,  -8273,  -1937,  -5043,   8815,   -784,   7315,   6413,   1399,  -4636,  -6123,  -3797,  -4954,   1254,   4576,   3461,  -3523,  -4202,   6710,   3507,   3261,  -1459,  -4513,   5614,  -8086,   5299,   7980,  -1759,    420,   6800, -11267,   2040,  -2230,   6276,  -3069,   -420,  -2406,   2991,  -3479,   4731, -10344,  12306,   6620,  -8556,  -7304,  -4048,  -3600,   -699,   4006,   5920,   6368,   3526,   1953,  -3466,  -3275,   -272,  -4879,  -4049,   2002,  -7583,   -625,   8075,  -9655,  -2671,    713,   1158,   1752,    807,   5181,  -7865,  -6412,  -1325,  -6123,  -1648,   7113,   4560,   5113,   1446, -10666,   5315,  -2862,    737,  -1132,   1625,   2104,   5016,  -8877,  -2791,    502,  -9791,   1763,  -1686,   3438,  -4292,  -4081,    769,  -2556,  -7384,  -3407,   5479,   6052,   -205,   -815,  -5851,  -4268,  -4416,   5602,   -238,  -4014,  -2739,    742,  -9756,   2164, -20526,  -5865,  -5377,   1814,    455,  -6167,  -4735,
          1830, -16383,  -7975,   4595,  -1517,  -7665,  -3801,  -7367,   5184,  -8382,  -2869,   2963,   2211,  -5932,   2916, -10503,  -3746,   -214,    698,  -4170,    438,  -5953,  -1746,   1633,   5116,  -3670,    456,  -7964,   4264,  -2931,   4334,  -4241,   9735,  -4039,  -6761,  -6695,   6874,   4356,  -6807,  -4207,   8727,   3326,   7552,   6685,   5577,    422,  -4381,  -2808,   6125,   7680,  -2100,  -3793,  -2659,    747,  -6170,   1567,   5255,   8562,   5831,   2894,  -3476,  -5225, -10218,   2361,   3873,  10096,   7631,  -6228,   8301,   5684, -11423,  -7419,   3253,   1396,  -5049,   -337,   4170,  -5879,  -9310,  -3392,   5234,  -5628,  -1762,    243,  -4989,   1238,   2903,   3826,   5364,  -2503,  -2040,  -5639,   4562,  -7870,   1265,  -2875,   5433, -15189,  -5465,  -1584,   -745,  -4954,   3635,   5720,   -412,  -4779,  -3269,   1314,   1909,   7496,  -5474,   3473,   9016,   6252,  -2972,   1578,   7830,   5767,  -2874,   2458,  -3861,   1839,  -3550,  -2565,   6342,  -1720,  -9924,  -3723,  -4719,   4245,    726,  -2381,   4190,   6131, -15671,   2644,  -2126,  -1383,   7159,   7005,   6353,   2393, -14749,  -2608,  -2783, -13147,  -3721,   -551,    533,   -996, -24149,  -1425,  -6581,   2195,   6051,   1210,  -4038,  -6181, -20803,   1705,  -2990, -17154,   5059,   6077,  -5398,   8010, -22260,   1847, -13115,  -9988,   4306,  -1091,  -3568,   2799, -13893,  -1580,  -5188,  -1589,   2011,    430,   3016,  -4451, -20080,  -8180, -15074,  -4391,  -3177, -10253,  -3753,  -3986, -12115,   1963,  -7526,  -1578,   5068,  -1968,   7336,  -8752,  -5128,  -7715, -18607, -11906,    162,  -1358,   2855,  -7026, -14320,   -141, -11576, -17197,   2369,  -2003,   7588,  -3014, -17016,   -771, -16184, -13741,    885,    495,   1501,  -2756,  -5906,  11576, -10263, -16080,   3930,  -5726,   7011,   4248, -12672,   1213,  -3156,   1667,   7240,   5352,   6355,   7721,  -2466,  -7232,  14473,   5067,   8095,   9131,   -617,  -4664, -13439,  -7192,  15530,  -2546,  -3329,   2022,  -1588,  -7278,  -7386,   1444,    -66,   9480,   2721,   1025,   -983,   2646, -10797,  -3226,   4692,   1445,   5572,   5807,  -1814,  -2909,  -4704,  -5975,   7343,   1803,  -3759,    929,  -3045,  -2912, -10061,  -3881,    438,  -2278,   7453,  -4172,   7789,   2689,  -2281,  -7388,   6155,   8624,  -4385,   -682,   6369,  -5471,  -5539,   7513,  -3699,   4604,  -5121,  -4156,  -7803,   2149,  -2864,   4326, -10166,   6960,  -2963,    912,   7197,  -2085, -11459,  14075,   1969,   4097,  -9019,   2149,  -4769,  -1390,  -2108,   6533,  -3722,   2793,  -8839, -10899,  -8579,   4500,  -2159,   4175,   3901,  11508,   8030,   2659,  -8388,   -613,  -4754,   9702,   4060,   8791,   4097,   3330,  -3766,   7162,  -3283,   6097,   6304,   9702,  -1827,   2458,   1683,  -6264, -11093,    257,  -6513,   5572,   5430,   1768,   8915,   2506,   4134,  -3357,   4344,   2878,   2486,  -6102,   2871,   -752,   2477,   3911,   5192,   8080,   7741,  -2483,  -5320,  -3464,  -4252,  10145, -12508,   6716,  -2165,  -6151,   -407,   1881,  -6173,  -2489,  -3526,  10135,  -5417,  -6018,  -1629,   1861,  -2714,   -970,  -6801,  16219,  -1008,  -4974,  -2729,  -2218,   4457,   1539,   -270,   3243,  -5106,  -1044,  -7040,   6467,   7382,  -4613,  -4195,  -2158,  -3292,    640,   5472,  -1809,   9687,  -6451,    620,   5615,  -6429,  -3883,  -6145,   -800,  -4586,   -630,   9085,   3685,   -733,  -5649,  -6878,  -3435,   1787,  -4754,   2269,   6578,    624,   6526,  -5725,    950,  12773,   6719,  10726,  -9482,   7413,  -3332,   3653,   4161,   6657,   4234,  -7753,   -450,   7938,  -8341,  -3376,  -4447,   2902,  -1616,  12524,   -569,  -3198,   7905,   1241,  -1337,   3264,  -1237,  11089,  -3474,  -8322,   -345,   2206,   3674,   5444,   2306,   3988,    -17,   3318,   6353,  -8629,  -7897,   8746,   2864,  -3743,   4163,   8820,  14425,   1672,  -6825,   5679, -10291,  -2366,  11842,  -2711,   7491,  -6757,  -1039,    924,  -7404,   8309,   1501,    103,  -8241,   7499,   2434, -13108,  -3341,  -3236,   9488,   1355,  -4645,   2635,   -858,  -5859,   8022,
         -8070,   -339,  -2957,   2478,   8083,  -1442, -12993,   2416,  -4179,    137,  -1417,   4453,  -7910,  -5200, -13056,   7950,  -7816,   2126,  -6754,  -8868,   3108,   3185,  -3045,  11820,  -8855,  -5884,   2349,  -5516,   7837,  -3081,  -3527,  11723,  -2003,  -6506,   1933,  -3543,   -832,  -3842,  -9243,   1437,   1310,   3358,   2881,   3263,   2356,   6721,  -8233,  -3054,  -1656,   6070,   3846,  -8613,   8093,  -6397,   1905,   -342,  -5095,  -5811,   6872,   1667,   2973,    507,  -7601,   -247,  -9029,   8030,   2056,   -841,  -4728,  -5401,   5756,   2676,  -1304,  -6019,  -6377,   2985,  -3505,  -8358,   1666,   -741,   -774,   1605,  -4069,   -263,   7079,   2560,    438,  -5023, -10680,   6755,   8355,   -958,   5588,  -6445,  -5293,   -340, -10666,   3866,   8070,   5432,   7931,  -4632,   5514,   7176,     41,   6618,   7396,   -873,  -4437,  -1222,  -3497,  -2512,  -1008,  -4418,  -3209,   4924,   4593,   7494,  -1145,   2248,  -3859,  -4111,  -7991,   9127,    338,   6772,   1221,   4400,   8153,  -4052,  -1911,  -3070,   8914,  -1403,     87,   -525,   -487,   1154,   4842,  -4209,   6332,   1981,    897,   8118,   6989,   1556,   7475,   6338,  -3322,   2492,   4978,    231,  15883,  -3569,  -6354,   2191,  -7418,   7466,  -5496,   3418,   -354,  -3894,   7762,  -9039,   3579,  -2080,  -9483,  -3840,  12890,  -5662,  -8223,   2321,   1177,  -3322,   3255, -12275,   5954,  -2116,  -4786,    563,  -4857,   6297,  -6725,  -4538, -11935,  10214,   7486,  -2743,  -5842,  -7704,   2476, -13572,   3144,   -954,    347,  -2512,   -651,  -8777,  -5650,  11536,  -3830,   4788,  -8342,  -1163,  -7406,    273, -12474,   5205,  -4685,  -1297,   2051,   4262,  -4339,  -1645, -12008,  -1937,   3622,   1370,   7220,   1434,  -8210,  -4843,  -4198,   8856,    110,  -5728,  -8560,   3065,  -7237,   7698,  -2388,  -5925,  -5516, -13906,   4921,  -4526,   3028,  -5857,  -2379,   -516,  -1658,  -2746,    412,   1681,    284,  -4976,  -3845,   3222,     53,  -1453,   3310,  -6454,  -3751,  -1281,  -6806,   6190,  -5703,  13842,  -6916,  -1784,   7010,  -8120,   2947,  -4069,    106,  -3938,   3767,   4527,  -6498,   4370,   5199,   6778,  -1718,   3734,  -2950, -10297,   4518,   8184,  -4670,    343,   3997,   3752,   6626,   3416,   1621,   2384,   2020,  -1004,  -6303,   7409,    955,  -1272,   4388,  -8549,   1217,  -8462,  -2876,    115,   6405,   4813,  -3576,  -6765,   1851,  -8340,   -819,   4880,   5994,  -3371,  -4606,   7135,  -5271,  -6055, -12765,   2803,  -8027,   7283,  -1574,   5498,  -1074,   1443,  -2216,   5286,   4164,   1622,   1676,   6468,    955,  -4553,  11089,  -2250,   7288,   5410,   5908,    182,   -464,    448,   2475,  -2386,  -6449,  -7692,    394,   5396,   6741,  -2816,   1088,  -7701,    534,  -5230,  -1105,  -1722,   2501,  -5591,   9003,   2261,   2156,  -3260,    660,   3969,  -4086,  -1743,  19238,   2062,    390,   3065,  -3965,  -2194,    500,  -8109,  18890,   -452,   3078,  -2586,  -4218,   2715,   1995,  -9670,   6589,  -9976,  -5419,  -8088,   -517,  -7138,   2312,  -3521,  -1388,   1201,    442,   -277,   5520,  -5089,  -6421,  -1449,  -4169,  -6505,   1742,    543,  -7497,  -1589,  -5079,  -7889,  13775,   -719,  -4064,   -123,   3438,   5380,  -9555,   7107,   -512,  -5502,  -5141,    437,   4501,  -7692,  -9101,  12908,  -8788,   -799,  -3428,   3506,   5144,  -1446,  -7618,   3373,  -6433,  -3644,  -6207,    521,    467,  -2543,  -6758,   8969,  -6502,  -3042,   5498,  -2681,   1742,   5130, -11334,   7112,    726,   6906,   4677,  -6111,   -429,   7161,  -7240,   1225,   8444,   5711,   7960,   1167,   2799,   8488,  -8437,   6654,   3258,   9320,  -5084,  -4547,   9576,  -1746,  -1434,  -4114,   9611,    116,    -32,  -5959,   3360,  -5320,    604,  -5106,  -2766,   2760,   8717,  -1404,   -206,   6378,   -329,   4288, -10865,  11104,   6913,   6356,  -1396,   7084,   3088,   -105,  -1608,   8450,  -6079,   3139,   9460,  -1883,   2401,    576,   7405,  -3341,   6555,   6126,  -1054,  -5548,    104,  -5609,   -523,   7394,    345,   3778,   3720,   2003,  -1936,  11171,
        -23489,   4724,   3887,   6737,    144,   8227,    688,  -3766,   4333,   1117,   3303,   2787,   4792,    281,  -1982,  -5612,  -4633,   5006,  -1494,   2588,  -4011,   1532,  -6818,  -4153,   5990,  -7240,   5901,  -1741,  -4527,    854,  -4288,   4768,   3847,  -6262,   -737,  -3068,  -3053,  -1176,  -1217,   4719,   4784,  -3750,   1438,  -8900,   5358,  -6950,   2009,  -8459,   9208,  -3922,   8113,  -6938,   9533,  -1003,  -5384,    159,  13838,  -1431,   -850,   -864,   -575,  -2564,  -3491,    596,   9463,  -4445,  -8006,  -3049,   7827,  -6776,    358,  -5475,   3338,  -1293,   5307,    548,  -6401,   3537,    433,   -306,   3092,  -6635,  -5685,    956,   6085,   -334,  -6388,  -3935,  -7217,  -7278,   2361,  -8088,  -4984,   1585, -10321, -11328,   6420,   2436,  -5735, -10664,   7840,   -495, -13235,   -594,   9558,  -4071,   4601,  -8729,  -8478,  -5719, -13523,  -3392,   2148,  -2843,   2533,  -7948,   5712,   3389,  -9674,   5999,   8415,   3866,  -5973,  -4855,   4845,    908, -15316,  -1326,   3684,    -27,   5870,   2965,  -2549,   2596, -12314,  -6566,   9728,   7658,   4894,   5312,  -1579,   1502, -10553,   3630,  -2818,   -844,   2790,   -936,   1929,   -871,   -871,    343,   6357,   9983,  -2074,   3562,   7033,   4777,  -5595,  -4381,   -892,   -475,   -808,  -3741,  -5933,   7940,   1744,   3411,  -1639,  -3197,   6066,  -7235,   5986,     12,  -9542,  -1567,  -3399,   -487,    783,   6311,   5973,   6917,  -5154,  -5111,   4022,  -2778,   8029,  -3973,  -1711,   5673,    -86,  -9001,  11991,  -3875,   8253,  -7509,   6232,  -6321,  -1390,   2620,   8059,   3468,   2755,  -2484,   -381,    933,    809,   3023,   9306,   7256,   -560,    861,  -6091,   4951,  -4728, -10212,  -9817,    931,   4699,   2939,   4870,   -818, -11220,   1995,   3850,   3511,  -3213,  -4231,  -3972,   1594,  -9473,  -3146,  -4302,   2336,   6527,  -3027,  -5957,   7687,  -8730,    623,   8377,  -4656,   -528,   7448,   6561,   3861,  -4304,  -1024,   2537,   1506,   4828,   8657,  -6746,   3060,  -6649,  -9277,  10599,  -1519,   5944,  -5069,   9148,  -3182,  -7572,  -2053,  -4653,  -3910,  -1953,   7156,   1268,    836,  -5759,   -888,  -3694,  -3680,  -2118,   1094,   8327,  -7034,  -7409,   4775,  -5852,  -1636,  -7208,   1432,   2032,   3686, -11543,   7659, -14500,  -6039,   4288,  -1729,   2336,  -8025,  -6296,    194,  -8083,    679,   3402,    110,   2369,   3371, -14991, -10878,   2837,   4993,  -6454,    640,    197,   3345, -12992,   3687,   1583,  -3368,    834,  -2796,   -837,  -6583,  -5512,  -1690,   -162,  -8445,   -492,   9230,    667,    584,   5856,  -4975,   6815,   6076,   3425,  -1364,   -752,  -6965,  -5000,   2210,   8123,   -135,  -2620,  -7585,   1165,    186,  -2413,   2010,  13649,  13523,  -2335,   9165,   4367,   7927,    -88,  -9229,  10298,   -519,    286,  -2913,   7989,  -2713,  -8729,  -4136,  20010,   9259,   6964,    374,   9710,    996,   -440,  -7781,   2225,  -2127,  -7583,  -2194,   4868,   3949,   2872,  -7011,   1111,   8177,   4927,   3540,   7447,  -7360,   3444,   1434,   4204,  -3485,   3305,  -6361,    531,  -3424,   6454,    212,    156,    100,  -7285,   2103,   3329,   2610,   1590,    411,  -5530,    808,  -4952,  -3485,  -1126,  -1562,  -4666,  -3131,   3233,   1973,  -4840,  -1195,   1281,  -1547,  -7828,  -8465,   -474,  10945,  -4136,   2937,   4231,  -8697,   -186,   1528,  -8774,   4270,  -4188,   1284,   1053,  -4053,  -3635,   -815,  -7919,  -3969,  -6097,  -3636,  -5126,  -1412,  -5199,   3466,  -3437,   5829,  -6727,   7601,  -2797,   -868,  -8470,   7354,   5198,   2894,   4966,   3819,   8178,  -6814,    669,   5313,   -217,   9474,  -3147,  -5371,   3232,   6422,  -7599,  10823,   -428,  -4494,    379,  -2673,  10447,    -21,  -9062,   8616,   3224,    523,  -7692,   2515,   2130, -10251,  -7819,  13267,   7180,   2895,  -6677,  -2180,    -16,  -4785, -12997,  10507,   8188,   -336,     18,  -4006,   2039,  -1846,  -6201,  13850, -10085,  -1348,    188,  -8383,   -848,   1597,  -9957,  16608, -18101,   -790,   6302,   1084,  -2737,   3618,  -4850,  16277,
          7267,   3896,   1082,  -5287,  -1511,  -8249,   1082,   2058,   8443,   -621,   3240,   9004,   7053,  -2032,   4944,   5758,  10906,  -4320,   7579,  -4307,   6383,  -6674,  -5026,  -6717,  13402,  -7895,  -6215,  -8484,   7614,   2251,  -5423,  -1562,  11671,  -2330,   1021,   6113,  -3264,   2244,  -6546,  -4585,  13498,  -3272,   -681,  -1856,   3892,  -4439,  -4848,   1180,   9250,  10148,   3090,   2535,   6494,   5965,  -1039,   2790,   4608,   1318,   -361,  -2012,   9882,   5299,    149,   3806,  13021,   5183,   5694,  -1855,   7292,   3392,  -3133,  -3422,   6618,   5235,   3937,   6723,   8265,  -3528,   5074,   2416,  -1190,   5169,   6503,  -4701,    324,  -6893,   4932,  -2241,    298,   4991,  -8008,  -5749,   3064,     11,  -5966,  -4626,    447,   1762,   5864,   6266,   5523,   6499,  -1722,  -3699,   -575,   8890,    952,   5394,   1656,   7913,  -6870,  -8948,   -766,    346,   4237,  -5544,   3868,   5077,  -2007,   -697,  -6554,   -771,   7288,  -5080,  -2647,    246, -10842,  -2618,   8712,   3620,  -3602,  -7412,  -6962,  -4327,  -6419,  -1475,  -2506,   5213,   2410,  -4534,   5526,    -97,   -448,   3568,  -1365,   3760,  -2302,   6065,   8526,   3772,  -2133,   -333,   9214,   3101,   3078,  -1730,   9175,   -330,  -8148,  11390,   6698,   3224,   5425,  -4813,   5848,   1212,  -3697,   1411,   4681,   1770,    179,  -3657,   9575,  -8120,  -4677,   3234,  -1074,   7654,  -8957,   5318,   6619,   3861, -13125,   6746,   7837,  -5078,  -2700,   4259,   5937,   1235,   -639,  17507,    866,  -6760,   -723,   6290,  10038,  -1109,   1822,  12742,  -4972,   -272,   1780,  -7981,   4321,   -545,  -5268,  15975,   5614,   9157,  -3431,   -280,   9162,   -855,   4112,   3272,  10429,  -3833,   3720,   2863,   2118,   1870,   8519,   -664,   7707,    210,   5048,    420,  -2202,  -4297,   7449,  -3183,   8963,   7356,     81,   -465,   2954,     26,   7985,   1780,   7898,  -1157,    542,  -8447,   4116,    472,   6773,  -8733,   1083,   6894,    639,   1031,  -3876,   7728,  -1691,  -7172,   6348,    929,   2506,  -7888,   9056,  -4797,   4641,   3385,   3185,   6436,   -264,   2115,   1220,  -2298,   4465,   -156,   1353,  -2261,  -7908,  -7259,   5511,   8814,   3463,   4532,   5126,   5877,  -5969,   5154,    878,     55,  -3444,  -4877,    183,  -3801,   3988,   -211,  -6383,   5634,  -2305,  -2223,   9515,   4029,  -1319,  -4768,   6851,   4699,   2528,   1938,   8852,   4895,   2630,  -2479,  -2398,   1514,    420,   1910,   6005,   6054,   1298,  -3671,  -4352,    523,  -6324,   5700,   6656,    118,  -6783,   6212,   1848,  -3347,  -1213,  -3470,  -4503,  -1706,  -6192,    916,   -978,  -3113,  -4292,   2696,   8557,   4279,  -5593,   8167,   3835,  -5485,  -2089,   2128,   6065,   2755,  -4100,   3201,   4732,   1457,  -6654,  -2753,   1568,    848,  -7384,  -9188,   -829,  -5681,   1251,   4594,   1464,   5470,    506,  -2424,  -2910,  -2554,  -5428,  -4875,   -694,   8492,   6360,  -8957,  -1539,  -3992,  -2275,   2097,   4761,    140,   4814,    686,   2999,  -2478,  -4775,   2007,   4113,   1388,   3565,  -6737,   6299,   4585,  -1825,  -3197,   1512,    711,    769,  -2019,  -3734,  -3846,   5566,  -3805,  -3236, -12383,  -8126,   5544,     99,   -106,   5102,  -2537,   9037, -13388,  -4221,   3151,   1441,  -2419,  -6276,   4447,  -3415,   9908,   1107,  -3619,   4551,   5045,  -2742,  -8788,    113,  -3408,   4794,  -1399,  -3824,   5894,   2365,  -4995,  -2174,   2186,  -2910,   1914,  -4220,    153,   -413,  -1120,  -2034,   5107,  -8580,  -5165,  -4650,   4412,  -6743,  -6879,  -3409,   2077,  -4386,  -7979,     -7,   -649,    955,  -6324,  -9091,  10347,    998,   2713,   2993,  -3629,    -87,  -8567,  -9678,   5756,   2106,    100,  -2276,   1919,   -400,   3247,  -4433,   4513,  -3455,  -1822,   4109,  -2652,  -1588,  -3720,   2025,   4213,   1142,   4199,   1641,   8568,   6546,   5944,   1000,   -600,   5251,  -5730,   4233,  -7441,    422,   6230,   -835,  -3385,  -5900,    607,  -5059,    -50,  -2943,   8784,   7886,   8832,   5710,   8285,   9144,   -327,   7048,   9041,
          7373,   8708,   5887,  -5447,   3488,   8201,  -2845,   3496,  12256,   8840,   5008,     39,  -3937,   7731,   2825,   8431,   5759,   5118,   5164,   -693,  -3392,   3422,  -4272,   3777,   5797,   -668,  -6962,   4433,  -6141,   1111,  -3195,   -518,   1509,   3020,  -2888,  -8339,   4690,   7929,   3002,  12552,  -1476,  -3269,   1158,   3727,   4995,  -7928,   2285,  -3349,  -1213,   6695,   1804,  -4545,  -2360,  -5720,   1576,   -934,  -8754,   -311,   2334,  -4154,   -335,   6440,   3613,    -79,   3067,   8662,  -4852,   3819,  -4576,   2973,  -2579,   -483,    154,    375,  -6132,  -1443,  -5596,   4099,   -459,  -9967, -10001,   4872,  -4475,  -4228,   3978,    490,   2662,  -3808,  -3469,  -1792,   1466,   2606, -10612,  -8394,  -3696,  -5811, -12983,  -4247,  -3408,   3496,  -2613,  -8762,  -2610,  -7662, -12879,  -7034,  -8834,  -2352,  -5427,   4626,  -4427,  -8752, -13377,  17325,    459,   5936,  -7596,   2535,   1528, -13020, -13012,   -616,  -5104,  -5732,   1139,  -6932,   -822,  -4924, -17817,  -3910,  -3940,  -4553,  -9068,   8221,  -4679,  -5313, -10746,  -3654,  -8348,  -4767,  -5520,   2458,  -1971,   1942,  -9687,   8524,   5818,  -6472,  -3720,   8338,  -1453,  -8683,  -3307,  -2614,  -6282,  -4617,  -8189,  -6636,   2271,  -1992,  -3231,   1142,   1929,   2059,  -1401,  -1399,   2792,   1708,  -4101,   4120,  -6502,   2857,  -4996,  -5085,   8554,  -2160,   1806,    112,   1087,  -5936,  -3874,  -2517,   1458,   5515,   5323,  -6547,   -235,   7351,   4599,   7780,  -3174,   4081,   -166,   4222,   1270,  -4116,   -452,  -8155,    706,   7259,     83,   5872,  -3216,   7758,  -2479,  -6208,  -2020,   9296,  11587,   -432,   4645,  -2420,   2561,  -3632,   5664,  -3320,   -870,   4503,   -501,  -5456,  -5523,  -1373,   7576,   6670,  -1533,   7773,   6816,    820,  -6191,  -4193,   1522,   1106,   3864,  10022,   4589,  -3967,  -1273,  -5728,  -4801,  -3876,  -2215,   1610,   2512,  -6532,   5026,  -3373,  -4026,  -3654,   5092,   4293,  -7289,  -7570,   -353,   2107,  -6768,   1931,  -4328,   8225,  -2106,   6184,  -4620,    802,    478,   4290,  -3732,  -3783,  -6612,   2087,   -547,   2081,   5131,    553,  -5475,    -93,  -1594,  -9662,   1451,   6220,   9134,   2632,  -5700,   4300,   5077,  -5990,   4236,   4012,   2972,   2025, -13739,   2488,  -7273,     23,   3259,  -3858,   5572, -12732,  -8796,   4960,   4718,   -464,  -2069,   7479,  -1392,  -1517, -25498,   3271,  -4300, -11639,  -9746,   8042,  -9825,  -9035, -19779,  -8969,   6329,   1790,   3115,   -568,  -2554,  -2711,  10706,    464,   7463,  -3020,    365,   4309,  -4486,  -2091, -12697,  -2823,   4820,   -356,   3381,   1383,  -3674, -10256, -12870,  -7407,  -1298,   3363,  -5606,   4539, -12289,  -3368,  -2106,  -6546,  -7886,    -66,   3622,  -1229,  -5286,  -5818,  -2178,  -9058,    627,   2615,  -5295,   4772,   1038,  -5584,  -3272,   7412,  -1180,   4664,    941,   7706,  -7686,   1108, -11741,   1227,   4094,  -4063,   3887,  -4548,   3524,  -1058,   2486,  -3852,   2250,  -4273,  -8265,   1993,   -475,   4687,    495,   1451,    205,   1748,   4273,  -2275,   4940,   2919,   2496,   8081,    937,   3481,  -5465,  -2794,  -5896,   -937,  -3483,   4560,   7746,   5652,  -3540,   1476,  -3439,  -7982,   3568,  -2180,  -7275,   5161,  -9140,   8137,   -987,   4534,   -423,  -7489,  -7126,     15,  -4690,   6438,  -1540,  -5178,   3186,   -405,  -3416,   3860,  -2425,   6838,  -8082,  -3368,  -1872,   1922,  -6862,  -5537,   2052,   5691,  -2667,  -7018,  -6667,   2404,   8387,  -9328,  -2085,  -6211,   2708,   2402, -11818,   -644,   7886,  -1558,  -5397,    936,     49,   8188,  -5046,  -2623,  -1927,  -6539,   4906,   4981,   -858,    759,  -6018,   2071,  -7311, -11079,   -578,   2683,  -2150,    220,  -2827,   6470,  -1831,   1699,   6257,  -2471,  -5745,  -2992,  -1836,  -8535,  -4115, -11543,  -9281,   5631,   3334,   5707, -11885,  -6066,  -5664,    876,   7263,  -8771,   -958,  -2168, -14791,   1976,  -6233, -13144,  -3616,  -7145,    692,  -6985, -13992,    718,  -3667,   -319,   2540,  -7531,  -2824,  -7946,
        -14276,  -2770,  -7753,  -4329,  -5541,  -8975,  -5424,   4883,  -9453,  -2713,    799,  -5697,      5,  -2762,   3946,  -6642,   1361,  -5216,   3155,   5280,   -400,   6555,  -6056,   1559,  -6735,  -1179,  -1565,   1428,  -5161,   6616,    -21,  -2766, -10293,  -8798,  -3060,   3285,   3455,   8156,  -8356,    -97,  -5992,  -5558,   3337,   1018,  -5720,   6726,   8040,  10633,  -1377,  -6730,  -3710,   -979,   1262,   7919,  -2434,  -5819,  -1347, -11399,   1944,   1941,  -5009,   2897,   3361,  -5924,  -7999,    141,   2332,  -1061,  -4292,  -1382,  -1449,   1712,  -6829,    921,  -5525,   3868,  -1213,  -8228,   5294,  -2816,   2304,  -4086,    600,   1593,  -6491,   4330,   1507,   3625,  12870,  -2171,   6203,  -1262,  -5404,  -8294,   7242,   2842,   5358,  -4440,     45,   6921,   6928,   3990,   -851,  -6120,   3977,   1928,   5465,   6192,   3087,  -5856,  12436,    420,  19681,  -3828,   7666,  -4866,  -4040,   7069,   -584,   6297,   7939,   6429,  -3006,  -1045,  -8116,  -8242,   4643,  11472,   2834,  -1222,  -4882,  -4980,   7830,  -5576,   -580,   5400,   9079,  -2559,  -3701,  -1831,  -4767,  -5453,   7060,   -101,  10173,   3612,   7353,   4467,   3275,  -7805,  10874,   2848,  11382,   6408,   4717,   6335,  -2789,  -7284,  -4476,   7572,  10602,  -5157,  -2189,  -6473,   5901,  -6219,    536,  11856,   8407,  -1343,  -5856,   1391,   6511,   2303,  -1357,   8293,   6884,  -7313,   2718,  -6367,    145,    815,   -702,   5169,    258,  -3524,   3439, -10772,   6031,   4583,  -5786,   -190,   8067, -11907,  -5587,  -8098,  -5661,   -925,   7644,   6743,  -8068,  -8047,   -447,   4838,   2979,   7918,   2333,   2475,   -703,  -4745,  -2566,  -4524,   7443,  -3902,   5825,   1026,  -7707,  -6203,  -2363,    818,   7429,  -8388,  -5207,   2238,   9767,  -2423,  -2554,  -9114,   2087,   -286,  -7357,  -3143,  -2602, -10398,   -271,   3224,   -654,    751,    812,  -6529,   2417,  -7872,   3568,   1516,  -3391,   -143,   5883,   3125,  13887, -10660,   1278,   1329,  -4198,  -2055,   2086,  -5970,   7250, -17624,  -2970,   6665,   2018,   -911,  -1452,  -5144,   8040,  -5743,   6169,  -8017,   8463,  -6189,  10302,   7600,  13945, -11243,  -6863,   8682,   6200,  -6068,  -1012,   5077,  17190, -14078,   3441,  -4360,   9414,   -591,   5608,   1319,  11861, -18319,   -916,   -429,  -3342,   5975,  10461,   -469,  17942, -11016,   2195,  -2623,  -2581,   2386,   3801,   5016,  15575,  -1833,  -5875,   2116,   1871,   1693,   1561,   9317,  11581,  -8606,   7774,   -177,  -3554,   8638,   8355,  -2968,   6842,  -4096,   4751,   2526,   5691,  -4580,   8567,  10331,  16633,  -2082,   1964,   2920,   7529,  -1709,   1988,   4178,   5920,  -8550,   2740,  -6612,  -6960,  -2965,   3595,   5497,  13712,   4125,  -3099,   8115,  -7227,  -5263,   3198,   5590,   5487,   2276,  -1098,  -4549,    506,  -3827,   6558,  13309,  16970,  -4899,   8633,   1443,   7221,  -2037,  -4056,  13310,  16271,  -7859,   2152,  -4340,   5034,   7354,  -7576,   7636,  17251,  -1342,   6758,   7567,  -6315,   3127,  -2562,  14299,  28592,  -2636,  -2594,   7462,   -253,   7396,   3664,  -2488,  18479,  -9670,   6966,   5934,   7755,  -5854,    640,   3161,  15678,  -3106,   7386,  -4687,    342,   4969,   4343,   6955,  15900, -13104,  -5927,   -841,   3812,   2055,   5253,   7730,   9119,  -8441,    567,   6234,    327,   1764,   3375,   4601,   7482,  -4145,   3312,    844,   1396,   3157,  -7700, -11902,   1080,  -2452,   4774,  -4493,  -5412,   3482,  -9759,   6102,  -1112,  -4936,  -4288,   3546,   7318,   6177,  -6114,  -3123,   1205,  -2476,    642,   4529,  -7328,  -3909,   5656,   -622,   9692, -15958,  -1323,   6629,   -535,   6326,   4596,   8377,  -4464, -10364,  -4423,   2087,   7725,  -1948,   2234,  -2463,  11407, -10367,   1667,   7763,  -4595,   5467,  -1108,   9268,   4298,  -4084,    960,    704,  -3732,    417,   6501,   -484,  10254,  -2237,   3935,  -7191,  -2773,   4157,  12896,   5272,   7336,  -3287,   6336,   5060,   1734,   6354,   7856,   8106,  18883, -13887,   7751,   3609,   2538,   6313,   9930,  13684,
          5581,  -4623,  -1589,   1899,  -2421,   7373,  -2403,   2602,   3107,  -4220,   5118,  -7426,   4309,  -8123,   1480,   9646,   7264,   7284,   3184,   2338,  -8072,  -5778,   6416,   8698,  14212,   8536,  -6583,  -5637,   4335,   8655,    413,  -3748,  14090,  -4103,   3224,  -3513,   5642,   4251,  -1478,   2562,  11068,  -5567,   5752,    150,   7215,  -3399,   5962,  10593,   7747,  -3298,  -1866,  -1535,  -5303,  -1029,   4513,   -304,    574,   5582,    732,   6388,   7755,   5535,  -2608,   4739,   4256,  -1119,   1596,  -5589,  -7394,  -3748,   8623,   9784,     20,   3235,   6608,   2754,   1862,  -4345,   3552,   3549,   7437,   -642,   5520,   6307,    152,   1841,   8979,   1235,  17645,   3698,  -6467,  -2856,   1819,  -2531,   9105,  -2740,   4003,  -1070,   6644,  -1727,   2150,  -2472,     -6,   4079,   6388,   3350,   5330,   6884,  -1390,   3365,   1193,   5295,   -195,   1989,    609,   4830,  -5174,  -8368,  -2195,   6799,  -2046, -13635,   2029,   2551,   6915,  -9043,  -3749,    637,   1729,   3406,   2436,  -4206,   5613,   2350,  -1294,   4160,  -8369,  15414,  -6301,   5804,   5942,  -2012,   7326,  -6386,  -5940,   3130,    320,   8871,   -614,   6922,   1718,  -4064, -15915,  -8234,    512,   7491,  -2113,  -8607,   -666,  -4909,  -7951,  -8302,   1644,  -4432,   6849,  -6001,   7303,   4038,   3938,  -9201,  -6742,   4074,  -3086,   2450,   6693,  -1309,   1997,  -9481,   2467,   -550,   -551,   7469,   3633,   2395,  12398,     38,  -2708,  -5491,    875,  -4776,   4447,   4864,   7342,   2303,  -3799,   -166,   2769,   8720,   4216,  10001,  14308,   3235,   3896,   7204,  -5548,   2586,  18094,   7740,   5516,   4305,   3912,   6000,  -6637,   2953,   3615,  10777,  13068,   5186,  -7122,    924,  -3965,   4266,   2542,  10410,   9821,   4137,   -644,  -2640,  -7273,  -5860,   3461,   5188,   5529,   8037,  -4741,  -3343,   6217,   2245,   2681,   8273,   3442,   7189,  -3139,   1525,   1910,   -211,  10413,   8741,  25215,    566,  -6813,  -3165,   3507,  -6569,   3359,   -395,   2768,   3449,   2316,  -7587,   4199,  -3654,   -214,   7400,   3115,  -6467,   1264,  -4427,   7218,   3089,   7473,   8324,   2411,   3390,    895,  -5911,   2825,   1032,   8002,   2273,   1133,   -277,  -2795,  10228,   2701,   4510,   8322,   -261,   4032,   1226,   6430,   8367,  -6970,   7496,   7527,  -1120,   2851,   3180,  -6413,    248,   6243,   3437,   -682,   1242,  -2208,    384,   1268,   4712,  -7032,  -6862,  -4939,  -2535, -12140,  -1460,  -2518,  -6815,  -6953,   6459,   3666,  -8027, -11836,  -9398,    564,  -8473,   4471,   5977,  -7664,  -7356, -14093, -12290,  -4577,  -6901,   4780,    756,   5269,  -5487,  -9415,   2995,  -8255,  -1493,    384,  -8065,  -2321,  -1141,   2635,   3521,  -2507,  -6509,   7366,  -5581,   4026,  -2259, -14194,   1169,  -6247,  -2213,   7836,  -7329,  -1542,  -3451,  -5027,  -3062,   -898,  -3950,  -4923,  -4007,   6277,  -8519,  -1458,  -4962,   5682,     17,  -1075,   6806,  12345,    891,  -7755,   -189,   -164,   7139,    -83,  -7063,   8627,   -458,   7051, -16320,   4165,  -1588,   8428,  -5265,  13462,   9268,   8451,    -66,  -7222,   9804,   4280,   -456,  12201,  10175,   4075,   3275,  -5516,  -4594,   8988,   1187,  17679,  12825,   5291,  -2109,  -7267,   7997,   8236,  -5927,   8843,  11645,   6431,   5808,   7485,    -95,  -2829,   4745,   2568,   1791,   6060,   1823,   7250,   4068,  -3712,   1257,   3441,   6945,  10556,   8125,  -1536,  -3792,   6405,  -1609,   4594,   9216,  18448,  -2422,  -8100,  -6770,   9770,  -5809,  12551,   5100,  13310,   3583,  -5126,   7366,   7738,  -7482,  13063,  -1345,  14697,   -385,  -3678,  -4060,   5575,   6612,  17547,   3773,   8304,   4419,   6529,  -1428,   7525,  -1890,  12723,   8472,   6544,  -2226,   8897,  -6121,   2812,   1616,  10938,   1173,   9022,   -935,  -4321,  -6755,  -4251,   2325,   9391,   5856,   6392,  -8906,   4002,   3690,   8107,  -1476,   3736,  -6414,  15764,  -7207,   8522,   5905,   1196,  -4411,   2449,   1160,   8953,  -7703,   2620,   2219,  -6326,   7633,    273,   7842,
          1083,   -621,   7168,   5597,   2426,  -2905,   3681,   -902,    595,   2935,   8997,   7928,   2691,   2193,   1786,  -8432, -21116,  -6226,  -8080,  -1824,  -1828,    565,   1900,  -6313, -21575,  -1675,   7762,   3082,  -8227,  -6349,  -8755,  -1383, -10611,   1722,   4482,  -3882,   -464,   7251,  -4763,  -3979,  -7673,   9851,  -6636,   2688,   4941,   5516,  -3461,  -9122,  -1831,   9140,   5730,  -5797,   2639,  -1527,   1425,    990,  -2302,   5219,   7616,    637,   2781,   4057,    108,   -234,   -817,   3322,   4576,  -3216,   -350,  -4471,  12181,   2946,   2994,  -2312,   6252,   3297,  -5831,   2792,   -641,   7886,    311,    862,   4341,   5510,   4076,   3227,   6930,   4252,   2786,     56,  -5838,   5048,   3898,   6982,   3170,  11372,   7029,  -3795,   7627,  -5457,  -5651,   4609,    306,   4245,    940,   3027,   7321,  -3797,   5560,  -5546,   1602,   7790,  14798,   3780,   3472,   3714,   6800,  -5499,   7857,   6237,   8306,   -698,   1076,   3159,   9820,  -6157,  15740,   9684,  11468,   6651,   9007,  -3079,   8819,   -256,   2619,   5581,   8026,     48,   7382,    480,   5273,  -1768,   4126,   8807,  13631,   4278,  -3699,  -2464,  -1146,  -1638,   3616,   5931,   6085,  -3765,   2159,   6154,   9303,   1695,   8266,   5038,  16711,   1908,  -3948,  -6829,  -2821,   6412,   2422,   8717,  11261,  -7815,   1134,    874,   -960,   8928,   6034,   2342,  17778,   2353,  -1242,   4325,  -3012,  -7300,   3295,  -3959,  19356,   -857,  -3709,  -2677,   3308,   6401,   9253,   1316,   9381,   6327,  -7204,  -3476,  -2147,   -737,   8385,  -7293,   2360,    570,  -5495,  -2581,  -2590,   3834,  -2224,  -2172,   1353,   1728,  -2160,    732,  -5249,  -1379,   6304,   7498,  -7444,  -1349,  -7312,    610,   5142,  -7485,  -3036,   4066, -17417,   5462,   5931,   1695,  -5658,   7913,   -764,  -8940, -28915, -10500,   -718,  -9614,  -8079,  -5083,   2507,  -5381, -11450,   8527,  -4057,   4442,   3074,   7982,  -2196, -10553,  -1583,  -3005,  -5524,   4819,  -2007,  -8119,  10954,  -9427,  -8525,  13731,   1078,  -5930,  -2663,   1013,    898,  -8109,  -9815,  11798,   1092,   9470,  -7235,  -2761,   7011, -10247,   8261,   1020,    794,   8487,  -5460,  -4894,   2098,   2742,    780,   5491,  -3687,   5677,   6859,  -7188,   9219,   4478,  -2799,  -3062,  -3836,  -4307,  -1383,   7292,  14040,   5587,  -3833,   -324,  -6727,  -4583,   2328,   4279,  12260,   8964,  -2178,  -6715,   2948,   -128,  -3931,   6468,   2275,  13305,   6556,  -7776,   3822,   9100,   -740,   1180,  15085,   8804,  10998,  -5777,  -1304,   3133,  -4164,  -6664,  14538,  12156,   4154,  -6735,  -7213,   1960,  -5511,    -92,   6608,   6265,   6749,  -7800,   6336,  -4404,   3989,  -6832,   5367,   5781,    488, -14593,  -1934,  -1703,   -222,  -7811,  11237,   4804,   9803,  -5725,  -5998,   7779,   2287,  -7893,    -64,   8887,  25513, -13845,  -4243,   9750,    747,  -8121,  10300,  -1248,  18661,  -9377,  -1641,   -393,  -5668,   3110,  13279,  -1941,  13164, -15488,   1189,   -724,   5041,  -4342,   9421,   6929,  10147, -12467,   -552,    737,  -2071,   4994,   9438,   -500,  10232, -13718,   3854,   3291,  -4061,  -6088,   4511,   3841,   3562,    -32,  -2226,  -4925,   2502,   -746,  -2002,   -788,  11072,   3261,   7836,  -6436,   1573,  -4681,  13321,   3303,   6081,  -5254,   4908,  -1220,  -5237,  -6095,   4434,   2509,   -957,   8685,   6369,  -8587,  -3211,   4420,   -725,  12747, -15817,   3810,  -8564,   8000,    939,  -5920,   2589,  -8905, -19454,   2247,   5957,  -8580,  -5657,    103, -10174,  -2432,   1306,   -768,   6574,   6508,  -8720,    747,   7150,  -1701,  -6796,   3947,  -4810,   1593,  -2059,  -4310,   6835,  -7169,  -6024,  13521,   2404,  -3745,   5125,  -7367,   8055, -12078,  -2724,   1909,  -6567,   1465,  -3411,    712,  14660, -17060,  -5186,  -3282,  -7589,  -2463,  -9172,   6829,   8247, -12876,   3116,  -1908,   6597,   1326,  -1819,  -7187,   3731,  -6782,    820,    382,  -4052,  -4482,  -3001,   7784,   1523,  -1639,   4073,  -6372,   4284,  -4886,  -2373,   2556,  -1198,   2940,
           928,  -4261,   1141,   9562,  -5994,   -336,   4612,  -2108,   3036,  -4305,   -646,   5596,   4692,  -4457,   2878,   3987,   7355,  -6200,   -923,  -7656,  -5187,   7667,   2392,   6603,   3508, -12113,   1245,  -6011,   2466,  -5332,  -3685,   5510,  10933,  -2951,  -1793,   5687,  -6500,   3399,   -511,  -4080,  16653,  -9686,   6318,   7612,   6749,   6046,   6849,   1890,  13572,   -198,  -1440,   9510,  -2755,   2178,  -6063,   5989,  22941, -11386,    813,   -212,  -7833,   5823,     34,  -2082,   4050, -13380,  -3058,  -5947,  -3673,  -7986,   4132,   2414,  12817, -11851,  -6937,  -3390,   2540,   1069,    560,   4562,   9841,  -3227,   3157,    288,   2710,  -6786,   -233,  -9133,    -47,  -2809,  -5621,  10018,   2768,    718,   3619,   2246,   7136,  -5237,  -5200,   3151,   6211,   -467,   3233,  -1629,  -3906,  -1462,   5943,   6519,  -4483,   4946,   2291,  -2947,     71,  -3048,   5119,  -2791,   2473,   -799,   8575,   9803, -17277,  10490,  -4031,   8127,  -9381,   7352,   6983,   7592, -18469,   2288,    975,  -3438,  -7346,   5031,   5157,    185, -12736,   5007,   3755,  -1178,  -5125,    422,  -3457,  -7382,  -5657,   7410,  -4526,   6191,   2410,   4291,   2936,  -8499,   -909,  -7128,   3843,  -2665,    370,  -2717,    563, -10925,   1631,   4031,  -3420,  -4770,  -3163,  -6109,   4480,  -8284,   4738,  -4403,   2201,  -1574,   4006,  -1182,   6234,  -2561,  -1646, -10370,   2724,  -4004,  -5153,  -1051,   9348,  -3552,  -3488,  -6582,   3487,   2690, -10969,  -1889,    304,  -3072,   5546,  -3435,  -1402,     -3,  -1284,   3287,   6426,  -8166,  10351,  -6501,  -4353,   8195,    -56,  -4681,   1117,  -5705,  -4739,  -3074,   2459,   3227,  -5175,   7990,   2464,   3965,   7490,  -4373,    894,   3929,    531,  -3051,  -2551,   4809,   3009,  -6701,   2252,  -5746,  -4314,    829,  -3355,  -6538,  -2105,  -5375,  -5516,   2558,  -3920,   4172,   8003,   2646,  -6793,  -7065,   3928,   3995,   4329,   4236,  -5034,  -3094,   5385,   -976,  -5051,    920,   6626,   3765,   3894,   2652,  -6470, -10526,   3953,  -5670,   5740,  -5034,  -2053,  -6698,   9566,  -3681,  -3820,   3887,   -176,  -6135,   5777,   -222,   5517,   -857,   4873,   2748,  -2451,  -1681,   -700,   3629,  10927,  -7541,   4479,    659,  -2688,  -3086,  -5462,  -7560,   2108,  -1505,    766,   9551,  -2848,   2432,   5076,    894,   7572,   5282,   5315,    440,    725,    503,  -7026,   3482,  -7901,  -7107,  -3972,   1007,  -5224,    712,   1681,    688,  -2783,   5875,  -6941,   6728,  -4812,   5458,   1330,  -5603,  -8300,  12514,   3435,   4576,  -1025,  -1569,   -699,  -9728,  -6772,  -3344,    120,  -8609,   -857,   7823,   6523,   5112, -15000,   3675,   2592,  -8269,  -1428,  -6105,  10157,  -1114,  -4925,   3479,  -7986,   1942,  -2239,   1673,   2081,   2103,  -4317,   1368,   -198,   6640,   2289,  -1034,  -3771,     -4,  -2066,   1036,   2703,  -4650,   5877,  -3985,  -1970,  -4723,  -2083,   -533,   4847,  -4728,   -172,  -5747,   7380, -10437,  -2432,   -264,  -6597,  -3657,   8106,  -1251,   9081,   -524,    236,   1151,   3393,   6315,  -4727,    463,  -1084,  -7303,  -6621,   5791,  -7819,   6029,   6126,   5516,   7242,  -2884,   1252,   5443,  -1923,  -2260,   7257,  -8088,   7661,  -6113,   2948,   -320,   1036,  -4397,   7985,  -2321,   4560,  -9218,  -3446,   2315,  -6640,  -5423,   4554,   7480,    168,  -5466,  -2991,   -122,   3482,  -6574,   2920,  -4535,  -5936,  -3481,  -4850,  -2712,   -789,   8985,   1955,   3519,   1537,  -5725,  -4123,   3192,   7541,  -6270,  -8056,   5498,  -3133,  -6440,   5811,  -8049,  -8521,  -4229,  -3331,   2970,  -3693,  -6676,  -3198,  -1506,  -5935,    674,   1864,   8204,   -119,   2202,  -6055,   -709,   6809,  -8123,  -6299,  -3355,   4531,  -3362,   -658,   7452,   2304,   3531,  -2336,   2848,     -2,  -5639,  -3930,    203,   -986,  -5003,   6956,  -2629,   -697,  -8495,  -3704,  -2513,   1545,  -5537,  -3530,   6043,   4053,   2446,  -2315,  -5542,  -5992,   2065,  -6238,   2852,  -1359,   1827,  -4570,  -4605,  -4509,    652,   7961,  -3449,   6185,  -3093,
