#include "Mnist_coefficient.hpp"
using namespace dl;

namespace Mnist_coefficient
{
    const static __attribute__((aligned(16))) int16_t statefulpartitionedcall_sequential_conv2d_biasadd_filter_element[] = {
        -20289,  10447,  25396,  22616, -19954,  -7463,   2812, -15458, -16512,   -310, -18193,  25073, -17335,  16344,   3445,   9758,   5512,  -6827, -11959,  21454, -20562,  14527, -22939,  24576,  18715,  -1291,   7642,  17848,   8274,  23910, -16336, -23211,  -6592, -20414,  17722, -17410,  11074,   7739,   8680, -10075,  -5732, -22771,  -5646,  -9894,   3420, -10530,  -4052,  16153,    262,  16539,  11380,  22416,   5916, -10069,  24547, -23751, -23476,  15557,  12595,  -1049, -24606,  23501,  -5491, -14175,  -9021,   7850,  13893,  18430, -18265,   4955, -15101,   -395,   5949,  13991,  -6982,   7001,  10248,   3080, -15503, -11492, -22220,  17173,  -7187,  -8654,  -8436,   4010,  -6586,  -7905,   3332,  17646,  22806,   9128, -20837, -16993,  13774,   -876,  11252, -13624,   6101, -14861,  14183,  -2122, -19614,  15901,  -9080,   3442,  18646, -20585,  -9618,  -4043,   4131,  -5287, -19125,  -7354, -21491,  19557, -19313,  18080,  25860,  -3573,  20019,   7592,  19381,  -7079,   4696, -22166, -21408,  -2696,   4007, -19618,   2340,   3875,  20139,  -9762,   3053,  -7822, -13373,   -316,  29032,   4194,  -7857,   8469,  17817,   2860,  -3574, -15038,  21531,  20839,  20518,  13635,   3435,  -9034, -11208, -17308,  -6945,  14703,  -4652, -15835,  19619, -15051,  -8894, -17857, -19932,   3195, -20166, -24908,    238,  18507,    611,   1064, -10751,  -1325, -15359,   5148,  18128,  11519,  -7474,  17817,  12950,  -5333,   4040,  -9196, -14004, -24019,  18877,  15036,  18227, -12018,  20117,   1849,   3497,  22733,  -9733,   8252,  -1148, -16100,  -5779,  16292,  -1254,  15864,  -4863,  13455, -12566,  13886,  15722,  17623,  -1022,  -2529, -15427,  16667, -20448, -22604,  10777, -12404, -18443,  23885,  17725,   -892,   9546,  -2990,  -5336,   4732,  -2291,  16088, -21197, -15958,  21621,  16725,   2992,  -2452, -17017, -23609,  12023,  15626,  16665,  17622,  -5169,   -268,  -8519,  15848,  -1861, -23698,  11359,  11233, -22227,  22082,  25002,   8099,  -1350, -19911,  21053,  14801,     37,  -2258,  22702,  20072,  23265,   -584,  -9174, -20162,  11798, -22674,   5999, -14926, -23753,   -977,  17175,  10966, -12540,  -3583,  11307, -20976,   8315,  -8754,  -8909, -13696,  18391,  14103, -28391, -15899,  10417, -19488, -13446,  10369, -13457, -22941,  22375,  22594, -14115, -21069, -27685,  20366,   6207,  23920,   9050,  14589,  -6236,   -813,  13659,   6422,  10270,   3631,   9529, -16633,  -4652,  18440,  10813,   6307,   1957,   1585,  19202, -10425,  18608, -23724,  -2800,  -1824,   8381,   9474, -13183,  15486,  15643,  17556, -20894,   9756,  22149,  10979,  13538, -25387,   2196,  -3416,  14562,   5081,  -1280, -17097,  15648,    146,  -9420,   2551,  15885,   9765,  -3107,   6833,  -8984, -12449, -10979, -16988,  -5823,  -8592, -20185, -23275,  16111,  20928, -19087,  -1232, -19245,  -1728, -12432,  -3641,   8368,  11367,  -5752,  -9595,  -6801,  -4041,   7727, -16492,  -2772,  -1124, -10551, -13426,  12360,  17073,    689, -16313,  12093, -13499, -10740,  16198,  -4030, -20169,    727,  17277, -17229,  -4461,  18814, -12252,  -5230,  24618,  16195, -11073, -22279,  12579,  -2612,  -9297,  -3457,   3100,  16658, -17338, -14629,    581, -15786,  13980,   4713,  16943,   -506,  21864,   8154,  -9960, -16982,  16117,  -6444,  -3569,  15479,  -3622, -20853, -22213,   8204, -22586,  19938, -18724, -10214,  21635,  -4756, -27074,   5089,   2794, -11322, -23089,   5896,  11459,  13030,  -1399};

    const static Filter<int16_t> statefulpartitionedcall_sequential_conv2d_biasadd_filter(statefulpartitionedcall_sequential_conv2d_biasadd_filter_element, -17, {3, 3, 3, 16}, {1, 1});
    const Filter<int16_t> *get_statefulpartitionedcall_sequential_conv2d_biasadd_filter()
    {
    	return &statefulpartitionedcall_sequential_conv2d_biasadd_filter;
    }

    const static __attribute__((aligned(16))) int16_t statefulpartitionedcall_sequential_conv2d_biasadd_bias_element[] = {
            -1,     18,      1,      2,      6,      4,      2,      2,      4,      1,     12,     -4,     -1,      0,     -3,      1};

    const static Bias<int16_t> statefulpartitionedcall_sequential_conv2d_biasadd_bias(statefulpartitionedcall_sequential_conv2d_biasadd_bias_element, -7, {16,});
    const Bias<int16_t> *get_statefulpartitionedcall_sequential_conv2d_biasadd_bias()
    {
    	return &statefulpartitionedcall_sequential_conv2d_biasadd_bias;
    }

    const static Activation<int16_t> statefulpartitionedcall_sequential_conv2d_biasadd_activation(ReLU);
    const Activation<int16_t> *get_statefulpartitionedcall_sequential_conv2d_biasadd_activation()
    {
    	return &statefulpartitionedcall_sequential_conv2d_biasadd_activation;
    }

    const static __attribute__((aligned(16))) int16_t statefulpartitionedcall_sequential_conv2d_1_biasadd_filter_element[] = {
          7432,   5141,  -4189,  -2300,  -4015,  -2163,  -4950,  -6579,   5983,   8807,   2302,  -2718,   4238,   8059,   5717,  -5380,  -8961,  -6462,  -9032,   4114,  -8042,   8016,  -3795,  -4583,   -244,   4878,  -7189,   4815,  -6045,   7851, -10583,   1099,  -2203,   5244,   7500,   7861,  -1332,   3423,   5918,    314,  -5332,  -4957,  -7602,  -3852,   2567,   -855,  -9364,  -5196,   -478,  -6037,   5426,  -6586,  -6070,   4964,   6760,   3175,    -38,  -7209,   2471,    822,    638,  -6697,   7697,   5386,   5848, -12936,  -4399,  -3124,  -4010,   5412,  -2199,  -7032,   4521,  -2047, -10394,   7397,   1513,  -1397,  -3783,   9048,   4976, -14260,  -4247,   6064,   2954,   9548,  -1424,  -9409,   -813,   2119,   2548,  -5971,     11,   2809,   2954,   1945,    505,   1600,   1126,   5577, -10244,  -2623,  -3314,   -446,  -1711,  -5756,  -2431,  -8611,  -5501,   -121,    751,   -204,   7617,    689,    487,  -2552,  -6635,  -4890,  -8841,   -749,  -4151,  -8332,  -9403,   4874,   6872,  -2661,    515,  -3176,   1834,  -8816,  -9086,  -1483,  -8231,  -3419,   3446,  -5625,  -2760,  -9580,   -860,  -2259,  -5301,    434,   4653,   3096,   1211,   -184,  -1071,    359,   3813,  -1573,   9044,    584,  -1272,   7115,  11142,   8025,  -1147,   2076,  -5863,  -6282,   3056,  -8294,   3197,  -4977,   1989,  -6505,   5895,   6612,   9336,   3597,  -5054,    718,  -1993,   1257,   3512,  -5212,   6168,   8234,  -1268,  -7645,  -3047,   3372,   5018,   4169,  -5645,    486,  -8804,   7313,   9855,  -1827,   7473,  -8410,  -5384,   7801,  -1457,  -5669,   5631,  -4677,   2999,   3057,   -534,  -8077,  -3645,   1060,   -409,   9146,  -5790,  -3290,   3536,   5952,   1051,   8660,   2448,   6094,     46,  -6358,  -8423,  -9319,  -4535,  -4687,  -2029,  -5096,   4718,  -3132,   7316,   2739,   5083,  -8989,  -4043,   6806,   8769,   7072,   -846,   3328,   1704,   5198,    232,  -7969,  -3748,   3861,  -9204,   9058,  -4892,   7363,  -8581,  -1195,   9908, -10208,   1622,  -3736,   2756,   7988,  -5438,   8338,  -1396,   6909,   5418,   5387,    770,    712,  -8430,  -9180,   2143,   5953,  -3293,  -1784,   1630,  -6698,   6909,  -4874,   -468,  -5557,   3869,   4703,   4553,  -7992,  -9288,  -7054,  -3485,   4431,   7647,   6078,   5754,   1738,  -6097,   6292,   4037,   6233,  -2204,  -6757,   8989,   4421,   -158,   5326,   5184,  -8505,  -3678,  -2728,    856,  -5089,    840,  -1916,    372,    708,  -8169,   8807,    203,   3082,  -3329,  10062,  -8367,    739,   5319,   1436,    576,   8596,   1870,  -5358,  -3083,   7337,   8173,  -7500,   4512,  -4077,  -1073,  -6182,  -6907,    920,   5538,   1316,  -7516,   5325,   6703,   1510,   3242,   4489,   6254,  -9983,  -7705,  -5530,  10372,   1080,     41,   8717,  -1847,   5583,  -3494,   2473,  -2730,  -7644,   7505,   3674,  -2424,  -2312,   4637,  -3058,    551,  -6619,    622,  -1360,   9113,  -7171,    593,  -3553,   -865,   4476,  -6835,  -7497,   3457,  -1433,   8341,  -4138,    -57,  -2026,   7535,   8119,  -6272,   8721,  -7139,   3430,   7972,  -9506,   7326,  -6035,  -3410,  -5769,   6997,  -5964,  -5698,   3803,   -328,   5047,  -2533,   9364, -10396,   8827,   -128,   3375, -10203,   7934,  -2039, -13671,  -6922,   8429,   6479,  11191,   2551,  -6134,  -1797,    480,    350,   -782,   2492,    255,   3786,  -5593,   4882,  -8497,  -7220,   8171,   3648,  -1613,  -5229,  -6171,   5322,  -5706,   5814,  -8653,   -127,   1649,    344,   4521,  -7962,  -3586,   2116,  -1434,   4509,   2480,   1029,    848,  -2470,  -5104,   5212,   4600,   4183,  -1500, -10112,  -9159,   2492,   4543,   8399,   7575,   2313,   6016,  -8789,  -6162,   8874,  -4701, -11210,  -6615,  -7482,  -9178,   1121,  -1482,   2902,  -8359,   1191,    -72,   -881,  -6701,  10254,  -4674,   7412,  -5431,    791,  -2502,   4903,  -4036,   1793,  -1559,   7042,   3773,  -3800,   4093,   6551,   4851,  -2908,   2774,  -9609,  -6427,   -540,   3768,    -81,  -7562,  -1633,  -3594,    495,  -2393,   6220,   2987,   1176,   2466,  -8069,   5305,   1423,  -6371,  -5224,  -8311,    742,   1421,   -585,  -1764,
          5627,  -7779,  -1822,   -950,   2013,   2818,  -3560,   7625,  -7433,   3103,  -7674,  -9583,   9711,    -41,   8441,   -367,   5332,  -1534,   3245,  -7054,  -2607,  10040, -12598,   -741,  -2233,   8049,   1887,   4633,   2867,   3549,   3654,   6523,   3512,   5903,  -8778, -10155,   6584,   2875, -11542,   3171,   3580,   8208,   7017,   2033,   6758,  -1425,   3857,   4280,  -4143,  -3515,   7988,   7647,  12885,   5790,  -3186,  -3287,  -7459,   1764,   8179,   5264,  -4419,    315,   7118,  -1599,    664,  -8372,   1898,   7652,  -5288,  -1452,  -2999,  -1253,   4431,  -7705,    872,   5674,   3540,   6004,   6544,  -9573,   2022,  -6793,   6313,   8903,    954,   3003,    248,     83,   1621,   4262,  -5013,   -921,  -3680,   3020,   3068,  -5958,  -1354,  -3372,  -3634,  -6658,   2915,  -2725,   8856,   7916,  -8103,  -8842,  -1707,   1068,   7172,   9164,   5788,  -8097,  -8620,   6508,  -5974,   7081,  -6244,   4020,   1578,  -1774,   8284,  -3375,   2905,   6387,  -8467,   -282,   2348,   1503,   5534,  -1759,  -7410,  -8162,  -1791,  -6443,  -2436,   4140,  -5259,   4823,   -320,  -6719,   7779,   4636,  -5552,   3469,   6726,   -649,   8016,  -3232,   4061,  -5000,   3602,   -855,    497,   6496,   -997,   8151,   3095,  -7754,   3608,  -3826,   3248,   7136,  -1737,   7837,   -329,   2332,  -7882,  -5221,   -276,   -204,   -164,  -8765,   -127,  -7499,   3397,  -2179,   9781,  -6751,  -7683,  -7504,   7229,    906,  -5387,  -1864,  -2333,  -1747,   1975,   4255,   -175,   5584,  10250,  -3689,  -8427,   7147,   7246,  -7167,  -7181,     45,  -1988,   4008,  -6599,   8948,   2555,   1425,    588,  -2949,  -6855,   8609,    503,  -4569,  -8817,   5548,   7859,  -7653,  -1389,   6295,   5027,  -3243,   7216,   2283,  -5119,   8203,    903,    492,   3052,    468,  -7253,  -7154,  -6934,    652,   1387,   2416,     48,    213,  -1904,   -667,   8299,  -7159,   9344,  -6377,  -1095,  11814,   1738,  -2017,   1859,   2325,  -6988,   -470,   3190,   5643,   7594,   2100,   7484,  -5926,    485,   -882,  -4749,   -291,   2373,  -6235,   -470,  -9732,    135,  -5066,   8290,  -9401,   2151,   1634,  -3228,   4488,  -4399,   8601,   -521,    174,    934,  -3593,  -1161,   1482,   7149,  -6909,   7397,  -7631,  -8486,   9765,  -8690, -12224,   8113,  12443,   5268,   -873,   9235,   4197,     81,   4036,   6987,   6159,  -7747,  -6050,  -3007,   -451,  -7699,    649,   5658,   6385,   6155,   3841,   2442,   7936,   3209,  -9470,  -5077,  -1576,   4054,   6146,   6081,   4338,    596,  -2313,  -5981,   1341,   3580,   5160,   -230,  -7771,   3207, -13514,   7130,   1009,   6677,   2517,  -1553,  -2460,   4716,  -2884,   8516,  10519,   1134,  -3805,  -7191,  -4287,   1332,  -9391,   3582,   8026,   7322,   6864, -12243,  -6386,   2012,   3918,  -2513,     16,  -2398,  -1845,   4102,   3451, -15934,  -7175,  -3511,   8348,   5690,   9151,   9167,   8818,   2556, -10126,  -4100,   3515,    725,   -180,   4414,   -545, -10010,    -27,   5351,  -4324,   7879,   -651,   9366,    993,   -917,  -1404,   3394,   3445,  -5219, -11885,  -4698,    393,  -3744,   4134,  -2586,  -8671,   4857,  -3009,   8348,  -8812,  -8259,   2243,   3230,   9053,   9378,  -9671,  -5991,  -5297, -10003,   2816,  -4510,   7667,   3126,  -2785,   6807,   3649,   2911,    805,  -5977,  -4005,  -5529,   -999,   -224,  -9629, -10122,   -607,  -4901,   -985,  -7089,  -3168,   -362,   9436,   5545,   6528,  -6377,   8224,  -5308,  -2748,   -816,  -5635,      2,  -2941,   4968,   1058,  -7388,   6503,    707,   9437,  -6484,    721,   5200,   7111,  -5971,  10606,   6932,  -7329,  -7100,  -6709,   1766,   -759,  -7252,   6550,  -5396,  -6890,   1744,   6298,   5803,  -8518,   9862,   5204,   -315,   4830,  10494,   8318,   1245,   2904,   -737,  -6443,   4752,   4811,  -1914,   3332,   6725,   1399,  -4124,   -963, -10047,  -1824,   2316,  -3914,  -2268,  -5030,  -6918,  -8104,  -1707,  -7429,   -972,   9359,   7162,  -3497,   5864, -10140,  -3844,   -636,  -3444,   2985,  -7248,   4227,   8158,   3562,  -3863,   8404,  -6130,   8147,  -2693,  10594,
          2968,  -2652,   4431,  -3752,  -3579,   4662,  -3378,   8084,  -4791,   3533,   6600,  -9554,   5516,   1001,   4406,  -2223,    386,   3854,   4233,   1673,     73,   9850, -13374,  -3732,   8592,   2474,  -1414,  -8950,   1468,   8666, -11465,  -1595,   1146,   6718,  -2761,  -7164,  -8200,  -3355,  -1425,   5816,  -6428,   5689,  -9088,  -6629,   4945,  -5757,  -1640,  -2082,   1537,  10359,   7881,  -5342,  -8186,   2133,   4868,   3366,  -7123,   5559,  -8871,   7123,   4639,  -8771,   9821,  -2100,  -5296,  -3293,   1776,   -545,   4056,   8700,  -3497,   -831,   2325,   5426,   8544,  -8795,    862,  -3457,   7222,  -4869,  -9534,   4109,  -1621,   6506,   4060,   6312,   -562,   2576,  -3916,  -3353,  -9630,  -7449,   1912,    -74,  -8413,   -673, -10178,  -5200,   5282,   6100,  -3565,   3074,  -6315,    750,  -1610,   -928,   8532,   5687,  -5087,  -3502,  -2767,   3455,  -3521,  -9635,   2494,  -1649,   1739,  -9790,   1213,   1522,  -8435,  -8597,   6575,  -2020,  -3404,  -7618,   6499,  -9007,  -9092,   1728,   2891,  -5887,   8892,   6730,  -4272,   5187,  -1779,  -8715,   5218,   4949,   9161,  -3446,  -7156,  -9461,   -987,  -3202,    817,   7222,    335,  -6410,  -4992,   8504,  -3981,  -3864,   7281,   4145,   2115,   4705,   9980,  -9494,  -8630,    946,   1605,  -3579,   2393, -11254,  -7185,  -5232,   3880,   7024,    542,   4274,  -6007,  -8329,  -1807,  -6577,   3281,   6733,   2305,  -6837,  -3051,   4413,   3163,   5549,    230,   7478,   9417,  -7636,  -8246,  -7709,  -4167,   5673,  -9618,  -8590,   3541,   4285,  -2336,   5877,   9481,  -8273,  -8577,   2580,   1248,  -4216,  -4238,  -8043,   8762,  -6496,   -104,   2973,   4907,   7358,   9905,    159,  -8554,   7236,   4295,   1299,   1574,  -5905,   1435,  -7730,   8188,   5540,  -6739,   3869,   -501,  -7620,   5981,   7307,  -5428,   5787,   8675,   9456,  -3672,  -2272,  -1693,   5126,  -4098,    304,   5656,   3895,  -9669,   5602,   7519,   8951,  -5963,   3879,   4995,  -4073,   -646,   2802,  -7413,   3055,    890,  -3802,  -8950,   -710,  -5223,  -2942,   -160,  -3270,  -4297,  -6064,   3014,   3217,  -4778,  -2323,   -405,   7294,   6603,    518,  -1844,   1380,  -9790,  -9472,   4078,   1288,  -3767,  -1183,   8038,  -8532,  -2120,  -8370,   5925,  -8053,  -6398,  -1804,  -5857,   3933,  -2403,  -5991,  -4704,  -7283,   7745,   1618,   6912,   7753,  -9202,     31,  -1562,    501,   6800,   3485,  -7078,   8200,   6392,    122,   -866,  -6519,  -1222,   1241,    291,  -1187,   -330,  -8255,  -7135,  -6421,   7771,    133,  -3621,  -5058,  -5964,   6310,  -6189,   -753,  -5344,   7038,  -6923,  -4285,   5054,   4498,  -2841,   4937,  -5975,   2277,  -4376,   7014,  -2225,   4156,   2644,   1464,  -7615,   7107,  -5898,   2564,  -3434,   8097,    487,  -4887,   -614,   4828,  -4654,  -1897,   6255,  -9837,  -5462,    549,  -7497,  -2381,   4897,  -8278,    -31,  -9158,  -2359,   2074,   6388,   9381,  -5531,  -6192,   1261,   5882,  -8748,   2117,  -6475,   2934,   6460,   3765,  -6438,  -1980,  -3796,  -8319,   4226,  -1845,  -3888,   6490,  -6927, -10925,  -5128,  -5170,   4497,   6080,  -9341,  -8684,  -4777,  -9822,   8440,  -3700,   1084,  -7892,   3033,   8370,   3197,   -238,    -23,   5266,   4950,   8233,  -6648,   2032,  -6657,  -2363,   1724,  -5178,   9009,   7385,   3656,   2669,  -2856,   -962,  -2942, -12219,   8917,  -8930,    354,  -6483,  -6530,   1630,  -4088,    584,   8835,    815,   2239,   2111,  -6803,  -2821,  -1832,   5718,  -6737,   5514,   4329,  -3402,   5321,  -1887,   4174,   8214,   8529,  -6987,  -1503,   8732,  -5240,   2443,   2169, -11317,   5649,  -3766,  -1127,  -3830,   5049,   8474,   2471,   1849,  -1507,  -8273,  -5469,   3889,   7038,  -4239,   2434,   6843,   6825,  -8295,   5673,  -2108,  -6009,  -4896,  -3311,  -3725,   5857,   5680,  -5211,  -4313,  -7136,   6909,   1008,   5011,  -3148,    108,  -3185,  -1849,   5850,   3882,   9518,  -8683,  -7272,   3388,  -4825,   6021,    -49,  -2396,   4709,  -5732,   -588,  -2935,  -1336,   6330,   3795,   5612,  -1701,   4869,  -4948,  -8232,
          7380,    623,    632,  -6308,  -1464,   8047,  -4984,   5191,  -3303,   1868,  -7477,   7537,    868,   4051,   3169,  -5840,  -8970,   -422,   -367,   8154,   -502,  -8215,  -4389,   6030,  -5210,  -8257,  -3295,   4671,  -7595,  -3464,  -6009,  -4514,  -1005,  -4076,  -5373,  -8226,   5826,  -2686,  -3968,   3928,  -8756,   8459,  -2804,    903,  -5542,  -7285,  -8240,   5404,  -8609,  -5423,  -4360,   3295,   3783,   -284,  12163,   5394,  -1977,   -344,  -4372,  -7177,   7108,  -7700,   5441,   1247,  -3456,  -4392,  -7147,   5847,   5059,  10089,   4364,   1752,   5882,  -2606,   7264,  -1452,  -6547,  -5309,   1061,   1921,   7280,  12375,  -4996,   7823,  17142,   8193,  -4084,  -2699,   9274,   6524,  10652,  -5369,  -3371,   7546,   2100,  -5366,  -3537,   3702,  -4028,  -5554,   4971,  -8874,   4335,  -7719,  -7525,  -3360,  -3965,   1454,  -5015,  -4021,   2605,  -1154,   7682,   1195,  -1393,  -4161,   3561,   7951,  -2036,   2885,    381,   6190,  -6074,    259,    628,  -7021,  -4732,  -4163,   -311,  14302,   2432,  -4544,   4069,  -3382,  -7794,  -6228,   9109,  -9445,  -3695,  -8498,  -3389,   1057,   4051,   2362,   9768,  -8620,  -5287,  11468,   7680,   7377,   5747,   3283,   5324,   7235,   1458,  -5959,   4904,  -6931,   7974,   6434,   5238,  -1467,   8696,  -3911,   3041,   -496,   4025,   5320,  -1590,  -3618,   2835,   1422,  -1697,  -6921, -10423,   8373,  -3773,   -989,  -3498,  -5188,   3056,   2674,   1917,   8223,  -6335,    422,  -4267,   8167,  -6788,  -1688,  -7914,   7817,   8009,  -8215,  -5164,  -5002, -11688,   -536,  -4834,  -5824,   4815,   1857,  -3348,  -5292,   3152,   7466,   6652,  -8560,  -9726,   2868,  -4249,  -9133,   9692,   7576,  -1401,   9259,  -7930,   6436,  -4764,   -774,   4156,   9529,   4006,  -1657,  -3995,  -6549,   7709,   6856,  -6788,   8300,   3536,   6930,  -1682,  -6974,   1840,  -1837,  -2639,  -5848,  -6081,  -1620,   3772,   5966,   5636,   -892,    681,   5675,   5525,  -3923,   3595,   7754,  14788,  -9287,  -8418,   6262,  -1987,   3980,  -3777,  -1157,  -7233,  -2697,  -4096,   -596,  -7788,  -1463,  -1689,  -5003,  -3883,  -7524,   -412,   3821,   4365,   3525,  -9269,   4624,   5537,    642,   9967,  -2123,   2354,  -1685,   1861,  -1581,   8825,  -2557,     -6,  -1197,  -4498,  -7220,  -5600,   4861,  -5587,   -403,   5091, -10411,   1461,   1912,  -6790,  -6138,   5388,   7811,  -7629,  -7202,  -6002,  -7370,   5410,  -7011,   2164,  -2042,   7292,   -518,  -4573,   6778,   8404,   4841,  -2764,   7027,  -2539,  -4960,  -1750,  -5789,   2939,   5921,  -2450,   8637,   7857,  -3039,  -6653,    809,   2002,   5315,  -2097,   6415,   3140,   9439,  -2914,   6487,  -3939,  -1770,   7204,   2106,   5865,  -6447, -10036,     96,  -3649,  -6029,  -8201,  -7499,  -9891,  -7102,  -8006,   5916,  -5462,  12311,   -999,  -2667,  -3353,     48,  -8603,  -1416,   1637,   -806,   6188,   5451,   7519,   5323,   2622,   1975,   1342,  11187,   1523,  -5202,    207, -10506,   1901,   8461,   4531,   3427,   5510,  -3447,   3581,  -7811,   3181,  -6889,   1769,   8037,  -8144,   4001,  -9271,   2867,   7654,   7395,  -2651,   9814,  -4119,  -2222,  -3627,   1768,   5253,  -6158,   9778,  -5271,   5111,   8546,  -2825,  -5569,   9332,  -1051,  -6149,   2475,   6637,   8313,   4648,  -1312,   4008,  -7882,   2958,  -3802,   1228,  -3350,   6032,  -7471,  -7782,  -6430,  -5396,   3191,   6835,   -959,   5626,   7544,  -2548,  -6284,   7076,   4513,  -7820,   3479,  -3869,  -6121,  -4009,  -6187,  -1493,  -8697,   4381,  -9779,   4296,   5516,   7841,   7900,  -9045,  -1041,   5399,  -2571, -13113,   3930,   6870,   1681,   2800,  -3739,   5339,  -3218,   5976,  -5769,  -2233,   5017,   3533,   7096,   -280,   1363,  -4663, -10411,   4410,  -4654,  -4280,   5845,  -6027,  -1069,  -8575,   7505,  -8614,  -7478,   -699,  -4405,   3292,  -1722,  -7852,  -4567,   2079,  -3057,   4601,   -760,  -2787,  -2612,  -2086,    -11,  -4473,  -4169,   2821,   2021,   4157,  -6801, -10552,   3929,   3705,  -3371,  -8158,   6678,   4379,   5603,   7977,  -7691,   4306,  -2879,
         -4068,  -4110,  -7783,   6333,   1688,  -5414,   3925,   2003,   4585,    523,  -4094,   2787,   6952,  -3142,  -4255,  -4325,   7921,   8519,  -7822,   3762,   1033,   4676,  -9897,  -7492,  -6289,  -7411,   1222,  -5389,   -304,   2700,  -8972,   4060,  -2459,    546,  -4924,  -3066, -10840,   4336,  -6046,  -8464,   5089,  -9615,  -4568,   3113,  -8482,   4006,    342,  -3278,  -8247, -10741,  -3141,  -1204,   2419,  -4042,   2202,  -1196,   -600,  -3337,  -6200,   5593,   5638,   5830,   -918,   4796,    711,   8288,  -8663,  -7586,  -3992,   4677,   8826,   4699,  -3255,  -6834,   9202,   7371,  -6380,   2694,  -8167,  -5294,  -8682,  -3616,  -8431,  -3494,   1697,  11426,  -7454,  -5321,   5570,   2202,  -3945,  -2794,   3509,  -1376,   1362,  -5716,  -3019,  -7931,   4925,  -5597,   -870,   3111,  -2752,  -2404,   -283,  -8512,  -8029,  -6036,   6702,   1287,   6813,   3402,  -8534,  10669,  -4371,  11378,   2473,  10039,   2478,  -1226,   6120,   5059,  -3932,  -1703,    673,  10573,   6790,  -5128,  -3917,  -2884,   5695,   -571,   1602,   2522,  -3707,  -9311,  -2374,  -6669,   -915,  -7706,   2710,   8696,    289,   1597,  -6864,   7346,  -2743,   7595,  12949,  10172,  -8151,   6744,  -9799,   2582,   4422,  -1713,    701,  -1297,   7913,  -3853,  10006,   -932,  -4342,   -241,  10409,   5048,   1766,   6471,  -7407,  -3826,   5050,  -7847,  -7432,  -1443,   7956,  -4500,   8424,  -3062,   1853,  -4221,   3302,   1791,   9341, -12054,   6858,  -7099,  11361,   7407, -10196,  -6152,   1756, -11335,  -8612,  -4058,   6436,   3552,    667,   8762,  -8900,  -5116,   6458,  -5092,  10757,   5951,   2289,  -8220,   2940,  -7821,  -6809,  10217,  -6658,   8398,  -5726,   2232,   3469,  -1232,   -267,   3647,   7583,  -5694,  -4928,  -3159,  -1124,  -7882,  -1476,   7028,  -9729,   8533,   7629,   5141,  -3761,  -6016,  -3380,  -4069,   -294,   2271,  -7982,     63,  -6456,  -7963,  -1115,   6308,   4376,  -1715,   7862,   -444,  -6538,  -4435,  -6044,   9658,   4686,  -9734,  -1165,  -4800,   4664,     -7};

    const static Filter<int16_t> statefulpartitionedcall_sequential_conv2d_1_biasadd_filter(statefulpartitionedcall_sequential_conv2d_1_biasadd_filter_element, -16, {3, 3, 16, 16}, {1, 1});
    const Filter<int16_t> *get_statefulpartitionedcall_sequential_conv2d_1_biasadd_filter()
    {
    	return &statefulpartitionedcall_sequential_conv2d_1_biasadd_filter;
    }

    const static __attribute__((aligned(16))) int16_t statefulpartitionedcall_sequential_conv2d_1_biasadd_bias_element[] = {
            -4,      9,     -5,    -10,     -4,      3,    -10,      4,      4,     -5,     -4,      5,     -3,     10,     -2,     20};

    const static Bias<int16_t> statefulpartitionedcall_sequential_conv2d_1_biasadd_bias(statefulpartitionedcall_sequential_conv2d_1_biasadd_bias_element, -8, {16,});
    const Bias<int16_t> *get_statefulpartitionedcall_sequential_conv2d_1_biasadd_bias()
    {
    	return &statefulpartitionedcall_sequential_conv2d_1_biasadd_bias;
    }

    const static Activation<int16_t> statefulpartitionedcall_sequential_conv2d_1_biasadd_activation(ReLU);
    const Activation<int16_t> *get_statefulpartitionedcall_sequential_conv2d_1_biasadd_activation()
    {
    	return &statefulpartitionedcall_sequential_conv2d_1_biasadd_activation;
    }

    const static __attribute__((aligned(16))) int16_t statefulpartitionedcall_sequential_conv2d_2_biasadd_filter_element[] = {
          1322, -12497,  17981,  -3142,  14694, -13992,  -9183,  16456,  15577,   9656,  -1554,  12168, -16955,  10970,   4509,   5448,   8053,  -4973,  -3447,  13606,   4030,  10006, -11545, -12502,    -85,   -770, -12681,  -7573,   8514,   3110,  -3126, -13925, -15481,  12592,  -6185, -19624,  -4775,  -6468, -13692,   -997,   6452,   8855,  -5497,  14235,  -6053,  13550,   7433,  -9880, -12208,  -5597,   1012, -14668,  -2150,  -1312,  -1648,  15451, -17358,  11027,  12275,   3409,  -3553,  -8428,  -8608,   -541,  13796,  -1534, -13931, -15810, -13081,  -2873,  -3273,  12236,  16487,   -922,  -8793,  -7229,   6022, -10874,  -7767, -17819,   9383,   2871, -14249,  -3237,  -9195,  10872,   4322, -12363,    885,  -5034,    981,  11014,  -9952, -16829,  10780, -12784,  -2997, -14615,   6355, -16766, -18035,    444,  -1324,  -2637, -13312,   -449,  18524,  -8520, -10346, -11302,   1658, -11888, -19682, -11284, -15510,  -2686,  15810,  17005,   8169,  18758,  17412, -13463,  -4602, -17669,  11162, -14551,   3399, -16554,   1790, -16742,  -9209,  11240,   2125,   9528,   6149,  18585,  15199, -18948,   2936,  14789,  -8808, -19730,  17411,   6383, -13985,   3457,  16931, -17830,   1725,   1471,  16056, -12568,  -7095,   6009,   4402,  -3956,   8154,   5339, -12693,  -8180,   5382,   6941, -10335,  -6209,  -8632, -11884,   9819,  16697, -14050, -17452,  -6841, -12465,  18347,  13105,  -1975,  -9224,   5353,  -4679, -14424,  20431,   9768, -14468,   5072,  -9679,   8947,  11422,  16860,   2311,  -9886,    145, -15059,  16276,   7679,  14556, -18184,  -8268,   9303,  -8961,   3173,  12650,   -410,  -5390,   4948,   7707, -13594,   5162, -13125,  21017,   5920,  -4234,  -4330, -16406,   6890, -18828, -13697,   -278, -13472,  13519,  -8956,  12020, -12331, -16353,    900,   -968,  -7714,   4298,  -6472,   7601,   8810, -19315,  -2997, -13835, -17322,  13737,  -7112,   6063, -11554,   6858, -12445,  -9276,   2577,  -9997,  -4347,   8345,   4621,  13941,   6611,  -4814,  -2835, -17560,  -7726,   6817,  17132, -16632,   9900,  11551,  13198, -17759, -19468, -10034,  12206,   -128,  -8998, -10399,  -4655,  -3398,   7132,   6984, -16944,  -1219, -14778,  -8526, -11590,    537,  -8722, -12000,  -4524, -15214,   8377,  18076,  -9834,  12203,   -819,  -9863,  -3122,   6144,  10638,   8018, -15499, -10537, -15651,  -3847,  10406,   3580,  -1346,  15484,  -4399,   6906,   4450,  -3567,  11551,   9551, -13157, -15817,   4567, -16756,   3331, -18446, -19137,  -4099,  -5124, -11600, -18033,  -4596,   -539,    162,  -4058,  14160,  -6111,   1507, -18630,  -4318, -17667, -16560,   4371, -11415,  -4225,  16732,   4262,  16654,   -659, -15944, -17126,  -5452,  13875, -14228,  -4723, -10345,  -2600,  -5571,  14838,  15442,   1718,   8123, -18939,   -429, -18893,   4305,   9049,   8360,  -8903,   2688,  -2451,  -3855,   7066,  -3158,   -579,   5100,  -1950,    -61, -18262, -10201,  -4190, -10477,   7436,  13622,   4567,    813,   6296,  16610,  -9572, -20299, -14286, -19609,  11799,   5582,  12406, -14647,  14881,  -3383,  -7167,   7092, -13216,  -8252,   3469, -16492,   3194,  16674,   6656,   7998, -14874,  -1676, -12251, -15279, -15721, -12763,   1807,  14651,  -5506,   4523,  17956,  -8759,   -795,  -8542,  12976,  -7360, -10456,  -9098,   8982,   5997,   4355,  17197,   4186, -17476,  16877,   2367,  11480,   -946, -16326, -12783,   7180, -19353, -13635,   6961,  -5077, -14987,  -3104, -15027,  11096,   2392, -19505,   2020, -15583,  -5442, -19052, -15906, -10750,    222,   2341,   9368, -10776,   4590, -20230,   5951,  14713,   2010,  24662,   8981,  -8904, -12060,   1482, -10764,  -5767,   9305, -13023,  -6320,   4277,  10469, -16575,   -265,   6094,   -332, -14090,  -7624,   5580,   1964,  18425,   1212, -10076,   8646,  18410, -15050,  10890,  -5346, -24686, -20524,   2880, -17642,   3975,    347, -17643, -18955,  16505,   5004,  -6854, -12338, -10457,  -9389,  18350,  19048,  -4944,   6237,  19901,  18464,   2588,  17970,   3577,   5069, -20269,  12808,   1633,  15923,    -57,  -6475,   1663,  12277,  -4757, -15082,  11973, -13404,  -7851,  12709,
         10048, -18795,  -4064,   9583, -17280,  -6803,   3242,    984,  13505,   6208,    508,   4123,  -6199,  -1843,  -7686, -15033, -15933, -19399,   8698,   7575,   7637,   9658,  -7549, -17138,  15482,   9306,  17804,  19059,   8434, -15198,   4888,  -9497,   6227, -13566, -12402, -17383,  -6669, -15801,   6060,  -7730,   1687,   5048, -13702, -14116,   4980,   3360,  -7861, -13045, -13051,  -2961, -22481,  10534,  23707,  11619,  -2588, -14559, -15835,    859,   3056,   3402, -20424,   8775,  10243, -19290,  11100,  -4694,  -8568,   4695,  -4225,  11982,   3519,   6337, -14652,   8965, -16924, -19805,  -5697,  -6730,   5533,  -7654, -11539,  -4415,  15164,   6952, -12428,  -5932,    754,   7205,   7866,  -8626,  -7670,   3821,  -7003, -13346,  -8149, -22021, -12712,  14244,   2483,  -8365,  -5925,  13886,   8297,  -4877,  11250,  12310, -12748,  -2627,  -5214,   6396, -17134, -15766,  -4237,   1241,  -3100, -16953,  13355,  -4855,  -6439,  -7389,   7764, -11278, -10122, -23906, -12656, -20361,  -8387,  -3711,  11027,   4927,  15020,   8318,  14229, -11419,   6577,  -8025,   1425,  -4493,   8260, -17422,  14183, -15565, -17857,  12502,   3383, -11839,  16972, -13203,   4258,   4197,  14765,  13062,  -7446,   3008,   5269,  -6395,  -5334,   4733,  10422,   3285,  15312, -11761,  15957,  -6798,  -8869, -17287,  -1585,  -9711, -15545, -16727,  -7020,   7189, -19931,  16530, -10111,   8435, -12775,  -7887,  -4487,   3254, -18597,  10662,  -5550,   9412,  -3616, -15230,  -7067,  -4025,   8859,   1126, -14618, -12860,  12882, -11118,  -7149,     11,  -2384,  -4134,  13996,   4103,  12577,  -5923, -11817,  12867,   7181,   9638, -17489, -13801,  18560, -10399,  10717,  -7641,  16009,  -5784,   7245,   2573,  -8296,  -2393,   1590, -10063,   -873,   6044,    209,    332,  14296,  16846, -14025,  17794,  15445,  -5341,   4846,   -377,  -6703,  -5192, -16976,  -1363,   9998,  25015,  10056, -11856,  -3941,   5337,  -9713,  -7500,  -7855,     14, -10796,  16057,   3268,  17167, -18629,    980,  -3492,  19884, -20524,  -4701,  17948,   4706,  10850,   6675, -11466,   1250,  18548,    491,    132,  -5807,  -9720,  -1324,  21179,  -8626, -11975,  -9053,  22820, -10944, -13010,   5370,  -6682,  -1258,  13369,   7267,  19819,   7910, -11108, -18029, -11156,  -5699,  -1814,   9637,  17896,   3765,    784,  -4962,  -2527,  -9017,   3004,  -3613,  -1820,   2789,    878, -23158,  -2172,   8408, -22929,   8676,   1222, -10809,  -3016,  -8198,  20125,   7186,  16402,  11088, -27871,  12653,   9791,  -5240, -11510, -14444,   2245, -17674,  -6034,  11809,   9569, -18801,   7841,   9369,  -5990,   1252, -15912,  11164,  -3860,  23732, -16252, -21199,   9007, -16681,  -6236,  -7561,   4009,  10440,   5406,    927,   4193,  13500,  -6152,  -5251,   2294,   7842, -26345, -21198, -18508, -14145,  12810, -22955,   -379,   9304,  -7366,   6484, -19224, -15977,  -3580,   9365,  -4671,  16437,  13141, -18876, -18630,  12628,   6309,  -8302,  -6855,   4522,   5588,  -3432,   3402,  17647,  -8299,  16442,   1755,  15784,  10628, -14191,   3853, -14475, -14775,   6482,  10216, -12586,    372,   9055,  -8230,   7260,  -4978, -18331,   5327,   -487, -20932,  20320,  -8250, -11620,  15970, -10256, -12466,    221,  -4645,  -2550, -18255, -14598,  13140,  -5910, -18867,   2210, -10590, -17368, -19852, -19888,   4520,   1897,  -7281,     15,   3420, -23049,   1204,  -1851,   6135,   7466, -18047,  14297,  11163,   -866,  14526,  12307, -15727,  -8883,   3370,  -3410, -19443,  -8067,   6090, -18179,  -4749, -11931, -14100, -10347,  11926,  13026,   4088, -16218,   8176,   9989, -20803, -12964, -25078, -17636,  11717,  -9990,   2031,  17780,  -8096,   7857, -12281, -15856,  12297, -16613, -14134,   -976, -18296, -11822,    250,  -6285, -15102,  -9997,   5855,   8121,  -9165,  -3444, -11867, -20450, -11906,  -5528,  12486, -20783,  -8392,  -4752,   9958, -22510,  10312,  18449,  -9612, -18412,  -9787,  17507,  -2296,  12716,   -298,   9915,  15174,  -6366,   3675, -11167,  10568,   -596,   8836,  -8581, -14916,  -8982,   8372,  -3357,  -7218,   7081,   8515,  13431,
         10841,  -4578,  17712,   2177, -13237,   8334, -19691,  10647,  12803, -12071,  -1422,   2336, -12647, -10212,  -3489,   -783, -13852,  -1322, -16465,  -4710, -20019, -15971,  -8374, -14098, -11822,   1241,  14580,   8242, -16726,  -1500,  11894,   3460,   3369,   7271,    849, -10773,   7927,  15508,   1540,  -2236,  -2922,   3627, -14083,  11336,  -5846,   6804,  -2769, -18087,  14359,  -5672,  17239, -19410, -14763,  11732,  -7805,  -6424,  -5265,   7642,   3052,  11589, -12397,  -3619,  17608, -16640,   -518,  -5670, -13589,  16313, -15675,      8,  -4061, -16992, -11537, -16390,  14908,   3411,  -1830,  -5781,  11315,   -529, -18481,   6629,  -7155,   3972, -12147, -17798,  16486,  -3404,  -3115,  11854,  -5348,  -6211,   3500,   9622, -17736,  -6940, -18503,    281, -12292, -14703,  13976, -18873, -13060,  -9943,  11762,  16359,  14713,  16414,  11833,   8272,  -3705,   4316, -20164, -16078, -13800,  -6149, -10208,  16245,    -72,  -1059, -15565, -14628,  16200,   5038,  14626,  -2098,   3467,  -4751, -17140,   3711, -15091,  -5374,  -2835,   1909,  12262,   4622,   3873,   4128, -17442, -16614,   4176,  11384,  -6006,   8999,  13017,   2125,   8079,  13829,   3937, -15369,   2996,  -6970,   5853,  12026,   1788,    876,  -9009,  -6881,  10006,  15869,    897,  -1572,   -215, -19011,  17697, -18182,  12390,  -3428,  12637, -16287,    902, -15391,  10310, -19936,  -2741, -12629,  12166, -11124,   5085,  -9529, -19185, -17861, -13058,    614,   6218,   2270,  10283,  -9086,  -9056,   9463,   -789, -11900,    781,  15809,   1622,   4567,  11124, -13770,  10572,   7730,   5479, -13697, -11168,  -8509,   9832,  -8899,  -6264,  -3120,   -260,  18050,  -4329,   5040,  12360, -13159,   3356,   2666,  -8098,  18140,   -612,  12521,  12061, -20632,    645,  -1168,   9181,  -8476,   7635,  11134,  15818,  14352,  -3107,   8467,  10300,   6292,  10624,  -5293,   9416, -11922, -18672,  25668,   6841,   8502,   1424,   3262,   -517, -12083,   3638,  13289,  14364, -10571, -17132,  -3424,  12368,   7526,    676,   7404, -11249,  -8062, -13013, -10575,   2084, -11578,  -5070, -16076, -13844,   2286,   8029,   7306,  14342,  -5792,   4952,   1368,  -6459, -18681,   3453,  -7490,   5064, -17280,   3268, -12319,   1853,  14910, -10979,  20149, -11620,   8822,  10640,  11511,   1925,   1908,  -4518,  -6096,  -7468, -12842,   1488,  13387, -10395,   6870,  14075,  12658, -11691,  11720, -16327,    629,    796,  -5392,  -2531, -11363,   1724,  -9993,   9638,  15808, -11576,  -7679,  -3824,  -6923,   9356,  -5400,  16588,  10296,  -8917, -11904, -16998, -13385,   8175,  15157,  -3197,   2474,   4281,   5908,   8545,   9729,  -4251,   9107,  -7570,   9282, -19514, -14217,  -7139, -15680,  -4453,   2572, -16479,   9422, -18429,  -9998,  -3336,  16242,   3347, -11987,   9356,  11467,  14058,   9501, -13482,  -7476,   5586,   4251,  -9448,  18586, -12680,   7089,   -292,   6475,  19462,  -9274,  -7075,   8461,  11933,   6470, -11765, -18789,  -8838,  15167,  12475,   5619,  12617,  11189,  11079,  -1970,   3761,  12026,  -9990,   1698,  12240,  -3636,  -6033,  -7866, -22477,  -6794,  -7693,  -1370,  13780,   -301,  -2085,  -6072,  -7347,   3805,  13122,   1365, -19257, -17093, -14392,  -7588,  11951, -12764,   9297,  -9666, -16546,  11459, -24710, -11057,  -4651, -11833, -15439,  23451,   2325, -18613,  -7047,   9230,   8716, -11916,  11853,   4574,  -6773,   -862,  -2031,   4392,  12258,   7575,   9621,   9703, -20465, -18332, -14497,  13108,  10395,  -4247,  12142, -17543,   1967,  14388, -18696,   1146, -16819,  -7055,  -1607,   7860,   6828,  -4377,  -7196, -10755,   -614,   7202,  -4438,    254, -12796,  18441,  -1397,   4456, -17081,   4691, -18490,   2712,  -2721, -10647, -13993, -12044,  14391,  -5950,   9259,  -2960,  -9662, -10692,  -9752,  12448,   1835,   5694,  14920,   5554,   1301, -13892,   1581,   9511,   2426, -11229,  14147,  18863, -12974,  17020, -14944,   3018,  -9281,    169,  -2422, -22177,  16559, -17764,  -4271,   4005,  -5266,   2354,  14995,  13329, -11910, -11813, -18939,  14410,   2598,   3780,  -8075,  10229,
        -13060,   5101, -19070, -11679, -12955,   6720,   8399, -13099,   -351,   7417,    421,  -9187,  -6102, -13353,   2475,  -1597, -16751,  -2008,   -972,  -1182,   2063,  -4202,   5900,  11356, -15675, -10092, -21414, -20289,  -3901,  13880,   1666,  -2378, -14711,  12366, -10316,   9621,  -1698,  -6994,  -3327,  17782,  10612,    932,  -2157,  -7158,  15994,   -526,  -8219, -11317, -10229,   9213, -19158,  12079,  -7253,  -5084,  13836,  14401, -17348,  15661,  13728,  -2124,  16831,  -1859,   8805,  10479, -10037, -12053,  -1650, -12973,  -8743, -17003,  11822,   4202,  11046,  17290, -17142,  -9164,  -4627,  -7673,  -7276,  -4010,  -7628, -17474,   5528, -21349,   4498,   6553,  -1795,  10936,    200,     64,   2569,   2769,  -3479,   8553,  15729,  14060,  -3167,  11119,   7778,  -9852, -17967, -18308, -18802,   6407,  -5386,   6173,   6773, -12927,  10062,  -4489,   5094,  12317,  14003,   5545, -11264,  -1641,  12706,   9423,  16678,   4268,  -4355,  -3382,  17259, -21388,  12604,  11932,   6106, -10688, -12579,   1937,   9073,   -822, -12781, -14162,   9824,   4250,   1995,  -7587,     40,   9555,  12802, -16437,  -4514,  18517, -17702,  -7462,   3869,  -8773,   9983,   5737,    766,   5966,  15793,   9982, -15012, -19995,   2020,  20718,   7815,   1314,  -1318, -15351,   7770, -14141, -10610, -16061,   9424,   7212, -16368,  -8376,    -49,   4956,  14141,  18926,   5495,  14317,    115,  -1724,  10316,  10157, -15330,  -4891, -16634,  -6663,   3866,   7078,  -6121,  11686, -10972,  18124,  -8292,   -182,   8982,  -9717,  -7538,  -6414, -17171,  -6350,  12131,  11041,   1168,  13579, -13299,  -1584, -13196,   5465,  12490,   4611,  -1499,  12941,   6387,  -9262,   3482,  11510, -15521,  16937,    435, -13655,   6543,  11652, -15585, -14047,    560, -17257,  12590,  -1126,   3206,  -4562, -15089, -15694, -15175,   3064,  -2236, -10181, -18943,   -158,   9843, -18462,   6594, -13746,  -2253,   5648,  15227,  11375,  -7722,  12953,  -9974,  17826,  -9772,  12306,  16420,  -9362,  -7978,  13479, -14811,  16116,  11606,  10470, -10881, -22148, -10183,  -2960,  -2809,   5283, -12823,  -8060, -10454,  18826, -18703,  -2119, -15019,  -3402, -12848,   -695, -16183,  -8800, -13432,  15250,  -2163, -10509,   5131,  -6597, -13190,  -9122, -16524,   3611,   1546,  17909,  -5932,  11299,  -6617, -17262,  -1998,  14530,  14701,   3488,   7215,  -9949,  -5266, -21087,   2642,  -3553,  16192, -15856,   3728, -12723, -10781,  -9174,  -2046,  12001,  -1385,   9955,   8608,  14492, -12074,    711,   2333,  -7228,  -1680, -15346,   3245,  15554, -17777,  15120,   2580,   -876,  -6355, -15413,   9420,  19044,  -4196,  -7756,  -7241,   -545,  -3273, -25294, -14535,  12225,  -2817,   1884, -10715, -15200, -12146, -16077,   3881, -10269,   6334, -17458,   5156,   8693,   -681,   4812,  10145,  10511,   7004,  -5487,  -6197,   3707,  -8463, -21607,   5249,   9227,   6231,    -40,  11729,   9410,   9630,  -8194, -13320,   5706, -11336, -15441, -20744,  -9969, -18002, -15231, -13187,  18133, -16876,   8774,  11633, -19785,  -2844,  -2915,  -3968, -17573,  -2507,   -253,  17409, -10636,   1755,   7221,  -4692,  14947,   7866,  12664,   4890,     46,  -5563, -14502, -11618,   1081, -11432,   1413, -17857, -14684,   -686,   8917, -10066,   5525,  -6679,  -3822,  -6844, -17371,  -9934,  -3507,  -4225,  -5665,  11730,  -6649, -15161,  -8630,   3092, -20820,  -6791,  -4589, -16867,  -4209,   4410,  17673, -16774,   7840,   1699,  -8381,  13402,   1994,  -4575,   7891,  16388,  15008,  14565,   7533,   3655,   1585,   8416,    927, -17075, -20717,   4800, -12286, -15184,   2878,   -955,  -2867,  -9784,   4526,  -7080,  10008, -10167,  -9776,  -2802,  15378,  17753,   3806, -17826,  -7934,  11586, -15534,  10080, -16164,   6353,  -9841,   7329,    503,  -8145,  -1689,  12329,  -5879,  15201,  -3248,  15419,   1740,  -3561,  -4347,  -7224, -16092,  -7810,   5148,   8613, -10958, -14985,   9539, -14944, -16915, -14184,  -3373,  14295, -10500,  -6037,  -5604,  -2055,   -852,  -5938,  -2604,   2566,  -3407, -16693,   3560, -17271,  -5054, -14646,  14732,
         -8729,   1544,  -3428,   9327, -15611, -17201, -12785,  13958, -11362,  13114,  -4198,  -1547,  -2343, -19822,  12289, -16310,   4868,   1585,  -6873,  -7803,   6210, -16980,  12406, -14485,    420,  -2176,  -7382,  -8615,   9273, -14572,  14478, -17718,  16606,  13741, -14625,   8777, -15509, -13732,   8407, -11542,  10290,   3761,  10400,  -8954,   8977, -16136,   -912, -15167,  -3727,   1961,   9048,  13194, -12025,   8696,  -6961,  12901,   3664,  -4354,   6112, -11353,  -3151, -13761,  11674, -12694,   3035, -19111,  -5455,  -9466,  -2624,  13634,  16922, -14695,  -8642,  -2166,  17287, -18638, -20765,  12495,  16235,  11269,  14190,  -4224,  -2112,   8036,  -5664,  13713, -14918,   2900, -18510,   2854,  -1577, -18920,   5629,   8982,  -8163,  16425,   5371,  14182, -12612,   8335,   6725,   -417,  -2992,   6852,  -5083,   8753,   5595,   6837,  -6151,  -4332, -11704, -12068,     99, -14329,  16931,   5554,   4277, -17211,  -6539,  13317,  17535,  12499,   2795,   3497,  -6623,  -2754,   7577,   8513,  -1939,  15281, -12727, -20496,  -3850, -16754,  13896,   1374,  -6002, -14741,  -9413, -10245, -18284,   4703,  17577, -12616,  -8451,  11360, -15971, -18038, -11855,   3627,   3501, -18816,   2079,   7880,   -811,  -3098,   7146, -14275,  16230,   4970, -12218,  15161,     -6,  -6532,   9134,   7218,  -1664, -16134,    901,  -6736, -14600, -11827, -10675,  10265,  11595,    116,  13155,  17206, -10421,  -1145,  10282, -14367,   1592,  -8250, -20812,  18031,  16193,  13134,  -4669, -21776,  -4879,   3118,  12522,  -9469,  11016,   5812, -18924, -10151,  -9518,    872,  -9521,  15812,   7007,  16803,  12406,   6977,  -2978,  14471,  14231, -17536,  -3539,  11955,  10286,  -4087,   6678,  13510, -11903,  11566,  -5780, -30183, -17010,   8342, -12073,  -3659,  -5685, -10607,   6941,  14159,   4579, -12958,  11990,  11085,  14024, -13876, -15049,   6360,  -3355,  -4049,  -8318,   2475, -18558,  -9135, -19645,   7476,  -1357,  16947,  -1175,    106,  10436,  17821,  10161,  -1615,  -6182,  -1378,   4231,   5822};

    const static Filter<int16_t> statefulpartitionedcall_sequential_conv2d_2_biasadd_filter(statefulpartitionedcall_sequential_conv2d_2_biasadd_filter_element, -17, {3, 3, 16, 16}, {1, 1});
    const Filter<int16_t> *get_statefulpartitionedcall_sequential_conv2d_2_biasadd_filter()
    {
    	return &statefulpartitionedcall_sequential_conv2d_2_biasadd_filter;
    }

    const static __attribute__((aligned(16))) int16_t statefulpartitionedcall_sequential_conv2d_2_biasadd_bias_element[] = {
           -13,     95,    -16,     33,    -12,    -47,    -40,     -9,      9,      5,      2,     -2,     80,    -26,    -13,     -7};

    const static Bias<int16_t> statefulpartitionedcall_sequential_conv2d_2_biasadd_bias(statefulpartitionedcall_sequential_conv2d_2_biasadd_bias_element, -10, {16,});
    const Bias<int16_t> *get_statefulpartitionedcall_sequential_conv2d_2_biasadd_bias()
    {
    	return &statefulpartitionedcall_sequential_conv2d_2_biasadd_bias;
    }

    const static Activation<int16_t> statefulpartitionedcall_sequential_conv2d_2_biasadd_activation(ReLU);
    const Activation<int16_t> *get_statefulpartitionedcall_sequential_conv2d_2_biasadd_activation()
    {
    	return &statefulpartitionedcall_sequential_conv2d_2_biasadd_activation;
    }

    const static __attribute__((aligned(16))) int16_t statefulpartitionedcall_sequential_conv2d_3_biasadd_filter_element[] = {
        -16268,  17872,    788,  14141,   4777,  -1232, -14948,  16752, -14325, -12784,  11357,   4112,   9286, -11498, -17813, -16954,   9015,  14591,   -586, -11619,  10529, -10608, -16880, -13767,  13086,  11424,    -72, -16179,  -3254, -13008,  -5910,  -9338,   5043, -13763,  -1329,   1174, -17600,  -3185,   1267, -12727,  -3067, -17842,  -9936, -13828, -16314, -12911,   4853,   7266,   9215,   5444,  -2086,  -3419,  -9587,  -5906,  -6477,   4933,   7427, -18893, -14727,   6132,   8559,  -8399,   8400,   8129,  13195,   4327, -11910,  -4280,   -916, -18999,  -3764,   2087,  -5430,   7079,   8425, -13381,  13183,  -4882,   1687,  13298,  11915, -12512,  12925,  19025, -16925,   6204, -10935,   5208,   1146,  -7267,   3900,  -6175,  -8826,   -994,  -5649, -11902,  -7964,   5695,  -1968, -13237, -14004,  -2867,   6393, -16678, -11947,  -1385, -17412,  -1414,   2070, -20621,     84,   7690,  -6795, -22076,  -2926,  12835,   8903,   4904, -16228,   6933,  -3320,  -5233,  -7071,  -6886,  -7066,   -548,  10564,   8827,   6104,   6302,  -8141, -14962,  12444,  -9125,  18711,  16649, -11241,  13776,  -3191, -12925, -11262, -10040,  -7889,  -5170,  15158,   5261,  -4184, -13050,  16226,  -3728,   3975,  -6534,  12807,  -9152,  -3510,  -6520, -12987,  11298,  14006,    917, -18026,   4483,  -5878,   9021,   7582,   7057, -17567,  17118,   6713, -15095,   -399,   4753,  14444,   1806,   7693,   7024,   4789,  -4807,  -5970, -13081,  -6445,  15016,  11299,  -3724,   -459,  19812,  -5749,  11985,  -1632,  -1446,  11669,   5245,   1047,  -1976,   7170,   7056,  -3144,   4199,   2960,  -3322,   -899,  -2390,  13671, -11960,   6693,  16758,  13433, -10609,  -8591,   1884,  17730,  -6363,  -2178,  -3638,  -3850,  -2168, -18066,   2822,   9032,   -450,   4433,  17900,   -505,  -9459,   8964,  -9184,  14128,   -138,   5811, -14560, -14454,   3876, -19615,  -4974,   2128,   2364, -15884,  -1703, -14334,   5839, -13390, -16071, -14425,  18062,   7315, -14877,   7552, -12893, -10085,  -9552, -12303,  -9657, -18891,   8317,  17058,  15491,    735, -15902,  16509,  -4279,  15467, -17406,  14684,  11852,   8405,   9554, -15295, -15043, -11047,  -3434, -11202, -15907, -18741,   5776, -17145,   1791,  -5484,   7594,  -5486,  16938,  -9674,  17769, -12549,  -4746,   5450,  -6470,   2964, -12047,  14680,  -6786, -10789,   4838,     11, -14734, -16162,   -106,  10636,  -6863,  15161,   9047,  -2762, -16258,  -8987,  10113,   4336,  13127,  13933,  21437,   7007,  -5608,  -3000,  11638, -15158,   2862,   8066,  -5204, -18699,   7535,  12272,  13996, -15130,  12738,  17357,  -7108,   9454,  14032, -15815, -17751,  12064, -15714,   5374,  -4822, -20305,  -3602,  11332, -10198, -12052,  11613,  -5146,   8326,   -714,   7967,  -2364,  -4915,   1691,    866,  11154,  -1635, -23290, -12563,    757,   5513,   1152,  -5490,  -9778,   9723,   5888,   8422, -18773, -12797,   5436,  -6895,  -3056,   7947, -17188,  11436,   -729,   6585,  -2183,  26065,  19103, -17486, -17136,   8039,    685,  -4815,   2660, -16366,   7408,   1235,  -3585,  -2749,  -4002,  -7179,  -5833,  -8733,   1084,  -7719,  -3763,   6060,  -6974, -14645, -19373, -23724,  -4739,  -1567, -20315,    906,   4367,   7235,  -7229,   2419,  -3932,  -5726, -15549, -11441, -19386,  15736,  -4632, -14077,   1777,  17454, -17937,  -9293,    107,   9606,  -6054,   9197, -16203,    737, -17504,  -2996,  10143,   8286,   1256,  -2648, -14479,  -3432,  -9826,   -643,  10729, -10234, -16419, -17551,  16071, -19502, -14729,  16977,  -4529, -17406,  -9590, -15588, -11408, -12798, -13496,  -4136, -10385,  -1576,  14864, -11286,  10775, -21210,  -1750,  -5350,  -7977, -14107,   8402,   6996,  -2225,   6764, -19972,   2780,  15600,  12875,  -7776,   9130,   1955,  -3346,  15980, -17672, -10405,  -1631,  -4292,   9444,  18216, -10761, -15793, -20164, -18639,    935, -15001, -15084, -12509,   4994,  -2659,  14916, -29268, -12972,   4552,   -909,   6746, -10049,  -9867,   9324,  12286, -11601,   3740,     30,  12218,  14299,   2184, -17739,   9971,  10114,   8389,  17097,   8985,  -7479,  -1275,  10910,  -9669, -16838,
        -12598,  -2650,  19070,  -7205, -15321, -11679,  -9003,  13460,  13410, -10227,  -9791,  16657,  -5659,  15882,  -6990, -20203,   7271,  11610,  14234,  16436,  -4081,  -4595,  -1162, -18791,   2846,   2651, -10082,  -5607,   -659,  -8065, -13648,   3830,  -2870, -20616,  16210, -16761,  11842, -13492,  -3991,  -2398, -14628,   4861,  11078,   3168, -13705, -18510, -15975, -10382,  20645,   5669, -11214, -17846, -13480,   4896, -18285,  -9915,  -2396,  10429, -16301, -15662,   1849,    479,  11849, -13126,  19098,  14661,  -4819, -10162,   -787, -25100,   2232,  16306,   5688, -18655,   -307,  14401,  -1929,  -5449, -17552,   9961, -15658,   1705,  -2969,   3179,   1037,  15885,   9265,  11107,  -8084,  19436,  18010, -11693, -20064,  19324,   7126, -17218,   8090,  12933,   3863,   4531,  -6868,   9732,  16136,   3599,  -6512,  19337, -15157,  10982,   -488,   7184,  14319,   6041,  11814,  13882,  -1564,   4320, -13630,   7034,   7685,   8484,   7778,   1656,  12301,   2776,  -6553,  -4021,  12377,   1488, -11176,  15384,   2442,  -4257,  16071, -13047, -15950,  14805,  -6290,   6813, -12738,   2021,  -9786,   -359,   2307, -15773, -11047,   8531,  10721, -15018,    855,   2633,  -9459, -18817,  10077,    437, -14797,   4330,  -6561,  16693, -13412,  12256, -16166,  25499,  -9268,  -7127, -17102,   -825,  -3954,  13325,  12495,   -166,  13702,   -997, -15719, -17272,   6573,  -9884, -11698,  19968,  -7068, -11679,  15080,  10172,  15298,  14347,  -6170,  -8395,   2238,   2570,  -5305, -10398,  -3040,  12615,  -1841,  12073,   -333,  11358, -11338, -27734, -10426,  -1230,   6064, -18512,  15265, -13449, -16259,   5073, -15984,  14050,    275,   3963, -12594,  12568,  -9287,     87,    377,    334,  15632,  -2291,  -1281,  11075,  12791,   7325, -17635,  -2184,   7196, -10762,   5631,  -5998,  17122,   -978,   4725, -16829, -16715,   2038,   2177,  14377, -12540,  12163, -10994,   7461,   9250,  -1921, -15819,  17114,   -651,    901, -11097,  -9066,  13568,  -2454,  -9685,  -3189,  -7548,  11389, -13386,  18033,  -5945,  11613,   8817, -10775, -10881,   1356,  -9838,   4943,  -6496,   8672,   9662, -10026,   6596,   1833,  13744,    374, -16045,  -2265,    198,  -9011, -10671,   2777,  11865, -16692,  -2043,  -1448,   -924,  -1837,   3439, -11249,  -8234,  11253,  13148,   3938, -12680, -11078,  19802,    966,  12654,  -4724,  -3945,  -3788, -10712,   4448,  -5710, -17136,   7737,  18372,   7503,  13065,  -3729,   4626,   3918,   7051,  17095,   9688,   3408,   4715, -14068, -13240,  -8267,   4213,   -907,   8914,  -8273,   5016,  16137,  -6610,  17924,  -1128,  -8712, -16417,  -5462,  -9792, -13176,  17334,   6617,  -5361, -11956,   7178, -18460,  14681, -12850, -16689,   7128,   4714,   8787,  -2963,  -7814,  -4362,   9001,   5492,   7515,  16453,   3259,  -5472,  13376,   5642, -12474,  -9442,  10113, -16110,   9541,   8883, -13875, -20475, -21928,    805,   6898, -16747, -10306,  15189, -12101,   1711,  -4227, -14240,  10738,  13337,  -2378,  14604,  -9026, -19308,   9006,   8611,    820,   5735, -12194,  14449,   9667, -22096,  17373,   2202,   9786,  -1390,  12842,   6360,  -9860,   2589, -19969, -13442, -12506,  -6208,   8075, -15077, -17828,   4208, -11604,   4742,   -660,   8775,   2955,  -9827,  -8728,     41, -19515,   6580,   9203,   7863,   1095,   4793,  -1670, -16306,   6747,  22547,   4865,  -9715,  -7762,  13089, -13687,   1364,  14084, -17744,  10704, -17208,  14749,  11705, -13786,   9649,  -9842,  -2945,   2635,  -8012, -15407,  -4383, -11233, -10194,  12851,  -5279,  16471,  16192,   7750,  -7266,   4337, -18073, -13379,  -7662,  -7106, -16499,  -9943,   2522, -18008,   4615,   -814,  12054,  11052,  -3370,  14514, -13664,   -677,   -973,  -1789,   -174,   7039,  20879,   -890, -18686, -18192,   9930,   4168,  -4936, -18421,  11955,   4809, -17990,   5974,  -8569,  -6514, -20684, -19585,  -5903, -19954, -15343,   5694,  -2050,   -171,  -8186,   4059, -11972,  -8250,   8433,  11963,  -2969, -10762, -22367, -14350, -17893,  -2734,   9442, -20243, -10782,   2521,  13154, -10412,  13813,  13102, -11929,
        -12699,  -8032, -11368,  -1602,    165, -12489, -11485,   8716,  11493,  -8601,  11816,   1036, -18515,   1558,    791,  -2587, -12067,   7990, -19618,  -9947,   7746,  -5826,   7832,  14245,  -1431,  13195,  -9221,  16719,   4263,   5352,  10212,  15687,   2368,  -7046,  -4903, -10567,   -679, -20941,   9741, -16270, -12874, -16172, -11931,  -4805,  -2376,  14895, -14384,  13823,    566, -18497,   2707,  13975,   1004,  19473,  12515,  12165, -19345, -11052, -10930,  16843,  -4923, -15776,   -134,   3146,  -6253,  13281,  -5174,    922, -11007,   3637,   6458,   8287, -16953,  -5127,  15709,   9423,  -7113,  10413,  -2750,   5826,  12053,   8307,  -3597,  14724,   9437,   4013,  18024,  -4993,  -5658,   1634,  17706,    969,   7140,  13800, -14690,  -7530, -20452,  18898, -10078, -18536,   3486, -19878,  -4783,   5051,   8985, -11967,  11279, -10117,   9120,  -8216,    142, -18030,   2378,   8233,   2840, -11328,    326,   4827, -20339,   7337,    657,  -9382,  18462, -17984,  -3095,  -2470,   5826,   6086,   -402,  13180,  17072,  18382, -12224, -17312,  -4736,  13910,  14487,  -2276,   3401,  11802, -17438,   9374,  -4047, -16814,   6434,  16043,   5971,   9216,  -9270, -14648,   9221,   3153, -10484,  15234,   9978,  -3434,  -1040,   4315,   5962,   1452,  -2578,   1246,  19448,  -6666,   3928,  -9104,   7805,  10897,  -5821, -10466,  18984, -14979,  10864,  19152, -10105,  -5039, -17320, -19151, -14877,   3340,  11243, -10606,  -9000,  17148,   9218, -17425,  -6010, -16982, -18532,  17029,  12086,  11538,  10065,  16135,  -8190,   2940, -11953,   5110,   7685,  -6297,  13294,  25632,  17943, -13881,   5172,   -776,   9205,  14513, -18008, -11404,  13675, -15618, -19453,  -3902,  20837, -11006,  -7770,   5308, -11853,  -7213,  -7998,  -3074,   -222,    -80, -12742, -15556,   4887, -14558,  -1244, -15975, -12513,  16308,  10845,   9837, -20068,  17449,  15193,  -9553,   3020,  -3168,   7590,  18622,  11320,  -4305,   3359,   3829,   7436,   2984, -12056,   6500,  -8893,   2935,  -3939,   -152,   6179,   6222, -16272,  16087, -15209,  16539,  10012,  -3084,  16488, -17402, -16362,   6131, -18866,  -5207, -11862,   2433,  13168, -18777, -18153,  -8195,  -3305,  13866,  -4876,  -2652,  -9181, -14464,   9452, -16829,   7099,   2035,  -4210,  -1907,  -6577,  -4524,  13187, -18395, -17415,   2190,  -4921,  -8394,  13773, -13249,   5171, -19713,  -5992,  -3096,  16786,  14174,  -4833,  14771, -15993, -19620, -13127,  13794,  15811,  -6634,   7740, -17570, -15872,  17568,  -3149, -19770,  -1062, -12559,  -8725,  19604, -14639, -22753,  16647,   7451,   8613,  -3146,  24005,  -7284,  -6952, -18659,   1582, -13498,  13190,  -2157,  -4381,  13907,   5278,  15084,  12450,  10999, -19717, -14838,   1349, -18467,  15783, -14717,  -5238,  -5017,  14370,   5860,  -4382,  19753,   8366,  13391,   2825, -17722,  -4307,  -9719,  -2796,   2588,  11232,  15659,  13061, -15389, -18766,   6464,  -1768,  -8559,  -5604,   2161,  11319,  11153,  -1025,   -411,  10622,   7007,  11283,  -4509,  15441, -15888,  -3031,  11961,  16198,  -4577, -14595,  15972,   4727,  -1679,  -8570,   -807,  -9722,  17555,   9065,  -6502, -20917,  16281,  -9685,   6895,  14117,  -1108, -12095,   5369,   8643, -20688, -10103, -11055, -16764, -11386, -17735, -18383,  12980, -18830, -15588, -19364,  -7362,  -3653, -13083,  -7483,   3808,   8394,    677,   1359,   7369,   8663,   7609,  15357,  11601, -11858,   7765,  17259,  15048,  14743, -18207, -14657, -11603,   2123, -16538, -12112,  -7119, -15547,  10909,  -5121,  -9959,   6976,  -1751,  14519,  15821,  -2057,  15555,   -378,   8620,  22735,   -934,  -1836,  -5767, -18972,   -956, -18710,   1791,   7013,   8039, -15255,   7185,  11222,  -2946,  -1760, -18344,  20254, -18418,  -1613, -19871,   9883,  -5906,   2723,  -3299,   7438,   3795,  -1138, -14437,   2567,   4774, -17646,  14752,   7715, -15117,   7322,  -9692, -18420, -15779,  13906,  -5758,  -9420,  -2991,  16853,    963,  -4209, -11639,  -5076,  -3016, -10929,   8097,  -7353,  19124,    688,  12455,  14783,  -2734, -10203,  -3833,   4257,  -4731,  -9554,
         14127, -21757,  12282,   7710, -19495,  -4428, -10956, -12330,  15633,  -5963,  -6707,  11159,  13221,  -9461, -10189, -11227,  -8914,  -5567,  -3917,   1156, -12176, -12396,   5886,   9628,  -6524,  -5135, -13569,   9490,  16964, -17269,  16074,    -13,  10307, -23493,  -2941,  17129,    786,   2993,  10452,  -2487, -16665,   2349,  11479, -15552, -13569,   6379,   6955,   8583,   4904,  -3631, -17145,   -512,   2455,  -5030,   5389, -15555,  14959, -19112,  -6891, -12162,   5560,   3963,  -4152,  12286, -19968, -18993,  15942, -13015,  14444,  -3257,   9265, -13071, -12172,  13630, -13216,   -211,  -7112, -11716,  15038,   6251, -19006,  18303, -18168,   7136,   9233,  -4318,  15692,   4833,  -1786,  -4983,   4060, -14415,   4064,   1141,   2968,   -702,   4792,   4161,  -2862,  -1576,  -3268,  -7840,  -7832,   3642,  -8628,  -9186,  13179,   8949,  -5605, -14290,   1043,   6080,  -2854,  15998,  -3769,  -3595, -12039,  12206,  -4736,  16236,  -5464, -10883, -17193,   9580,   -325,  13789,  -8295, -11629,   1798,   5150,  13628,   9247, -14873,   2093,   3783,    883,   1250,  15738,  11940,  15791,  -9127,   7771,   7599,   1614,  -6411, -13167,  11357,  12688,  -3625, -22359,  -9320,  12480,  12376,  -6909,  -7882, -17851,   3113,  -6398,   9580, -16605, -15299, -17391,   9723, -20205,   6944, -13030,   2728,  -9615,  -1442, -17000, -11323,  14460, -19804,  14295, -12041,  17397,  15518, -15186,  16316,  13902,  15100,  -1649,  -8170,  13862,  -5997,  11714,  -9664,  -6582,  11096,   8542, -12291,   4249, -17554,  -9371,  -9359,  15527, -15242,   8179,  14106,   5542, -19384, -19784,  17648,     29,  13115,  15465,   2982, -15630,  -3407,  -4717,  -2937,   7331,  -7464, -19115,  11710,  -4798,   6356,   8233, -13428,  10806, -21236,  17601,   9333,   9726, -19266,   4960,   3317,  20004, -22069,    671,  -4903, -18746,  -9151,   9069,  16429,  12091,    144,     55,  -2058,   2901, -13335, -21561, -15029, -19735, -11331,  -4490,  -2193,  -1039,  10054,   9800, -13270,   2454, -12889,  15490, -19080,   2659, -20944, -14984, -14916,   6399,   4561,  10427,  14316,  17251,   1446,  -2835,    910,  13493,  -7025,  -5223, -10685, -12043,   1323,   -572,   -504,   -113, -14076,  -9015,   4486,   9761,  10458,  -3207,   5886,  16306,   4496,  12747,  13854, -11546, -11493, -11520,  -4018, -15262,   8553,   9314,   6180, -17975,  14148,   1760,  10743,  -2309,   7034, -10583, -11448, -15535,  -9537,  -2421, -12682,  -4040,  -3640, -12617,  -6638,   7192,   2194,  -2823,     76,  13087,   8223,  13227,   4752,  18511,   7858, -13625,   2466,  13817,  -6351,  -7139,  10291,   3288,   8640,  11471,  14494,  -6314,   7687,  -9560, -16021,  -9375,  -2462,  -7936,  -2271, -12079, -12921,  -3708, -10349, -10350, -13238,   2531,  -7894,   3502,   7725,   3761,   7381,   6556,  10274,   4466, -11381,   9097,   3285, -12975,  11410,   3272,   5280,  -8485, -17759, -17910, -12959,   2401, -16729,  12319,   2909,  -3419,  -4631,  10642, -12874,  -3023,   6194, -11791, -11859, -14669,  -2229,   1714, -11137, -11223,  11683,   6526, -19228, -20686,  20588,  -3135,   3704,   5354, -12891,   7310, -18281, -16734, -14434,  -8212,    991,  -6745,   2747,  14821, -17882, -17817,  17470,  11245,   3843, -12088,   7034,  13755,  16029, -22866,  11256,  12953,  11804,   9157, -13763,   2489,  13033,  -3963,   3771,  -4499,  -8268, -13461,     50, -17045,    484, -11653, -13377, -19586,   6024, -19868,   -894,  -9444,  -2702, -11653,   3430,  10121,  -5976,   -975,   8711,  -5425, -17809,   2304,   9188,  -2679, -15994,   4750, -10136,   1291,  11859,  15023, -14178,  13364, -12615,  -6161, -17757,   6143,  -3757, -20835,  10272,  -9967,   7581,   8443,   4273,  -9580,   5461, -19696, -15745,  -9571, -13389,   7957, -13783,  12991,  -9089, -15572,   2581,  -2577,  11388,  -5683,  14670,  -2723, -22052,  -3303,   9564,  11683,   9827,  -1817,   9974,   6931,  -2575,   3631,  10907,  -4262,  12241,  -2802,  11724, -10474, -12834,   -606,  16706,  -5569,   4185,   2640,  10171, -14917,   6776, -16626, -16947,   1565, -14078,  -3299,  -3516, -10248,
        -13105,  10097,  -7399,  -7628,  -2311,  10329,   6315,  -1131,   7648,   9114, -17428,  -8499,   8922,   3835,   1913,   5469,  13690, -17651, -14784,  -7804,  -2712,   6542,  -1982,  -3629, -13128, -11625,  11383, -16789, -15570,   4874,  17592,   2025,  -4685,  -1466,  11485, -15246,  -9447,   6832,  -5657,   3240, -11558, -19904,  15661,   3527, -19946, -15085, -16194,   -926,   7412, -20272,  14690, -11802,  -5767,  -9548, -19499,  -8269,   1504,   6863,  -7644,  11474,   9539,  -9658,   6991, -17804,  -9250,  15980,  12207,   -934, -20997,   9749,  -2636,   1688,  -9727, -19101, -17155,  14312, -18167,   4846,  18330, -14601,   6999,   1765,  -2002, -11555,  -1171,  -7913, -21742,   5438, -10374,  -9502,  11171,  -6315, -11534,  12456,   1113,   4706,   3795,   2076,   5960,  -7884,  -6613,   8120,    956,   3699,  -5042,   5087,  15047,    375, -10064,  14297, -18253,  -1304,   1144,   6524,  11112,  18219,   2267,  -9722, -16438,  -7092,   5650, -13903,   7401, -14498, -15346,  -4442,  10725,  -8610,   8836,  -3497,  12604,  18634, -11865,   4698,  -3125, -12769, -15444,   -165,  17760, -13152,   -441,  14750, -19146,  12455,  11916, -10253,   7824,  -9690,  -7110,   2950,    315, -18520, -14053,   -202,   4937,  14707,    479,  -5364,   4954,  -3764,  13829,  -6618,   -862,  15312,   1333, -18279,  -4388,  12222, -20935,   8651,   5164,   1674,  -2226,   -776,  12903,  -5917,  14449,  14619,  12895, -10930,  14731, -15047,  -5949,  -1165,  -4195,  -7352, -15739,  -8661,  -1426,   1814,   7668,  14492, -14317,  12049,   7455,  -9494,  -3829,    334,  -1374,  15506,  11308,  -8998,    113,   6881,  -9076,  -8457, -12595, -10048,   7049, -14592,  14908,  -8124,   5782, -16145,  -7846,   9987,   2574,   8481,   -374,  -8691,   7225,  -6905,  18287,    675,  12736,  11437,   9726,      4,   9987,  16098,   8846,  10176,  12467,      4, -16079,   3537, -18322, -13218, -18778,   6245, -14174, -10955,   6722,   4958,    839,  -3239,  11263, -13177,   7355,   9923,   8970,   7079,   9757,  13498,  -7845,   6643};

    const static Filter<int16_t> statefulpartitionedcall_sequential_conv2d_3_biasadd_filter(statefulpartitionedcall_sequential_conv2d_3_biasadd_filter_element, -17, {3, 3, 16, 16}, {1, 1});
    const Filter<int16_t> *get_statefulpartitionedcall_sequential_conv2d_3_biasadd_filter()
    {
    	return &statefulpartitionedcall_sequential_conv2d_3_biasadd_filter;
    }

    const static __attribute__((aligned(16))) int16_t statefulpartitionedcall_sequential_conv2d_3_biasadd_bias_element[] = {
           231,    180,     -7,     26,    -76,   -448,    147,     99,    -36,     -7,    -93,    -79,     -9,    260,   -161,    -66};

    const static Bias<int16_t> statefulpartitionedcall_sequential_conv2d_3_biasadd_bias(statefulpartitionedcall_sequential_conv2d_3_biasadd_bias_element, -12, {16,});
    const Bias<int16_t> *get_statefulpartitionedcall_sequential_conv2d_3_biasadd_bias()
    {
    	return &statefulpartitionedcall_sequential_conv2d_3_biasadd_bias;
    }

    const static Activation<int16_t> statefulpartitionedcall_sequential_conv2d_3_biasadd_activation(ReLU);
    const Activation<int16_t> *get_statefulpartitionedcall_sequential_conv2d_3_biasadd_activation()
    {
    	return &statefulpartitionedcall_sequential_conv2d_3_biasadd_activation;
    }

    const static __attribute__((aligned(16))) int16_t fused_gemm_0_filter_element[] = {
         -5444,  -7542,   8750,    641,   -423,   5322,   -196,  -1217,   1183, -10811,  -6528,  -6020,  -6329,   -362,   5562,    265,   -967,  -2553,  -1084,   5388,  -1131,   -783,  -7491,   1898,   1113,   -462,  -6056,    821,  -1053,  -1842,   3277,   4580,   2538,  -5241,  -1310,   6500,    351,  -3935,  -1023,   1315,    371,  -4930,  -3747,  -6692,  -2498,  -4816,   3707,  -4332,   1672,  -5496,  -1130,  15137,   1667,  -3186,   4480,    362,  -4126,   3345,   -232,  -1886,   3979,  -1420,    686,   3447,  -6382,  -2161,   -318,  15819,   1199,  -3770,  -3537,    413,   3418,   -346,  -1643,  -6660,    247,   3949,  -4526,  -5379,   3682,   3399,  -4570,   7437,   3500,   1376,  -1800,   4542,   3828,   1511,  -1916,  -2654,  -3222,   5176,  -2393,   7570,  -5935,  -5776,   1329,   6376,   3506,  -2219,   4041,  -3669,   3535,   5087,   -829,   4632,   6100,    784,  -6173,   1173,  -2211,   -358,   2369,   3522,  -1028,  -3694,  -1393,   4022,  -4976,   -451,   2446,   4473,  -1039,  -3782,  -3578,   1657,  -6534,  -5192,  -4610,   1482,   2120,   -516,    626,   1940,   1426,  -4491,  -5930,  -3440,  -5798,   2819,  -2359,    341,   4190,  -5619,   3912,  11190,   1276,    430,  -3860,  -3284,  -5528,  -2645,  -7606,  -5000,   4804,  -4087,   -783,   -416,  -6121,   1603,  -2315,    560,   4313,   -657,   1375,   1557,  -4778,   1645,  -6136,  -5318,   5363,   2546,  -7354,   1503,   1032,   3249,  -1113,   7897,   -669,  -4941,   2764,   -883,   1670,  -1730,  -7603,   3474,  -1845,  -2076,    255,  -3035,  -5987,  -1871,    941,   -859,  -1937,  -1023,   -637,    204,  -1125,   -780,  -1187,   -356,  -7043,   2171,    353,   7202,   4128,   -111,   3540,   4866,  -1565,   7045,  -3303,  -4630,   -677,  -9525,  -5776,  -6232,   2295,   3407,  -4227,  -3923,    382,   -714,   -277,   -680,  -3358,   6171,  -7012,   1819,  -6364,   -495,  -4248,   2290,  -3875,  -1913,   3644,  -2783,  -4277,  -6538,  -2855,   1814,  -4043,   7807,   -566,   -219,  -6195,   1094,   5881,  -4007,   1938,  -3135,   1547,   3557,   -692,   2658,   -843,   1813,   2303,   2518,   1790,  -2919,   2401,  -3280,   2957,  -3767,  -4675,  -5284,  -5590,   5205,   -583,    467,  -2673,  -2923,   2500,  -4032,   2005,   2437,   1829,  -4106,    747,   2094,  -5608,  -2168,    -59,   6054,  -3384,   2246,    680,   2307,  -4328,    539,   -914,  -2004,  -3862,  -9654,   3145,  -6112,  -2348,    -76,  -3289,  -1087,  -3448,  -1092,  -6386,    417,   4661,    844,   2373,  -5180,   4761,   -185,   5403,    526,   4155,   2173,   4480,   5867,  -4054,    351, -11230,   -617,   4675,  -5642,  -1315,  -2985,   4895,   5264,   2054,   -503,   1232,   -111,  -4974,   6017,  -5273,   -386,   1256,   2200,  -3595,   3567,  -1595,   3624,  -4731,  -4866,   2123,   3958,  -1166,   3811,   3780,   -579,   4141,   2696,    128,   3400,    422,   8962,    826,   -134,   1462,   2849,   1896,   1859,    118,   4728,  -9091,  -2766,    -21,    292,   5983,   1798,  -2700,   1170,   2977,   3543,   3168,    219,   4099,  -1990,   1317,   1431,   5526,   1524,   4353,  -7171,    755,  -2543,  -4176,   2580,   6613,   1448,   3656,   1819,   2920,  -5686,   4867,   6413,  -3847,  -1657,  -6172,  -8165,  -4397,   9216,  -1315,   2547,   3565,    742,   3513,   3214,  -3000,   -852,  -3898,  -4844,  -8550,  -2312,    -78,  -3597,   2931,   1269,  -3990,    229,   1427,  -2328,    111,   -724,   2376,   -239,  -3439,  -5731,   6374,   2506,  -4288,  -4322,  -2208,   4109,   4585,   -234,  -3596,  -2667,  -3962,   -289,  -4223,    301,   6107,    179,   4345,   1254,  -2522,   1908,   3906,  12423,  -6873,  -5967,    976,    235,   2779,   3625,  -1243,   5896,  -1913,  -4386,   -205,  -1511,   3749,   -825,  -4771,  12383,   6000,  -7012,   3974,  -2843,  -3051,   4669,   1330,  -2593,  -3984,  -2934,  -6060,  -1707,    518,    933,   1009,  10821,   2852,   3152,   -366,   1042,   3024,   6106,  -2644,   3905,   5260,   -550,   -229,   4055,  -1785,  -5374,  -1867,   8622,   4979,   1497,   4561,  -5820,  -5321,  -2622,  -3885,  -5486,   -293,   4172,    -99,   6860,
         -5979,  -1018,   2305,   8446,  -5362,  -6832,  -4470,   -783,    463,  -3266,    256,   3457,  -6542,   4397,  -3847,   1835,  -4967,   -155,   4060,   7838,   4550,  -1387,  -4010,  -2323,   -178,   3779,  -1311,  -3806,  -3859,  -2938,   1604,   3002,  -5979,   4387,  -1685,   7812,  -2283,  -1880,   1626,   -185,  -6291,   -824,  -3781,   2241,  -5148,   3449,  -3608,  -1643,   4455,   4116,   2779,   3691,  -4518,  -1757,   7359,    277,   1409,   2455,   -965,   3971,   -190,   3237,  -6951,    356,   -966,    663,  -1123,   8202,  -5084,   4685,   1301,  -4492,  -6474,  -2149,   2572,  -1279,   -859,   4117,   2711,   3252,   1901,  -4019,  -1117,   6085,   3423,    236,   3380,   2517,   3795,  -3826,   -235,    950,   4387,   2166,   4657,  -8527,   5166,    169,   -568,   7274,   3133,   1891,  -2625,   4374,   3158,   5874,   2993,  -4040,  -3407,  -4370,  -2410,   4046,  -1694,  -2249,  -4832,    980,  -6183,    286,   3440,  -1652,  -3868,  -3984,  -7528,   4651,  -6496,    -20,  -4152,   2460,   4379,   5271, -11068,   1408,  -1653,  -4724,   -977,  -5284,   1664,   2765,  -1195,   1707,    306,  -6350,   2198,  -3322,   -792,   4460,   1398,   1171,   4196,   9639,    650,  -1139,  -4755,  -4197,   -964,  -1622,    821,    677,  -1470,   3566,   2613,  -5115,  -1456,   5588,    789,   -556,  -4717,  -2669,  -1444,   1383,   1641,   5056,   2215,   5544,  -2808,  -2024,   2372,    820,  -8192,   8684,  -4522,    -84,   3810,  -6337,  -3570,   2293,  -5547,  -5881,  -2533,  -2501,  -5724,   1371,   3278,  -4909,  -2562,  -3278,  -6003,  -5575,   -943,   1584,   3461,   -378,   1456,  -6928,  -1081,   -955,   3005,   3322,   1681,   1218,  -3976,  -2124,   3942,   -223,    381,  -6632,  -6916,   3962,   2925,   4265,  -4386,  -5668,   2973,   -585,   5047,   3779,  -3132,   4366,  -1878,   7084,    380,    438,  -5142,   5005,   -939,   3139,  -2777,   3679, -11555,   4121,   3135,   5437,  -2569,  -1649,   5523,   2175,  -1510,  -3710,   3992,  -2630,   1488,   -436,   3808,   -150,   -243,   2390,  -6869,  -5972,   3342,   3828,    596,   -277,   7665,   1800,  -4879,     23,   -570,  -6505,    -34,  -4872,  -3848,   7728,   3832,    249,   1170,   5117,  -4224,  -2229,  -2669,  -4070,    151,  -3532,   6960,  -6127,  -2186,  -1701,    178,  -1775,  -2486,   5484,   5739,   2626,   3186,   6372,  10323,  -1327,  -4200,   3006,   3482,  -5530,  -4588,   7609,   -675,   2871,   6704,  -4766,  -3974,    406,   4450,   4571,   5418,   3891,    770,  -3668,  -1001,  -5373,  -4953,  -3506,  -5021,  -6772,   4109,   5768,   1652,   7717,  -5506,   6672,  -4225,   2054,   3764,  -5463,  -3067,   -136,   -479,  -5472,   5483,   2579,   1280,   -278,   -961,  15525,  -2981,  -1079,   6451,   3055,  -2129,  -2914,  -6129,     99,    447,   4370,   2901,  -5301,  -1501,   1876,  -4918,   7217,  -1270,   3517,   2022,   -191,   2374,   2400,   2459,   1364,   3127,  -4644,   -880,   2438,   2005,  -4079,   3359,  10548,  -1915,   1813,  -3231,   5502,   -986,    218,   2818,  -5696,    814,   3996,   -663,  -3714,   2433,  -3193,    153,   9114,   2591,  -6253,  -1201,   1940,  -4434,  -4660,    955,  -1284,   3527,  -3920,  -2533,   6702,    226,    268,  -7831,   3750,  -3064,  -1494,  -1103,   2427,   -530,   3732,   -511,   2632,   2791,   1163,  -1753,  -2224,   5119,     69,  -1125,   4715,  -3362,   6836,    301,  -2425,   2649,  -3207,  -7895,  -6641,  -4687,     75,   -531,   3337,  -3841,  -3778,    -29,   4260,   1038,  -3870,   5858,  -5483,   1181,   3654,  -5824,  -2073,   5474,  -7357,   -127,   5602,  -4770,   5751,  -7292,    -80,   1857,    726,  -3882,   -556,  -3166,  -1898,  -2474,  -5337,  -4432,  -1054,  -4470,   3183,  -6733,  -4548,   1699,  -4458,   2503,    566,  -4677,    710,   1874,   6731,   2705,   -519,  -4801,    456,  -4641,  -2649,  -6624,  -6503,  -1251,    -95,  -6149,  -5421,   -793,   3900,   1848,  -4032,   2518,   3035,    341,     39,    673,   1136,  -4182,  -3219,   -184,   6470,   5034,  -4681,  -7779,   -448,    694,   5859,  -1658,   1345,  -4106,  -5482,  -3566,  -1387,
          4559,   -111,  -1225,  -1935,  -2627,  -5382,  -3699,  -4714,    311,    158,   4740,   1244,    754,  -6040,  -4802,   3509,   1089,   3074,  -5381,   7911,   5569,   1628,  -3565,  -6481,   -250,  -4304,    613,  -3247,  -2980,    951,  -3238,    810,   2119,  -4060,  -5978,  -1877,  -3743,   4038,  -6411,   3973,   -994,   -206,  -1333,   5417,  -2978,   2556,   1823,   5866,  -1060,    199,  -1648,   4977,   1807,   3084,   -393,    472,  -5325,    544,   1720,    386,   1327,   2048,   5243,  -4596,   4871,   1597,  -3036,    -49,  -1277,   4497,  -4487,  -3364,  -2051,   -994,  -4124,  -6970,   3860,   2292,  -7648,   4804,   3351,  -1320,  -6731,   -872,  -3360,   5470,    135,  -1110,  -1089,   5046,   -966,   4839,  -6448,      3,  -7767,   5254,   2191,  -6468,  -2481,  -4655,  -6086,   4275,   1222,   -454,  -4379,  -4005,  -2425,  -3546,  -7117,  -3179,   2015,   4480,     31,  -7659,  -5182,   5242,   3121,   8819,  -3532,   4616,   5100,   7605,   6487,   1054,  -1630,   1778,  -4004,  -2448,   4092,   4194,  -2950,   2996,   -908,   6242,   3095,  -4858,  -3972,  -3675,    -97,  -3789,  -6841,  -6137,  -5258,    -45,  -5858,  -5453,   -781,   -522,  -1550,   4573,   1922,  -5532,   5017,   4955,   -142,   4530,   1742,  -2451,   -644,   1767,    567,   1468,    359,   5143,  -4422,   5776,  -3978,  -6782,   1226,   -404,   5847,    446,   2351,  -4425,  -6430,  -5804,  -1646,  -2722,  -1625,   8167,   -276,    836,   2133,  -2480,   2038,  -4994,     40,  -5772,  -5432,  -4467,  -3789,    714,   1180,   1613,   5644,   -325,   -973,  -1715,   2080,  -5985,  -2327,   4671,   1238,   4593,   4426,   2178,  -3037,   4526,  -5014,  -3344,   -417,   1249,    802,   2511,    842,  -1088,    620,  -5163,   2420,   2146,   5010,   3203,   1361,  -1723,   3368,  -5133,   1688,   3846,  -3930,  -4468,  -3399,   2845,   4270,  -3656,    651,  -6250,   1309,  -2355,   5826,   2690,    406,    583,   2859,   5236,   1838,  -7057,    803,   -988,    453,   1430,  -1341,  -1178,   1785,   -599,   9323,   1339,   5204,   3792,   -785,   5271,   4226,   -942,    342,  -4717,    384,   2436,  -2646,   5293,   8414,   6242,    172,  -4893,   3217,  -4056,    998,   5066,  -1408,  -1018,     56,   -797,  -5694,   -902,  -1882,   4069,  -1876,   5770,   1310,   3217,   2410,  -3230,  -3549,   1712,  -1078,  -1020,   2890,   2144,   3038,   -465,  -1369,  -1373,    597,   4538,   3436,   1782,  -3797,   3659,  -1551,    191,  -3614,  -1215,   3105,  -6365,    801,  -5766,  -1394,   5184,   1597,   4939,  -4202,   3100,   4203,  -4578,   7828,   8491,   5921,   -768,  -3045,   1213,   -234,  -4159,  -1459,   1929,  -4653,     41,   3873,    529,   5284,  -5746,   -578,   3695,   3662,  -3657,   1256,   1775,   2740,  -1881,  -7081,    502,  -7896,  -4187,    573,  -6339,  -2714,  -3808,   1923,   6283,   -729,    102,  -4556,  -2775,   2659,   6436,  -8287,   5331,  -2045,  -5654,  -4378,  -4979,   3886,   2936,   3740,   3868,  -2464,    516,   1694,   4777,   1316,   1534,  -1716,   3810,  -6726,   -447,   6492,  -4378,  -4836,   1629,   -200,    -56,  -1484,   4252,   2328,  -1561,  -4312,  -2919,   4629,  -6758,  -2699,  -2484,  -3863,  -3126,  -6103,  -4294,  -7565,  -1584,     94,  -3380,   1065,   2638,  -3539,   7027,  -2273,   5421,  -3130,    -80,  -8858,  -2613,  -3582,   1259,  -4862,  -1823,    136,  -7859,  -1338,   -818,    -53,  -3189,    119,    -98,    319,  -1706,  -1286,  -2255,  -5237,    621,  -2453,   2152,    606,  -4955,  -1384,   2970,  -6536,   1491,  -5608,   3880,  -3343,  -4034,   2895,  -4201,  -5985,  -6417,   4878,  -1452,   2513,  -4192,  -5551,   3602,   1562,   7106,  -4141,  -1007,  -1419,   1856,   2863,  -3064,  -1361,  -6096,   -866,   7054,  -5083,   2520,   -285,  -7165,  -3044,  -3551,  -7227,  -6514,  -3527,   1630,  -1950,  -7852,   -191,   -544,  -2342,  -3184,   4675,   3798,  -3283,  -1139,  -1448,   5934,  -2533,  -1047,   3807,  -6024,   3396,  -6713,   -661,  -3217,   3401,   2268,    620,   -420,  -3018,   3221,  -2863,   1433,   -732,  -4997,  -2556,   1396,   2977,   -977,
          3811,   -345,   4073,   3845,  -6382,  -2710,   -617,   3917,  -3858,   3491,     42,  -2316,  -4297,  -7325,  -9309,   -518,   1919,   4290,   2459,   2438,   2331,  -1914,   -986,  -5326,   2380,  -4910,   3426,    -98,  -2923,  -5843,   4634,    532,   2145,   2142,   -118,   4788,    647,  -2538,  -3247,  -2953,   5051,  -3066,  -3891,  -6797,    -50,    550,   2430,  -2342,   1860,  -3751,  -3304,   4457,  -2353,  -2104,  -5398,  -2045,  -5571,  -1502,   6275,   -336,   1626,  -1335,  -2613,   -709,    748,  -6519,  -6990,  -3004,  -3935,  -7060,   2763,  -6646,   4453,  -2683,   1675,   5201,   3961,  -4095,  -8420,  -7151,    659,   2659,   1202,   5723,   2055,  -1993,   1242,   2821,   2469,   1833,   -730,   2456,    541,   2353,   1604,   2165,  -2321,   3371,   2259,   2546,  -3551,  -5303,   3650,  -3211,   2414,   5701,   2124,  -2350,  -1842,  -5160,  -1376,  -5707,   3680,  -4821,   -420,   1378,  -1121,  -4733,   3140,   3891,   2926,  -3938,   2439,   2638,  -1056,   1407,  -7548,    828,  -6758,   4765,   8725,  10076,   4261,   -967,  -5890,  -2877,  -2235,   1073,  -9224,   -160,   2026,   4099,    669,  -1266,  -4502,  -7047,   5574,   1995,   5123,   3439,  -2531,   5393,   2172,   4459,  -6085,   -901,   -210,   -207,   5792,   1487,   4842,  -4300,   5453,  13740,  -1471,    864,   5734,  -4611,  -1272,   3812,     79,  -3096,  -2510,  -2377,  -1752,   2872,  -1208,  -1350,   3697,  15146,   4216,   -400,  -1512,   1635,   1284,   6102,  -1050,   1237,   -753,  -1178,   -493,  -1626,   2068,   -491,   6493,   6338,   -225,  -5666,  -6213,   1097,  -6364,   6648,   3401,  -3039,  -4915,   4831,   4175,   4459,  -5770,   4823,   5918,   3839,   -711,  -3986,  -5171,   2876,  -6359,   -420,    851,  -5536,  -2556,   6245,  10563,    282,  -5389,  -1932,   9604,   3277,  -5310,  -2313,  -5161,   4951,  -2647,    126,   2080,  -3275,   -997,   4862,   -118,  -3561,   4487,   3892,   4725,   3959,   3972,  -3515,   3083,   1079,   -575,  -5752,   1330,    -92,  -2198,   -490,  -1619,  -5317,   1374,  -1989,   5349,   8828,   2473,    798,  -4147,   1591,   1612,   3056,   -928,    398,   1939,  -4430,   7500,  -4012,   -833,  -5897,  -3621,   7630,   4499,   4148,  -6824,    154,  -1804,  -2128,    809,   2900,   3900,     19,   2813,  -8942,   2491,     98,    185,    896,  -5034,  -4828,     27,  -1647,    299,   3793,   7000,   1964,    173,  -3149,  -5069,   1559,  -5356,  -4088,   2031,    880,   4193,   -238,    -10,  -4227,   4520,  -5913,   -459,   3992,  -3159,   -900,  -6245,   3214,  -3380,  -1906,   3208,   3978,   -264,   1522,  -4404,  -4196,  -2621,  -5490,  -1657,   -455,   3694,  -2728,  -5753,  -5851,   2208,  -2610,   8061,   4118,   4526,  -4416,  -4262,  -2843,  -6638,   1107,    868,   4854,  -2948,  -2156,     16,   -264,   -971,   -377,   2464,   -607,  -1032,  -7274,     87,  -5816,   4318,  -3518,   1471,   1477,  -2018,   1158,   6212,    884,  -2978,  -4599,  -4313,   2661,   2864,  -2687,   1164,   1259,    716,  -4853,  -4183,   -499,  -1580,  -1772,   5057,  -3866,  -1631,   1394,  -1424,     97,  -5200,   -935,  -3099,   -429,   -280,  -2020,   6334,  -3615,  -6226,  -3694,   6857,   1529,   1167,  -5308,   8244,   3867,   -725,    -49,   3930,   -268,  -5950,   2843,   -531,  -5898,  -5046,  -3064,   6828,   2732,  -4671,   3000,   -831,   2986,   3727,   -464,   1622,   3514,  -5951,   2581,  -1907,  -6465,  -2426,   4566,   3257,   -634,  -5057,    421,   3641,   3488,   1164,  -3460,   4295,  -3642,  -5688,   5335,   6712,  -2723,  -3838,  -1187,   -508,  -4879,   2740,  -1448,  -1615,  -2062,   4072,   1693,    488,  -1812,   2099,   3631,  -3743,   3683,   1221,   4275,  -3420,  -3218,    431,  -2419,   6416,  -1426,   -322,    755,    815,   3995,  -2989,  -5452,   5661,  -1238,  -9048,   4581,  -1371,  -7519,   2317,   3367,  -3841,   4806,   4368,   2245,   7551,  -3384,    644,   3565,  -3022,   1293,   1463,   5770,  -1663,   1038,   3558,   -767,  -2507,   5917,    577,   -925,   6218,   3151,   2672,  -5454,   3203,   4405,  -3302,  -1496,  -1213,   2472,
          -674,  -2138,  -2148,   5301,  -3666,   4887,   5580,   2104,   -877,   1524,    908,   3280,   2883,   2879,    802,  -1417,  -3770,  -5311,   5370,  -1022,    415,  -1584,   4526,   3904,  -1831,   -566,  -1303,   3923,   4400,  -1173,    420,   3158,   2591,   3321,   7145,  10231,    969,  -3319,  -2251,   1840,  -5643,   -186,  -5850,    -39,  -1002,  -1677,   3928,   1734,    805,   3332,   4496,  12258,   3257,  -3849,    -76,   4855,  -3567,   1216,  -3597,  -2317,  -1525,  -1852,   3224,   2755,   1759,   3083,   6604,   8960,  -2202,  -8773,  -1774,   5457,   2218,   7012,   -562,    763, -11571,   4423,   7494,   1810,   2761,   6033,   5450,   9704,    343,  -3036,  -1979,   -403,   4467,   2715,   4051,   3412,  -4207,   5112,   1010,   3693,  -2417,   2917,   8563,   7499,   5381,  -7622,    249,   1628,    -66,   3047,  -6513,   6189,  -8722,   3891,   3532,  -1578,   1707,   1251,   5229,   1241,   1616,    634,  -3224,   4449,   -431,     85,   4366,  -3594,    -40,   -432,   -352,  -2240,  -4316,   3375,   9000,  12546,  -4185,  -4966,  -4271,   2091,  -5262,  -4556,  -1206,   2481,      8,   3378,    899,  -6472,   2266,  -2492,    923,   2412,  -4690,  -7290,   5908,  -5199,  -6222,   -958,    922,  -6563,  -2727,   3430,  -1655,   -323,   3700,   2863,   -433,  10082,   3268,   2310,   3421,   3659,   3759,   4315,   -144,  -1038,   4277,   5291,  -1166,  -3492,  -6372,  -4966,   1100,  -3030,  -4314,  -2607,  -2373,   2713,  -6207,  -2147,   4935,    953,   3482,   4841,   -734,   3815,  -1072,  -2377,  -4439,  -4324,  -2361,  -7626,  -1375,  -5034,   3350,  -1620,   1667,  -5565,  -2797,    152,   5599,  -3049,  -2787,   2060,  -5417,  -4923,   5294,   5171,  -1511,   -614,    354,  -1892,    149,   -418,  -3161,  -6441,  -3334,  -1072,  -3941,  -4640,   6445,   1736,    -11,   -622,  -3101,   2873,  -3122,   2900,   6424,  -4667,   -295,  -4214,    773,  -4284,  -1009,  -2950,   6029,   1712,   3300,  -1289,   3031,    302,  -2518,   3191,   5088,    920,  -5126,   2213,   2173,  -3487,  -1129,  -4297,     64,    159,  -2740,  -2801,   1929,   1910,   1302,   1726,  -1381,  -1073,  -1867,   3335,  -1112,   4308,    913,   3923,   1051,     54,  -4499,  -2430,   1377,  -6847,    718,    647,   4487,   3730,  -7539,  -5660,   -587,  -2770,    936,  -3707,   2218,   4732,   4821,  -9662,  -2805,  -6244,   5453,   6180,    248,  -4310,  -4420,   3461,   3025,   2396,   4765,  -4232,   1109,   6956,   1342,  -2050,  -3328,    414,  -6282,   7985,   7084,  -3097,  -1353,  -3146,   2461,  -1644,  -4198,   2130,  -1283,    179,    347,   1095,  -1444,    698,   2440,  -4518,  -2733,  -5094,  -4623,  -5200,   2347,  -3592,   -422,  -5071,   -592,   -682,   3557,  -1474,  -1293,   1304,  -4265,   4608,   4947,   3694,  -2645,  -2608,   1150,  -4192,  -5265,   -224,   1786,   6166,  -6742,  -4839,  -1048,  -5497,  -4381,  -2947,  -2026,   2193,  -6684,   2556,   4966,  -1651,  -6223,   5950,   5749,    507,  -4364,  -4814,   -578,  -1680,  -6345,    286,    151,  -1134,  -6242,  -3346,   6083,   1210,   -285,   1491,   1158,  -4730,    516,  -4411,   -602,  -4140,   1560,  -4353,   1801,  -3623,  -6561,   6752,   6170,   1041,   3918,   6323,   4538,   4774,   -114,  -2078,   5775,  -7720,  -3557,   3423,  -5543,   6098, -11349,   3658,   4259,   1049,  -6322,   2845,   1280,   2540,  -1209,   1591,   1904,  -6985,   3985,    677,  -1253,   2547,  -1890,   6354,   7403,  -2770,  -2532,   1004,   2203,   5794,   2479,   2543,    -70,  -3492,   1341,  -3462,  -1847,  -2923,  -4631,   -874,   7082,  -3661,   4616,   -338,   4908,   5953,  -1784,  -7225,   2589,  -2827,   5083,   4390,   -319,    113,     21,   1768,    390,   1280,  -3579,  -4277,   5647,   6082,    530,  -3114,   2321,  -5205,    375,   9424,  -3977,  -2338,  -2042,   3239,    691,  -2032,  -1146,   -905,   6532,   6105,  -2201,  -4161,  -5412,  -1268,   2806,  -1093,   1725,    -22,  -5525,   2476,   1284,  -3656,   -653,   5521,   2929,   6778,  -3381,  -3521,   3086,   2456,  -3658,   3303,  -2415,   1742,  -6718,   1052,  -6558,   -815,
         -6199,   2881,   5302,  13224,   5903,  -1161,    393,  -6135,  -1992,  -4575,  -2968,   3802,  -5154,   4030,     98,    -83,   3422,  -1449,    859,   2386,  -2330,  -5076,  -2703,   4431,   3201,   2648,  -5462,  -2974,  -1086,   3726,    492,   3304,   4787,   1017,   -673,   4791,   1904,   -866,  -2450,  -4252,   3496,   4606,  -1931,  -2230,   6194,   5465,  -1969,  -1209,  -1606,  -5093,  -5509,   9029,  -3203,   4081,  -4941,   4377,   2834,   7818,   5137,  -3931,  -4062,   2831,  -5209,  -2663,   4428,   5638,   2369,  10404,   1853,  -8579,  -2196,  -3546,    457,  -1205,   2677,    128,    -65,   1920,  -2709,  -3130,   2764,  -2040,   -929,  10444,   2345,   -492,   4255,  -4051,  -5705,    242,  -2399,   -349,   1216,  -6316,   -112,  -5306,   4626,    388,    432,    435,   6406,  -7764,   4402,   3320,  -2589,   2096,   1043,  -3735,   1742,  -3635,   3261,  -4721,  -6064,   3933,   4758,    922,  -3530,   -376,   2665,   -772,   3278,   -883,   4858,   2185,   -725,  -1089,   3164,  -2925,  -4738,  -4480,  -2826,    506,  -1241,  -3994,  -3281,   4767,    157,  -2068,  -2526,  -3045,   3880,  -2148,   2530,  -3607,   -313,  -4029,   4828,  -1406,   2968,  -5969,  -1546,   4502,   2844,   2514,  -7296,   1349,  -3625,  -7206,   3341,  -2006,   -716,   2522,   6703,    596,   2515,  -3835,   -482,    474,   2363,   -497,   1321,     44,   2656,  -4745,  -2699,    487,   2742,  -4502,    -22,   3466,   4607,  -7982,  -4213,   1533,    407,  -3223,   3531,  -3110,  -7162,  -4871,   3182,  -2719,  -3228,  -5537,   6227,  12865,   -800,  -2821,   -644,    975,   3585,   -514,   5020,   1321,   -506,   4109,  -2418,   3669,  -1509,   3616,   1614,   2651,   4317,  -4080,  -5481,  -1785,  -5208,   7046,  -4269,   5342,    -45,   1167,   3856,   -265,  -5199,  -4034,  -1271,  11474,   3360,  -3315,  -6430,  -3012,   1744,   1904,    552,   2030,   -507,  -5953,   1045,  -2432,  -5268,   -367,   1657,   2357,  -3788,  -7635,  -1030,  -4577,  -4847,   5494,  -3161,  -1346,    760,   1688,   1416,  -2693,    154,   1623,  -1031,   5621,   2774,   -797,  -2752,   -114,   2612,  -4946,   2473,   5384,  -2383,   -461,  -2054,  -5793,   1179,  -1435,   6498,   3872,   3661,  -7026,  -7823,   -814,    320,   -461,  -3061,   2788, -10644,  -1511,    960,   4234,  -4511,   4812,    503,   2030,   -765,  -9913,  -3299,   3372,  -3572,   5235,  -1788,   -726,  -4000,  -3818,  -5689,   7164,   4470,  -2145,   4256,   5643,    144,    605,   1932,  -1861,   4897,  -5345,   1066,   4134,  -2488,   5321,   -974,  -2574,   2757,   1442,   8132,   4357,    868,  -2288,   4072,   3294,   1753,  -3325,   1636,  -4386,   2283,    363,  -4130,    295,   -842,   5738,    101,   -109,  -1898,  -6196,  -1735,   3038,  -2481,  -2614,  -3433,    980,  -5047,  -2341,  -2076,  -3999,  -4637,  -1836,   1697,  14213,  -3874,  -6322,  -3045,  -5486,  -2779,   -805,  -3363,   -287,   2390,  -5245,   1960,   1539,    569,  -3235,   -948,   5447,    530,  -1588,  -2310,  -4494,   2620,   2141,  -1359,   5490,  -1770,   1231,  -6481,  -2203,   3250,  -3985,  -3338,   4656,  -3738,  -5069,  -2501,   -885,   3716,    -90,  -2337,   1185,    560,   5239,  -9656,  -2329,   5395,  -5651,   -711,   -905,   5807,   1279,   5762,   3751,   2774,   6904,   5973,  -3631,   3659,  -1336,  -5709,   2003,    935,  -2820,  -3462,   -176,  -1434,  -3625,    669,  -1932,   1567,   9152,    954,   5257,  -2364,   1017,   1427,   2165,  -4636,  -2057,   4531,   1837,    -84,  -1488,   3486,   -703,   3810,   4746,   -276,   5079,   2001,    384,  -4593,  -1094,  -2052,   2606,    211,   8310,  -4100,    762,   1234,   1237,  -4532,   4360,  -1697,   3169,  -3312,  -9219,  -3571,    218,   1209,   -760,   3883,   6945,  -4117,  -3311,    668,   1948,  -5454,  -1762,   1834,  -5537,  -2224,  -4371,  -3807,   2836,  -1882,  -5836,  -3292,   5305,   5376,   2458,  -5735,  -5780,   5932,   3332,   2220,  -5519,   2388,   -532,  -7044,  -7197,   3060,  -5232,  -4371,    -90,  -5081,  -5988,  -4680,   2065,  -4841,   1867,  -5139,   3180,    -90,  -4467,  -5447,  -1976,
          1512,    849,   1819,   5100,   5888,  -1044,  -6765,   2450,   3391,   4603,   -798,    705,   3408,   -375,  -1107,  -2502,    942,  -5565,   7265,   2607,   2681,  -2644,  -5861,   3723,   4446,   2323,   5963,  -4251,   2515,  -6804,  -3891,  -6776,   1008,  -6015,   7520,   5982,   5920,  -8267,  -2858,  -2620,   2530,    256,  -1600,  -4131,   -989,  -2190,  -5055,  -2271,   5622,   3728,   2259,  -1337,   1264,  -1588,  -6094,  -3680,  -3678,  -2100,  -1138,    643,    563,   1211,   -278,  -7042,  -4128,   5408,   2657,   1197,   -802,  -5862,  -1174,    451,   1685,   5122,    681,   3064,   2184,  -4671,   5040,  -6100,  -2802,  -4957,   1924,   6974,   2007,  -9242,   -597,  -2330,   2509,    602,  -4968,   4425,   4804,   3615,  -3273,   2329,  -1578,   -499,   5688,   4592,   3426, -10533,   1617,  -1022,  -4434,  -2374,   3832,   5446,   6038,  -1832,    204,  -6177,  -5700,  -5408,   2296,   6292,  -4937,  -2828,  -2202,    137,   5280,  -2433,   5109,   3518,   1538,   1105,  -4184,   1041,  -6542,   -495,   5604,  13811,  -2782,  -2327,   -756,  -3694,  -5451,    360,  -1553,   -295,   2013,   6605,  -2134,  -5302,   4867,   1132,   5777,   9648,   2947,  -1942,  -1104,  -3170,   5300,  -1177,   5232,   1925,   7151,   1363,  -1929,  -5925,  -5219,  -4613,   4343,   7280,   5297,   -304,    282,  -2086,   3223,   3672,   1737,  -2757,   2928,  -3439,  -4858,    291,   5555,    746,   1084,  10987,   2235,  -2598,  -3464,   -573,    321,   1461,   -665,  -3270,  -1387,   7292,   -690,  -1999,    751,  -4710,  -3385,   9376,    880,  -2436,  -4024,  -5922,    653,   6703,   4988,  -3984,   3566,   -225,  -4120,    902,  -6323,    321,    956,   5920,   3805,  -8731,  -1415,    896,  -4302,    184,   5151,    508,   7607,   2812,  -5660,   1078,   3003,   2476,   3153,  13889,   4956,   -838,   1540,   -419,   6081,   8667,   4845,    943,  12666,   3200,  -4353,   6947,   -631,  -1523,  -6992,   7593,   -946,  -1568,   1087,  -3219,   1546,   -456,   8214,  -3226,   8681,  -2722,  -3074,    655,  -1932,   -330,  -1794,   3954,   5127,    -22,  -7599,  -4166,   4765,   6364,  -2262,  -1508,  -3186,  -6137,  -4271,   6589,  -3477,  -1351,  -6179,   2143,  -3710,  -2403,  -6650,   3372,   2840,    189,  -1227,   5836,    472,    783,  -6683,   6937,   2453,  -8032,  -7437,   2204,  -5592,   -333,   1814,  -4238,     28,   3169,   2833,    -90,   7651,   -750, -11078,  10606,   6025,   1380,  -4895,    292,   1829,   2843,   3480,   4064,  -1947,   9832,     68,   4343,   3374,   1900, -10800,   7656,   6591,  -4450,  -9929,   2251,   3241,   2128,   1440,    473,   5773,   4876,   4827,   2918,    658,   3001, -10637,   6611,   2795,   -809,  -4866,   2233,  -4852,  -1915,   4181,    686,   6312,   4382,   6538,   4378,   1323,  -7979,  -9848,   4520,   -961,  -6043,  -2139,    664,  -5031,   2005,   3533,  -5847,  -4756,    808,   6151,   2934,   3949,  -6784,  -5119,   4910,  -1605,  -3618,   -728,   5868,   2340,  -4629,    411,  -2778,  -3292,   6205,   3330,    -69,   5241,  -6034,  -5045,   -842,  -1515,  -1094,  -1275,  -6110,   3109,  -8621,  -4819,  -6437,   5357,   3986,    146,  -3399,  -6620,    314,  -4240,   4239,   4620,  -5626,  -5892,  -2868,  -4598,  -1638,  -3089,    115,    317,  -3215,   -961,   3423,   1404,  -6633,  -4273,   2643,  -1072,   3366,  -1922,   4018,  -2061,  -8337,  -2434,   3495,  -1990,   3971,   -209,   4785,  -4643,   3291,  -3617,  -3836,  -3163,   3286,  -3726,   8369,   -447,  -7079,  -7526,  -2850,   4569,   1342,  -2690,  -2700,  -2853,   1447,  -4694,  -6994,   -531,  -4674,   1906,  -2191,  -4068,  -6124,  -4172,    164,   4114,   6067,  -1371,  -5081,   5688,  -4305,  -8438,   3767,   3701,  -3045,  -2720,   1991,  -4323,  -8898,  -6609,   4248,   2381,   1735,   4774,   3320,   -271,   7316,    577,  -1254,    586,   2201,   2421,   2553,  -4181,  -7347,   1682,   -579,  -3021,   -243,   3301,  -3691,  -1276,   2240,   1141,    468,    822,  -2120,  -1509,  13507,   1376,  -5584,  -4133,  -2213,   2610,   3084,   4073,  -3689,   1437,  -3963,   1058,   1879,
         -8448,  -8125,   -389,   6890,  -4276,   -508,  -4844,   -206,   4209,   5433,   2558,    446,   2173,    111,   1490,  -4908,   1342,    957,   5703,    129,    179,  -2154,  -1876,  -5802,  -2018,   3520,    530,   4710,  -1852,  -2546,  -2088,  -3615,  -2874,    767,   1488,   8384,   -372,  -2225,  -5483,   2939,   1625,    628,   2373,   4949,   6259,   2759,   -858,   1634,    571,  -7824,   1594,  14946,   6924,  -3848,   3115,   1301,  -2937,   6344,    159,   5178,  -2660,  -2282,  -2473,  -1061,  -5937,  -7868,   -533,  13946,   5848,  -4470,   3637,  -4013,  -1257,   7583,   2007,   1113,  -2555,     -4,  -6417,  -3597,   4402,  -7180,  -4240,   6762,  -3943,  -4234,   3865,  -3453,  -4044,  -2760,  -1248,  -2051,   3691,  -2429,  -4763,   2452,    765,  -2051,  -1974,   6658,   3620,  -2359,   1366,  -3175,    762,   5056,   4261,   2119,   2293,   1136,  -5496,    601,  -1003,  -4033,  -4329,   8024,    714,   2740,   6504,   4507,   1737,   7563,  10321,   -511,   5251,   4669, -16365,   -448,   -991,  -3686,  -9637,   7425,   -549,   2715,   2332,   3417,   6299,   4787,   6313,   3974,   2693,   5149, -12625,   7772,   6520,  -9422,   -259,  12089,   4244,   1869,   3259,   2706,   -154,   2718,   3072,   4817,   8972,   8154, -12514,   1165,   3106,  -2097,   -363,   9495,   -422,  -1682,    654,  -5240,     56,  -2855,   3927,   1188,  -5345,   -835,  -1408,   3991,    484,   3018,   -105,  -3360,  -4629,   9341,   5133,  -3068,  -1167,   -587,    122,   5696,   -234,  -1347,   1664,   1966,   4397,    120,  -2198,    627,   1783,   4338,   3962,   1032,   3756,   6769,   2152,   4617,   8596,  -1889,  -3962,   7014,   1616,   -914,  -4563,  -4768,   3558,   2340,   5272,  -1083,   4020,   9588,   8051,    456,   7958,    169,  -6614,   4187,   4851,   2400,  -2591,   1340,  -3478,  -2532,   2582,  -4163,   1033,   2291,  10517,    301,    -37,  -3896,  -7378,   1700,  -4395,  -2621,  -1652,  -2609,   4658,  -1434,  -3997,  -6642,   2022,   7107,   6267,   2768,   1963,  -3364,  -9413,   -845,  -1076,  -6067,  -5867,   1681,   1483,    652,   -925,  -4113,  -2427,    780,    589,   1939,   -755,   1203,  -4203,  -2821,   3221,   -419,    -72,  -4891,    923,   4214,   -653,  -3885,    825,   1038,  -5132,   1802,  -3837,  -9569,  -9562,   5027,  -1316,  -6677,  -4824,  -9805,   -295,  -1168,   2231,   4495,    749,   3083,   7351,   5130,  -1835,   -753,  -8911,  -2048,   -209,  -4462,  -5393,  -4849,   3054,  -4805,   1870,    728,   -866,    908,   4502,  -3961,   1053,   3146,  -6753,   5760,  -1764,  -6514,  -1498,  -4197,   1628,   -915,  -3622,  -4091,  -3275,   5945,  -5649,    631,  -1555,  -2363,  -8503,  -2452,  -1307,    248,  -3596,  -6117,   3194,  -3504,   2875,   3965,   3779,   7428,   8735,   5505,  -1250,   4140,  -8237,  -2385,  -2826,  -5864,  -1947,  -1572,  -2142,  -5328,  -5156,    514,   4704,   5019,   4332,  -1949,   3453,  -1834,  -2682,     87,  -3785,  -3015,  -7438,   1177,  -5199,  -6518,   2033,   -370,   4480,   6148,   6972,   1788,  -3460,    560,  -5323,     -8,   1789,   2881,  -4843,  -2723,   4672,  -6881,  -2854,   -473,  -2171,   5066,   3553,  -1138,   5271,   3870,  -2605,   3175,  -3212,  -2427,  -6528,  -2488,  -4806,  -7522,   1174,   3682,     54,   2209,   5121,  -2724,   5369,   5504,  -8421,    907,   1757,   -828,  -5473,   6028,  -3042,  -6011,  -1986,   3326,   5578,   1776,   5726,   -611,   3660,  -4418, -12252,    919,  -5806,  -4632,  -3803,  -1518,    121,  -5895,     21,  -5914,   4904,   4912,   1718,   1600,   1379,  -3882,  -8680,   2729,  -2370,  -5977,   1115,   6703,   1828,  -4110,  -5435,  -4538,  -2853,  -2879,   1182,   4089,   1508,   -974,  -7532,  -5319,  -6342,   1227,  -4060,    233,  -5395,  -3440,   -643,    685,  -2750,   5239,   5830,  -1020,  -1647,  -4229,  -2435,   -998,  -6224,  -2386,   -239,   8210,  -2835,  -2220,   1663,   2018,  -2967,   3890,   1731,  -1720,   6484,  -5042,  -7721,   -639,  -2651,  -4956,   -905,   4803,   -564,   -720,  -3015,   2414,  -3582,   6761,   5466,   -107,   2138,    199, -10400,  -1207,
